<?xml version="1.0"?>
<opencv_storage>
<cascade>
  <stageType>BOOST</stageType>
  <featureType>HAAR</featureType>
  <height>24</height>
  <width>24</width>
  <stageParams>
    <boostType>GAB</boostType>
    <minHitRate>9.9500000476837158e-01</minHitRate>
    <maxFalseAlarm>5.0000000000000000e-01</maxFalseAlarm>
    <weightTrimRate>9.4999998807907104e-01</weightTrimRate>
    <maxDepth>1</maxDepth>
    <maxWeakCount>100</maxWeakCount></stageParams>
  <featureParams>
    <maxCatCount>0</maxCatCount>
    <featSize>1</featSize>
    <mode>BASIC</mode></featureParams>
  <stageNum>20</stageNum>
  <stages>
    <!-- stage 0 -->
    <_>
      <maxWeakCount>9</maxWeakCount>
      <stageThreshold>-8.3270853757858276e-01</stageThreshold>
      <weakClassifiers>
        <_>
          <internalNodes>
            0 -1 110 -2.7740988880395889e-03</internalNodes>
          <leafValues>
            6.9072163105010986e-01 -3.5881105065345764e-01</leafValues></_>
        <_>
          <internalNodes>
            0 -1 158 1.6789093613624573e-02</internalNodes>
          <leafValues>
            -2.3364920914173126e-01 8.4970259666442871e-01</leafValues></_>
        <_>
          <internalNodes>
            0 -1 234 5.0426078960299492e-03</internalNodes>
          <leafValues>
            -2.4643765389919281e-01 7.6204186677932739e-01</leafValues></_>
        <_>
          <internalNodes>
            0 -1 103 -6.3892476260662079e-02</internalNodes>
          <leafValues>
            6.4599388837814331e-01 -2.6992261409759521e-01</leafValues></_>
        <_>
          <internalNodes>
            0 -1 203 -1.7561012879014015e-02</internalNodes>
          <leafValues>
            7.7255225181579590e-01 -2.7445444464683533e-01</leafValues></_>
        <_>
          <internalNodes>
            0 -1 245 -4.0844483301043510e-03</internalNodes>
          <leafValues>
            7.1708869934082031e-01 -2.5247758626937866e-01</leafValues></_>
        <_>
          <internalNodes>
            0 -1 180 -2.2798884660005569e-02</internalNodes>
          <leafValues>
            8.0634820461273193e-01 -1.5501666069030762e-01</leafValues></_>
        <_>
          <internalNodes>
            0 -1 254 1.1816455051302910e-02</internalNodes>
          <leafValues>
            -2.4110330641269684e-01 6.4209431409835815e-01</leafValues></_>
        <_>
          <internalNodes>
            0 -1 83 -9.7078352700918913e-04</internalNodes>
          <leafValues>
            -9.1766303777694702e-01 2.2959768772125244e-01</leafValues></_></weakClassifiers></_>
    <!-- stage 1 -->
    <_>
      <maxWeakCount>9</maxWeakCount>
      <stageThreshold>-1.3922609090805054e+00</stageThreshold>
      <weakClassifiers>
        <_>
          <internalNodes>
            0 -1 167 -2.6003888342529535e-04</internalNodes>
          <leafValues>
            7.5815945863723755e-01 -1.0492505133152008e-01</leafValues></_>
        <_>
          <internalNodes>
            0 -1 199 -5.8959899470210075e-03</internalNodes>
          <leafValues>
            7.2203880548477173e-01 -1.5926226973533630e-01</leafValues></_>
        <_>
          <internalNodes>
            0 -1 158 1.9295739009976387e-02</internalNodes>
          <leafValues>
            -2.2859443724155426e-01 6.5744131803512573e-01</leafValues></_>
        <_>
          <internalNodes>
            0 -1 116 2.8144009411334991e-02</internalNodes>
          <leafValues>
            -2.2972095012664795e-01 7.7511465549468994e-01</leafValues></_>
        <_>
          <internalNodes>
            0 -1 13 -9.5197051763534546e-02</internalNodes>
          <leafValues>
            7.3905223608016968e-01 -2.6469832658767700e-01</leafValues></_>
        <_>
          <internalNodes>
            0 -1 4 1.3093861751258373e-02</internalNodes>
          <leafValues>
            -2.0744483172893524e-01 7.1651148796081543e-01</leafValues></_>
        <_>
          <internalNodes>
            0 -1 206 -2.2507948800921440e-02</internalNodes>
          <leafValues>
            7.7034485340118408e-01 -1.8670137226581573e-01</leafValues></_>
        <_>
          <internalNodes>
            0 -1 84 1.0164440609514713e-03</internalNodes>
          <leafValues>
            2.3145286738872528e-01 -7.6723897457122803e-01</leafValues></_>
        <_>
          <internalNodes>
            0 -1 1 -2.8727075457572937e-01</internalNodes>
          <leafValues>
            6.6628277301788330e-01 -2.4742531776428223e-01</leafValues></_></weakClassifiers></_>
    <!-- stage 2 -->
    <_>
      <maxWeakCount>10</maxWeakCount>
      <stageThreshold>-7.7533555030822754e-01</stageThreshold>
      <weakClassifiers>
        <_>
          <internalNodes>
            0 -1 109 -1.5184246003627777e-02</internalNodes>
          <leafValues>
            -6.4640885591506958e-01 5.1719397306442261e-01</leafValues></_>
        <_>
          <internalNodes>
            0 -1 165 9.1544911265373230e-03</internalNodes>
          <leafValues>
            -2.1001520752906799e-01 8.7020766735076904e-01</leafValues></_>
        <_>
          <internalNodes>
            0 -1 248 2.7609898097580299e-05</internalNodes>
          <leafValues>
            -3.6597162485122681e-01 4.6511179208755493e-01</leafValues></_>
        <_>
          <internalNodes>
            0 -1 166 6.9129690527915955e-03</internalNodes>
          <leafValues>
            -2.8273093700408936e-01 7.0969164371490479e-01</leafValues></_>
        <_>
          <internalNodes>
            0 -1 46 2.8452101105358452e-05</internalNodes>
          <leafValues>
            -2.6454636454582214e-01 5.2997291088104248e-01</leafValues></_>
        <_>
          <internalNodes>
            0 -1 140 1.6470978036522865e-02</internalNodes>
          <leafValues>
            -2.8815859556198120e-01 5.6386452913284302e-01</leafValues></_>
        <_>
          <internalNodes>
            0 -1 246 -7.0549347437918186e-03</internalNodes>
          <leafValues>
            7.6279932260513306e-01 -1.7481210827827454e-01</leafValues></_>
        <_>
          <internalNodes>
            0 -1 197 5.5300421081483364e-03</internalNodes>
          <leafValues>
            -1.9128128886222839e-01 6.6831099987030029e-01</leafValues></_>
        <_>
          <internalNodes>
            0 -1 186 7.0038959383964539e-03</internalNodes>
          <leafValues>
            -1.8354998528957367e-01 7.3886901140213013e-01</leafValues></_>
        <_>
          <internalNodes>
            0 -1 72 -9.9985138513147831e-04</internalNodes>
          <leafValues>
            -8.6175149679183960e-01 2.0653674006462097e-01</leafValues></_></weakClassifiers></_>
    <!-- stage 3 -->
    <_>
      <maxWeakCount>12</maxWeakCount>
      <stageThreshold>-7.8201442956924438e-01</stageThreshold>
      <weakClassifiers>
        <_>
          <internalNodes>
            0 -1 74 1.1317101307213306e-03</internalNodes>
          <leafValues>
            5.1245790719985962e-01 -8.3999997377395630e-01</leafValues></_>
        <_>
          <internalNodes>
            0 -1 270 -1.0185305029153824e-02</internalNodes>
          <leafValues>
            7.2931289672851563e-01 -2.1702730655670166e-01</leafValues></_>
        <_>
          <internalNodes>
            0 -1 67 -4.2176816350547597e-05</internalNodes>
          <leafValues>
            3.5737234354019165e-01 -4.7709536552429199e-01</leafValues></_>
        <_>
          <internalNodes>
            0 -1 239 1.1385953053832054e-02</internalNodes>
          <leafValues>
            -2.5766801834106445e-01 6.8762296438217163e-01</leafValues></_>
        <_>
          <internalNodes>
            0 -1 266 -4.3810629285871983e-03</internalNodes>
          <leafValues>
            6.7445486783981323e-01 -1.8549281358718872e-01</leafValues></_>
        <_>
          <internalNodes>
            0 -1 198 7.1639446541666985e-03</internalNodes>
          <leafValues>
            -2.3455080389976501e-01 6.2978619337081909e-01</leafValues></_>
        <_>
          <internalNodes>
            0 -1 36 9.0244784951210022e-02</internalNodes>
          <leafValues>
            -1.9683180749416351e-01 6.9045698642730713e-01</leafValues></_>
        <_>
          <internalNodes>
            0 -1 29 4.2115062475204468e-02</internalNodes>
          <leafValues>
            -3.7002077698707581e-01 5.6648677587509155e-01</leafValues></_>
        <_>
          <internalNodes>
            0 -1 97 5.5610376875847578e-05</internalNodes>
          <leafValues>
            -3.1944870948791504e-01 4.2720237374305725e-01</leafValues></_>
        <_>
          <internalNodes>
            0 -1 138 -3.5061257221968845e-05</internalNodes>
          <leafValues>
            2.7280431985855103e-01 -4.8513096570968628e-01</leafValues></_>
        <_>
          <internalNodes>
            0 -1 249 5.3672422654926777e-03</internalNodes>
          <leafValues>
            -1.9043642282485962e-01 7.6388382911682129e-01</leafValues></_>
        <_>
          <internalNodes>
            0 -1 47 -1.0786085622385144e-03</internalNodes>
          <leafValues>
            -7.5264453887939453e-01 1.9580037891864777e-01</leafValues></_></weakClassifiers></_>
    <!-- stage 4 -->
    <_>
      <maxWeakCount>12</maxWeakCount>
      <stageThreshold>-8.9436066150665283e-01</stageThreshold>
      <weakClassifiers>
        <_>
          <internalNodes>
            0 -1 163 1.4642017049482092e-05</internalNodes>
          <leafValues>
            1.3440860202535987e-03 7.1156007051467896e-01</leafValues></_>
        <_>
          <internalNodes>
            0 -1 271 -1.0862395167350769e-02</internalNodes>
          <leafValues>
            5.7758021354675293e-01 -1.8402980268001556e-01</leafValues></_>
        <_>
          <internalNodes>
            0 -1 87 -2.7466314350022003e-05</internalNodes>
          <leafValues>
            4.0299490094184875e-01 -3.2214090228080750e-01</leafValues></_>
        <_>
          <internalNodes>
            0 -1 9 6.8543376401066780e-03</internalNodes>
          <leafValues>
            -2.6731038093566895e-01 5.5029672384262085e-01</leafValues></_>
        <_>
          <internalNodes>
            0 -1 224 -2.1970083937048912e-02</internalNodes>
          <leafValues>
            6.6118532419204712e-01 -2.2141663730144501e-01</leafValues></_>
        <_>
          <internalNodes>
            0 -1 225 3.0982145108282566e-03</internalNodes>
          <leafValues>
            1.9350203871726990e-01 -8.0085563659667969e-01</leafValues></_>
        <_>
          <internalNodes>
            0 -1 237 -1.6497975587844849e-01</internalNodes>
          <leafValues>
            -6.6401869058609009e-01 1.9030603766441345e-01</leafValues></_>
        <_>
          <internalNodes>
            0 -1 149 -5.6605143472552299e-03</internalNodes>
          <leafValues>
            6.6443186998367310e-01 -2.2078107297420502e-01</leafValues></_>
        <_>
          <internalNodes>
            0 -1 188 1.3939075870439410e-03</internalNodes>
          <leafValues>
            -2.4786080420017242e-01 5.7341283559799194e-01</leafValues></_>
        <_>
          <internalNodes>
            0 -1 231 -3.9138161810114980e-05</internalNodes>
          <leafValues>
            4.0691789984703064e-01 -3.0678460001945496e-01</leafValues></_>
        <_>
          <internalNodes>
            0 -1 261 -5.9640991821652278e-05</internalNodes>
          <leafValues>
            4.4800066947937012e-01 -2.8170305490493774e-01</leafValues></_>
        <_>
          <internalNodes>
            0 -1 251 -4.9432450905442238e-03</internalNodes>
          <leafValues>
            7.7251446247100830e-01 -1.6488578915596008e-01</leafValues></_></weakClassifiers></_>
    <!-- stage 5 -->
    <_>
      <maxWeakCount>12</maxWeakCount>
      <stageThreshold>-7.7833116054534912e-01</stageThreshold>
      <weakClassifiers>
        <_>
          <internalNodes>
            0 -1 143 8.1429621204733849e-03</internalNodes>
          <leafValues>
            5.0101149082183838e-01 -7.1052628755569458e-01</leafValues></_>
        <_>
          <internalNodes>
            0 -1 150 8.8222241029143333e-03</internalNodes>
          <leafValues>
            -1.8448889255523682e-01 6.6372460126876831e-01</leafValues></_>
        <_>
          <internalNodes>
            0 -1 126 -2.1624662913382053e-03</internalNodes>
          <leafValues>
            2.5095745921134949e-01 -5.7548743486404419e-01</leafValues></_>
        <_>
          <internalNodes>
            0 -1 95 -4.6524023637175560e-03</internalNodes>
          <leafValues>
            6.5989089012145996e-01 -1.9983896613121033e-01</leafValues></_>
        <_>
          <internalNodes>
            0 -1 73 -7.1186514105647802e-04</internalNodes>
          <leafValues>
            -8.9137154817581177e-01 1.2593424320220947e-01</leafValues></_>
        <_>
          <internalNodes>
            0 -1 217 1.7696656286716461e-03</internalNodes>
          <leafValues>
            -2.3785917460918427e-01 5.7050961256027222e-01</leafValues></_>
        <_>
          <internalNodes>
            0 -1 156 -3.2930169254541397e-03</internalNodes>
          <leafValues>
            5.7098072767257690e-01 -2.1991905570030212e-01</leafValues></_>
        <_>
          <internalNodes>
            0 -1 114 -3.0645922379335389e-05</internalNodes>
          <leafValues>
            3.3571150898933411e-01 -3.5070788860321045e-01</leafValues></_>
        <_>
          <internalNodes>
            0 -1 15 -2.3135423660278320e-02</internalNodes>
          <leafValues>
            4.8682692646980286e-01 -2.4907414615154266e-01</leafValues></_>
        <_>
          <internalNodes>
            0 -1 10 8.1731751561164856e-02</internalNodes>
          <leafValues>
            -1.5713419020175934e-01 8.4476494789123535e-01</leafValues></_>
        <_>
          <internalNodes>
            0 -1 121 -9.7393766045570374e-03</internalNodes>
          <leafValues>
            2.5666591525077820e-01 -5.2379012107849121e-01</leafValues></_>
        <_>
          <internalNodes>
            0 -1 132 -3.6923130392096937e-04</internalNodes>
          <leafValues>
            5.2125579118728638e-01 -2.2333410382270813e-01</leafValues></_></weakClassifiers></_>
    <!-- stage 6 -->
    <_>
      <maxWeakCount>12</maxWeakCount>
      <stageThreshold>-8.3216243982315063e-01</stageThreshold>
      <weakClassifiers>
        <_>
          <internalNodes>
            0 -1 106 -8.6139095947146416e-04</internalNodes>
          <leafValues>
            -6.7065870761871338e-01 5.0885558128356934e-01</leafValues></_>
        <_>
          <internalNodes>
            0 -1 148 4.3528518290258944e-05</internalNodes>
          <leafValues>
            -3.0018073320388794e-01 4.2881464958190918e-01</leafValues></_>
        <_>
          <internalNodes>
            0 -1 106 9.8173029255121946e-04</internalNodes>
          <leafValues>
            2.0706433057785034e-01 -7.8785610198974609e-01</leafValues></_>
        <_>
          <internalNodes>
            0 -1 233 5.8305691927671432e-03</internalNodes>
          <leafValues>
            -2.5254353880882263e-01 5.9953808784484863e-01</leafValues></_>
        <_>
          <internalNodes>
            0 -1 240 1.6599174588918686e-02</internalNodes>
          <leafValues>
            -2.4996803700923920e-01 5.2897739410400391e-01</leafValues></_>
        <_>
          <internalNodes>
            0 -1 241 -4.0349103510379791e-03</internalNodes>
          <leafValues>
            6.4444643259048462e-01 -1.8440276384353638e-01</leafValues></_>
        <_>
          <internalNodes>
            0 -1 50 9.7520068287849426e-02</internalNodes>
          <leafValues>
            -1.9701138138771057e-01 6.2969154119491577e-01</leafValues></_>
        <_>
          <internalNodes>
            0 -1 21 -7.5399905443191528e-02</internalNodes>
          <leafValues>
            4.4947427511215210e-01 -3.0250743031501770e-01</leafValues></_>
        <_>
          <internalNodes>
            0 -1 153 -1.3973997738503385e-05</internalNodes>
          <leafValues>
            3.8179942965507507e-01 -2.8336891531944275e-01</leafValues></_>
        <_>
          <internalNodes>
            0 -1 232 -3.2981068943627179e-04</internalNodes>
          <leafValues>
            4.2485538125038147e-01 -2.9250779747962952e-01</leafValues></_>
        <_>
          <internalNodes>
            0 -1 101 7.4201039969921112e-03</internalNodes>
          <leafValues>
            1.7745232582092285e-01 -7.4087953567504883e-01</leafValues></_>
        <_>
          <internalNodes>
            0 -1 44 2.6899725198745728e-03</internalNodes>
          <leafValues>
            -2.1433599293231964e-01 5.2977812290191650e-01</leafValues></_></weakClassifiers></_>
    <!-- stage 7 -->
    <_>
      <maxWeakCount>15</maxWeakCount>
      <stageThreshold>-9.1238141059875488e-01</stageThreshold>
      <weakClassifiers>
        <_>
          <internalNodes>
            0 -1 179 -5.2443630993366241e-03</internalNodes>
          <leafValues>
            7.2888016700744629e-01 9.0074583888053894e-02</leafValues></_>
        <_>
          <internalNodes>
            0 -1 213 4.2493501678109169e-03</internalNodes>
          <leafValues>
            -2.0586442947387695e-01 6.4602899551391602e-01</leafValues></_>
        <_>
          <internalNodes>
            0 -1 118 -7.5450204312801361e-03</internalNodes>
          <leafValues>
            -6.7782920598983765e-01 1.8885301053524017e-01</leafValues></_>
        <_>
          <internalNodes>
            0 -1 195 -2.8871661052107811e-03</internalNodes>
          <leafValues>
            4.7457084059715271e-01 -3.1031250953674316e-01</leafValues></_>
        <_>
          <internalNodes>
            0 -1 194 1.7996617825701833e-03</internalNodes>
          <leafValues>
            -1.4897124469280243e-01 5.6880736351013184e-01</leafValues></_>
        <_>
          <internalNodes>
            0 -1 59 -1.3681096024811268e-03</internalNodes>
          <leafValues>
            -8.3254587650299072e-01 1.3137125968933105e-01</leafValues></_>
        <_>
          <internalNodes>
            0 -1 284 2.1395399235188961e-03</internalNodes>
          <leafValues>
            -2.4233467876911163e-01 4.8526182770729065e-01</leafValues></_>
        <_>
          <internalNodes>
            0 -1 90 -1.8605771474540234e-03</internalNodes>
          <leafValues>
            -7.4238497018814087e-01 1.3060347735881805e-01</leafValues></_>
        <_>
          <internalNodes>
            0 -1 96 2.9741753824055195e-03</internalNodes>
          <leafValues>
            -2.1861958503723145e-01 5.0461769104003906e-01</leafValues></_>
        <_>
          <internalNodes>
            0 -1 79 -5.6662485003471375e-03</internalNodes>
          <leafValues>
            5.3647089004516602e-01 -2.0966939628124237e-01</leafValues></_>
        <_>
          <internalNodes>
            0 -1 184 1.6976088285446167e-02</internalNodes>
          <leafValues>
            1.2447652965784073e-01 -9.3870979547500610e-01</leafValues></_>
        <_>
          <internalNodes>
            0 -1 139 -2.4270182475447655e-03</internalNodes>
          <leafValues>
            5.0897747278213501e-01 -2.1134322881698608e-01</leafValues></_>
        <_>
          <internalNodes>
            0 -1 161 -2.0749967079609632e-03</internalNodes>
          <leafValues>
            4.3940103054046631e-01 -2.0961776375770569e-01</leafValues></_>
        <_>
          <internalNodes>
            0 -1 136 -9.6487782895565033e-02</internalNodes>
          <leafValues>
            -8.4959316253662109e-01 1.4570990204811096e-01</leafValues></_>
        <_>
          <internalNodes>
            0 -1 187 8.6860619485378265e-03</internalNodes>
          <leafValues>
            -1.8478541076183319e-01 6.1718797683715820e-01</leafValues></_></weakClassifiers></_>
    <!-- stage 8 -->
    <_>
      <maxWeakCount>12</maxWeakCount>
      <stageThreshold>-7.7621871232986450e-01</stageThreshold>
      <weakClassifiers>
        <_>
          <internalNodes>
            0 -1 81 2.5224830023944378e-03</internalNodes>
          <leafValues>
            5.0775456428527832e-01 -7.7631580829620361e-01</leafValues></_>
        <_>
          <internalNodes>
            0 -1 155 -2.9898106731707230e-05</internalNodes>
          <leafValues>
            3.7246605753898621e-01 -3.9612936973571777e-01</leafValues></_>
        <_>
          <internalNodes>
            0 -1 105 -1.3597228644357529e-05</internalNodes>
          <leafValues>
            2.5466528534889221e-01 -4.7805157303810120e-01</leafValues></_>
        <_>
          <internalNodes>
            0 -1 11 1.9696146249771118e-02</internalNodes>
          <leafValues>
            -2.0859926939010620e-01 6.9921487569808960e-01</leafValues></_>
        <_>
          <internalNodes>
            0 -1 49 5.7084955275058746e-02</internalNodes>
          <leafValues>
            -2.1491803228855133e-01 5.5868625640869141e-01</leafValues></_>
        <_>
          <internalNodes>
            0 -1 16 -3.7434756755828857e-02</internalNodes>
          <leafValues>
            5.7917249202728271e-01 -2.4882613122463226e-01</leafValues></_>
        <_>
          <internalNodes>
            0 -1 89 -9.1723480727523565e-04</internalNodes>
          <leafValues>
            -8.8352620601654053e-01 1.7874814569950104e-01</leafValues></_>
        <_>
          <internalNodes>
            0 -1 181 -3.2582317944616079e-03</internalNodes>
          <leafValues>
            3.8712632656097412e-01 -3.6657249927520752e-01</leafValues></_>
        <_>
          <internalNodes>
            0 -1 204 -1.0217388160526752e-02</internalNodes>
          <leafValues>
            -8.1577628850936890e-01 1.6679166257381439e-01</leafValues></_>
        <_>
          <internalNodes>
            0 -1 61 -6.0718308668583632e-04</internalNodes>
          <leafValues>
            -8.0112046003341675e-01 8.3600513637065887e-02</leafValues></_>
        <_>
          <internalNodes>
            0 -1 41 -1.0430178046226501e-01</internalNodes>
          <leafValues>
            5.6675738096237183e-01 -2.0802973210811615e-01</leafValues></_>
        <_>
          <internalNodes>
            0 -1 65 4.1473463177680969e-02</internalNodes>
          <leafValues>
            -2.5064852833747864e-01 4.6483793854713440e-01</leafValues></_></weakClassifiers></_>
    <!-- stage 9 -->
    <_>
      <maxWeakCount>15</maxWeakCount>
      <stageThreshold>-9.0636038780212402e-01</stageThreshold>
      <weakClassifiers>
        <_>
          <internalNodes>
            0 -1 91 7.3794770287349820e-04</internalNodes>
          <leafValues>
            4.9916079640388489e-01 -7.4570447206497192e-01</leafValues></_>
        <_>
          <internalNodes>
            0 -1 102 -4.4550636084750295e-04</internalNodes>
          <leafValues>
            2.6888614892959595e-01 -5.2005052566528320e-01</leafValues></_>
        <_>
          <internalNodes>
            0 -1 211 -6.3160648569464684e-03</internalNodes>
          <leafValues>
            5.0376427173614502e-01 -2.5201606750488281e-01</leafValues></_>
        <_>
          <internalNodes>
            0 -1 281 -1.3749101199209690e-03</internalNodes>
          <leafValues>
            -5.9878569841384888e-01 1.8062637746334076e-01</leafValues></_>
        <_>
          <internalNodes>
            0 -1 274 1.8279587384313345e-03</internalNodes>
          <leafValues>
            1.4704701304435730e-01 -6.4780759811401367e-01</leafValues></_>
        <_>
          <internalNodes>
            0 -1 283 2.5313729420304298e-03</internalNodes>
          <leafValues>
            -2.2169807553291321e-01 4.5222729444503784e-01</leafValues></_>
        <_>
          <internalNodes>
            0 -1 115 3.2371326815336943e-03</internalNodes>
          <leafValues>
            1.3858744502067566e-01 -7.2868734598159790e-01</leafValues></_>
        <_>
          <internalNodes>
            0 -1 170 -7.1039930917322636e-03</internalNodes>
          <leafValues>
            4.3832162022590637e-01 -2.1943050622940063e-01</leafValues></_>
        <_>
          <internalNodes>
            0 -1 212 7.3934951797127724e-03</internalNodes>
          <leafValues>
            -2.0814414322376251e-01 5.1978105306625366e-01</leafValues></_>
        <_>
          <internalNodes>
            0 -1 137 4.5374026522040367e-03</internalNodes>
          <leafValues>
            1.5836587548255920e-01 -8.5342508554458618e-01</leafValues></_>
        <_>
          <internalNodes>
            0 -1 134 3.8218513131141663e-02</internalNodes>
          <leafValues>
            8.7053328752517700e-02 -7.6075571775436401e-01</leafValues></_>
        <_>
          <internalNodes>
            0 -1 38 -3.7372793303802609e-04</internalNodes>
          <leafValues>
            -6.3698947429656982e-01 1.2313517183065414e-01</leafValues></_>
        <_>
          <internalNodes>
            0 -1 228 5.9933392331004143e-03</internalNodes>
          <leafValues>
            -2.0101408660411835e-01 4.6414431929588318e-01</leafValues></_>
        <_>
          <internalNodes>
            0 -1 152 6.3352375291287899e-03</internalNodes>
          <leafValues>
            1.5051244199275970e-01 -7.3644417524337769e-01</leafValues></_>
        <_>
          <internalNodes>
            0 -1 210 -8.0039296299219131e-03</internalNodes>
          <leafValues>
            5.0675350427627563e-01 -2.2636751830577850e-01</leafValues></_></weakClassifiers></_>
    <!-- stage 10 -->
    <_>
      <maxWeakCount>15</maxWeakCount>
      <stageThreshold>-8.9768326282501221e-01</stageThreshold>
      <weakClassifiers>
        <_>
          <internalNodes>
            0 -1 268 2.6529477909207344e-03</internalNodes>
          <leafValues>
            7.7953718602657318e-02 7.0147418975830078e-01</leafValues></_>
        <_>
          <internalNodes>
            0 -1 157 -7.5505312997847795e-04</internalNodes>
          <leafValues>
            3.9232045412063599e-01 -3.1507322192192078e-01</leafValues></_>
        <_>
          <internalNodes>
            0 -1 192 -1.1126511963084340e-03</internalNodes>
          <leafValues>
            3.6697328090667725e-01 -2.8280320763587952e-01</leafValues></_>
        <_>
          <internalNodes>
            0 -1 253 6.9116026163101196e-02</internalNodes>
          <leafValues>
            -1.4064396917819977e-01 7.2110140323638916e-01</leafValues></_>
        <_>
          <internalNodes>
            0 -1 2 9.3641914427280426e-02</internalNodes>
          <leafValues>
            -2.6824399828910828e-01 3.9426568150520325e-01</leafValues></_>
        <_>
          <internalNodes>
            0 -1 99 2.0355153828859329e-03</internalNodes>
          <leafValues>
            1.6404078900814056e-01 -6.2323904037475586e-01</leafValues></_>
        <_>
          <internalNodes>
            0 -1 75 8.3549365401268005e-02</internalNodes>
          <leafValues>
            -2.2076921164989471e-01 4.4040799140930176e-01</leafValues></_>
        <_>
          <internalNodes>
            0 -1 282 -5.3325770422816277e-03</internalNodes>
          <leafValues>
            6.0604226589202881e-01 -1.6321665048599243e-01</leafValues></_>
        <_>
          <internalNodes>
            0 -1 30 2.5793563574552536e-02</internalNodes>
          <leafValues>
            -1.3608279824256897e-01 6.6917264461517334e-01</leafValues></_>
        <_>
          <internalNodes>
            0 -1 60 -2.6458896172698587e-05</internalNodes>
          <leafValues>
            3.6476582288742065e-01 -3.6164045333862305e-01</leafValues></_>
        <_>
          <internalNodes>
            0 -1 93 -3.1278240494430065e-03</internalNodes>
          <leafValues>
            6.2715947628021240e-01 -1.7039316892623901e-01</leafValues></_>
        <_>
          <internalNodes>
            0 -1 71 -9.1352307936176658e-04</internalNodes>
          <leafValues>
            -7.4440795183181763e-01 1.7336571216583252e-01</leafValues></_>
        <_>
          <internalNodes>
            0 -1 54 -2.1610534191131592e-01</internalNodes>
          <leafValues>
            4.9986892938613892e-01 -2.3268474638462067e-01</leafValues></_>
        <_>
          <internalNodes>
            0 -1 40 -1.5892110764980316e-02</internalNodes>
          <leafValues>
            7.0815819501876831e-01 -1.3649310171604156e-01</leafValues></_>
        <_>
          <internalNodes>
            0 -1 173 1.2203538790345192e-02</internalNodes>
          <leafValues>
            -2.2996132075786591e-01 3.9645236730575562e-01</leafValues></_></weakClassifiers></_>
    <!-- stage 11 -->
    <_>
      <maxWeakCount>13</maxWeakCount>
      <stageThreshold>-7.6101189851760864e-01</stageThreshold>
      <weakClassifiers>
        <_>
          <internalNodes>
            0 -1 48 -1.4898660592734814e-02</internalNodes>
          <leafValues>
            6.5889060497283936e-01 -7.4571213917806745e-04</leafValues></_>
        <_>
          <internalNodes>
            0 -1 168 -1.3914620503783226e-03</internalNodes>
          <leafValues>
            4.6266093850135803e-01 -2.4615408480167389e-01</leafValues></_>
        <_>
          <internalNodes>
            0 -1 6 2.1344381384551525e-03</internalNodes>
          <leafValues>
            -2.2274738550186157e-01 4.9303141236305237e-01</leafValues></_>
        <_>
          <internalNodes>
            0 -1 77 -3.6663622595369816e-03</internalNodes>
          <leafValues>
            4.8481500148773193e-01 -2.3342323303222656e-01</leafValues></_>
        <_>
          <internalNodes>
            0 -1 64 2.9458790086209774e-03</internalNodes>
          <leafValues>
            -2.5907453894615173e-01 4.4428101181983948e-01</leafValues></_>
        <_>
          <internalNodes>
            0 -1 176 -7.6423317193984985e-02</internalNodes>
          <leafValues>
            5.5304431915283203e-01 -1.8414291739463806e-01</leafValues></_>
        <_>
          <internalNodes>
            0 -1 147 -1.3918306212872267e-03</internalNodes>
          <leafValues>
            2.3199239373207092e-01 -5.2600800991058350e-01</leafValues></_>
        <_>
          <internalNodes>
            0 -1 18 -3.6126747727394104e-03</internalNodes>
          <leafValues>
            3.3969154953956604e-01 -2.9737812280654907e-01</leafValues></_>
        <_>
          <internalNodes>
            0 -1 111 -3.2178238034248352e-02</internalNodes>
          <leafValues>
            -8.5504710674285889e-01 1.3016134500503540e-01</leafValues></_>
        <_>
          <internalNodes>
            0 -1 68 -1.4093346893787384e-02</internalNodes>
          <leafValues>
            -8.2177597284317017e-01 9.0092182159423828e-02</leafValues></_>
        <_>
          <internalNodes>
            0 -1 247 -6.3992990180850029e-03</internalNodes>
          <leafValues>
            5.4580616950988770e-01 -1.8257029354572296e-01</leafValues></_>
        <_>
          <internalNodes>
            0 -1 235 5.9036277234554291e-03</internalNodes>
          <leafValues>
            -2.0385836064815521e-01 6.3319659233093262e-01</leafValues></_>
        <_>
          <internalNodes>
            0 -1 223 5.9400692582130432e-02</internalNodes>
          <leafValues>
            -1.7799645662307739e-01 4.4638675451278687e-01</leafValues></_></weakClassifiers></_>
    <!-- stage 12 -->
    <_>
      <maxWeakCount>13</maxWeakCount>
      <stageThreshold>-5.5595684051513672e-01</stageThreshold>
      <weakClassifiers>
        <_>
          <internalNodes>
            0 -1 164 -2.4422857910394669e-02</internalNodes>
          <leafValues>
            -8.4536081552505493e-01 4.6618986129760742e-01</leafValues></_>
        <_>
          <internalNodes>
            0 -1 189 1.0246069170534611e-02</internalNodes>
          <leafValues>
            -1.7173090577125549e-01 5.8693647384643555e-01</leafValues></_>
        <_>
          <internalNodes>
            0 -1 227 1.1614392511546612e-02</internalNodes>
          <leafValues>
            -1.6251443326473236e-01 6.9238889217376709e-01</leafValues></_>
        <_>
          <internalNodes>
            0 -1 256 -1.1313304305076599e-02</internalNodes>
          <leafValues>
            -6.8463289737701416e-01 1.5490590035915375e-01</leafValues></_>
        <_>
          <internalNodes>
            0 -1 190 4.0779327973723412e-03</internalNodes>
          <leafValues>
            -2.0218397676944733e-01 6.0008239746093750e-01</leafValues></_>
        <_>
          <internalNodes>
            0 -1 215 -3.0737714841961861e-03</internalNodes>
          <leafValues>
            5.1444226503372192e-01 -1.8556222319602966e-01</leafValues></_>
        <_>
          <internalNodes>
            0 -1 222 7.0976773276925087e-03</internalNodes>
          <leafValues>
            1.3188911974430084e-01 -8.4105497598648071e-01</leafValues></_>
        <_>
          <internalNodes>
            0 -1 94 1.4428485883399844e-05</internalNodes>
          <leafValues>
            -3.1495755910873413e-01 2.9684871435165405e-01</leafValues></_>
        <_>
          <internalNodes>
            0 -1 35 -1.0064426809549332e-01</internalNodes>
          <leafValues>
            7.0580112934112549e-01 -1.4678545296192169e-01</leafValues></_>
        <_>
          <internalNodes>
            0 -1 130 5.1391730085015297e-03</internalNodes>
          <leafValues>
            1.4030104875564575e-01 -8.4000092744827271e-01</leafValues></_>
        <_>
          <internalNodes>
            0 -1 266 -6.2368540093302727e-03</internalNodes>
          <leafValues>
            6.4984983205795288e-01 -1.8321919441223145e-01</leafValues></_>
        <_>
          <internalNodes>
            0 -1 246 3.1079878099262714e-03</internalNodes>
          <leafValues>
            -2.3504866659641266e-01 4.4100645184516907e-01</leafValues></_>
        <_>
          <internalNodes>
            0 -1 257 1.6591374878771603e-04</internalNodes>
          <leafValues>
            -3.3296802639961243e-01 3.0320110917091370e-01</leafValues></_></weakClassifiers></_>
    <!-- stage 13 -->
    <_>
      <maxWeakCount>15</maxWeakCount>
      <stageThreshold>-6.8294048309326172e-01</stageThreshold>
      <weakClassifiers>
        <_>
          <internalNodes>
            0 -1 129 2.1958146244287491e-03</internalNodes>
          <leafValues>
            4.6273493766784668e-01 -8.5869562625885010e-01</leafValues></_>
        <_>
          <internalNodes>
            0 -1 31 1.7419720534235239e-03</internalNodes>
          <leafValues>
            -2.5943952798843384e-01 3.9276903867721558e-01</leafValues></_>
        <_>
          <internalNodes>
            0 -1 100 4.7419127076864243e-03</internalNodes>
          <leafValues>
            9.5594309270381927e-02 -8.4657120704650879e-01</leafValues></_>
        <_>
          <internalNodes>
            0 -1 259 -4.9462774768471718e-03</internalNodes>
          <leafValues>
            5.0954127311706543e-01 -1.8281136453151703e-01</leafValues></_>
        <_>
          <internalNodes>
            0 -1 260 -2.2776187397539616e-03</internalNodes>
          <leafValues>
            4.3718686699867249e-01 -1.9820654392242432e-01</leafValues></_>
        <_>
          <internalNodes>
            0 -1 242 3.2319254241883755e-03</internalNodes>
          <leafValues>
            -1.6939671337604523e-01 5.5063468217849731e-01</leafValues></_>
        <_>
          <internalNodes>
            0 -1 200 1.6696600141585805e-05</internalNodes>
          <leafValues>
            -4.9524033069610596e-01 2.3124080896377563e-01</leafValues></_>
        <_>
          <internalNodes>
            0 -1 144 2.0778242498636246e-02</internalNodes>
          <leafValues>
            1.1423663049936295e-01 -8.7399101257324219e-01</leafValues></_>
        <_>
          <internalNodes>
            0 -1 230 2.1585676819086075e-02</internalNodes>
          <leafValues>
            9.6637055277824402e-02 -7.8466266393661499e-01</leafValues></_>
        <_>
          <internalNodes>
            0 -1 78 -3.5724970512092113e-03</internalNodes>
          <leafValues>
            4.6974709630012512e-01 -2.1779775619506836e-01</leafValues></_>
        <_>
          <internalNodes>
            0 -1 43 3.3312714658677578e-03</internalNodes>
          <leafValues>
            -1.7032252252101898e-01 5.8442807197570801e-01</leafValues></_>
        <_>
          <internalNodes>
            0 -1 123 -2.3457263596355915e-03</internalNodes>
          <leafValues>
            -8.5007470846176147e-01 1.1399581283330917e-01</leafValues></_>
        <_>
          <internalNodes>
            0 -1 92 -2.6321522891521454e-03</internalNodes>
          <leafValues>
            4.7674733400344849e-01 -2.2207941114902496e-01</leafValues></_>
        <_>
          <internalNodes>
            0 -1 58 -7.3350651655346155e-04</internalNodes>
          <leafValues>
            -6.5682047605514526e-01 1.5480570495128632e-01</leafValues></_>
        <_>
          <internalNodes>
            0 -1 151 1.3009986141696572e-03</internalNodes>
          <leafValues>
            -2.1265374124050140e-01 4.6804758906364441e-01</leafValues></_></weakClassifiers></_>
    <!-- stage 14 -->
    <_>
      <maxWeakCount>20</maxWeakCount>
      <stageThreshold>-7.5045919418334961e-01</stageThreshold>
      <weakClassifiers>
        <_>
          <internalNodes>
            0 -1 98 -2.3465475067496300e-02</internalNodes>
          <leafValues>
            -7.9746836423873901e-01 4.4858610630035400e-01</leafValues></_>
        <_>
          <internalNodes>
            0 -1 258 6.0445405542850494e-03</internalNodes>
          <leafValues>
            -1.6445256769657135e-01 5.9040522575378418e-01</leafValues></_>
        <_>
          <internalNodes>
            0 -1 57 -7.5751617550849915e-03</internalNodes>
          <leafValues>
            4.5435827970504761e-01 -1.8414552509784698e-01</leafValues></_>
        <_>
          <internalNodes>
            0 -1 33 -1.5436854958534241e-01</internalNodes>
          <leafValues>
            6.8816667795181274e-01 -1.2998780608177185e-01</leafValues></_>
        <_>
          <internalNodes>
            0 -1 279 1.3998659327626228e-02</internalNodes>
          <leafValues>
            -1.4271081984043121e-01 5.5173426866531372e-01</leafValues></_>
        <_>
          <internalNodes>
            0 -1 14 -6.3286386430263519e-03</internalNodes>
          <leafValues>
            4.6864074468612671e-01 -2.0811063051223755e-01</leafValues></_>
        <_>
          <internalNodes>
            0 -1 273 -4.5183701440691948e-03</internalNodes>
          <leafValues>
            5.2102184295654297e-01 -1.6565740108489990e-01</leafValues></_>
        <_>
          <internalNodes>
            0 -1 265 -6.9754598662257195e-03</internalNodes>
          <leafValues>
            6.1584919691085815e-01 -1.4039508998394012e-01</leafValues></_>
        <_>
          <internalNodes>
            0 -1 55 -6.0809390561189502e-05</internalNodes>
          <leafValues>
            2.4932725727558136e-01 -3.3644166588783264e-01</leafValues></_>
        <_>
          <internalNodes>
            0 -1 288 1.4741222839802504e-03</internalNodes>
          <leafValues>
            1.4540402591228485e-01 -5.5001062154769897e-01</leafValues></_>
        <_>
          <internalNodes>
            0 -1 53 3.7125140428543091e-02</internalNodes>
          <leafValues>
            1.0271400213241577e-01 -6.9336545467376709e-01</leafValues></_>
        <_>
          <internalNodes>
            0 -1 262 -4.0923459455370903e-03</internalNodes>
          <leafValues>
            4.7771674394607544e-01 -1.6157123446464539e-01</leafValues></_>
        <_>
          <internalNodes>
            0 -1 276 2.7897674590349197e-03</internalNodes>
          <leafValues>
            -1.6429251432418823e-01 4.5601963996887207e-01</leafValues></_>
        <_>
          <internalNodes>
            0 -1 202 2.6140618138015270e-03</internalNodes>
          <leafValues>
            -9.6829868853092194e-02 6.8841683864593506e-01</leafValues></_>
        <_>
          <internalNodes>
            0 -1 25 5.5535533465445042e-03</internalNodes>
          <leafValues>
            1.0142469406127930e-01 -8.7836366891860962e-01</leafValues></_>
        <_>
          <internalNodes>
            0 -1 182 1.2500979006290436e-02</internalNodes>
          <leafValues>
            6.6488020122051239e-02 -8.8381195068359375e-01</leafValues></_>
        <_>
          <internalNodes>
            0 -1 133 -2.9909443110227585e-03</internalNodes>
          <leafValues>
            5.1815778017044067e-01 -1.5868479013442993e-01</leafValues></_>
        <_>
          <internalNodes>
            0 -1 174 -1.3029952533543110e-02</internalNodes>
          <leafValues>
            5.0085508823394775e-01 -1.4264532923698425e-01</leafValues></_>
        <_>
          <internalNodes>
            0 -1 172 -1.1531547643244267e-02</internalNodes>
          <leafValues>
            4.3807390332221985e-01 -1.4370673894882202e-01</leafValues></_>
        <_>
          <internalNodes>
            0 -1 285 -7.8837777255102992e-04</internalNodes>
          <leafValues>
            -5.3115367889404297e-01 1.4374479651451111e-01</leafValues></_></weakClassifiers></_>
    <!-- stage 15 -->
    <_>
      <maxWeakCount>20</maxWeakCount>
      <stageThreshold>-9.0588206052780151e-01</stageThreshold>
      <weakClassifiers>
        <_>
          <internalNodes>
            0 -1 24 3.8533357437700033e-03</internalNodes>
          <leafValues>
            4.6430909633636475e-01 -6.8518519401550293e-01</leafValues></_>
        <_>
          <internalNodes>
            0 -1 56 3.3046589232981205e-03</internalNodes>
          <leafValues>
            -3.4691697359085083e-01 3.1303146481513977e-01</leafValues></_>
        <_>
          <internalNodes>
            0 -1 272 -2.7985665947198868e-03</internalNodes>
          <leafValues>
            4.1458132863044739e-01 -2.3127785325050354e-01</leafValues></_>
        <_>
          <internalNodes>
            0 -1 62 7.8816810855641961e-04</internalNodes>
          <leafValues>
            1.0812417417764664e-01 -7.7950179576873779e-01</leafValues></_>
        <_>
          <internalNodes>
            0 -1 85 -3.2380063203163445e-05</internalNodes>
          <leafValues>
            2.0339891314506531e-01 -4.0218728780746460e-01</leafValues></_>
        <_>
          <internalNodes>
            0 -1 42 2.9536655638366938e-03</internalNodes>
          <leafValues>
            -1.3943855464458466e-01 6.0879349708557129e-01</leafValues></_>
        <_>
          <internalNodes>
            0 -1 66 2.2955075837671757e-03</internalNodes>
          <leafValues>
            -2.4505494534969330e-01 3.5193327069282532e-01</leafValues></_>
        <_>
          <internalNodes>
            0 -1 28 4.9017975106835365e-04</internalNodes>
          <leafValues>
            1.6859616339206696e-01 -4.4824856519699097e-01</leafValues></_>
        <_>
          <internalNodes>
            0 -1 236 -5.1356675103306770e-03</internalNodes>
          <leafValues>
            6.5400481224060059e-01 -1.3390579819679260e-01</leafValues></_>
        <_>
          <internalNodes>
            0 -1 236 3.1359908170998096e-03</internalNodes>
          <leafValues>
            -1.8180154263973236e-01 4.9305120110511780e-01</leafValues></_>
        <_>
          <internalNodes>
            0 -1 5 -2.2230286151170731e-02</internalNodes>
          <leafValues>
            5.2403020858764648e-01 -1.3889980316162109e-01</leafValues></_>
        <_>
          <internalNodes>
            0 -1 23 -3.1716369558125734e-03</internalNodes>
          <leafValues>
            -8.4318935871124268e-01 1.0861837118864059e-01</leafValues></_>
        <_>
          <internalNodes>
            0 -1 22 1.6438615322113037e-01</internalNodes>
          <leafValues>
            -1.6200868785381317e-01 4.9622350931167603e-01</leafValues></_>
        <_>
          <internalNodes>
            0 -1 32 -3.2837480306625366e-02</internalNodes>
          <leafValues>
            3.2465991377830505e-01 -2.8217098116874695e-01</leafValues></_>
        <_>
          <internalNodes>
            0 -1 17 3.8750618696212769e-02</internalNodes>
          <leafValues>
            -9.3076698482036591e-02 7.6750183105468750e-01</leafValues></_>
        <_>
          <internalNodes>
            0 -1 159 -1.7028786242008209e-03</internalNodes>
          <leafValues>
            3.4342712163925171e-01 -2.5429975986480713e-01</leafValues></_>
        <_>
          <internalNodes>
            0 -1 193 -8.9035439305007458e-04</internalNodes>
          <leafValues>
            4.6217554807662964e-01 -1.8383356928825378e-01</leafValues></_>
        <_>
          <internalNodes>
            0 -1 208 -2.3014466278254986e-03</internalNodes>
          <leafValues>
            4.8334196209907532e-01 -1.6723552346229553e-01</leafValues></_>
        <_>
          <internalNodes>
            0 -1 125 -2.0082693547010422e-02</internalNodes>
          <leafValues>
            -9.3123066425323486e-01 1.0291665792465210e-01</leafValues></_>
        <_>
          <internalNodes>
            0 -1 207 -6.4826514571905136e-03</internalNodes>
          <leafValues>
            5.0246280431747437e-01 -1.6891819238662720e-01</leafValues></_></weakClassifiers></_>
    <!-- stage 16 -->
    <_>
      <maxWeakCount>19</maxWeakCount>
      <stageThreshold>-7.0145624876022339e-01</stageThreshold>
      <weakClassifiers>
        <_>
          <internalNodes>
            0 -1 122 -4.0615946054458618e-02</internalNodes>
          <leafValues>
            -5.5056178569793701e-01 4.7186148166656494e-01</leafValues></_>
        <_>
          <internalNodes>
            0 -1 169 5.6434627622365952e-03</internalNodes>
          <leafValues>
            -1.0716774314641953e-01 6.4693206548690796e-01</leafValues></_>
        <_>
          <internalNodes>
            0 -1 141 1.6786692431196570e-03</internalNodes>
          <leafValues>
            -1.7769318819046021e-01 5.1361095905303955e-01</leafValues></_>
        <_>
          <internalNodes>
            0 -1 145 -3.1772324291523546e-05</internalNodes>
          <leafValues>
            1.7084363102912903e-01 -4.6389523148536682e-01</leafValues></_>
        <_>
          <internalNodes>
            0 -1 104 -8.8307410478591919e-03</internalNodes>
          <leafValues>
            -8.3738619089126587e-01 8.8666476309299469e-02</leafValues></_>
        <_>
          <internalNodes>
            0 -1 128 -2.9232213273644447e-03</internalNodes>
          <leafValues>
            3.7665510177612305e-01 -2.3464693129062653e-01</leafValues></_>
        <_>
          <internalNodes>
            0 -1 218 7.7235111966729164e-03</internalNodes>
          <leafValues>
            -1.7075921595096588e-01 5.3942233324050903e-01</leafValues></_>
        <_>
          <internalNodes>
            0 -1 275 -1.2130131013691425e-02</internalNodes>
          <leafValues>
            -5.7028770446777344e-01 1.4138513803482056e-01</leafValues></_>
        <_>
          <internalNodes>
            0 -1 287 4.7289975918829441e-04</internalNodes>
          <leafValues>
            1.2452472746372223e-01 -5.0950866937637329e-01</leafValues></_>
        <_>
          <internalNodes>
            0 -1 252 7.8674275428056717e-03</internalNodes>
          <leafValues>
            -1.6375616192817688e-01 4.4979757070541382e-01</leafValues></_>
        <_>
          <internalNodes>
            0 -1 226 5.3047910332679749e-03</internalNodes>
          <leafValues>
            1.0879570245742798e-01 -7.0730835199356079e-01</leafValues></_>
        <_>
          <internalNodes>
            0 -1 3 -8.9594386518001556e-03</internalNodes>
          <leafValues>
            4.4033902883529663e-01 -1.6744272410869598e-01</leafValues></_>
        <_>
          <internalNodes>
            0 -1 120 5.7628618378657848e-05</internalNodes>
          <leafValues>
            -2.4583080410957336e-01 2.8018665313720703e-01</leafValues></_>
        <_>
          <internalNodes>
            0 -1 290 -6.4893392845988274e-04</internalNodes>
          <leafValues>
            -6.0670846700668335e-01 1.0771504789590836e-01</leafValues></_>
        <_>
          <internalNodes>
            0 -1 108 4.3769460171461105e-03</internalNodes>
          <leafValues>
            -1.9422854483127594e-01 3.7772551178932190e-01</leafValues></_>
        <_>
          <internalNodes>
            0 -1 20 -3.2225446775555611e-03</internalNodes>
          <leafValues>
            -7.9234009981155396e-01 1.0563618689775467e-01</leafValues></_>
        <_>
          <internalNodes>
            0 -1 280 2.3883250541985035e-03</internalNodes>
          <leafValues>
            -1.7237710952758789e-01 4.7449225187301636e-01</leafValues></_>
        <_>
          <internalNodes>
            0 -1 131 -5.8455858379602432e-04</internalNodes>
          <leafValues>
            4.9244314432144165e-01 -1.4695960283279419e-01</leafValues></_>
        <_>
          <internalNodes>
            0 -1 113 1.2008734047412872e-03</internalNodes>
          <leafValues>
            9.2576913535594940e-02 -8.7881511449813843e-01</leafValues></_></weakClassifiers></_>
    <!-- stage 17 -->
    <_>
      <maxWeakCount>19</maxWeakCount>
      <stageThreshold>-6.3347005844116211e-01</stageThreshold>
      <weakClassifiers>
        <_>
          <internalNodes>
            0 -1 229 6.8684003781527281e-04</internalNodes>
          <leafValues>
            1.3667285442352295e-01 6.3460373878479004e-01</leafValues></_>
        <_>
          <internalNodes>
            0 -1 146 -2.3717705626040697e-03</internalNodes>
          <leafValues>
            2.1362181007862091e-01 -3.9446097612380981e-01</leafValues></_>
        <_>
          <internalNodes>
            0 -1 107 2.4541586637496948e-02</internalNodes>
          <leafValues>
            -1.3318908214569092e-01 5.5002480745315552e-01</leafValues></_>
        <_>
          <internalNodes>
            0 -1 269 -1.7789203673601151e-02</internalNodes>
          <leafValues>
            4.3537232279777527e-01 -2.1683256328105927e-01</leafValues></_>
        <_>
          <internalNodes>
            0 -1 27 -7.7614169567823410e-03</internalNodes>
          <leafValues>
            -5.4755920171737671e-01 1.4047129452228546e-01</leafValues></_>
        <_>
          <internalNodes>
            0 -1 45 7.4166581034660339e-02</internalNodes>
          <leafValues>
            -8.0860100686550140e-02 9.6067726612091064e-01</leafValues></_>
        <_>
          <internalNodes>
            0 -1 154 -4.3520685721887276e-05</internalNodes>
          <leafValues>
            1.9658613204956055e-01 -6.2330800294876099e-01</leafValues></_>
        <_>
          <internalNodes>
            0 -1 117 3.0791494064033031e-03</internalNodes>
          <leafValues>
            -1.6932038962841034e-01 3.9347872138023376e-01</leafValues></_>
        <_>
          <internalNodes>
            0 -1 39 -1.2382598221302032e-01</internalNodes>
          <leafValues>
            9.5983397960662842e-01 -8.8400788605213165e-02</leafValues></_>
        <_>
          <internalNodes>
            0 -1 88 -6.4250396098941565e-04</internalNodes>
          <leafValues>
            -7.3322129249572754e-01 1.1299763619899750e-01</leafValues></_>
        <_>
          <internalNodes>
            0 -1 264 -3.4039025194942951e-05</internalNodes>
          <leafValues>
            2.3729456961154938e-01 -2.9968944191932678e-01</leafValues></_>
        <_>
          <internalNodes>
            0 -1 263 7.6691601425409317e-03</internalNodes>
          <leafValues>
            -1.1711445450782776e-01 5.6446957588195801e-01</leafValues></_>
        <_>
          <internalNodes>
            0 -1 243 -2.7469452470541000e-03</internalNodes>
          <leafValues>
            3.4606614708900452e-01 -2.3265650868415833e-01</leafValues></_>
        <_>
          <internalNodes>
            0 -1 76 -3.0404468998312950e-04</internalNodes>
          <leafValues>
            2.9628521203994751e-01 -2.2727459669113159e-01</leafValues></_>
        <_>
          <internalNodes>
            0 -1 238 -2.2443872876465321e-03</internalNodes>
          <leafValues>
            -6.8224430084228516e-01 1.1733178049325943e-01</leafValues></_>
        <_>
          <internalNodes>
            0 -1 86 -3.9087901823222637e-03</internalNodes>
          <leafValues>
            -7.9019713401794434e-01 6.6077068448066711e-02</leafValues></_>
        <_>
          <internalNodes>
            0 -1 171 7.5363982468843460e-03</internalNodes>
          <leafValues>
            -1.3869081437587738e-01 4.7513717412948608e-01</leafValues></_>
        <_>
          <internalNodes>
            0 -1 201 -4.5890463516116142e-03</internalNodes>
          <leafValues>
            4.4521245360374451e-01 -1.8754512071609497e-01</leafValues></_>
        <_>
          <internalNodes>
            0 -1 82 -1.2141350656747818e-02</internalNodes>
          <leafValues>
            -7.6729238033294678e-01 8.8480569422245026e-02</leafValues></_></weakClassifiers></_>
    <!-- stage 18 -->
    <_>
      <maxWeakCount>24</maxWeakCount>
      <stageThreshold>-8.8950306177139282e-01</stageThreshold>
      <weakClassifiers>
        <_>
          <internalNodes>
            0 -1 80 1.7858378123492002e-03</internalNodes>
          <leafValues>
            4.6951016783714294e-01 -5.1672863960266113e-01</leafValues></_>
        <_>
          <internalNodes>
            0 -1 7 5.0498496741056442e-02</internalNodes>
          <leafValues>
            -8.6145736277103424e-02 7.0406013727188110e-01</leafValues></_>
        <_>
          <internalNodes>
            0 -1 124 1.1897953227162361e-03</internalNodes>
          <leafValues>
            -3.1901589035987854e-01 2.6334199309349060e-01</leafValues></_>
        <_>
          <internalNodes>
            0 -1 278 1.5709892613813281e-04</internalNodes>
          <leafValues>
            -2.8421533107757568e-01 2.5212112069129944e-01</leafValues></_>
        <_>
          <internalNodes>
            0 -1 267 -1.7456997185945511e-02</internalNodes>
          <leafValues>
            3.9272618293762207e-01 -1.9439423084259033e-01</leafValues></_>
        <_>
          <internalNodes>
            0 -1 34 -1.4264991506934166e-02</internalNodes>
          <leafValues>
            2.9498851299285889e-01 -2.4398492276668549e-01</leafValues></_>
        <_>
          <internalNodes>
            0 -1 286 1.6963530797511339e-03</internalNodes>
          <leafValues>
            1.3167202472686768e-01 -4.8335602879524231e-01</leafValues></_>
        <_>
          <internalNodes>
            0 -1 8 8.3302289247512817e-02</internalNodes>
          <leafValues>
            1.0714376717805862e-01 -6.8698167800903320e-01</leafValues></_>
        <_>
          <internalNodes>
            0 -1 119 -3.1983968801796436e-04</internalNodes>
          <leafValues>
            3.5760614275932312e-01 -2.0184257626533508e-01</leafValues></_>
        <_>
          <internalNodes>
            0 -1 51 3.1173139810562134e-01</internalNodes>
          <leafValues>
            -1.0217143595218658e-01 7.6351797580718994e-01</leafValues></_>
        <_>
          <internalNodes>
            0 -1 26 3.0549206712748855e-05</internalNodes>
          <leafValues>
            -2.2210375964641571e-01 3.0401420593261719e-01</leafValues></_>
        <_>
          <internalNodes>
            0 -1 149 -5.9070102870464325e-03</internalNodes>
          <leafValues>
            5.0215071439743042e-01 -1.1501298844814301e-01</leafValues></_>
        <_>
          <internalNodes>
            0 -1 160 3.6090947687625885e-03</internalNodes>
          <leafValues>
            1.1478455364704132e-01 -5.9481072425842285e-01</leafValues></_>
        <_>
          <internalNodes>
            0 -1 70 -3.3027961850166321e-02</internalNodes>
          <leafValues>
            -6.8523222208023071e-01 8.5868529975414276e-02</leafValues></_>
        <_>
          <internalNodes>
            0 -1 142 -2.2376689594238997e-03</internalNodes>
          <leafValues>
            3.2082551717758179e-01 -2.0616224408149719e-01</leafValues></_>
        <_>
          <internalNodes>
            0 -1 177 -4.2983694002032280e-03</internalNodes>
          <leafValues>
            3.4405469894409180e-01 -1.9131924211978912e-01</leafValues></_>
        <_>
          <internalNodes>
            0 -1 209 -2.8048381209373474e-02</internalNodes>
          <leafValues>
            5.6408798694610596e-01 -1.3005226850509644e-01</leafValues></_>
        <_>
          <internalNodes>
            0 -1 244 -7.1963025256991386e-03</internalNodes>
          <leafValues>
            4.9906283617019653e-01 -1.2342881411314011e-01</leafValues></_>
        <_>
          <internalNodes>
            0 -1 214 7.7930362895131111e-03</internalNodes>
          <leafValues>
            -1.5029945969581604e-01 4.0310862660408020e-01</leafValues></_>
        <_>
          <internalNodes>
            0 -1 175 -1.6931470483541489e-02</internalNodes>
          <leafValues>
            -7.2465807199478149e-01 1.0372605919837952e-01</leafValues></_>
        <_>
          <internalNodes>
            0 -1 255 3.1456820666790009e-02</internalNodes>
          <leafValues>
            7.7828101813793182e-02 -7.1791076660156250e-01</leafValues></_>
        <_>
          <internalNodes>
            0 -1 19 3.6176820285618305e-03</internalNodes>
          <leafValues>
            6.3216432929039001e-02 -8.5085678100585938e-01</leafValues></_>
        <_>
          <internalNodes>
            0 -1 37 -1.3469144701957703e-02</internalNodes>
          <leafValues>
            3.9685016870498657e-01 -1.6571265459060669e-01</leafValues></_>
        <_>
          <internalNodes>
            0 -1 63 -2.4575158022344112e-03</internalNodes>
          <leafValues>
            -7.7200144529342651e-01 8.6034961044788361e-02</leafValues></_></weakClassifiers></_>
    <!-- stage 19 -->
    <_>
      <maxWeakCount>21</maxWeakCount>
      <stageThreshold>-6.6624802350997925e-01</stageThreshold>
      <weakClassifiers>
        <_>
          <internalNodes>
            0 -1 12 1.9309289753437042e-02</internalNodes>
          <leafValues>
            2.2569738328456879e-01 8.1415927410125732e-01</leafValues></_>
        <_>
          <internalNodes>
            0 -1 183 -8.9401064906269312e-04</internalNodes>
          <leafValues>
            4.4733536243438721e-01 -1.2333440035581589e-01</leafValues></_>
        <_>
          <internalNodes>
            0 -1 191 -4.1810492984950542e-03</internalNodes>
          <leafValues>
            3.6460942029953003e-01 -2.7469494938850403e-01</leafValues></_>
        <_>
          <internalNodes>
            0 -1 162 -3.0717369168996811e-02</internalNodes>
          <leafValues>
            -7.0024257898330688e-01 1.2250861525535583e-01</leafValues></_>
        <_>
          <internalNodes>
            0 -1 216 3.1562583171762526e-04</internalNodes>
          <leafValues>
            -3.3778676390647888e-01 1.9881623983383179e-01</leafValues></_>
        <_>
          <internalNodes>
            0 -1 185 8.7472889572381973e-03</internalNodes>
          <leafValues>
            -1.6890925168991089e-01 5.3205376863479614e-01</leafValues></_>
        <_>
          <internalNodes>
            0 -1 221 -3.7394906394183636e-03</internalNodes>
          <leafValues>
            3.1634896993637085e-01 -2.2315119206905365e-01</leafValues></_>
        <_>
          <internalNodes>
            0 -1 220 2.0367674529552460e-02</internalNodes>
          <leafValues>
            -1.3009379804134369e-01 5.3992396593093872e-01</leafValues></_>
        <_>
          <internalNodes>
            0 -1 250 -1.1185715906322002e-02</internalNodes>
          <leafValues>
            5.3336566686630249e-01 -1.2337238341569901e-01</leafValues></_>
        <_>
          <internalNodes>
            0 -1 69 1.3092895969748497e-02</internalNodes>
          <leafValues>
            9.3303032219409943e-02 -9.3204426765441895e-01</leafValues></_>
        <_>
          <internalNodes>
            0 -1 289 -8.7730155792087317e-04</internalNodes>
          <leafValues>
            -6.1054891347885132e-01 9.8450541496276855e-02</leafValues></_>
        <_>
          <internalNodes>
            0 -1 277 8.9155789464712143e-04</internalNodes>
          <leafValues>
            -2.1668039262294769e-01 3.2505124807357788e-01</leafValues></_>
        <_>
          <internalNodes>
            0 -1 219 -5.4004546254873276e-03</internalNodes>
          <leafValues>
            -5.1198107004165649e-01 1.6142812371253967e-01</leafValues></_>
        <_>
          <internalNodes>
            0 -1 135 -3.7511520087718964e-02</internalNodes>
          <leafValues>
            -7.5445365905761719e-01 9.5647253096103668e-02</leafValues></_>
        <_>
          <internalNodes>
            0 -1 205 -1.2705666944384575e-02</internalNodes>
          <leafValues>
            -5.9321218729019165e-01 9.9364146590232849e-02</leafValues></_>
        <_>
          <internalNodes>
            0 -1 52 -4.5499537140130997e-02</internalNodes>
          <leafValues>
            -6.7751383781433105e-01 9.0786680579185486e-02</leafValues></_>
        <_>
          <internalNodes>
            0 -1 196 1.3482803478837013e-04</internalNodes>
          <leafValues>
            -2.4149657785892487e-01 2.8241693973541260e-01</leafValues></_>
        <_>
          <internalNodes>
            0 -1 178 -9.6353366971015930e-03</internalNodes>
          <leafValues>
            -8.0176907777786255e-01 8.9390486478805542e-02</leafValues></_>
        <_>
          <internalNodes>
            0 -1 0 -1.2644112575799227e-03</internalNodes>
          <leafValues>
            -4.7429409623146057e-01 1.1774693429470062e-01</leafValues></_>
        <_>
          <internalNodes>
            0 -1 127 1.8423929810523987e-02</internalNodes>
          <leafValues>
            7.3171943426132202e-02 -8.3266007900238037e-01</leafValues></_>
        <_>
          <internalNodes>
            0 -1 112 -1.7112796194851398e-04</internalNodes>
          <leafValues>
            1.2698021531105042e-01 -4.7122848033905029e-01</leafValues></_></weakClassifiers></_></stages>
  <features>
    <_>
      <rects>
        <_>
          0 0 6 3 -1.</_>
        <_>
          0 1 6 1 3.</_></rects>
      <tilted>0</tilted></_>
    <_>
      <rects>
        <_>
          0 0 19 24 -1.</_>
        <_>
          0 8 19 8 3.</_></rects>
      <tilted>0</tilted></_>
    <_>
      <rects>
        <_>
          0 1 7 21 -1.</_>
        <_>
          0 8 7 7 3.</_></rects>
      <tilted>0</tilted></_>
    <_>
      <rects>
        <_>
          0 3 4 10 -1.</_>
        <_>
          0 3 2 5 2.</_>
        <_>
          2 8 2 5 2.</_></rects>
      <tilted>0</tilted></_>
    <_>
      <rects>
        <_>
          0 3 10 4 -1.</_>
        <_>
          0 3 5 2 2.</_>
        <_>
          5 5 5 2 2.</_></rects>
      <tilted>0</tilted></_>
    <_>
      <rects>
        <_>
          0 4 6 10 -1.</_>
        <_>
          0 4 3 5 2.</_>
        <_>
          3 9 3 5 2.</_></rects>
      <tilted>0</tilted></_>
    <_>
      <rects>
        <_>
          0 5 2 8 -1.</_>
        <_>
          1 5 1 8 2.</_></rects>
      <tilted>0</tilted></_>
    <_>
      <rects>
        <_>
          0 6 5 10 -1.</_>
        <_>
          0 11 5 5 2.</_></rects>
      <tilted>0</tilted></_>
    <_>
      <rects>
        <_>
          0 6 20 10 -1.</_>
        <_>
          10 6 10 10 2.</_></rects>
      <tilted>0</tilted></_>
    <_>
      <rects>
        <_>
          0 7 8 1 -1.</_>
        <_>
          4 7 4 1 2.</_></rects>
      <tilted>0</tilted></_>
    <_>
      <rects>
        <_>
          0 7 10 8 -1.</_>
        <_>
          5 7 5 8 2.</_></rects>
      <tilted>0</tilted></_>
    <_>
      <rects>
        <_>
          0 8 2 10 -1.</_>
        <_>
          0 13 2 5 2.</_></rects>
      <tilted>0</tilted></_>
    <_>
      <rects>
        <_>
          0 9 3 8 -1.</_>
        <_>
          0 13 3 4 2.</_></rects>
      <tilted>0</tilted></_>
    <_>
      <rects>
        <_>
          0 9 6 14 -1.</_>
        <_>
          0 16 6 7 2.</_></rects>
      <tilted>0</tilted></_>
    <_>
      <rects>
        <_>
          0 10 1 8 -1.</_>
        <_>
          0 14 1 4 2.</_></rects>
      <tilted>0</tilted></_>
    <_>
      <rects>
        <_>
          0 10 2 12 -1.</_>
        <_>
          0 16 2 6 2.</_></rects>
      <tilted>0</tilted></_>
    <_>
      <rects>
        <_>
          0 10 2 14 -1.</_>
        <_>
          0 17 2 7 2.</_></rects>
      <tilted>0</tilted></_>
    <_>
      <rects>
        <_>
          0 10 10 4 -1.</_>
        <_>
          5 10 5 4 2.</_></rects>
      <tilted>0</tilted></_>
    <_>
      <rects>
        <_>
          0 11 12 6 -1.</_>
        <_>
          4 11 4 6 3.</_></rects>
      <tilted>0</tilted></_>
    <_>
      <rects>
        <_>
          0 12 4 3 -1.</_>
        <_>
          0 13 4 1 3.</_></rects>
      <tilted>0</tilted></_>
    <_>
      <rects>
        <_>
          0 12 5 3 -1.</_>
        <_>
          0 13 5 1 3.</_></rects>
      <tilted>0</tilted></_>
    <_>
      <rects>
        <_>
          0 12 7 12 -1.</_>
        <_>
          0 18 7 6 2.</_></rects>
      <tilted>0</tilted></_>
    <_>
      <rects>
        <_>
          0 12 14 12 -1.</_>
        <_>
          0 18 14 6 2.</_></rects>
      <tilted>0</tilted></_>
    <_>
      <rects>
        <_>
          0 13 5 3 -1.</_>
        <_>
          0 14 5 1 3.</_></rects>
      <tilted>0</tilted></_>
    <_>
      <rects>
        <_>
          0 13 7 3 -1.</_>
        <_>
          0 14 7 1 3.</_></rects>
      <tilted>0</tilted></_>
    <_>
      <rects>
        <_>
          0 14 7 3 -1.</_>
        <_>
          0 15 7 1 3.</_></rects>
      <tilted>0</tilted></_>
    <_>
      <rects>
        <_>
          0 19 2 1 -1.</_>
        <_>
          1 19 1 1 2.</_></rects>
      <tilted>0</tilted></_>
    <_>
      <rects>
        <_>
          0 22 20 1 -1.</_>
        <_>
          10 22 10 1 2.</_></rects>
      <tilted>0</tilted></_>
    <_>
      <rects>
        <_>
          1 0 2 3 -1.</_>
        <_>
          1 1 2 1 3.</_></rects>
      <tilted>0</tilted></_>
    <_>
      <rects>
        <_>
          1 0 20 8 -1.</_>
        <_>
          1 4 20 4 2.</_></rects>
      <tilted>0</tilted></_>
    <_>
      <rects>
        <_>
          1 6 2 12 -1.</_>
        <_>
          1 12 2 6 2.</_></rects>
      <tilted>0</tilted></_>
    <_>
      <rects>
        <_>
          1 9 12 2 -1.</_>
        <_>
          1 10 12 1 2.</_></rects>
      <tilted>0</tilted></_>
    <_>
      <rects>
        <_>
          1 10 4 14 -1.</_>
        <_>
          1 17 4 7 2.</_></rects>
      <tilted>0</tilted></_>
    <_>
      <rects>
        <_>
          1 13 11 10 -1.</_>
        <_>
          1 18 11 5 2.</_></rects>
      <tilted>0</tilted></_>
    <_>
      <rects>
        <_>
          1 13 20 6 -1.</_>
        <_>
          1 15 20 2 3.</_></rects>
      <tilted>0</tilted></_>
    <_>
      <rects>
        <_>
          1 14 13 8 -1.</_>
        <_>
          1 18 13 4 2.</_></rects>
      <tilted>0</tilted></_>
    <_>
      <rects>
        <_>
          1 15 18 8 -1.</_>
        <_>
          1 19 18 4 2.</_></rects>
      <tilted>0</tilted></_>
    <_>
      <rects>
        <_>
          1 16 6 6 -1.</_>
        <_>
          1 18 6 2 3.</_></rects>
      <tilted>0</tilted></_>
    <_>
      <rects>
        <_>
          2 0 1 2 -1.</_>
        <_>
          2 1 1 1 2.</_></rects>
      <tilted>0</tilted></_>
    <_>
      <rects>
        <_>
          2 0 3 21 -1.</_>
        <_>
          2 7 3 7 3.</_></rects>
      <tilted>0</tilted></_>
    <_>
      <rects>
        <_>
          2 1 1 12 -1.</_>
        <_>
          2 7 1 6 2.</_></rects>
      <tilted>0</tilted></_>
    <_>
      <rects>
        <_>
          2 1 10 21 -1.</_>
        <_>
          2 8 10 7 3.</_></rects>
      <tilted>0</tilted></_>
    <_>
      <rects>
        <_>
          2 4 4 2 -1.</_>
        <_>
          2 4 2 1 2.</_>
        <_>
          4 5 2 1 2.</_></rects>
      <tilted>0</tilted></_>
    <_>
      <rects>
        <_>
          2 4 6 2 -1.</_>
        <_>
          2 4 3 1 2.</_>
        <_>
          5 5 3 1 2.</_></rects>
      <tilted>0</tilted></_>
    <_>
      <rects>
        <_>
          2 5 6 2 -1.</_>
        <_>
          2 5 3 1 2.</_>
        <_>
          5 6 3 1 2.</_></rects>
      <tilted>0</tilted></_>
    <_>
      <rects>
        <_>
          2 6 2 18 -1.</_>
        <_>
          2 15 2 9 2.</_></rects>
      <tilted>0</tilted></_>
    <_>
      <rects>
        <_>
          2 10 1 2 -1.</_>
        <_>
          2 11 1 1 2.</_></rects>
      <tilted>0</tilted></_>
    <_>
      <rects>
        <_>
          2 13 3 4 -1.</_>
        <_>
          3 13 1 4 3.</_></rects>
      <tilted>0</tilted></_>
    <_>
      <rects>
        <_>
          2 14 18 5 -1.</_>
        <_>
          8 14 6 5 3.</_></rects>
      <tilted>0</tilted></_>
    <_>
      <rects>
        <_>
          2 15 11 8 -1.</_>
        <_>
          2 19 11 4 2.</_></rects>
      <tilted>0</tilted></_>
    <_>
      <rects>
        <_>
          2 15 19 8 -1.</_>
        <_>
          2 19 19 4 2.</_></rects>
      <tilted>0</tilted></_>
    <_>
      <rects>
        <_>
          3 2 11 21 -1.</_>
        <_>
          3 9 11 7 3.</_></rects>
      <tilted>0</tilted></_>
    <_>
      <rects>
        <_>
          3 4 15 10 -1.</_>
        <_>
          8 4 5 10 3.</_></rects>
      <tilted>0</tilted></_>
    <_>
      <rects>
        <_>
          3 6 8 9 -1.</_>
        <_>
          3 9 8 3 3.</_></rects>
      <tilted>0</tilted></_>
    <_>
      <rects>
        <_>
          3 6 10 18 -1.</_>
        <_>
          3 15 10 9 2.</_></rects>
      <tilted>0</tilted></_>
    <_>
      <rects>
        <_>
          3 8 2 4 -1.</_>
        <_>
          3 8 1 2 2.</_>
        <_>
          4 10 1 2 2.</_></rects>
      <tilted>0</tilted></_>
    <_>
      <rects>
        <_>
          3 8 9 2 -1.</_>
        <_>
          6 8 3 2 3.</_></rects>
      <tilted>0</tilted></_>
    <_>
      <rects>
        <_>
          3 8 11 3 -1.</_>
        <_>
          3 9 11 1 3.</_></rects>
      <tilted>0</tilted></_>
    <_>
      <rects>
        <_>
          3 12 3 3 -1.</_>
        <_>
          4 12 1 3 3.</_></rects>
      <tilted>0</tilted></_>
    <_>
      <rects>
        <_>
          3 13 3 5 -1.</_>
        <_>
          4 13 1 5 3.</_></rects>
      <tilted>0</tilted></_>
    <_>
      <rects>
        <_>
          3 14 2 1 -1.</_>
        <_>
          4 14 1 1 2.</_></rects>
      <tilted>0</tilted></_>
    <_>
      <rects>
        <_>
          3 14 3 2 -1.</_>
        <_>
          4 14 1 2 3.</_></rects>
      <tilted>0</tilted></_>
    <_>
      <rects>
        <_>
          3 15 3 2 -1.</_>
        <_>
          4 15 1 2 3.</_></rects>
      <tilted>0</tilted></_>
    <_>
      <rects>
        <_>
          3 15 6 2 -1.</_>
        <_>
          5 15 2 2 3.</_></rects>
      <tilted>0</tilted></_>
    <_>
      <rects>
        <_>
          4 2 6 4 -1.</_>
        <_>
          4 2 3 2 2.</_>
        <_>
          7 4 3 2 2.</_></rects>
      <tilted>0</tilted></_>
    <_>
      <rects>
        <_>
          4 2 16 6 -1.</_>
        <_>
          4 5 16 3 2.</_></rects>
      <tilted>0</tilted></_>
    <_>
      <rects>
        <_>
          4 4 8 2 -1.</_>
        <_>
          4 4 4 1 2.</_>
        <_>
          8 5 4 1 2.</_></rects>
      <tilted>0</tilted></_>
    <_>
      <rects>
        <_>
          4 8 2 6 -1.</_>
        <_>
          4 8 1 3 2.</_>
        <_>
          5 11 1 3 2.</_></rects>
      <tilted>0</tilted></_>
    <_>
      <rects>
        <_>
          4 8 3 9 -1.</_>
        <_>
          4 11 3 3 3.</_></rects>
      <tilted>0</tilted></_>
    <_>
      <rects>
        <_>
          4 8 8 4 -1.</_>
        <_>
          4 10 8 2 2.</_></rects>
      <tilted>0</tilted></_>
    <_>
      <rects>
        <_>
          4 11 15 4 -1.</_>
        <_>
          9 11 5 4 3.</_></rects>
      <tilted>0</tilted></_>
    <_>
      <rects>
        <_>
          4 13 2 2 -1.</_>
        <_>
          5 13 1 2 2.</_></rects>
      <tilted>0</tilted></_>
    <_>
      <rects>
        <_>
          4 13 3 4 -1.</_>
        <_>
          5 13 1 4 3.</_></rects>
      <tilted>0</tilted></_>
    <_>
      <rects>
        <_>
          4 14 3 2 -1.</_>
        <_>
          5 14 1 2 3.</_></rects>
      <tilted>0</tilted></_>
    <_>
      <rects>
        <_>
          4 14 3 3 -1.</_>
        <_>
          5 14 1 3 3.</_></rects>
      <tilted>0</tilted></_>
    <_>
      <rects>
        <_>
          4 14 11 10 -1.</_>
        <_>
          4 19 11 5 2.</_></rects>
      <tilted>0</tilted></_>
    <_>
      <rects>
        <_>
          5 5 2 3 -1.</_>
        <_>
          6 5 1 3 2.</_></rects>
      <tilted>0</tilted></_>
    <_>
      <rects>
        <_>
          5 5 6 2 -1.</_>
        <_>
          7 5 2 2 3.</_></rects>
      <tilted>0</tilted></_>
    <_>
      <rects>
        <_>
          5 5 5 3 -1.</_>
        <_>
          5 6 5 1 3.</_></rects>
      <tilted>0</tilted></_>
    <_>
      <rects>
        <_>
          5 5 14 2 -1.</_>
        <_>
          5 5 7 1 2.</_>
        <_>
          12 6 7 1 2.</_></rects>
      <tilted>0</tilted></_>
    <_>
      <rects>
        <_>
          5 10 1 6 -1.</_>
        <_>
          5 12 1 2 3.</_></rects>
      <tilted>0</tilted></_>
    <_>
      <rects>
        <_>
          5 11 1 6 -1.</_>
        <_>
          5 13 1 2 3.</_></rects>
      <tilted>0</tilted></_>
    <_>
      <rects>
        <_>
          5 11 8 6 -1.</_>
        <_>
          5 11 4 3 2.</_>
        <_>
          9 14 4 3 2.</_></rects>
      <tilted>0</tilted></_>
    <_>
      <rects>
        <_>
          5 13 3 2 -1.</_>
        <_>
          6 13 1 2 3.</_></rects>
      <tilted>0</tilted></_>
    <_>
      <rects>
        <_>
          5 13 3 3 -1.</_>
        <_>
          6 13 1 3 3.</_></rects>
      <tilted>0</tilted></_>
    <_>
      <rects>
        <_>
          5 13 2 4 -1.</_>
        <_>
          6 13 1 4 2.</_></rects>
      <tilted>0</tilted></_>
    <_>
      <rects>
        <_>
          5 13 6 3 -1.</_>
        <_>
          7 13 2 3 3.</_></rects>
      <tilted>0</tilted></_>
    <_>
      <rects>
        <_>
          5 14 2 1 -1.</_>
        <_>
          6 14 1 1 2.</_></rects>
      <tilted>0</tilted></_>
    <_>
      <rects>
        <_>
          5 14 1 3 -1.</_>
        <_>
          5 15 1 1 3.</_></rects>
      <tilted>0</tilted></_>
    <_>
      <rects>
        <_>
          5 14 3 3 -1.</_>
        <_>
          6 14 1 3 3.</_></rects>
      <tilted>0</tilted></_>
    <_>
      <rects>
        <_>
          5 14 4 1 -1.</_>
        <_>
          7 14 2 1 2.</_></rects>
      <tilted>0</tilted></_>
    <_>
      <rects>
        <_>
          5 15 3 2 -1.</_>
        <_>
          6 15 1 2 3.</_></rects>
      <tilted>0</tilted></_>
    <_>
      <rects>
        <_>
          6 4 2 3 -1.</_>
        <_>
          6 5 2 1 3.</_></rects>
      <tilted>0</tilted></_>
    <_>
      <rects>
        <_>
          6 4 3 2 -1.</_>
        <_>
          6 5 3 1 2.</_></rects>
      <tilted>0</tilted></_>
    <_>
      <rects>
        <_>
          6 5 2 8 -1.</_>
        <_>
          6 5 1 4 2.</_>
        <_>
          7 9 1 4 2.</_></rects>
      <tilted>0</tilted></_>
    <_>
      <rects>
        <_>
          6 5 4 3 -1.</_>
        <_>
          6 6 4 1 3.</_></rects>
      <tilted>0</tilted></_>
    <_>
      <rects>
        <_>
          6 5 10 2 -1.</_>
        <_>
          6 5 5 1 2.</_>
        <_>
          11 6 5 1 2.</_></rects>
      <tilted>0</tilted></_>
    <_>
      <rects>
        <_>
          6 6 2 4 -1.</_>
        <_>
          6 6 1 2 2.</_>
        <_>
          7 8 1 2 2.</_></rects>
      <tilted>0</tilted></_>
    <_>
      <rects>
        <_>
          6 6 5 9 -1.</_>
        <_>
          6 9 5 3 3.</_></rects>
      <tilted>0</tilted></_>
    <_>
      <rects>
        <_>
          6 8 1 6 -1.</_>
        <_>
          6 10 1 2 3.</_></rects>
      <tilted>0</tilted></_>
    <_>
      <rects>
        <_>
          6 8 1 9 -1.</_>
        <_>
          6 11 1 3 3.</_></rects>
      <tilted>0</tilted></_>
    <_>
      <rects>
        <_>
          6 8 2 9 -1.</_>
        <_>
          6 11 2 3 3.</_></rects>
      <tilted>0</tilted></_>
    <_>
      <rects>
        <_>
          6 8 8 3 -1.</_>
        <_>
          10 8 4 3 2.</_></rects>
      <tilted>0</tilted></_>
    <_>
      <rects>
        <_>
          6 8 9 15 -1.</_>
        <_>
          6 13 9 5 3.</_></rects>
      <tilted>0</tilted></_>
    <_>
      <rects>
        <_>
          6 10 6 6 -1.</_>
        <_>
          6 10 3 3 2.</_>
        <_>
          9 13 3 3 2.</_></rects>
      <tilted>0</tilted></_>
    <_>
      <rects>
        <_>
          6 13 1 4 -1.</_>
        <_>
          6 15 1 2 2.</_></rects>
      <tilted>0</tilted></_>
    <_>
      <rects>
        <_>
          6 14 3 3 -1.</_>
        <_>
          7 14 1 3 3.</_></rects>
      <tilted>0</tilted></_>
    <_>
      <rects>
        <_>
          6 17 7 4 -1.</_>
        <_>
          6 19 7 2 2.</_></rects>
      <tilted>0</tilted></_>
    <_>
      <rects>
        <_>
          7 5 6 2 -1.</_>
        <_>
          9 5 2 2 3.</_></rects>
      <tilted>0</tilted></_>
    <_>
      <rects>
        <_>
          7 7 10 12 -1.</_>
        <_>
          7 7 5 6 2.</_>
        <_>
          12 13 5 6 2.</_></rects>
      <tilted>0</tilted></_>
    <_>
      <rects>
        <_>
          7 8 8 5 -1.</_>
        <_>
          11 8 4 5 2.</_></rects>
      <tilted>0</tilted></_>
    <_>
      <rects>
        <_>
          7 9 12 4 -1.</_>
        <_>
          11 9 4 4 3.</_></rects>
      <tilted>0</tilted></_>
    <_>
      <rects>
        <_>
          7 11 1 6 -1.</_>
        <_>
          7 14 1 3 2.</_></rects>
      <tilted>0</tilted></_>
    <_>
      <rects>
        <_>
          7 13 3 2 -1.</_>
        <_>
          8 13 1 2 3.</_></rects>
      <tilted>0</tilted></_>
    <_>
      <rects>
        <_>
          7 14 2 1 -1.</_>
        <_>
          8 14 1 1 2.</_></rects>
      <tilted>0</tilted></_>
    <_>
      <rects>
        <_>
          7 14 3 4 -1.</_>
        <_>
          7 16 3 2 2.</_></rects>
      <tilted>0</tilted></_>
    <_>
      <rects>
        <_>
          7 16 6 6 -1.</_>
        <_>
          7 19 6 3 2.</_></rects>
      <tilted>0</tilted></_>
    <_>
      <rects>
        <_>
          8 4 4 4 -1.</_>
        <_>
          8 4 2 2 2.</_>
        <_>
          10 6 2 2 2.</_></rects>
      <tilted>0</tilted></_>
    <_>
      <rects>
        <_>
          8 5 2 12 -1.</_>
        <_>
          8 9 2 4 3.</_></rects>
      <tilted>0</tilted></_>
    <_>
      <rects>
        <_>
          8 6 3 1 -1.</_>
        <_>
          9 6 1 1 3.</_></rects>
      <tilted>0</tilted></_>
    <_>
      <rects>
        <_>
          8 6 1 4 -1.</_>
        <_>
          8 8 1 2 2.</_></rects>
      <tilted>0</tilted></_>
    <_>
      <rects>
        <_>
          8 6 5 12 -1.</_>
        <_>
          8 12 5 6 2.</_></rects>
      <tilted>0</tilted></_>
    <_>
      <rects>
        <_>
          8 7 10 9 -1.</_>
        <_>
          8 10 10 3 3.</_></rects>
      <tilted>0</tilted></_>
    <_>
      <rects>
        <_>
          8 8 3 6 -1.</_>
        <_>
          9 8 1 6 3.</_></rects>
      <tilted>0</tilted></_>
    <_>
      <rects>
        <_>
          8 8 4 4 -1.</_>
        <_>
          8 8 2 2 2.</_>
        <_>
          10 10 2 2 2.</_></rects>
      <tilted>0</tilted></_>
    <_>
      <rects>
        <_>
          8 8 9 3 -1.</_>
        <_>
          11 8 3 3 3.</_></rects>
      <tilted>0</tilted></_>
    <_>
      <rects>
        <_>
          8 8 12 3 -1.</_>
        <_>
          12 8 4 3 3.</_></rects>
      <tilted>0</tilted></_>
    <_>
      <rects>
        <_>
          8 9 5 9 -1.</_>
        <_>
          8 12 5 3 3.</_></rects>
      <tilted>0</tilted></_>
    <_>
      <rects>
        <_>
          8 12 7 3 -1.</_>
        <_>
          8 13 7 1 3.</_></rects>
      <tilted>0</tilted></_>
    <_>
      <rects>
        <_>
          8 13 3 5 -1.</_>
        <_>
          9 13 1 5 3.</_></rects>
      <tilted>0</tilted></_>
    <_>
      <rects>
        <_>
          8 13 6 3 -1.</_>
        <_>
          10 13 2 3 3.</_></rects>
      <tilted>0</tilted></_>
    <_>
      <rects>
        <_>
          9 4 2 2 -1.</_>
        <_>
          9 4 1 1 2.</_>
        <_>
          10 5 1 1 2.</_></rects>
      <tilted>0</tilted></_>
    <_>
      <rects>
        <_>
          9 5 2 2 -1.</_>
        <_>
          9 5 1 1 2.</_>
        <_>
          10 6 1 1 2.</_></rects>
      <tilted>0</tilted></_>
    <_>
      <rects>
        <_>
          9 5 6 1 -1.</_>
        <_>
          11 5 2 1 3.</_></rects>
      <tilted>0</tilted></_>
    <_>
      <rects>
        <_>
          9 6 7 9 -1.</_>
        <_>
          9 9 7 3 3.</_></rects>
      <tilted>0</tilted></_>
    <_>
      <rects>
        <_>
          9 7 9 10 -1.</_>
        <_>
          12 7 3 10 3.</_></rects>
      <tilted>0</tilted></_>
    <_>
      <rects>
        <_>
          9 7 14 8 -1.</_>
        <_>
          9 11 14 4 2.</_></rects>
      <tilted>0</tilted></_>
    <_>
      <rects>
        <_>
          9 9 1 9 -1.</_>
        <_>
          9 12 1 3 3.</_></rects>
      <tilted>0</tilted></_>
    <_>
      <rects>
        <_>
          9 12 1 6 -1.</_>
        <_>
          9 15 1 3 2.</_></rects>
      <tilted>0</tilted></_>
    <_>
      <rects>
        <_>
          9 17 4 3 -1.</_>
        <_>
          9 18 4 1 3.</_></rects>
      <tilted>0</tilted></_>
    <_>
      <rects>
        <_>
          10 2 3 9 -1.</_>
        <_>
          10 5 3 3 3.</_></rects>
      <tilted>0</tilted></_>
    <_>
      <rects>
        <_>
          10 5 3 2 -1.</_>
        <_>
          11 5 1 2 3.</_></rects>
      <tilted>0</tilted></_>
    <_>
      <rects>
        <_>
          10 5 6 2 -1.</_>
        <_>
          12 5 2 2 3.</_></rects>
      <tilted>0</tilted></_>
    <_>
      <rects>
        <_>
          10 6 1 12 -1.</_>
        <_>
          10 10 1 4 3.</_></rects>
      <tilted>0</tilted></_>
    <_>
      <rects>
        <_>
          10 7 3 9 -1.</_>
        <_>
          10 10 3 3 3.</_></rects>
      <tilted>0</tilted></_>
    <_>
      <rects>
        <_>
          10 8 2 3 -1.</_>
        <_>
          11 8 1 3 2.</_></rects>
      <tilted>0</tilted></_>
    <_>
      <rects>
        <_>
          10 8 9 5 -1.</_>
        <_>
          13 8 3 5 3.</_></rects>
      <tilted>0</tilted></_>
    <_>
      <rects>
        <_>
          10 8 9 6 -1.</_>
        <_>
          13 8 3 6 3.</_></rects>
      <tilted>0</tilted></_>
    <_>
      <rects>
        <_>
          10 9 1 2 -1.</_>
        <_>
          10 10 1 1 2.</_></rects>
      <tilted>0</tilted></_>
    <_>
      <rects>
        <_>
          10 9 6 3 -1.</_>
        <_>
          10 10 6 1 3.</_></rects>
      <tilted>0</tilted></_>
    <_>
      <rects>
        <_>
          10 9 8 3 -1.</_>
        <_>
          10 10 8 1 3.</_></rects>
      <tilted>0</tilted></_>
    <_>
      <rects>
        <_>
          10 10 3 2 -1.</_>
        <_>
          10 11 3 1 2.</_></rects>
      <tilted>0</tilted></_>
    <_>
      <rects>
        <_>
          10 10 9 3 -1.</_>
        <_>
          13 10 3 3 3.</_></rects>
      <tilted>0</tilted></_>
    <_>
      <rects>
        <_>
          10 11 2 2 -1.</_>
        <_>
          10 11 1 1 2.</_>
        <_>
          11 12 1 1 2.</_></rects>
      <tilted>0</tilted></_>
    <_>
      <rects>
        <_>
          10 11 1 6 -1.</_>
        <_>
          10 14 1 3 2.</_></rects>
      <tilted>0</tilted></_>
    <_>
      <rects>
        <_>
          10 12 2 1 -1.</_>
        <_>
          11 12 1 1 2.</_></rects>
      <tilted>0</tilted></_>
    <_>
      <rects>
        <_>
          10 16 5 3 -1.</_>
        <_>
          10 17 5 1 3.</_></rects>
      <tilted>0</tilted></_>
    <_>
      <rects>
        <_>
          11 2 2 8 -1.</_>
        <_>
          12 2 1 8 2.</_></rects>
      <tilted>0</tilted></_>
    <_>
      <rects>
        <_>
          11 4 5 6 -1.</_>
        <_>
          11 6 5 2 3.</_></rects>
      <tilted>0</tilted></_>
    <_>
      <rects>
        <_>
          11 7 2 2 -1.</_>
        <_>
          11 8 2 1 2.</_></rects>
      <tilted>0</tilted></_>
    <_>
      <rects>
        <_>
          11 8 2 6 -1.</_>
        <_>
          11 11 2 3 2.</_></rects>
      <tilted>0</tilted></_>
    <_>
      <rects>
        <_>
          11 8 3 2 -1.</_>
        <_>
          11 9 3 1 2.</_></rects>
      <tilted>0</tilted></_>
    <_>
      <rects>
        <_>
          11 8 6 6 -1.</_>
        <_>
          11 11 6 3 2.</_></rects>
      <tilted>0</tilted></_>
    <_>
      <rects>
        <_>
          11 9 1 2 -1.</_>
        <_>
          11 10 1 1 2.</_></rects>
      <tilted>0</tilted></_>
    <_>
      <rects>
        <_>
          11 9 9 4 -1.</_>
        <_>
          14 9 3 4 3.</_></rects>
      <tilted>0</tilted></_>
    <_>
      <rects>
        <_>
          11 9 6 3 -1.</_>
        <_>
          11 10 6 1 3.</_></rects>
      <tilted>0</tilted></_>
    <_>
      <rects>
        <_>
          11 10 7 3 -1.</_>
        <_>
          11 11 7 1 3.</_></rects>
      <tilted>0</tilted></_>
    <_>
      <rects>
        <_>
          11 11 1 2 -1.</_>
        <_>
          11 12 1 1 2.</_></rects>
      <tilted>0</tilted></_>
    <_>
      <rects>
        <_>
          11 11 2 3 -1.</_>
        <_>
          11 12 2 1 3.</_></rects>
      <tilted>0</tilted></_>
    <_>
      <rects>
        <_>
          11 12 4 3 -1.</_>
        <_>
          11 13 4 1 3.</_></rects>
      <tilted>0</tilted></_>
    <_>
      <rects>
        <_>
          11 14 9 3 -1.</_>
        <_>
          11 15 9 1 3.</_></rects>
      <tilted>0</tilted></_>
    <_>
      <rects>
        <_>
          11 15 7 3 -1.</_>
        <_>
          11 16 7 1 3.</_></rects>
      <tilted>0</tilted></_>
    <_>
      <rects>
        <_>
          11 17 10 4 -1.</_>
        <_>
          11 17 5 2 2.</_>
        <_>
          16 19 5 2 2.</_></rects>
      <tilted>0</tilted></_>
    <_>
      <rects>
        <_>
          12 4 3 6 -1.</_>
        <_>
          12 6 3 2 3.</_></rects>
      <tilted>0</tilted></_>
    <_>
      <rects>
        <_>
          12 5 3 6 -1.</_>
        <_>
          12 7 3 2 3.</_></rects>
      <tilted>0</tilted></_>
    <_>
      <rects>
        <_>
          12 5 8 10 -1.</_>
        <_>
          12 5 4 5 2.</_>
        <_>
          16 10 4 5 2.</_></rects>
      <tilted>0</tilted></_>
    <_>
      <rects>
        <_>
          12 5 12 16 -1.</_>
        <_>
          18 5 6 16 2.</_></rects>
      <tilted>0</tilted></_>
    <_>
      <rects>
        <_>
          12 6 1 6 -1.</_>
        <_>
          12 8 1 2 3.</_></rects>
      <tilted>0</tilted></_>
    <_>
      <rects>
        <_>
          12 6 1 12 -1.</_>
        <_>
          12 10 1 4 3.</_></rects>
      <tilted>0</tilted></_>
    <_>
      <rects>
        <_>
          12 6 2 6 -1.</_>
        <_>
          12 8 2 2 3.</_></rects>
      <tilted>0</tilted></_>
    <_>
      <rects>
        <_>
          12 6 7 6 -1.</_>
        <_>
          12 8 7 2 3.</_></rects>
      <tilted>0</tilted></_>
    <_>
      <rects>
        <_>
          12 7 3 2 -1.</_>
        <_>
          12 8 3 1 2.</_></rects>
      <tilted>0</tilted></_>
    <_>
      <rects>
        <_>
          12 7 6 4 -1.</_>
        <_>
          15 7 3 4 2.</_></rects>
      <tilted>0</tilted></_>
    <_>
      <rects>
        <_>
          12 8 1 2 -1.</_>
        <_>
          12 9 1 1 2.</_></rects>
      <tilted>0</tilted></_>
    <_>
      <rects>
        <_>
          12 8 4 8 -1.</_>
        <_>
          12 12 4 4 2.</_></rects>
      <tilted>0</tilted></_>
    <_>
      <rects>
        <_>
          12 8 5 3 -1.</_>
        <_>
          12 9 5 1 3.</_></rects>
      <tilted>0</tilted></_>
    <_>
      <rects>
        <_>
          12 8 6 3 -1.</_>
        <_>
          12 9 6 1 3.</_></rects>
      <tilted>0</tilted></_>
    <_>
      <rects>
        <_>
          12 8 8 3 -1.</_>
        <_>
          12 9 8 1 3.</_></rects>
      <tilted>0</tilted></_>
    <_>
      <rects>
        <_>
          12 9 2 3 -1.</_>
        <_>
          12 10 2 1 3.</_></rects>
      <tilted>0</tilted></_>
    <_>
      <rects>
        <_>
          12 9 7 3 -1.</_>
        <_>
          12 10 7 1 3.</_></rects>
      <tilted>0</tilted></_>
    <_>
      <rects>
        <_>
          12 10 2 3 -1.</_>
        <_>
          12 11 2 1 3.</_></rects>
      <tilted>0</tilted></_>
    <_>
      <rects>
        <_>
          12 10 5 2 -1.</_>
        <_>
          12 11 5 1 2.</_></rects>
      <tilted>0</tilted></_>
    <_>
      <rects>
        <_>
          12 11 2 3 -1.</_>
        <_>
          12 12 2 1 3.</_></rects>
      <tilted>0</tilted></_>
    <_>
      <rects>
        <_>
          12 12 1 3 -1.</_>
        <_>
          12 13 1 1 3.</_></rects>
      <tilted>0</tilted></_>
    <_>
      <rects>
        <_>
          12 12 2 3 -1.</_>
        <_>
          12 13 2 1 3.</_></rects>
      <tilted>0</tilted></_>
    <_>
      <rects>
        <_>
          12 12 4 3 -1.</_>
        <_>
          12 13 4 1 3.</_></rects>
      <tilted>0</tilted></_>
    <_>
      <rects>
        <_>
          12 13 1 2 -1.</_>
        <_>
          12 14 1 1 2.</_></rects>
      <tilted>0</tilted></_>
    <_>
      <rects>
        <_>
          12 13 7 3 -1.</_>
        <_>
          12 14 7 1 3.</_></rects>
      <tilted>0</tilted></_>
    <_>
      <rects>
        <_>
          12 13 9 3 -1.</_>
        <_>
          12 14 9 1 3.</_></rects>
      <tilted>0</tilted></_>
    <_>
      <rects>
        <_>
          12 14 8 3 -1.</_>
        <_>
          12 15 8 1 3.</_></rects>
      <tilted>0</tilted></_>
    <_>
      <rects>
        <_>
          12 15 6 1 -1.</_>
        <_>
          15 15 3 1 2.</_></rects>
      <tilted>0</tilted></_>
    <_>
      <rects>
        <_>
          12 15 7 3 -1.</_>
        <_>
          12 16 7 1 3.</_></rects>
      <tilted>0</tilted></_>
    <_>
      <rects>
        <_>
          12 17 4 2 -1.</_>
        <_>
          12 17 2 1 2.</_>
        <_>
          14 18 2 1 2.</_></rects>
      <tilted>0</tilted></_>
    <_>
      <rects>
        <_>
          13 4 7 6 -1.</_>
        <_>
          13 6 7 2 3.</_></rects>
      <tilted>0</tilted></_>
    <_>
      <rects>
        <_>
          13 5 1 12 -1.</_>
        <_>
          13 9 1 4 3.</_></rects>
      <tilted>0</tilted></_>
    <_>
      <rects>
        <_>
          13 5 8 10 -1.</_>
        <_>
          13 5 4 5 2.</_>
        <_>
          17 10 4 5 2.</_></rects>
      <tilted>0</tilted></_>
    <_>
      <rects>
        <_>
          13 5 6 6 -1.</_>
        <_>
          13 7 6 2 3.</_></rects>
      <tilted>0</tilted></_>
    <_>
      <rects>
        <_>
          13 5 8 3 -1.</_>
        <_>
          13 6 8 1 3.</_></rects>
      <tilted>0</tilted></_>
    <_>
      <rects>
        <_>
          13 6 3 3 -1.</_>
        <_>
          13 7 3 1 3.</_></rects>
      <tilted>0</tilted></_>
    <_>
      <rects>
        <_>
          13 8 8 6 -1.</_>
        <_>
          13 10 8 2 3.</_></rects>
      <tilted>0</tilted></_>
    <_>
      <rects>
        <_>
          13 8 9 3 -1.</_>
        <_>
          13 9 9 1 3.</_></rects>
      <tilted>0</tilted></_>
    <_>
      <rects>
        <_>
          13 10 6 2 -1.</_>
        <_>
          13 11 6 1 2.</_></rects>
      <tilted>0</tilted></_>
    <_>
      <rects>
        <_>
          13 10 8 3 -1.</_>
        <_>
          13 11 8 1 3.</_></rects>
      <tilted>0</tilted></_>
    <_>
      <rects>
        <_>
          13 12 5 3 -1.</_>
        <_>
          13 13 5 1 3.</_></rects>
      <tilted>0</tilted></_>
    <_>
      <rects>
        <_>
          13 12 9 3 -1.</_>
        <_>
          13 13 9 1 3.</_></rects>
      <tilted>0</tilted></_>
    <_>
      <rects>
        <_>
          13 13 4 2 -1.</_>
        <_>
          13 14 4 1 2.</_></rects>
      <tilted>0</tilted></_>
    <_>
      <rects>
        <_>
          13 14 4 2 -1.</_>
        <_>
          15 14 2 2 2.</_></rects>
      <tilted>0</tilted></_>
    <_>
      <rects>
        <_>
          13 16 2 3 -1.</_>
        <_>
          13 17 2 1 3.</_></rects>
      <tilted>0</tilted></_>
    <_>
      <rects>
        <_>
          13 16 8 4 -1.</_>
        <_>
          13 16 4 2 2.</_>
        <_>
          17 18 4 2 2.</_></rects>
      <tilted>0</tilted></_>
    <_>
      <rects>
        <_>
          14 4 4 7 -1.</_>
        <_>
          16 4 2 7 2.</_></rects>
      <tilted>0</tilted></_>
    <_>
      <rects>
        <_>
          14 5 5 6 -1.</_>
        <_>
          14 7 5 2 3.</_></rects>
      <tilted>0</tilted></_>
    <_>
      <rects>
        <_>
          14 6 1 6 -1.</_>
        <_>
          14 8 1 2 3.</_></rects>
      <tilted>0</tilted></_>
    <_>
      <rects>
        <_>
          14 6 2 8 -1.</_>
        <_>
          14 10 2 4 2.</_></rects>
      <tilted>0</tilted></_>
    <_>
      <rects>
        <_>
          14 6 10 14 -1.</_>
        <_>
          19 6 5 14 2.</_></rects>
      <tilted>0</tilted></_>
    <_>
      <rects>
        <_>
          14 6 6 6 -1.</_>
        <_>
          14 8 6 2 3.</_></rects>
      <tilted>0</tilted></_>
    <_>
      <rects>
        <_>
          14 7 1 8 -1.</_>
        <_>
          14 11 1 4 2.</_></rects>
      <tilted>0</tilted></_>
    <_>
      <rects>
        <_>
          14 7 2 8 -1.</_>
        <_>
          14 11 2 4 2.</_></rects>
      <tilted>0</tilted></_>
    <_>
      <rects>
        <_>
          14 8 6 3 -1.</_>
        <_>
          14 9 6 1 3.</_></rects>
      <tilted>0</tilted></_>
    <_>
      <rects>
        <_>
          14 8 7 3 -1.</_>
        <_>
          14 9 7 1 3.</_></rects>
      <tilted>0</tilted></_>
    <_>
      <rects>
        <_>
          14 9 1 3 -1.</_>
        <_>
          14 10 1 1 3.</_></rects>
      <tilted>0</tilted></_>
    <_>
      <rects>
        <_>
          14 9 5 8 -1.</_>
        <_>
          14 13 5 4 2.</_></rects>
      <tilted>0</tilted></_>
    <_>
      <rects>
        <_>
          14 10 2 2 -1.</_>
        <_>
          14 10 1 1 2.</_>
        <_>
          15 11 1 1 2.</_></rects>
      <tilted>0</tilted></_>
    <_>
      <rects>
        <_>
          14 12 1 2 -1.</_>
        <_>
          14 13 1 1 2.</_></rects>
      <tilted>0</tilted></_>
    <_>
      <rects>
        <_>
          14 12 4 3 -1.</_>
        <_>
          14 13 4 1 3.</_></rects>
      <tilted>0</tilted></_>
    <_>
      <rects>
        <_>
          14 12 7 3 -1.</_>
        <_>
          14 13 7 1 3.</_></rects>
      <tilted>0</tilted></_>
    <_>
      <rects>
        <_>
          14 13 5 3 -1.</_>
        <_>
          14 14 5 1 3.</_></rects>
      <tilted>0</tilted></_>
    <_>
      <rects>
        <_>
          14 16 3 3 -1.</_>
        <_>
          14 17 3 1 3.</_></rects>
      <tilted>0</tilted></_>
    <_>
      <rects>
        <_>
          15 0 9 22 -1.</_>
        <_>
          15 11 9 11 2.</_></rects>
      <tilted>0</tilted></_>
    <_>
      <rects>
        <_>
          15 1 4 2 -1.</_>
        <_>
          15 2 4 1 2.</_></rects>
      <tilted>0</tilted></_>
    <_>
      <rects>
        <_>
          15 4 3 6 -1.</_>
        <_>
          15 6 3 2 3.</_></rects>
      <tilted>0</tilted></_>
    <_>
      <rects>
        <_>
          15 4 4 6 -1.</_>
        <_>
          15 6 4 2 3.</_></rects>
      <tilted>0</tilted></_>
    <_>
      <rects>
        <_>
          15 6 5 3 -1.</_>
        <_>
          15 7 5 1 3.</_></rects>
      <tilted>0</tilted></_>
    <_>
      <rects>
        <_>
          15 7 4 2 -1.</_>
        <_>
          15 8 4 1 2.</_></rects>
      <tilted>0</tilted></_>
    <_>
      <rects>
        <_>
          15 10 6 3 -1.</_>
        <_>
          15 11 6 1 3.</_></rects>
      <tilted>0</tilted></_>
    <_>
      <rects>
        <_>
          15 12 5 3 -1.</_>
        <_>
          15 13 5 1 3.</_></rects>
      <tilted>0</tilted></_>
    <_>
      <rects>
        <_>
          15 12 7 3 -1.</_>
        <_>
          15 13 7 1 3.</_></rects>
      <tilted>0</tilted></_>
    <_>
      <rects>
        <_>
          15 13 5 3 -1.</_>
        <_>
          15 14 5 1 3.</_></rects>
      <tilted>0</tilted></_>
    <_>
      <rects>
        <_>
          15 13 6 3 -1.</_>
        <_>
          15 14 6 1 3.</_></rects>
      <tilted>0</tilted></_>
    <_>
      <rects>
        <_>
          15 14 2 1 -1.</_>
        <_>
          16 14 1 1 2.</_></rects>
      <tilted>0</tilted></_>
    <_>
      <rects>
        <_>
          15 15 5 2 -1.</_>
        <_>
          15 16 5 1 2.</_></rects>
      <tilted>0</tilted></_>
    <_>
      <rects>
        <_>
          16 4 2 6 -1.</_>
        <_>
          16 6 2 2 3.</_></rects>
      <tilted>0</tilted></_>
    <_>
      <rects>
        <_>
          16 5 3 3 -1.</_>
        <_>
          16 6 3 1 3.</_></rects>
      <tilted>0</tilted></_>
    <_>
      <rects>
        <_>
          16 5 6 4 -1.</_>
        <_>
          16 5 3 2 2.</_>
        <_>
          19 7 3 2 2.</_></rects>
      <tilted>0</tilted></_>
    <_>
      <rects>
        <_>
          16 5 8 12 -1.</_>
        <_>
          20 5 4 12 2.</_></rects>
      <tilted>0</tilted></_>
    <_>
      <rects>
        <_>
          16 6 5 6 -1.</_>
        <_>
          16 8 5 2 3.</_></rects>
      <tilted>0</tilted></_>
    <_>
      <rects>
        <_>
          16 8 4 12 -1.</_>
        <_>
          16 12 4 4 3.</_></rects>
      <tilted>0</tilted></_>
    <_>
      <rects>
        <_>
          16 9 2 8 -1.</_>
        <_>
          16 13 2 4 2.</_></rects>
      <tilted>0</tilted></_>
    <_>
      <rects>
        <_>
          16 10 3 3 -1.</_>
        <_>
          17 10 1 3 3.</_></rects>
      <tilted>0</tilted></_>
    <_>
      <rects>
        <_>
          16 12 6 2 -1.</_>
        <_>
          16 13 6 1 2.</_></rects>
      <tilted>0</tilted></_>
    <_>
      <rects>
        <_>
          16 14 3 3 -1.</_>
        <_>
          16 15 3 1 3.</_></rects>
      <tilted>0</tilted></_>
    <_>
      <rects>
        <_>
          17 7 2 3 -1.</_>
        <_>
          17 8 2 1 3.</_></rects>
      <tilted>0</tilted></_>
    <_>
      <rects>
        <_>
          17 8 2 2 -1.</_>
        <_>
          17 8 1 1 2.</_>
        <_>
          18 9 1 1 2.</_></rects>
      <tilted>0</tilted></_>
    <_>
      <rects>
        <_>
          17 9 4 3 -1.</_>
        <_>
          17 10 4 1 3.</_></rects>
      <tilted>0</tilted></_>
    <_>
      <rects>
        <_>
          17 10 5 3 -1.</_>
        <_>
          17 11 5 1 3.</_></rects>
      <tilted>0</tilted></_>
    <_>
      <rects>
        <_>
          17 11 2 1 -1.</_>
        <_>
          18 11 1 1 2.</_></rects>
      <tilted>0</tilted></_>
    <_>
