<?xml version="1.0"?>
<opencv_storage>
<cascade>
  <stageType>BOOST</stageType>
  <featureType>HAAR</featureType>
  <height>24</height>
  <width>24</width>
  <stageParams>
    <boostType>GAB</boostType>
    <minHitRate>9.9500000476837158e-01</minHitRate>
    <maxFalseAlarm>5.0000000000000000e-01</maxFalseAlarm>
    <weightTrimRate>9.4999998807907104e-01</weightTrimRate>
    <maxDepth>1</maxDepth>
    <maxWeakCount>100</maxWeakCount></stageParams>
  <featureParams>
    <maxCatCount>0</maxCatCount>
    <featSize>1</featSize>
    <mode>BASIC</mode></featureParams>
  <stageNum>17</stageNum>
  <stages>
    <!-- stage 0 -->
    <_>
      <maxWeakCount>3</maxWeakCount>
      <stageThreshold>-1.0018811225891113e+00</stageThreshold>
      <weakClassifiers>
        <_>
          <internalNodes>
            0 -1 51 -2.4583078920841217e-02</internalNodes>
          <leafValues>
            6.9696968793869019e-01 -8.0039137601852417e-01</leafValues></_>
        <_>
          <internalNodes>
            0 -1 40 1.0785311460494995e-02</internalNodes>
          <leafValues>
            -6.6563040018081665e-01 7.1784514188766479e-01</leafValues></_>
        <_>
          <internalNodes>
            0 -1 106 -8.5314817260950804e-04</internalNodes>
          <leafValues>
            4.6414065361022949e-01 -8.3452135324478149e-01</leafValues></_></weakClassifiers></_>
    <!-- stage 1 -->
    <_>
      <maxWeakCount>6</maxWeakCount>
      <stageThreshold>-8.3315241336822510e-01</stageThreshold>
      <weakClassifiers>
        <_>
          <internalNodes>
            0 -1 78 2.1006450057029724e-02</internalNodes>
          <leafValues>
            -7.2881358861923218e-01 6.6393440961837769e-01</leafValues></_>
        <_>
          <internalNodes>
            0 -1 59 -2.0284582860767841e-03</internalNodes>
          <leafValues>
            5.4187279939651489e-01 -6.7619597911834717e-01</leafValues></_>
        <_>
          <internalNodes>
            0 -1 39 -1.3774262042716146e-03</internalNodes>
          <leafValues>
            4.3923842906951904e-01 -7.9965800046920776e-01</leafValues></_>
        <_>
          <internalNodes>
            0 -1 38 1.5183722600340843e-02</internalNodes>
          <leafValues>
            -4.7776779532432556e-01 7.2285991907119751e-01</leafValues></_>
        <_>
          <internalNodes>
            0 -1 101 -4.0117800235748291e-03</internalNodes>
          <leafValues>
            9.2064690589904785e-01 -2.3738060891628265e-01</leafValues></_>
        <_>
          <internalNodes>
            0 -1 98 -3.3562937751412392e-03</internalNodes>
          <leafValues>
            9.2863601446151733e-01 -2.2977249324321747e-01</leafValues></_></weakClassifiers></_>
    <!-- stage 2 -->
    <_>
      <maxWeakCount>8</maxWeakCount>
      <stageThreshold>-1.1493107080459595e+00</stageThreshold>
      <weakClassifiers>
        <_>
          <internalNodes>
            0 -1 6 -1.5069958753883839e-02</internalNodes>
          <leafValues>
            6.9461077451705933e-01 -5.6085526943206787e-01</leafValues></_>
        <_>
          <internalNodes>
            0 -1 29 -1.6136225895024836e-05</internalNodes>
          <leafValues>
            3.1595656275749207e-01 -7.5170081853866577e-01</leafValues></_>
        <_>
          <internalNodes>
            0 -1 58 1.1361390352249146e-02</internalNodes>
          <leafValues>
            -3.6354517936706543e-01 6.7816072702407837e-01</leafValues></_>
        <_>
          <internalNodes>
            0 -1 94 -1.2897272426926065e-05</internalNodes>
          <leafValues>
            4.1973328590393066e-01 -6.3054102659225464e-01</leafValues></_>
        <_>
          <internalNodes>
            0 -1 47 -1.8052458763122559e-02</internalNodes>
          <leafValues>
            5.2040767669677734e-01 -5.6004184484481812e-01</leafValues></_>
        <_>
          <internalNodes>
            0 -1 48 -1.6109039279399440e-05</internalNodes>
          <leafValues>
            2.6175475120544434e-01 -7.8392165899276733e-01</leafValues></_>
        <_>
          <internalNodes>
            0 -1 109 3.7851543165743351e-03</internalNodes>
          <leafValues>
            -2.7112042903900146e-01 9.0270525217056274e-01</leafValues></_>
        <_>
          <internalNodes>
            0 -1 89 -2.3508612066507339e-03</internalNodes>
          <leafValues>
            6.7646473646163940e-01 -3.3609154820442200e-01</leafValues></_></weakClassifiers></_>
    <!-- stage 3 -->
    <_>
      <maxWeakCount>7</maxWeakCount>
      <stageThreshold>-1.1506291627883911e+00</stageThreshold>
      <weakClassifiers>
        <_>
          <internalNodes>
            0 -1 77 1.2013957835733891e-02</internalNodes>
          <leafValues>
            -5.5848437547683716e-01 6.7857140302658081e-01</leafValues></_>
        <_>
          <internalNodes>
            0 -1 37 6.8272853968665004e-04</internalNodes>
          <leafValues>
            -7.2086364030838013e-01 3.2860374450683594e-01</leafValues></_>
        <_>
          <internalNodes>
            0 -1 27 3.5009492188692093e-02</internalNodes>
          <leafValues>
            -3.0389946699142456e-01 9.0804862976074219e-01</leafValues></_>
        <_>
          <internalNodes>
            0 -1 56 -1.3068969565210864e-05</internalNodes>
          <leafValues>
            3.7297767400741577e-01 -6.2506419420242310e-01</leafValues></_>
        <_>
          <internalNodes>
            0 -1 126 -8.9475113782100379e-05</internalNodes>
          <leafValues>
            3.3138939738273621e-01 -6.6448527574539185e-01</leafValues></_>
        <_>
          <internalNodes>
            0 -1 96 6.7054480314254761e-04</internalNodes>
          <leafValues>
            -4.8509061336517334e-01 4.1717576980590820e-01</leafValues></_>
        <_>
          <internalNodes>
            0 -1 60 3.7622614763677120e-03</internalNodes>
          <leafValues>
            2.5552460551261902e-01 -9.2367631196975708e-01</leafValues></_></weakClassifiers></_>
    <!-- stage 4 -->
    <_>
      <maxWeakCount>3</maxWeakCount>
      <stageThreshold>-9.1158705949783325e-01</stageThreshold>
      <weakClassifiers>
        <_>
          <internalNodes>
            0 -1 45 -1.3456128726829775e-05</internalNodes>
          <leafValues>
            3.3615818619728088e-01 -8.1710213422775269e-01</leafValues></_>
        <_>
          <internalNodes>
            0 -1 28 1.3985766599944327e-05</internalNodes>
          <leafValues>
            -7.0743191242218018e-01 4.3582850694656372e-01</leafValues></_>
        <_>
          <internalNodes>
            0 -1 22 5.7356111705303192e-02</internalNodes>
          <leafValues>
            -5.3031343221664429e-01 6.9508761167526245e-01</leafValues></_></weakClassifiers></_>
    <!-- stage 5 -->
    <_>
      <maxWeakCount>7</maxWeakCount>
      <stageThreshold>-1.4259961843490601e+00</stageThreshold>
      <weakClassifiers>
        <_>
          <internalNodes>
            0 -1 12 7.7129028737545013e-02</internalNodes>
          <leafValues>
            -6.4074075222015381e-01 5.1489359140396118e-01</leafValues></_>
        <_>
          <internalNodes>
            0 -1 11 -4.6476915478706360e-02</internalNodes>
          <leafValues>
            -7.6614362001419067e-01 2.6413747668266296e-01</leafValues></_>
        <_>
          <internalNodes>
            0 -1 53 2.7568938094191253e-05</internalNodes>
          <leafValues>
            -6.4375585317611694e-01 3.3458870649337769e-01</leafValues></_>
        <_>
          <internalNodes>
            0 -1 62 -5.5840355344116688e-03</internalNodes>
          <leafValues>
            3.9294832944869995e-01 -4.6485635638237000e-01</leafValues></_>
        <_>
          <internalNodes>
            0 -1 15 8.2206144928932190e-02</internalNodes>
          <leafValues>
            1.9299073517322540e-01 -9.8229831457138062e-01</leafValues></_>
        <_>
          <internalNodes>
            0 -1 116 -2.8229122981429100e-03</internalNodes>
          <leafValues>
            -7.4803984165191650e-01 1.6777984797954559e-01</leafValues></_>
        <_>
          <internalNodes>
            0 -1 100 5.0476472824811935e-03</internalNodes>
          <leafValues>
            -2.4961476027965546e-01 7.4061810970306396e-01</leafValues></_></weakClassifiers></_>
    <!-- stage 6 -->
    <_>
      <maxWeakCount>6</maxWeakCount>
      <stageThreshold>-1.0567870140075684e+00</stageThreshold>
      <weakClassifiers>
        <_>
          <internalNodes>
            0 -1 3 -2.1495424211025238e-02</internalNodes>
          <leafValues>
            6.6666668653488159e-01 -5.6125825643539429e-01</leafValues></_>
        <_>
          <internalNodes>
            0 -1 18 -3.6146438214927912e-03</internalNodes>
          <leafValues>
            -9.0663409233093262e-01 2.1309828758239746e-01</leafValues></_>
        <_>
          <internalNodes>
            0 -1 30 3.3347395947203040e-04</internalNodes>
          <leafValues>
            1.6755729913711548e-01 -8.0233269929885864e-01</leafValues></_>
        <_>
          <internalNodes>
            0 -1 8 4.7025173902511597e-02</internalNodes>
          <leafValues>
            -2.9455095529556274e-01 5.5782735347747803e-01</leafValues></_>
        <_>
          <internalNodes>
            0 -1 33 8.6714877397753298e-05</internalNodes>
          <leafValues>
            -6.0158431529998779e-01 2.8815004229545593e-01</leafValues></_>
        <_>
          <internalNodes>
            0 -1 1 -1.3353499770164490e-01</internalNodes>
          <leafValues>
            -7.5227171182632446e-01 2.2530399262905121e-01</leafValues></_></weakClassifiers></_>
    <!-- stage 7 -->
    <_>
      <maxWeakCount>8</maxWeakCount>
      <stageThreshold>-1.2049430608749390e+00</stageThreshold>
      <weakClassifiers>
        <_>
          <internalNodes>
            0 -1 10 5.0619039684534073e-03</internalNodes>
          <leafValues>
            -5.1597446203231812e-01 6.5771812200546265e-01</leafValues></_>
        <_>
          <internalNodes>
            0 -1 124 -5.0982739776372910e-03</internalNodes>
          <leafValues>
            -7.3883068561553955e-01 2.3745213449001312e-01</leafValues></_>
        <_>
          <internalNodes>
            0 -1 32 -6.3376203179359436e-02</internalNodes>
          <leafValues>
            4.1412582993507385e-01 -3.9721643924713135e-01</leafValues></_>
        <_>
          <internalNodes>
            0 -1 95 -2.7893198421224952e-05</internalNodes>
          <leafValues>
            2.6061660051345825e-01 -6.2441325187683105e-01</leafValues></_>
        <_>
          <internalNodes>
            0 -1 26 2.8885809704661369e-02</internalNodes>
          <leafValues>
            -2.9715514183044434e-01 6.1319971084594727e-01</leafValues></_>
        <_>
          <internalNodes>
            0 -1 52 -2.0361291244626045e-02</internalNodes>
          <leafValues>
            -8.0402857065200806e-01 2.0700442790985107e-01</leafValues></_>
        <_>
          <internalNodes>
            0 -1 14 3.8008447154425085e-04</internalNodes>
          <leafValues>
            1.9492731988430023e-01 -7.6368188858032227e-01</leafValues></_>
        <_>
          <internalNodes>
            0 -1 90 -4.0844739414751530e-03</internalNodes>
          <leafValues>
            2.2895227372646332e-01 -6.1337381601333618e-01</leafValues></_></weakClassifiers></_>
    <!-- stage 8 -->
    <_>
      <maxWeakCount>10</maxWeakCount>
      <stageThreshold>-1.2193222045898438e+00</stageThreshold>
      <weakClassifiers>
        <_>
          <internalNodes>
            0 -1 9 -4.2469233274459839e-02</internalNodes>
          <leafValues>
            7.6095616817474365e-01 -4.9345651268959045e-01</leafValues></_>
        <_>
          <internalNodes>
            0 -1 2 -1.5278565883636475e-01</internalNodes>
          <leafValues>
            3.9561223983764648e-01 -4.3476471304893494e-01</leafValues></_>
        <_>
          <internalNodes>
            0 -1 103 3.5573986824601889e-03</internalNodes>
          <leafValues>
            -2.2068859636783600e-01 7.2294831275939941e-01</leafValues></_>
        <_>
          <internalNodes>
            0 -1 41 -1.2897272426926065e-05</internalNodes>
          <leafValues>
            2.7560374140739441e-01 -6.2020361423492432e-01</leafValues></_>
        <_>
          <internalNodes>
            0 -1 119 4.9272424075752497e-04</internalNodes>
          <leafValues>
            3.0501797795295715e-01 -5.8756726980209351e-01</leafValues></_>
        <_>
          <internalNodes>
            0 -1 75 6.7793219350278378e-03</internalNodes>
          <leafValues>
            -2.2887960076332092e-01 7.1455591917037964e-01</leafValues></_>
        <_>
          <internalNodes>
            0 -1 63 2.1758312359452248e-03</internalNodes>
          <leafValues>
            -3.1475543975830078e-01 5.0108855962753296e-01</leafValues></_>
        <_>
          <internalNodes>
            0 -1 24 -1.2379100546240807e-02</internalNodes>
          <leafValues>
            -8.5891526937484741e-01 2.1949680149555206e-01</leafValues></_>
        <_>
          <internalNodes>
            0 -1 81 -5.2576215239241719e-04</internalNodes>
          <leafValues>
            -6.9735956192016602e-01 2.0275017619132996e-01</leafValues></_>
        <_>
          <internalNodes>
            0 -1 67 -2.8680667746812105e-03</internalNodes>
          <leafValues>
            4.4003298878669739e-01 -4.5290479063987732e-01</leafValues></_></weakClassifiers></_>
    <!-- stage 9 -->
    <_>
      <maxWeakCount>10</maxWeakCount>
      <stageThreshold>-1.5625681877136230e+00</stageThreshold>
      <weakClassifiers>
        <_>
          <internalNodes>
            0 -1 19 -1.0222636163234711e-01</internalNodes>
          <leafValues>
            3.3828997611999512e-01 -6.2450593709945679e-01</leafValues></_>
        <_>
          <internalNodes>
            0 -1 91 7.6590990647673607e-03</internalNodes>
          <leafValues>
            -2.7560192346572876e-01 6.4330732822418213e-01</leafValues></_>
        <_>
          <internalNodes>
            0 -1 20 -1.2138985097408295e-02</internalNodes>
          <leafValues>
            -6.4700847864151001e-01 2.7064299583435059e-01</leafValues></_>
        <_>
          <internalNodes>
            0 -1 35 2.2189551964402199e-02</internalNodes>
          <leafValues>
            -3.1817516684532166e-01 5.2887308597564697e-01</leafValues></_>
        <_>
          <internalNodes>
            0 -1 104 -4.7401979099959135e-04</internalNodes>
          <leafValues>
            2.4075466394424438e-01 -7.8710037469863892e-01</leafValues></_>
        <_>
          <internalNodes>
            0 -1 111 -5.7260028552263975e-04</internalNodes>
          <leafValues>
            -5.6851792335510254e-01 2.5583356618881226e-01</leafValues></_>
        <_>
          <internalNodes>
            0 -1 87 -4.4511107262223959e-05</internalNodes>
          <leafValues>
            2.4099195003509521e-01 -5.8520680665969849e-01</leafValues></_>
        <_>
          <internalNodes>
            0 -1 88 3.2738498412072659e-03</internalNodes>
          <leafValues>
            -2.3745785653591156e-01 6.2925153970718384e-01</leafValues></_>
        <_>
          <internalNodes>
            0 -1 72 -2.5885649956762791e-03</internalNodes>
          <leafValues>
            4.4719773530960083e-01 -4.1241243481636047e-01</leafValues></_>
        <_>
          <internalNodes>
            0 -1 102 1.7595856916159391e-03</internalNodes>
          <leafValues>
            1.9416399300098419e-01 -7.0716059207916260e-01</leafValues></_></weakClassifiers></_>
    <!-- stage 10 -->
    <_>
      <maxWeakCount>10</maxWeakCount>
      <stageThreshold>-1.7757303714752197e+00</stageThreshold>
      <weakClassifiers>
        <_>
          <internalNodes>
            0 -1 17 -7.4138402938842773e-02</internalNodes>
          <leafValues>
            6.8852460384368896e-01 -4.7320061922073364e-01</leafValues></_>
        <_>
          <internalNodes>
            0 -1 34 -2.1655432879924774e-02</internalNodes>
          <leafValues>
            8.3813434839248657e-01 -2.4675545096397400e-01</leafValues></_>
        <_>
          <internalNodes>
            0 -1 46 -1.2589600373758003e-05</internalNodes>
          <leafValues>
            2.5118377804756165e-01 -6.8278735876083374e-01</leafValues></_>
        <_>
          <internalNodes>
            0 -1 61 -2.4539474397897720e-02</internalNodes>
          <leafValues>
            6.3283348083496094e-01 -2.5110191106796265e-01</leafValues></_>
        <_>
          <internalNodes>
            0 -1 107 -1.2697160709649324e-03</internalNodes>
          <leafValues>
            5.2875733375549316e-01 -2.4521176517009735e-01</leafValues></_>
        <_>
          <internalNodes>
            0 -1 113 -7.8044144902378321e-04</internalNodes>
          <leafValues>
            -6.2622094154357910e-01 2.7849599719047546e-01</leafValues></_>
        <_>
          <internalNodes>
            0 -1 70 -5.8069014921784401e-03</internalNodes>
          <leafValues>
            4.2716982960700989e-01 -3.9995962381362915e-01</leafValues></_>
        <_>
          <internalNodes>
            0 -1 121 3.6272755824029446e-03</internalNodes>
          <leafValues>
            2.0321871340274811e-01 -8.0299997329711914e-01</leafValues></_>
        <_>
          <internalNodes>
            0 -1 93 4.8829894512891769e-03</internalNodes>
          <leafValues>
            -2.5079730153083801e-01 7.2644084692001343e-01</leafValues></_>
        <_>
          <internalNodes>
            0 -1 57 -7.5911171734333038e-04</internalNodes>
          <leafValues>
            -7.1735590696334839e-01 2.6311469078063965e-01</leafValues></_></weakClassifiers></_>
    <!-- stage 11 -->
    <_>
      <maxWeakCount>9</maxWeakCount>
      <stageThreshold>-1.0411996841430664e+00</stageThreshold>
      <weakClassifiers>
        <_>
          <internalNodes>
            0 -1 21 4.0775641798973083e-02</internalNodes>
          <leafValues>
            -6.1523044109344482e-01 2.9710143804550171e-01</leafValues></_>
        <_>
          <internalNodes>
            0 -1 25 5.3171329200267792e-03</internalNodes>
          <leafValues>
            -4.9075180292129517e-01 3.4858876466751099e-01</leafValues></_>
        <_>
          <internalNodes>
            0 -1 110 2.1262294612824917e-03</internalNodes>
          <leafValues>
            -2.3376524448394775e-01 6.6815954446792603e-01</leafValues></_>
        <_>
          <internalNodes>
            0 -1 31 1.6731438226997852e-03</internalNodes>
          <leafValues>
            2.9940119385719299e-01 -5.2847135066986084e-01</leafValues></_>
        <_>
          <internalNodes>
            0 -1 49 3.1455419957637787e-05</internalNodes>
          <leafValues>
            -6.2438488006591797e-01 2.3310233652591705e-01</leafValues></_>
        <_>
          <internalNodes>
            0 -1 92 4.8855212517082691e-03</internalNodes>
          <leafValues>
            -2.3736333847045898e-01 7.2562605142593384e-01</leafValues></_>
        <_>
          <internalNodes>
            0 -1 105 -2.6672093663364649e-03</internalNodes>
          <leafValues>
            6.3872539997100830e-01 -2.1711175143718719e-01</leafValues></_>
        <_>
          <internalNodes>
            0 -1 68 4.5213275589048862e-03</internalNodes>
          <leafValues>
            -1.9783031940460205e-01 6.5321260690689087e-01</leafValues></_>
        <_>
          <internalNodes>
            0 -1 71 -1.3068969565210864e-05</internalNodes>
          <leafValues>
            4.1332596540451050e-01 -3.4842649102210999e-01</leafValues></_></weakClassifiers></_>
    <!-- stage 12 -->
    <_>
      <maxWeakCount>10</maxWeakCount>
      <stageThreshold>-1.2145744562149048e+00</stageThreshold>
      <weakClassifiers>
        <_>
          <internalNodes>
            0 -1 16 -8.4916219115257263e-02</internalNodes>
          <leafValues>
            3.1407943367958069e-01 -6.2650603055953979e-01</leafValues></_>
        <_>
          <internalNodes>
            0 -1 55 1.6383781257900409e-05</internalNodes>
          <leafValues>
            -6.0837274789810181e-01 2.0857255160808563e-01</leafValues></_>
        <_>
          <internalNodes>
            0 -1 118 4.1862847283482552e-03</internalNodes>
          <leafValues>
            1.6597701609134674e-01 -7.4370867013931274e-01</leafValues></_>
        <_>
          <internalNodes>
            0 -1 129 -7.7053415589034557e-04</internalNodes>
          <leafValues>
            -6.1346989870071411e-01 2.3440113663673401e-01</leafValues></_>
        <_>
          <internalNodes>
            0 -1 130 -3.2149273465620354e-05</internalNodes>
          <leafValues>
            3.2853081822395325e-01 -5.0735557079315186e-01</leafValues></_>
        <_>
          <internalNodes>
            0 -1 54 -1.3073683476250153e-05</internalNodes>
          <leafValues>
            2.3092304170131683e-01 -5.7348054647445679e-01</leafValues></_>
        <_>
          <internalNodes>
            0 -1 0 1.7341161146759987e-03</internalNodes>
          <leafValues>
            1.7103463411331177e-01 -7.4710828065872192e-01</leafValues></_>
        <_>
          <internalNodes>
            0 -1 4 -1.5339192748069763e-01</internalNodes>
          <leafValues>
            -9.7841775417327881e-01 1.0537174344062805e-01</leafValues></_>
        <_>
          <internalNodes>
            0 -1 74 4.3671340681612492e-03</internalNodes>
          <leafValues>
            7.7505141496658325e-02 -8.8932633399963379e-01</leafValues></_>
        <_>
          <internalNodes>
            0 -1 86 -8.5315369069576263e-03</internalNodes>
          <leafValues>
            4.6059009432792664e-01 -2.9607531428337097e-01</leafValues></_></weakClassifiers></_>
    <!-- stage 13 -->
    <_>
      <maxWeakCount>9</maxWeakCount>
      <stageThreshold>-1.3984322547912598e+00</stageThreshold>
      <weakClassifiers>
        <_>
          <internalNodes>
            0 -1 84 1.1715392023324966e-01</internalNodes>
          <leafValues>
            -4.3619322776794434e-01 9.5092022418975830e-01</leafValues></_>
        <_>
          <internalNodes>
            0 -1 82 -9.3064922839403152e-03</internalNodes>
          <leafValues>
            3.9011645317077637e-01 -6.9558483362197876e-01</leafValues></_>
        <_>
          <internalNodes>
            0 -1 122 1.7276930157095194e-03</internalNodes>
          <leafValues>
            3.7224972248077393e-01 -5.7174986600875854e-01</leafValues></_>
        <_>
          <internalNodes>
            0 -1 7 -4.7691568732261658e-02</internalNodes>
          <leafValues>
            3.9779666066169739e-01 -4.5676574110984802e-01</leafValues></_>
        <_>
          <internalNodes>
            0 -1 117 -1.1169314384460449e-03</internalNodes>
          <leafValues>
            -6.9971209764480591e-01 2.5928181409835815e-01</leafValues></_>
        <_>
          <internalNodes>
            0 -1 50 3.0479763518087566e-04</internalNodes>
          <leafValues>
            -3.6992633342742920e-01 3.9864414930343628e-01</leafValues></_>
        <_>
          <internalNodes>
            0 -1 42 -3.8717703428119421e-03</internalNodes>
          <leafValues>
            -6.5825611352920532e-01 2.0967586338520050e-01</leafValues></_>
        <_>
          <internalNodes>
            0 -1 36 -4.1479513049125671e-02</internalNodes>
          <leafValues>
            -9.2788285017013550e-01 1.1896796524524689e-01</leafValues></_>
        <_>
          <internalNodes>
            0 -1 75 -5.0483942031860352e-03</internalNodes>
          <leafValues>
            5.7111853361129761e-01 -2.6355889439582825e-01</leafValues></_></weakClassifiers></_>
    <!-- stage 14 -->
    <_>
      <maxWeakCount>8</maxWeakCount>
      <stageThreshold>-9.1452556848526001e-01</stageThreshold>
      <weakClassifiers>
        <_>
          <internalNodes>
            0 -1 83 1.5644189715385437e-01</internalNodes>
          <leafValues>
            -4.3185079097747803e-01 9.7435897588729858e-01</leafValues></_>
        <_>
          <internalNodes>
            0 -1 43 -2.6826761662960052e-02</internalNodes>
          <leafValues>
            8.5076606273651123e-01 -3.1559678912162781e-01</leafValues></_>
        <_>
          <internalNodes>
            0 -1 125 -8.3716399967670441e-04</internalNodes>
          <leafValues>
            3.3061859011650085e-01 -5.1200103759765625e-01</leafValues></_>
        <_>
          <internalNodes>
            0 -1 127 -1.5722275711596012e-03</internalNodes>
          <leafValues>
            -5.2772599458694458e-01 2.5491207838058472e-01</leafValues></_>
        <_>
          <internalNodes>
            0 -1 73 -3.0158140361891128e-05</internalNodes>
          <leafValues>
            1.5524284541606903e-01 -8.4860324859619141e-01</leafValues></_>
        <_>
          <internalNodes>
            0 -1 97 -1.9609052687883377e-03</internalNodes>
          <leafValues>
            6.3995873928070068e-01 -2.4043193459510803e-01</leafValues></_>
        <_>
          <internalNodes>
            0 -1 99 -1.9836355932056904e-03</internalNodes>
          <leafValues>
            5.1949012279510498e-01 -3.0529749393463135e-01</leafValues></_>
        <_>
          <internalNodes>
            0 -1 66 -2.0055675122421235e-04</internalNodes>
          <leafValues>
            4.8746079206466675e-01 -3.4429004788398743e-01</leafValues></_></weakClassifiers></_>
    <!-- stage 15 -->
    <_>
      <maxWeakCount>10</maxWeakCount>
      <stageThreshold>-1.3086959123611450e+00</stageThreshold>
      <weakClassifiers>
        <_>
          <internalNodes>
            0 -1 64 3.5549223423004150e-02</internalNodes>
          <leafValues>
            -5.3611558675765991e-01 7.1710526943206787e-01</leafValues></_>
        <_>
          <internalNodes>
            0 -1 85 2.8749667108058929e-03</internalNodes>
          <leafValues>
            -2.6598295569419861e-01 6.4035207033157349e-01</leafValues></_>
        <_>
          <internalNodes>
            0 -1 76 -3.6854590289294720e-03</internalNodes>
          <leafValues>
            5.4849636554718018e-01 -3.3488246798515320e-01</leafValues></_>
        <_>
          <internalNodes>
            0 -1 13 -1.0028511314885691e-04</internalNodes>
          <leafValues>
            -6.5915071964263916e-01 2.9355341196060181e-01</leafValues></_>
        <_>
          <internalNodes>
            0 -1 128 -3.3551739761605859e-05</internalNodes>
          <leafValues>
            3.2828414440155029e-01 -5.4547524452209473e-01</leafValues></_>
        <_>
          <internalNodes>
            0 -1 80 -9.3980692327022552e-04</internalNodes>
          <leafValues>
            2.4142125248908997e-01 -5.3223311901092529e-01</leafValues></_>
        <_>
          <internalNodes>
            0 -1 112 -6.3001696253195405e-04</internalNodes>
          <leafValues>
            -6.7405790090560913e-01 2.6486989855766296e-01</leafValues></_>
        <_>
          <internalNodes>
            0 -1 114 2.5709322653710842e-03</internalNodes>
          <leafValues>
            1.9222140312194824e-01 -6.4182054996490479e-01</leafValues></_>
        <_>
          <internalNodes>
            0 -1 65 -2.5319913402199745e-03</internalNodes>
          <leafValues>
            5.9031116962432861e-01 -2.5106814503669739e-01</leafValues></_>
        <_>
          <internalNodes>
            0 -1 79 -2.4442092981189489e-03</internalNodes>
          <leafValues>
            5.5668586492538452e-01 -2.8829276561737061e-01</leafValues></_></weakClassifiers></_>
    <!-- stage 16 -->
    <_>
      <maxWeakCount>9</maxWeakCount>
      <stageThreshold>-1.6389703750610352e+00</stageThreshold>
      <weakClassifiers>
        <_>
          <internalNodes>
            0 -1 69 2.8073299676179886e-02</internalNodes>
          <leafValues>
            -5.6552964448928833e-01 4.1284403204917908e-01</leafValues></_>
        <_>
          <internalNodes>
            0 -1 108 -9.3328149523586035e-04</internalNodes>
          <leafValues>
            2.7103990316390991e-01 -5.7854181528091431e-01</leafValues></_>
        <_>
          <internalNodes>
            0 -1 5 -2.5912262499332428e-02</internalNodes>
          <leafValues>
            -7.3095291852951050e-01 2.1283322572708130e-01</leafValues></_>
        <_>
          <internalNodes>
            0 -1 115 -2.0925958233419806e-04</internalNodes>
          <leafValues>
            -6.3810932636260986e-01 2.3462231457233429e-01</leafValues></_>
        <_>
          <internalNodes>
            0 -1 23 -1.3190143363317475e-05</internalNodes>
          <leafValues>
            4.0340796113014221e-01 -3.5377734899520874e-01</leafValues></_>
        <_>
          <internalNodes>
            0 -1 110 1.4225393533706665e-03</internalNodes>
          <leafValues>
            -2.4040564894676208e-01 5.4962033033370972e-01</leafValues></_>
        <_>
          <internalNodes>
            0 -1 123 -7.2855717735365033e-04</internalNodes>
          <leafValues>
            -7.6444840431213379e-01 1.7420345544815063e-01</leafValues></_>
        <_>
          <internalNodes>
            0 -1 44 -1.2849334161728621e-03</internalNodes>
          <leafValues>
            1.4631204307079315e-01 -8.2787215709686279e-01</leafValues></_>
        <_>
          <internalNodes>
            0 -1 120 -3.8444614619947970e-04</internalNodes>
          <leafValues>
            -6.4553707838058472e-01 1.6754648089408875e-01</leafValues></_></weakClassifiers></_></stages>
  <features>
    <_>
      <rects>
        <_>
          0 0 8 1 -1.</_>
        <_>
          4 0 4 1 2.</_></rects>
      <tilted>0</tilted></_>
    <_>
      <rects>
        <_>
          0 0 20 13 -1.</_>
        <_>
          10 0 10 13 2.</_></rects>
      <tilted>0</tilted></_>
    <_>
      <rects>
        <_>
          0 0 19 12 -1.</_>
        <_>
          0 6 19 6 2.</_></rects>
      <tilted>0</tilted></_>
    <_>
      <rects>
        <_>
          0 2 1 15 -1.</_>
        <_>
          0 7 1 5 3.</_></rects>
      <tilted>0</tilted></_>
    <_>
      <rects>
        <_>
          0 2 16 14 -1.</_>
        <_>
          8 2 8 14 2.</_></rects>
      <tilted>0</tilted></_>
    <_>
      <rects>
        <_>
          0 3 22 14 -1.</_>
        <_>
          0 3 11 7 2.</_>
        <_>
          11 10 11 7 2.</_></rects>
      <tilted>0</tilted></_>
    <_>
      <rects>
        <_>
          0 4 1 12 -1.</_>
        <_>
          0 8 1 4 3.</_></rects>
      <tilted>0</tilted></_>
    <_>
      <rects>
        <_>
          0 4 21 6 -1.</_>
        <_>
          7 4 7 6 3.</_></rects>
      <tilted>0</tilted></_>
    <_>
      <rects>
        <_>
          0 6 10 10 -1.</_>
        <_>
          0 6 5 5 2.</_>
        <_>
          5 11 5 5 2.</_></rects>
      <tilted>0</tilted></_>
    <_>
      <rects>
        <_>
          0 9 8 6 -1.</_>
        <_>
          0 9 4 3 2.</_>
        <_>
          4 12 4 3 2.</_></rects>
      <tilted>0</tilted></_>
    <_>
      <rects>
        <_>
          0 10 1 4 -1.</_>
        <_>
          0 12 1 2 2.</_></rects>
      <tilted>0</tilted></_>
    <_>
      <rects>
        <_>
          0 11 20 13 -1.</_>
        <_>
          10 11 10 13 2.</_></rects>
      <tilted>0</tilted></_>
    <_>
      <rects>
        <_>
          0 12 19 8 -1.</_>
        <_>
          0 16 19 4 2.</_></rects>
      <tilted>0</tilted></_>
    <_>
      <rects>
        <_>
          1 0 3 1 -1.</_>
        <_>
          2 0 1 1 3.</_></rects>
      <tilted>0</tilted></_>
    <_>
      <rects>
        <_>
          1 0 3 3 -1.</_>
        <_>
          2 0 1 3 3.</_></rects>
      <tilted>0</tilted></_>
    <_>
      <rects>
        <_>
          1 0 18 12 -1.</_>
        <_>
          10 0 9 12 2.</_></rects>
      <tilted>0</tilted></_>
    <_>
      <rects>
        <_>
          1 4 18 14 -1.</_>
        <_>
          7 4 6 14 3.</_></rects>
      <tilted>0</tilted></_>
    <_>
      <rects>
        <_>
          1 14 15 5 -1.</_>
        <_>
          6 14 5 5 3.</_></rects>
      <tilted>0</tilted></_>
    <_>
      <rects>
        <_>
          1 17 5 4 -1.</_>
        <_>
          1 19 5 2 2.</_></rects>
      <tilted>0</tilted></_>
    <_>
      <rects>
        <_>
          2 0 18 15 -1.</_>
        <_>
          8 0 6 15 3.</_></rects>
      <tilted>0</tilted></_>
    <_>
      <rects>
        <_>
          2 0 20 22 -1.</_>
        <_>
          2 0 10 11 2.</_>
        <_>
          12 11 10 11 2.</_></rects>
      <tilted>0</tilted></_>
    <_>
      <rects>
        <_>
          2 13 11 8 -1.</_>
        <_>
          2 17 11 4 2.</_></rects>
      <tilted>0</tilted></_>
    <_>
      <rects>
        <_>
          2 13 16 8 -1.</_>
        <_>
          2 17 16 4 2.</_></rects>
      <tilted>0</tilted></_>
    <_>
      <rects>
        <_>
          2 16 1 4 -1.</_>
        <_>
          2 18 1 2 2.</_></rects>
      <tilted>0</tilted></_>
    <_>
      <rects>
        <_>
          3 0 15 3 -1.</_>
        <_>
          8 0 5 3 3.</_></rects>
      <tilted>0</tilted></_>
    <_>
      <rects>
        <_>
          3 10 9 1 -1.</_>
        <_>
          6 10 3 1 3.</_></rects>
      <tilted>0</tilted></_>
    <_>
      <rects>
        <_>
          4 0 12 6 -1.</_>
        <_>
          4 3 12 3 2.</_></rects>
      <tilted>0</tilted></_>
    <_>
      <rects>
        <_>
          5 0 6 6 -1.</_>
        <_>
          5 2 6 2 3.</_></rects>
      <tilted>0</tilted></_>
    <_>
      <rects>
        <_>
          5 11 2 1 -1.</_>
        <_>
          6 11 1 1 2.</_></rects>
      <tilted>0</tilted></_>
    <_>
      <rects>
        <_>
          5 11 1 2 -1.</_>
        <_>
          5 12 1 1 2.</_></rects>
      <tilted>0</tilted></_>
    <_>
      <rects>
        <_>
          6 0 3 2 -1.</_>
        <_>
          7 0 1 2 3.</_></rects>
      <tilted>0</tilted></_>
    <_>
      <rects>
        <_>
          6 0 15 1 -1.</_>
        <_>
          11 0 5 1 3.</_></rects>
      <tilted>0</tilted></_>
    <_>
      <rects>
        <_>
          6 1 9 8 -1.</_>
        <_>
          6 5 9 4 2.</_></rects>
      <tilted>0</tilted></_>
    <_>
      <rects>
        <_>
          6 2 3 10 -1.</_>
        <_>
          7 2 1 10 3.</_></rects>
      <tilted>0</tilted></_>
    <_>
      <rects>
        <_>
          6 3 3 4 -1.</_>
        <_>
          6 5 3 2 2.</_></rects>
      <tilted>0</tilted></_>
    <_>
      <rects>
        <_>
          6 4 6 12 -1.</_>
        <_>
          8 4 2 12 3.</_></rects>
      <tilted>0</tilted></_>
    <_>
      <rects>
        <_>
          6 6 16 6 -1.</_>
        <_>
          6 9 16 3 2.</_></rects>
      <tilted>0</tilted></_>
    <_>
      <rects>
        <_>
          6 7 2 8 -1.</_>
        <_>
          6 7 1 4 2.</_>
        <_>
          7 11 1 4 2.</_></rects>
      <tilted>0</tilted></_>
    <_>
      <rects>
        <_>
          6 10 6 6 -1.</_>
        <_>
          8 10 2 6 3.</_></rects>
      <tilted>0</tilted></_>
    <_>
      <rects>
        <_>
          6 11 2 4 -1.</_>
        <_>
          6 13 2 2 2.</_></rects>
      <tilted>0</tilted></_>
    <_>
      <rects>
        <_>
          6 11 6 6 -1.</_>
        <_>
          6 11 3 3 2.</_>
        <_>
          9 14 3 3 2.</_></rects>
      <tilted>0</tilted></_>
    <_>
      <rects>
        <_>
          6 13 1 2 -1.</_>
        <_>
          6 14 1 1 2.</_></rects>
      <tilted>0</tilted></_>
    <_>
      <rects>
        <_>
          6 23 18 1 -1.</_>
        <_>
          15 23 9 1 2.</_></rects>
      <tilted>0</tilted></_>
    <_>
      <rects>
        <_>
          7 2 2 6 -1.</_>
        <_>
          7 5 2 3 2.</_></rects>
      <tilted>0</tilted></_>
    <_>
      <rects>
        <_>
          7 6 10 8 -1.</_>
        <_>
          7 6 5 4 2.</_>
        <_>
          12 10 5 4 2.</_></rects>
      <tilted>0</tilted></_>
    <_>
      <rects>
        <_>
          7 7 2 1 -1.</_>
        <_>
          8 7 1 1 2.</_></rects>
      <tilted>0</tilted></_>
    <_>
      <rects>
        <_>
          7 12 1 2 -1.</_>
        <_>
          7 13 1 1 2.</_></rects>
      <tilted>0</tilted></_>
    <_>
      <rects>
        <_>
          7 12 15 5 -1.</_>
        <_>
          12 12 5 5 3.</_></rects>
      <tilted>0</tilted></_>
    <_>
      <rects>
        <_>
          7 13 1 2 -1.</_>
        <_>
          7 14 1 1 2.</_></rects>
      <tilted>0</tilted></_>
    <_>
      <rects>
        <_>
          7 15 2 2 -1.</_>
        <_>
          8 15 1 2 2.</_></rects>
      <tilted>0</tilted></_>
    <_>
      <rects>
        <_>
          8 1 1 4 -1.</_>
        <_>
          8 3 1 2 2.</_></rects>
      <tilted>0</tilted></_>
    <_>
      <rects>
        <_>
          8 2 6 6 -1.</_>
        <_>
          8 5 6 3 2.</_></rects>
      <tilted>0</tilted></_>
    <_>
      <rects>
        <_>
          8 3 2 14 -1.</_>
        <_>
          8 10 2 7 2.</_></rects>
      <tilted>0</tilted></_>
    <_>
      <rects>
        <_>
          8 6 2 6 -1.</_>
        <_>
          8 9 2 3 2.</_></rects>
      <tilted>0</tilted></_>
    <_>
      <rects>
        <_>
          8 7 2 1 -1.</_>
        <_>
          9 7 1 1 2.</_></rects>
      <tilted>0</tilted></_>
    <_>
      <rects>
        <_>
          8 7 1 4 -1.</_>
        <_>
          8 9 1 2 2.</_></rects>
      <tilted>0</tilted></_>
    <_>
      <rects>
        <_>
          8 8 2 1 -1.</_>
        <_>
          9 8 1 1 2.</_></rects>
      <tilted>0</tilted></_>
    <_>
      <rects>
        <_>
          9 0 12 1 -1.</_>
        <_>
          13 0 4 1 3.</_></rects>
      <tilted>0</tilted></_>
    <_>
      <rects>
        <_>
          9 1 3 6 -1.</_>
        <_>
          9 3 3 2 3.</_></rects>
      <tilted>0</tilted></_>
    <_>
      <rects>
        <_>
          9 4 4 2 -1.</_>
        <_>
          9 5 4 1 2.</_></rects>
      <tilted>0</tilted></_>
    <_>
      <rects>
        <_>
          9 5 9 8 -1.</_>
        <_>
          9 9 9 4 2.</_></rects>
      <tilted>0</tilted></_>
    <_>
      <rects>
        <_>
          9 6 6 6 -1.</_>
        <_>
          11 6 2 6 3.</_></rects>
      <tilted>0</tilted></_>
    <_>
      <rects>
        <_>
          9 8 6 8 -1.</_>
        <_>
          9 8 3 4 2.</_>
        <_>
          12 12 3 4 2.</_></rects>
      <tilted>0</tilted></_>
    <_>
      <rects>
        <_>
          9 10 3 7 -1.</_>
        <_>
          10 10 1 7 3.</_></rects>
      <tilted>0</tilted></_>
    <_>
      <rects>
        <_>
          9 13 9 4 -1.</_>
        <_>
          9 15 9 2 2.</_></rects>
      <tilted>0</tilted></_>
    <_>
      <rects>
        <_>
          9 19 6 1 -1.</_>
        <_>
          11 19 2 1 3.</_></rects>
      <tilted>0</tilted></_>
    <_>
      <rects>
        <_>
          10 5 2 1 -1.</_>
        <_>
          11 5 1 1 2.</_></rects>
      <tilted>0</tilted></_>
    <_>
      <rects>
        <_>
          10 10 4 6 -1.</_>
        <_>
          10 10 2 3 2.</_>
        <_>
          12 13 2 3 2.</_></rects>
      <tilted>0</tilted></_>
    <_>
      <rects>
        <_>
          10 11 7 3 -1.</_>
        <_>
          10 12 7 1 3.</_></rects>
      <tilted>0</tilted></_>
    <_>
      <rects>
        <_>
          10 13 8 4 -1.</_>
        <_>
          10 15 8 2 2.</_></rects>
      <tilted>0</tilted></_>
    <_>
      <rects>
        <_>
          10 15 1 8 -1.</_>
        <_>
          10 19 1 4 2.</_></rects>
      <tilted>0</tilted></_>
    <_>
      <rects>
        <_>
          11 4 2 1 -1.</_>
        <_>
          12 4 1 1 2.</_></rects>
      <tilted>0</tilted></_>
    <_>
      <rects>
        <_>
          11 4 4 2 -1.</_>
        <_>
          11 5 4 1 2.</_></rects>
      <tilted>0</tilted></_>
    <_>
      <rects>
        <_>
          11 5 5 6 -1.</_>
        <_>
          11 8 5 3 2.</_></rects>
      <tilted>0</tilted></_>
    <_>
      <rects>
        <_>
          11 7 5 6 -1.</_>
        <_>
          11 10 5 3 2.</_></rects>
      <tilted>0</tilted></_>
    <_>
      <rects>
        <_>
          11 8 6 3 -1.</_>
        <_>
          11 9 6 1 3.</_></rects>
      <tilted>0</tilted></_>
    <_>
      <rects>
        <_>
          11 9 8 3 -1.</_>
        <_>
          11 10 8 1 3.</_></rects>
      <tilted>0</tilted></_>
    <_>
      <rects>
        <_>
          11 13 3 6 -1.</_>
        <_>
          11 15 3 2 3.</_></rects>
      <tilted>0</tilted></_>
    <_>
      <rects>
        <_>
          11 13 5 9 -1.</_>
        <_>
          11 16 5 3 3.</_></rects>
      <tilted>0</tilted></_>
    <_>
      <rects>
        <_>
          11 15 6 2 -1.</_>
        <_>
          11 15 3 1 2.</_>
        <_>
          14 16 3 1 2.</_></rects>
      <tilted>0</tilted></_>
    <_>
      <rects>
        <_>
          11 20 7 2 -1.</_>
        <_>
          11 21 7 1 2.</_></rects>
      <tilted>0</tilted></_>
    <_>
      <rects>
        <_>
          12 0 9 1 -1.</_>
        <_>
          15 0 3 1 3.</_></rects>
      <tilted>0</tilted></_>
    <_>
      <rects>
        <_>
          12 2 10 4 -1.</_>
        <_>
          17 2 5 4 2.</_></rects>
      <tilted>0</tilted></_>
    <_>
      <rects>
        <_>
          12 3 10 10 -1.</_>
        <_>
          17 3 5 10 2.</_></rects>
      <tilted>0</tilted></_>
    <_>
      <rects>
        <_>
          12 3 12 7 -1.</_>
        <_>
          18 3 6 7 2.</_></rects>
      <tilted>0</tilted></_>
    <_>
      <rects>
        <_>
          12 9 3 3 -1.</_>
        <_>
          12 10 3 1 3.</_></rects>
      <tilted>0</tilted></_>
    <_>
      <rects>
        <_>
          12 11 5 6 -1.</_>
        <_>
          12 14 5 3 2.</_></rects>
      <tilted>0</tilted></_>
    <_>
      <rects>
        <_>
          12 19 1 2 -1.</_>
        <_>
          12 20 1 1 2.</_></rects>
      <tilted>0</tilted></_>
    <_>
      <rects>
        <_>
          13 4 3 3 -1.</_>
        <_>
          13 5 3 1 3.</_></rects>
      <tilted>0</tilted></_>
    <_>
      <rects>
        <_>
          13 6 3 2 -1.</_>
        <_>
          13 7 3 1 2.</_></rects>
      <tilted>0</tilted></_>
    <_>
      <rects>
        <_>
          13 8 4 6 -1.</_>
        <_>
          13 11 4 3 2.</_></rects>
      <tilted>0</tilted></_>
    <_>
      <rects>
        <_>
          13 9 5 3 -1.</_>
        <_>
          13 10 5 1 3.</_></rects>
      <tilted>0</tilted></_>
    <_>
      <rects>
        <_>
          13 10 5 3 -1.</_>
        <_>
          13 11 5 1 3.</_></rects>
      <tilted>0</tilted></_>
    <_>
      <rects>
        <_>
          13 11 5 3 -1.</_>
        <_>
          13 12 5 1 3.</_></rects>
      <tilted>0</tilted></_>
    <_>
      <rects>
        <_>
          13 19 1 2 -1.</_>
        <_>
          13 20 1 1 2.</_></rects>
      <tilted>0</tilted></_>
    <_>
      <rects>
        <_>
          13 19 7 2 -1.</_>
        <_>
          13 20 7 1 2.</_></rects>
      <tilted>0</tilted></_>
    <_>
      <rects>
        <_>
          14 4 3 3 -1.</_>
        <_>
          15 4 1 3 3.</_></rects>
      <tilted>0</tilted></_>
    <_>
      <rects>
        <_>
          14 5 2 3 -1.</_>
        <_>
          14 6 2 1 3.</_></rects>
      <tilted>0</tilted></_>
    <_>
      <rects>
        <_>
          14 6 2 3 -1.</_>
        <_>
          14 7 2 1 3.</_></rects>
      <tilted>0</tilted></_>
    <_>
      <rects>
        <_>
          14 6 3 3 -1.</_>
        <_>
          14 7 3 1 3.</_></rects>
      <tilted>0</tilted></_>
    <_>
      <rects>
        <_>
          14 7 4 3 -1.</_>
        <_>
          14 8 4 1 3.</_></rects>
      <tilted>0</tilted></_>
    <_>
      <rects>
        <_>
          14 8 4 3 -1.</_>
        <_>
          14 9 4 1 3.</_></rects>
      <tilted>0</tilted></_>
    <_>
      <rects>
        <_>
          14 23 6 1 -1.</_>
        <_>
          17 23 3 1 2.</_></rects>
      <tilted>0</tilted></_>
    <_>
      <rects>
        <_>
          15 6 3 3 -1.</_>
        <_>
          15 7 3 1 3.</_></rects>
      <tilted>0</tilted></_>
    <_>
      <rects>
        <_>
          15 7 2 6 -1.</_>
        <_>
          15 10 2 3 2.</_></rects>
      <tilted>0</tilted></_>
    <_>
      <rects>
        <_>
          15 7 3 3 -1.</_>
        <_>
          15 8 3 1 3.</_></rects>
      <tilted>0</tilted></_>
    <_>
      <rects>
        <_>
          15 8 1 6 -1.</_>
        <_>
          15 11 1 3 2.</_></rects>
      <tilted>0</tilted></_>
    <_>
      <rects>
        <_>
          15 8 2 3 -1.</_>
        <_>
          15 9 2 1 3.</_></rects>
      <tilted>0</tilted></_>
    <_>
      <rects>
        <_>
          15 9 1 6 -1.</_>
        <_>
          15 12 1 3 2.</_></rects>
      <tilted>0</tilted></_>
    <_>
      <rects>
        <_>
          15 9 2 3 -1.</_>
        <_>
          15 10 2 1 3.</_></rects>
      <tilted>0</tilted></_>
    <_>
      <rects>
        <_>
          15 12 2 3 -1.</_>
        <_>
          15 13 2 1 3.</_></rects>
      <tilted>0</tilted></_>
    <_>
      <rects>
        <_>
          16 0 6 1 -1.</_>
        <_>
          19 0 3 1 2.</_></rects>
      <tilted>0</tilted></_>
    <_>
      <rects>
        <_>
          16 18 4 1 -1.</_>
        <_>
          18 18 2 1 2.</_></rects>
      <tilted>0</tilted></_>
    <_>
      <rects>
        <_>
          17 0 6 2 -1.</_>
        <_>
          19 0 2 2 3.</_></rects>
      <tilted>0</tilted></_>
    <_>
      <rects>
        <_>
          17 18 4 6 -1.</_>
        <_>
          19 18 2 6 2.</_></rects>
      <tilted>0</tilted></_>
    <_>
      <rects>
        <_>
          18 1 6 1 -1.</_>
        <_>
          20 1 2 1 3.</_></rects>
      <tilted>0</tilted></_>
    <_>
      <rects>
        <_>
          18 18 6 3 -1.</_>
        <_>
          21 18 3 3 2.</_></rects>
      <tilted>0</tilted></_>
    <_>
      <rects>
        <_>
          18 21 6 2 -1.</_>
        <_>
          21 21 3 2 2.</_></rects>
      <tilted>0</tilted></_>
    <_>
      <rects>
        <_>
          19 13 5 6 -1.</_>
        <_>
          19 15 5 2 3.</_></rects>
      <tilted>0</tilted></_>
    <_>
      <rects>
        <_>
          20 3 4 6 -1.</_>
        <_>
          20 3 2 3 2.</_>
        <_>
          22 6 2 3 2.</_></rects>
      <tilted>0</tilted></_>
    <_>
      <rects>
        <_>
          20 6 3 2 -1.</_>
        <_>
          20 7 3 1 2.</_></rects>
      <tilted>0</tilted></_>
    <_>
      <rects>
        <_>
          20 20 4 4 -1.</_>
        <_>
          22 20 2 4 2.</_></rects>
      <tilted>0</tilted></_>
    <_>
      <rects>
        <_>
          21 1 1 15 -1.</_>
        <_>
          21 6 1 5 3.</_></rects>
      <tilted>0</tilted></_>
    <_>
      <rects>
        <_>
          22 0 2 5 -1.</_>
        <_>
          23 0 1 5 2.</_></rects>
      <tilted>0</tilted></_>
    <_>
      <rects>
        <_>
          23 0 1 14 -1.</_>
        <_>
          23 7 1 7 2.</_></rects>
      <tilted>0</tilted></_>
    <_>
      <rects>
        <_>
          23 2 1 22 -1.</_>
        <_>
          23 13 1 11 2.</_></rects>
      <tilted>0</tilted></_>
    <_>
      <rects>
        <_>
          23 8 1 14 -1.</_>
        <_>
          23 15 1 7 2.</_></rects>
      <tilted>0</tilted></_>
    <_>
      <rects>
        <_>
          23 11 1 8 -1.</_>
        <_>
          23 15 1 4 2.</_></rects>
      <tilted>0</tilted></_>
    <_>
      <rects>
        <_>
          23 12 1 6 -1.</_>
        <_>
          23 15 1 3 2.</_></rects>
      <tilted>0</tilted></_>
    <_>
      <rects>
        <_>
          23 13 1 4 -1.</_>
        <_>
          23 15 1 2 2.</_></rects>
      <tilted>0</tilted></_>
    <_>
      <rects>
        <_>
          23 14 1 4 -1.</_>
        <_>
          23 16 1 2 2.</_></rects>
      <tilted>0</tilted></_></features></cascade>
</opencv_storage>
