<?xml version="1.0"?>
<opencv_storage>
<cascade>
  <stageType>BOOST</stageType>
  <featureType>HAAR</featureType>
  <height>24</height>
  <width>24</width>
  <stageParams>
    <boostType>GAB</boostType>
    <minHitRate>9.9500000476837158e-01</minHitRate>
    <maxFalseAlarm>5.0000000000000000e-01</maxFalseAlarm>
    <weightTrimRate>9.4999998807907104e-01</weightTrimRate>
    <maxDepth>1</maxDepth>
    <maxWeakCount>100</maxWeakCount></stageParams>
  <featureParams>
    <maxCatCount>0</maxCatCount>
    <featSize>1</featSize>
    <mode>BASIC</mode></featureParams>
  <stageNum>20</stageNum>
  <stages>
    <!-- stage 0 -->
    <_>
      <maxWeakCount>4</maxWeakCount>
      <stageThreshold>-1.2139338254928589e+00</stageThreshold>
      <weakClassifiers>
        <_>
          <internalNodes>
            0 -1 86 -2.6057358831167221e-02</internalNodes>
          <leafValues>
            7.3011362552642822e-01 -8.1489455699920654e-01</leafValues></_>
        <_>
          <internalNodes>
            0 -1 62 -1.2526269070804119e-02</internalNodes>
          <leafValues>
            5.4038155078887939e-01 -7.8067529201507568e-01</leafValues></_>
        <_>
          <internalNodes>
            0 -1 31 -4.7497093677520752e-02</internalNodes>
          <leafValues>
            8.7072390317916870e-01 -4.8424610495567322e-01</leafValues></_>
        <_>
          <internalNodes>
            0 -1 76 7.1086570620536804e-02</internalNodes>
          <leafValues>
            -4.4423234462738037e-01 8.6588209867477417e-01</leafValues></_></weakClassifiers></_>
    <!-- stage 1 -->
    <_>
      <maxWeakCount>6</maxWeakCount>
      <stageThreshold>-1.4092116355895996e+00</stageThreshold>
      <weakClassifiers>
        <_>
          <internalNodes>
            0 -1 6 -2.2511552274227142e-01</internalNodes>
          <leafValues>
            7.1819961071014404e-01 -6.9395864009857178e-01</leafValues></_>
        <_>
          <internalNodes>
            0 -1 43 3.7556767463684082e-02</internalNodes>
          <leafValues>
            -5.7666891813278198e-01 6.6689258813858032e-01</leafValues></_>
        <_>
          <internalNodes>
            0 -1 55 4.9440450966358185e-02</internalNodes>
          <leafValues>
            -3.9153608679771423e-01 7.8156340122222900e-01</leafValues></_>
        <_>
          <internalNodes>
            0 -1 78 -1.1219991138204932e-03</internalNodes>
          <leafValues>
            4.4337591528892517e-01 -6.2954521179199219e-01</leafValues></_>
        <_>
          <internalNodes>
            0 -1 67 4.7590449452400208e-02</internalNodes>
          <leafValues>
            -4.9966278672218323e-01 6.1775356531143188e-01</leafValues></_>
        <_>
          <internalNodes>
            0 -1 0 3.1040783505886793e-04</internalNodes>
          <leafValues>
            3.0923888087272644e-01 -8.7015974521636963e-01</leafValues></_></weakClassifiers></_>
    <!-- stage 2 -->
    <_>
      <maxWeakCount>3</maxWeakCount>
      <stageThreshold>-9.2243140935897827e-01</stageThreshold>
      <weakClassifiers>
        <_>
          <internalNodes>
            0 -1 0 -2.0200430299155414e-04</internalNodes>
          <leafValues>
            -9.4536978006362915e-01 2.6212319731712341e-02</leafValues></_>
        <_>
          <internalNodes>
            0 -1 99 -2.6115693151950836e-02</internalNodes>
          <leafValues>
            4.5985469222068787e-01 -5.9242039918899536e-01</leafValues></_>
        <_>
          <internalNodes>
            0 -1 30 4.7010026872158051e-02</internalNodes>
          <leafValues>
            -3.5622334480285645e-01 7.9994481801986694e-01</leafValues></_></weakClassifiers></_>
    <!-- stage 3 -->
    <_>
      <maxWeakCount>5</maxWeakCount>
      <stageThreshold>-1.5024759769439697e+00</stageThreshold>
      <weakClassifiers>
        <_>
          <internalNodes>
            0 -1 9 -1.7969910800457001e-01</internalNodes>
          <leafValues>
            3.9967373013496399e-01 -6.7274230718612671e-01</leafValues></_>
        <_>
          <internalNodes>
            0 -1 4 -2.9959863424301147e-01</internalNodes>
          <leafValues>
            5.5971664190292358e-01 -5.5823111534118652e-01</leafValues></_>
        <_>
          <internalNodes>
            0 -1 93 -1.2979808161617257e-05</internalNodes>
          <leafValues>
            3.3230048418045044e-01 -6.8167114257812500e-01</leafValues></_>
        <_>
          <internalNodes>
            0 -1 141 1.9565843103919178e-04</internalNodes>
          <leafValues>
            2.3383788764476776e-01 -9.2954766750335693e-01</leafValues></_>
        <_>
          <internalNodes>
            0 -1 91 -1.8415868980810046e-03</internalNodes>
          <leafValues>
            -8.3764088153839111e-01 2.3396703600883484e-01</leafValues></_></weakClassifiers></_>
    <!-- stage 4 -->
    <_>
      <maxWeakCount>6</maxWeakCount>
      <stageThreshold>-1.2608281373977661e+00</stageThreshold>
      <weakClassifiers>
        <_>
          <internalNodes>
            0 -1 3 1.2644731998443604e-01</internalNodes>
          <leafValues>
            -6.1201781034469604e-01 8.1873112916946411e-01</leafValues></_>
        <_>
          <internalNodes>
            0 -1 129 -2.0589914129232056e-05</internalNodes>
          <leafValues>
            2.9716244339942932e-01 -7.5666731595993042e-01</leafValues></_>
        <_>
          <internalNodes>
            0 -1 27 4.1587217128835618e-04</internalNodes>
          <leafValues>
            2.0197573304176331e-01 -8.9612668752670288e-01</leafValues></_>
        <_>
          <internalNodes>
            0 -1 28 6.0715805739164352e-04</internalNodes>
          <leafValues>
            2.8479236364364624e-01 -8.0657315254211426e-01</leafValues></_>
        <_>
          <internalNodes>
            0 -1 26 1.3223150745034218e-03</internalNodes>
          <leafValues>
            2.4211050570011139e-01 -7.3965269327163696e-01</leafValues></_>
        <_>
          <internalNodes>
            0 -1 34 3.1371485441923141e-02</internalNodes>
          <leafValues>
            -5.1962065696716309e-01 4.0501421689987183e-01</leafValues></_></weakClassifiers></_>
    <!-- stage 5 -->
    <_>
      <maxWeakCount>7</maxWeakCount>
      <stageThreshold>-1.3936232328414917e+00</stageThreshold>
      <weakClassifiers>
        <_>
          <internalNodes>
            0 -1 21 -1.4130671322345734e-01</internalNodes>
          <leafValues>
            3.4472933411598206e-01 -6.9720429182052612e-01</leafValues></_>
        <_>
          <internalNodes>
            0 -1 53 -2.9917853680672124e-05</internalNodes>
          <leafValues>
            2.1342806518077850e-01 -7.3464041948318481e-01</leafValues></_>
        <_>
          <internalNodes>
            0 -1 33 4.6979576349258423e-02</internalNodes>
          <leafValues>
            -3.9515286684036255e-01 5.2248322963714600e-01</leafValues></_>
        <_>
          <internalNodes>
            0 -1 40 6.1229523271322250e-04</internalNodes>
          <leafValues>
            2.4647341668605804e-01 -7.9728376865386963e-01</leafValues></_>
        <_>
          <internalNodes>
            0 -1 40 -2.7639159816317260e-04</internalNodes>
          <leafValues>
            -6.6622161865234375e-01 3.8592308759689331e-01</leafValues></_>
        <_>
          <internalNodes>
            0 -1 123 -1.6279732808470726e-02</internalNodes>
          <leafValues>
            5.3270876407623291e-01 -3.9339295029640198e-01</leafValues></_>
        <_>
          <internalNodes>
            0 -1 92 -1.3073683476250153e-05</internalNodes>
          <leafValues>
            3.2041379809379578e-01 -6.3719713687896729e-01</leafValues></_></weakClassifiers></_>
    <!-- stage 6 -->
    <_>
      <maxWeakCount>5</maxWeakCount>
      <stageThreshold>-1.5658833980560303e+00</stageThreshold>
      <weakClassifiers>
        <_>
          <internalNodes>
            0 -1 47 3.2174855732591823e-05</internalNodes>
          <leafValues>
            -8.6243957281112671e-01 1.9382503628730774e-01</leafValues></_>
        <_>
          <internalNodes>
            0 -1 16 -7.9687006771564484e-02</internalNodes>
          <leafValues>
            -8.7883543968200684e-01 2.1812035143375397e-01</leafValues></_>
        <_>
          <internalNodes>
            0 -1 100 -2.6561452541500330e-03</internalNodes>
          <leafValues>
            4.2185956239700317e-01 -5.4895901679992676e-01</leafValues></_>
        <_>
          <internalNodes>
            0 -1 61 3.3201853511855006e-05</internalNodes>
          <leafValues>
            -6.1525273323059082e-01 3.1542801856994629e-01</leafValues></_>
        <_>
          <internalNodes>
            0 -1 24 -1.3073683476250153e-05</internalNodes>
          <leafValues>
            4.0892255306243896e-01 -4.9905925989151001e-01</leafValues></_></weakClassifiers></_>
    <!-- stage 7 -->
    <_>
      <maxWeakCount>7</maxWeakCount>
      <stageThreshold>-1.5115954875946045e+00</stageThreshold>
      <weakClassifiers>
        <_>
          <internalNodes>
            0 -1 120 1.6020722687244415e-02</internalNodes>
          <leafValues>
            -7.5113123655319214e-01 3.4394124150276184e-01</leafValues></_>
        <_>
          <internalNodes>
            0 -1 56 1.7350956797599792e-02</internalNodes>
          <leafValues>
            -4.7614040970802307e-01 6.8531870841979980e-01</leafValues></_>
        <_>
          <internalNodes>
            0 -1 105 1.3836413927492686e-05</internalNodes>
          <leafValues>
            -5.1918196678161621e-01 4.5289364457130432e-01</leafValues></_>
        <_>
          <internalNodes>
            0 -1 137 -8.9879184961318970e-03</internalNodes>
          <leafValues>
            6.5858274698257446e-01 -3.2398405671119690e-01</leafValues></_>
        <_>
          <internalNodes>
            0 -1 32 3.1865644268691540e-03</internalNodes>
          <leafValues>
            -4.6979564428329468e-01 3.8846826553344727e-01</leafValues></_>
        <_>
          <internalNodes>
            0 -1 131 -1.0751952417194843e-02</internalNodes>
          <leafValues>
            6.7871004343032837e-01 -2.5696003437042236e-01</leafValues></_>
        <_>
          <internalNodes>
            0 -1 138 -1.2897272426926065e-05</internalNodes>
          <leafValues>
            3.7440481781959534e-01 -5.4474169015884399e-01</leafValues></_></weakClassifiers></_>
    <!-- stage 8 -->
    <_>
      <maxWeakCount>7</maxWeakCount>
      <stageThreshold>-1.8317559957504272e+00</stageThreshold>
      <weakClassifiers>
        <_>
          <internalNodes>
            0 -1 113 -3.9175249636173248e-02</internalNodes>
          <leafValues>
            1.0989011079072952e-01 -7.7467697858810425e-01</leafValues></_>
        <_>
          <internalNodes>
            0 -1 35 2.4091708473861217e-03</internalNodes>
          <leafValues>
            -7.2434091567993164e-01 2.4090039730072021e-01</leafValues></_>
        <_>
          <internalNodes>
            0 -1 71 -1.5434846282005310e-03</internalNodes>
          <leafValues>
            6.5251934528350830e-01 -2.9897409677505493e-01</leafValues></_>
        <_>
          <internalNodes>
            0 -1 64 -9.4883283600211143e-03</internalNodes>
          <leafValues>
            7.6633191108703613e-01 -2.0638610422611237e-01</leafValues></_>
        <_>
          <internalNodes>
            0 -1 74 -1.6214353672694415e-04</internalNodes>
          <leafValues>
            3.1160670518875122e-01 -5.7550621032714844e-01</leafValues></_>
        <_>
          <internalNodes>
            0 -1 10 -9.4280682504177094e-02</internalNodes>
          <leafValues>
            -6.4502209424972534e-01 2.6884126663208008e-01</leafValues></_>
        <_>
          <internalNodes>
            0 -1 95 -1.3527891132980585e-03</internalNodes>
          <leafValues>
            3.1766521930694580e-01 -4.5920377969741821e-01</leafValues></_></weakClassifiers></_>
    <!-- stage 9 -->
    <_>
      <maxWeakCount>6</maxWeakCount>
      <stageThreshold>-1.0004228353500366e+00</stageThreshold>
      <weakClassifiers>
        <_>
          <internalNodes>
            0 -1 136 8.5943033918738365e-03</internalNodes>
          <leafValues>
            -5.8743065595626831e-01 6.5217393636703491e-01</leafValues></_>
        <_>
          <internalNodes>
            0 -1 107 -2.9487230349332094e-03</internalNodes>
          <leafValues>
            4.8746970295906067e-01 -4.4508370757102966e-01</leafValues></_>
        <_>
          <internalNodes>
            0 -1 82 -4.4708177447319031e-03</internalNodes>
          <leafValues>
            6.4383655786514282e-01 -3.2797452807426453e-01</leafValues></_>
        <_>
          <internalNodes>
            0 -1 96 -1.0411547496914864e-02</internalNodes>
          <leafValues>
            4.0031841397285461e-01 -4.6607655286788940e-01</leafValues></_>
        <_>
          <internalNodes>
            0 -1 121 -3.1287253368645906e-03</internalNodes>
          <leafValues>
            6.5716350078582764e-01 -2.1432055532932281e-01</leafValues></_>
        <_>
          <internalNodes>
            0 -1 42 9.5209237188100815e-03</internalNodes>
          <leafValues>
            2.1742488443851471e-01 -7.5848525762557983e-01</leafValues></_></weakClassifiers></_>
    <!-- stage 10 -->
    <_>
      <maxWeakCount>8</maxWeakCount>
      <stageThreshold>-1.3435930013656616e+00</stageThreshold>
      <weakClassifiers>
        <_>
          <internalNodes>
            0 -1 14 6.4739948138594627e-03</internalNodes>
          <leafValues>
            -5.9094339609146118e-01 4.9602121114730835e-01</leafValues></_>
        <_>
          <internalNodes>
            0 -1 22 1.7913796007633209e-02</internalNodes>
          <leafValues>
            -4.6553573012351990e-01 3.8588041067123413e-01</leafValues></_>
        <_>
          <internalNodes>
            0 -1 97 1.3375710295804311e-05</internalNodes>
          <leafValues>
            -4.6501651406288147e-01 3.1053942441940308e-01</leafValues></_>
        <_>
          <internalNodes>
            0 -1 154 -6.1237206682562828e-03</internalNodes>
          <leafValues>
            -6.3440448045730591e-01 2.2905096411705017e-01</leafValues></_>
        <_>
          <internalNodes>
            0 -1 66 -4.3141434434801340e-04</internalNodes>
          <leafValues>
            -6.8144154548645020e-01 2.0839537680149078e-01</leafValues></_>
        <_>
          <internalNodes>
            0 -1 66 4.7451918362639844e-04</internalNodes>
          <leafValues>
            2.9026874899864197e-01 -7.2851526737213135e-01</leafValues></_>
        <_>
          <internalNodes>
            0 -1 79 -2.4677021428942680e-02</internalNodes>
          <leafValues>
            2.9426160454750061e-01 -4.4222143292427063e-01</leafValues></_>
        <_>
          <internalNodes>
            0 -1 108 -1.8818298121914268e-03</internalNodes>
          <leafValues>
            1.8674929440021515e-01 -8.3992111682891846e-01</leafValues></_></weakClassifiers></_>
    <!-- stage 11 -->
    <_>
      <maxWeakCount>10</maxWeakCount>
      <stageThreshold>-1.6619138717651367e+00</stageThreshold>
      <weakClassifiers>
        <_>
          <internalNodes>
            0 -1 18 7.4514418840408325e-02</internalNodes>
          <leafValues>
            -6.7267930507659912e-01 1.9893899559974670e-01</leafValues></_>
        <_>
          <internalNodes>
            0 -1 89 -8.3278482779860497e-03</internalNodes>
          <leafValues>
            -8.4928303956985474e-01 9.3010999262332916e-02</leafValues></_>
        <_>
          <internalNodes>
            0 -1 102 -5.8318873925600201e-05</internalNodes>
          <leafValues>
            2.5451278686523438e-01 -4.7184690833091736e-01</leafValues></_>
        <_>
          <internalNodes>
            0 -1 148 2.9898644424974918e-03</internalNodes>
          <leafValues>
            -1.8396839499473572e-01 7.1671503782272339e-01</leafValues></_>
        <_>
          <internalNodes>
            0 -1 50 3.0993910506367683e-02</internalNodes>
          <leafValues>
            -1.9195055961608887e-01 6.0451185703277588e-01</leafValues></_>
        <_>
          <internalNodes>
            0 -1 20 4.7799883759580553e-04</internalNodes>
          <leafValues>
            2.2024816274642944e-01 -6.7105084657669067e-01</leafValues></_>
        <_>
          <internalNodes>
            0 -1 20 -4.8676371807232499e-04</internalNodes>
          <leafValues>
            -6.8341767787933350e-01 1.8575294315814972e-01</leafValues></_>
        <_>
          <internalNodes>
            0 -1 48 -2.2536076721735299e-04</internalNodes>
          <leafValues>
            2.2409464418888092e-01 -4.8232179880142212e-01</leafValues></_>
        <_>
          <internalNodes>
            0 -1 149 6.5757241100072861e-03</internalNodes>
          <leafValues>
            -2.3354753851890564e-01 5.8538401126861572e-01</leafValues></_>
        <_>
          <internalNodes>
            0 -1 12 -5.7573214173316956e-02</internalNodes>
          <leafValues>
            -5.4123914241790771e-01 2.1819947659969330e-01</leafValues></_></weakClassifiers></_>
    <!-- stage 12 -->
    <_>
      <maxWeakCount>9</maxWeakCount>
      <stageThreshold>-1.3650733232498169e+00</stageThreshold>
      <weakClassifiers>
        <_>
          <internalNodes>
            0 -1 13 -6.0249194502830505e-02</internalNodes>
          <leafValues>
            6.6935485601425171e-01 -5.5595535039901733e-01</leafValues></_>
        <_>
          <internalNodes>
            0 -1 77 -1.3456128726829775e-05</internalNodes>
          <leafValues>
            1.7036737501621246e-01 -6.8800371885299683e-01</leafValues></_>
        <_>
          <internalNodes>
            0 -1 73 -3.0776132916798815e-05</internalNodes>
          <leafValues>
            3.5461917519569397e-01 -4.2157340049743652e-01</leafValues></_>
        <_>
          <internalNodes>
            0 -1 54 -2.2942043142393231e-04</internalNodes>
          <leafValues>
            3.1812736392021179e-01 -3.9143049716949463e-01</leafValues></_>
        <_>
          <internalNodes>
            0 -1 36 2.9156424716347829e-05</internalNodes>
          <leafValues>
            -3.6908176541328430e-01 3.7708315253257751e-01</leafValues></_>
        <_>
          <internalNodes>
            0 -1 41 8.8685104856267571e-04</internalNodes>
          <leafValues>
            2.2467455267906189e-01 -6.9778454303741455e-01</leafValues></_>
        <_>
          <internalNodes>
            0 -1 81 6.8559875944629312e-04</internalNodes>
          <leafValues>
            2.1225832402706146e-01 -6.1948394775390625e-01</leafValues></_>
        <_>
          <internalNodes>
            0 -1 103 -1.2105412315577269e-04</internalNodes>
          <leafValues>
            2.5956124067306519e-01 -4.8721697926521301e-01</leafValues></_>
        <_>
          <internalNodes>
            0 -1 126 2.2993935272097588e-03</internalNodes>
          <leafValues>
            -2.2482952475547791e-01 5.7686078548431396e-01</leafValues></_></weakClassifiers></_>
    <!-- stage 13 -->
    <_>
      <maxWeakCount>9</maxWeakCount>
      <stageThreshold>-1.2307834625244141e+00</stageThreshold>
      <weakClassifiers>
        <_>
          <internalNodes>
            0 -1 23 -6.1816491186618805e-02</internalNodes>
          <leafValues>
            6.2601625919342041e-01 -5.5124056339263916e-01</leafValues></_>
        <_>
          <internalNodes>
            0 -1 117 6.1673866584897041e-03</internalNodes>
          <leafValues>
            -3.5223895311355591e-01 6.0934275388717651e-01</leafValues></_>
        <_>
          <internalNodes>
            0 -1 146 -2.7386535657569766e-04</internalNodes>
          <leafValues>
            2.4980294704437256e-01 -6.4805120229721069e-01</leafValues></_>
        <_>
          <internalNodes>
            0 -1 59 -4.0857370942831039e-02</internalNodes>
          <leafValues>
            -8.7488305568695068e-01 1.3053543865680695e-01</leafValues></_>
        <_>
          <internalNodes>
            0 -1 37 -1.1472422629594803e-02</internalNodes>
          <leafValues>
            -6.6927373409271240e-01 1.8989308178424835e-01</leafValues></_>
        <_>
          <internalNodes>
            0 -1 115 9.0582817792892456e-03</internalNodes>
          <leafValues>
            -6.3941580057144165e-01 1.5983247756958008e-01</leafValues></_>
        <_>
          <internalNodes>
            0 -1 121 -2.6671600062400103e-03</internalNodes>
          <leafValues>
            5.3815484046936035e-01 -2.2240784764289856e-01</leafValues></_>
        <_>
          <internalNodes>
            0 -1 52 3.2839066989254206e-05</internalNodes>
          <leafValues>
            -4.4433549046516418e-01 2.8784751892089844e-01</leafValues></_>
        <_>
          <internalNodes>
            0 -1 104 -7.4996110051870346e-03</internalNodes>
          <leafValues>
            5.3085917234420776e-01 -2.1980406343936920e-01</leafValues></_></weakClassifiers></_>
    <!-- stage 14 -->
    <_>
      <maxWeakCount>11</maxWeakCount>
      <stageThreshold>-1.5716979503631592e+00</stageThreshold>
      <weakClassifiers>
        <_>
          <internalNodes>
            0 -1 118 2.5128442049026489e-01</internalNodes>
          <leafValues>
            -5.4079830646514893e-01 7.7551019191741943e-01</leafValues></_>
        <_>
          <internalNodes>
            0 -1 116 3.1508287065662444e-05</internalNodes>
          <leafValues>
            -6.5915715694427490e-01 2.5956827402114868e-01</leafValues></_>
        <_>
          <internalNodes>
            0 -1 83 -5.8029178529977798e-02</internalNodes>
          <leafValues>
            2.6637485623359680e-01 -4.3833476305007935e-01</leafValues></_>
        <_>
          <internalNodes>
            0 -1 125 -1.5246611088514328e-02</internalNodes>
          <leafValues>
            -7.6857095956802368e-01 1.8889063596725464e-01</leafValues></_>
        <_>
          <internalNodes>
            0 -1 135 -4.1359849274158478e-03</internalNodes>
          <leafValues>
            5.9374684095382690e-01 -2.3507928848266602e-01</leafValues></_>
        <_>
          <internalNodes>
            0 -1 112 1.2897272426926065e-05</internalNodes>
          <leafValues>
            -3.8901409506797791e-01 3.0208352208137512e-01</leafValues></_>
        <_>
          <internalNodes>
            0 -1 155 -9.1637659352272749e-04</internalNodes>
          <leafValues>
            -4.4747164845466614e-01 2.5150680541992188e-01</leafValues></_>
        <_>
          <internalNodes>
            0 -1 157 -3.1767980544827878e-05</internalNodes>
          <leafValues>
            1.9119247794151306e-01 -5.8994668722152710e-01</leafValues></_>
        <_>
          <internalNodes>
            0 -1 128 2.3096222430467606e-03</internalNodes>
          <leafValues>
            -2.0621882379055023e-01 5.5730974674224854e-01</leafValues></_>
        <_>
          <internalNodes>
            0 -1 143 -3.5152065102010965e-03</internalNodes>
          <leafValues>
            5.1788675785064697e-01 -2.4880646169185638e-01</leafValues></_>
        <_>
          <internalNodes>
            0 -1 88 -3.9748942072037607e-05</internalNodes>
          <leafValues>
            2.6865735650062561e-01 -4.6915447711944580e-01</leafValues></_></weakClassifiers></_>
    <!-- stage 15 -->
    <_>
      <maxWeakCount>12</maxWeakCount>
      <stageThreshold>-1.5024743080139160e+00</stageThreshold>
      <weakClassifiers>
        <_>
          <internalNodes>
            0 -1 5 -5.0999723374843597e-02</internalNodes>
          <leafValues>
            4.3352600932121277e-01 -5.7030957937240601e-01</leafValues></_>
        <_>
          <internalNodes>
            0 -1 46 -5.2648538257926702e-05</internalNodes>
          <leafValues>
            1.5735635161399841e-01 -5.5730265378952026e-01</leafValues></_>
        <_>
          <internalNodes>
            0 -1 111 4.4591398909687996e-03</internalNodes>
          <leafValues>
            1.0499214380979538e-01 -8.7719368934631348e-01</leafValues></_>
        <_>
          <internalNodes>
            0 -1 17 -4.8497635871171951e-02</internalNodes>
          <leafValues>
            -6.8454533815383911e-01 1.5655015408992767e-01</leafValues></_>
        <_>
          <internalNodes>
            0 -1 85 -2.6645816862583160e-02</internalNodes>
          <leafValues>
            -8.1962782144546509e-01 1.0684583336114883e-01</leafValues></_>
        <_>
          <internalNodes>
            0 -1 80 -1.6999384388327599e-04</internalNodes>
          <leafValues>
            -7.4344384670257568e-01 1.2107125669717789e-01</leafValues></_>
        <_>
          <internalNodes>
            0 -1 127 -6.2377043068408966e-03</internalNodes>
          <leafValues>
            6.4835071563720703e-01 -1.7695786058902740e-01</leafValues></_>
        <_>
          <internalNodes>
            0 -1 101 -2.7887374017154798e-05</internalNodes>
          <leafValues>
            2.7273121476173401e-01 -3.9155814051628113e-01</leafValues></_>
        <_>
          <internalNodes>
            0 -1 134 -1.9183959811925888e-03</internalNodes>
          <leafValues>
            5.1372617483139038e-01 -2.4414192140102386e-01</leafValues></_>
        <_>
          <internalNodes>
            0 -1 145 -1.4176793629303575e-03</internalNodes>
          <leafValues>
            6.7141479253768921e-01 -1.6607719659805298e-01</leafValues></_>
        <_>
          <internalNodes>
            0 -1 25 -3.2495932828169316e-05</internalNodes>
          <leafValues>
            2.5947281718254089e-01 -4.5646476745605469e-01</leafValues></_>
        <_>
          <internalNodes>
            0 -1 75 4.2844115523621440e-04</internalNodes>
          <leafValues>
            1.3967253267765045e-01 -7.6363474130630493e-01</leafValues></_></weakClassifiers></_>
    <!-- stage 16 -->
    <_>
      <maxWeakCount>12</maxWeakCount>
      <stageThreshold>-1.3246412277221680e+00</stageThreshold>
      <weakClassifiers>
        <_>
          <internalNodes>
            0 -1 63 -8.0350153148174286e-03</internalNodes>
          <leafValues>
            3.2474225759506226e-01 -5.7029175758361816e-01</leafValues></_>
        <_>
          <internalNodes>
            0 -1 58 -3.3092009834945202e-03</internalNodes>
          <leafValues>
            5.0574195384979248e-01 -2.8150346875190735e-01</leafValues></_>
        <_>
          <internalNodes>
            0 -1 65 -4.8868544399738312e-03</internalNodes>
          <leafValues>
            -6.3611358404159546e-01 1.7492702603340149e-01</leafValues></_>
        <_>
          <internalNodes>
            0 -1 1 7.0852914359420538e-04</internalNodes>
          <leafValues>
            1.3498289883136749e-01 -6.6428107023239136e-01</leafValues></_>
        <_>
          <internalNodes>
            0 -1 44 -2.1633740514516830e-02</internalNodes>
          <leafValues>
            2.1392953395843506e-01 -4.9485644698143005e-01</leafValues></_>
        <_>
          <internalNodes>
            0 -1 72 2.0612895488739014e-02</internalNodes>
          <leafValues>
            1.4306098222732544e-01 -7.9273855686187744e-01</leafValues></_>
        <_>
          <internalNodes>
            0 -1 2 -1.4536750316619873e-01</internalNodes>
          <leafValues>
            -7.7574217319488525e-01 1.1964503675699234e-01</leafValues></_>
        <_>
          <internalNodes>
            0 -1 7 -5.2509061992168427e-02</internalNodes>
          <leafValues>
            -7.8078216314315796e-01 1.0511738061904907e-01</leafValues></_>
        <_>
          <internalNodes>
            0 -1 151 -6.4176586456596851e-03</internalNodes>
          <leafValues>
            -5.1806551218032837e-01 1.7366628348827362e-01</leafValues></_>
        <_>
          <internalNodes>
            0 -1 69 1.8383499700576067e-03</internalNodes>
          <leafValues>
            1.0525659471750259e-01 -8.0529296398162842e-01</leafValues></_>
        <_>
          <internalNodes>
            0 -1 57 1.3655149377882481e-02</internalNodes>
          <leafValues>
            -2.5961372256278992e-01 4.1324070096015930e-01</leafValues></_>
        <_>
          <internalNodes>
            0 -1 60 -3.3758304198272526e-05</internalNodes>
          <leafValues>
            2.3551750183105469e-01 -4.7594532370567322e-01</leafValues></_></weakClassifiers></_>
    <!-- stage 17 -->
    <_>
      <maxWeakCount>14</maxWeakCount>
      <stageThreshold>-1.2250455617904663e+00</stageThreshold>
      <weakClassifiers>
        <_>
          <internalNodes>
            0 -1 15 1.0553039610385895e-02</internalNodes>
          <leafValues>
            -5.5899703502655029e-01 4.3492063879966736e-01</leafValues></_>
        <_>
          <internalNodes>
            0 -1 68 -7.3129718657582998e-04</internalNodes>
          <leafValues>
            -6.9618839025497437e-01 1.1025910079479218e-01</leafValues></_>
        <_>
          <internalNodes>
            0 -1 87 -1.4774196315556765e-03</internalNodes>
          <leafValues>
            5.4098552465438843e-01 -2.1539402008056641e-01</leafValues></_>
        <_>
          <internalNodes>
            0 -1 38 -1.4508731663227081e-02</internalNodes>
          <leafValues>
            5.5441033840179443e-01 -1.9557788968086243e-01</leafValues></_>
        <_>
          <internalNodes>
            0 -1 49 -4.9118744209408760e-03</internalNodes>
          <leafValues>
            2.4116611480712891e-01 -4.7715511918067932e-01</leafValues></_>
        <_>
          <internalNodes>
            0 -1 45 -1.6623558476567268e-03</internalNodes>
          <leafValues>
            -8.7460452318191528e-01 9.8917834460735321e-02</leafValues></_>
        <_>
          <internalNodes>
            0 -1 80 1.3510420103557408e-04</internalNodes>
          <leafValues>
            1.2752422690391541e-01 -5.9451615810394287e-01</leafValues></_>
        <_>
          <internalNodes>
            0 -1 124 -1.4631069498136640e-03</internalNodes>
          <leafValues>
            5.3485375642776489e-01 -1.8897464871406555e-01</leafValues></_>
        <_>
          <internalNodes>
            0 -1 11 1.3378450646996498e-02</internalNodes>
          <leafValues>
            -2.5733366608619690e-01 3.8216739892959595e-01</leafValues></_>
        <_>
          <internalNodes>
            0 -1 98 -8.3755338564515114e-03</internalNodes>
          <leafValues>
            4.6419522166252136e-01 -2.0724079012870789e-01</leafValues></_>
        <_>
          <internalNodes>
            0 -1 122 -1.8385443836450577e-03</internalNodes>
          <leafValues>
            3.4441575407981873e-01 -2.6454383134841919e-01</leafValues></_>
        <_>
          <internalNodes>
            0 -1 51 5.7941742241382599e-02</internalNodes>
          <leafValues>
            -1.3687378168106079e-01 7.1656036376953125e-01</leafValues></_>
        <_>
          <internalNodes>
            0 -1 29 -1.2897272426926065e-05</internalNodes>
          <leafValues>
            2.2549349069595337e-01 -4.4295471906661987e-01</leafValues></_>
        <_>
          <internalNodes>
            0 -1 39 -4.8651336692273617e-04</internalNodes>
          <leafValues>
            -4.4874152541160583e-01 2.1408013999462128e-01</leafValues></_></weakClassifiers></_>
    <!-- stage 18 -->
    <_>
      <maxWeakCount>11</maxWeakCount>
      <stageThreshold>-1.4661163091659546e+00</stageThreshold>
      <weakClassifiers>
        <_>
          <internalNodes>
            0 -1 8 -4.9771804362535477e-02</internalNodes>
          <leafValues>
            2.6410835981369019e-01 -5.7894736528396606e-01</leafValues></_>
        <_>
          <internalNodes>
            0 -1 147 -1.3633895432576537e-03</internalNodes>
          <leafValues>
            3.9774295687675476e-01 -2.7941972017288208e-01</leafValues></_>
        <_>
          <internalNodes>
            0 -1 119 8.2641048356890678e-04</internalNodes>
          <leafValues>
            -2.6275500655174255e-01 3.6903887987136841e-01</leafValues></_>
        <_>
          <internalNodes>
            0 -1 150 -2.4899578420445323e-04</internalNodes>
          <leafValues>
            -5.0539302825927734e-01 1.9262920320034027e-01</leafValues></_>
        <_>
          <internalNodes>
            0 -1 90 -4.6364668378373608e-05</internalNodes>
          <leafValues>
            2.4010929465293884e-01 -4.6792435646057129e-01</leafValues></_>
        <_>
          <internalNodes>
            0 -1 132 3.7770648486912251e-03</internalNodes>
          <leafValues>
            -2.2928780317306519e-01 5.4012680053710938e-01</leafValues></_>
        <_>
          <internalNodes>
            0 -1 152 -2.9684386681765318e-03</internalNodes>
          <leafValues>
            -5.1799535751342773e-01 2.1464516222476959e-01</leafValues></_>
        <_>
          <internalNodes>
            0 -1 110 -1.6246637096628547e-04</internalNodes>
          <leafValues>
            3.3358818292617798e-01 -2.7491682767868042e-01</leafValues></_>
        <_>
          <internalNodes>
            0 -1 58 -2.1111005917191505e-03</internalNodes>
          <leafValues>
            4.1644066572189331e-01 -2.7163970470428467e-01</leafValues></_>
        <_>
          <internalNodes>
            0 -1 109 4.1120508685708046e-03</internalNodes>
          <leafValues>
            1.3091374933719635e-01 -9.3740081787109375e-01</leafValues></_>
        <_>
          <internalNodes>
            0 -1 48 -1.6267551109194756e-04</internalNodes>
          <leafValues>
            1.5692238509654999e-01 -5.1111811399459839e-01</leafValues></_></weakClassifiers></_>
    <!-- stage 19 -->
    <_>
      <maxWeakCount>15</maxWeakCount>
      <stageThreshold>-1.6183364391326904e+00</stageThreshold>
      <weakClassifiers>
        <_>
          <internalNodes>
            0 -1 19 3.9881218224763870e-02</internalNodes>
          <leafValues>
            -6.2555456161499023e-01 4.0103491395711899e-02</leafValues></_>
        <_>
          <internalNodes>
            0 -1 140 -2.3634675890207291e-03</internalNodes>
          <leafValues>
            4.5967537164688110e-01 -2.5371372699737549e-01</leafValues></_>
        <_>
          <internalNodes>
            0 -1 114 4.1152630728902295e-05</internalNodes>
          <leafValues>
            -3.6767089366912842e-01 2.7864429354667664e-01</leafValues></_>
        <_>
          <internalNodes>
            0 -1 156 -2.6284245541319251e-04</internalNodes>
          <leafValues>
            -4.6176677942276001e-01 2.0779180526733398e-01</leafValues></_>
        <_>
          <internalNodes>
            0 -1 94 1.1657369323074818e-02</internalNodes>
          <leafValues>
            1.4968553185462952e-01 -6.9033783674240112e-01</leafValues></_>
        <_>
          <internalNodes>
            0 -1 84 -4.4882628135383129e-03</internalNodes>
          <leafValues>
            3.8336363434791565e-01 -2.2988967597484589e-01</leafValues></_>
        <_>
          <internalNodes>
            0 -1 47 1.6266649254248478e-05</internalNodes>
          <leafValues>
            -4.6610108017921448e-01 1.8111495673656464e-01</leafValues></_>
        <_>
          <internalNodes>
            0 -1 142 2.4698185734450817e-03</internalNodes>
          <leafValues>
            -1.7534324526786804e-01 5.1415157318115234e-01</leafValues></_>
        <_>
          <internalNodes>
            0 -1 139 8.8428007438778877e-04</internalNodes>
          <leafValues>
            1.2232043594121933e-01 -8.7997913360595703e-01</leafValues></_>
        <_>
          <internalNodes>
            0 -1 144 -1.0184918064624071e-03</internalNodes>
          <leafValues>
            5.2208280563354492e-01 -2.0479315519332886e-01</leafValues></_>
        <_>
          <internalNodes>
            0 -1 106 -6.0456790961325169e-03</internalNodes>
          <leafValues>
            5.8977347612380981e-01 -1.5514065325260162e-01</leafValues></_>
        <_>
          <internalNodes>
            0 -1 153 3.5914313048124313e-03</internalNodes>
          <leafValues>
            1.8401744961738586e-01 -5.5121117830276489e-01</leafValues></_>
        <_>
          <internalNodes>
            0 -1 70 -7.0219291374087334e-03</internalNodes>
          <leafValues>
            2.6399970054626465e-01 -3.6065065860748291e-01</leafValues></_>
        <_>
          <internalNodes>
            0 -1 133 -2.4068562779575586e-03</internalNodes>
          <leafValues>
            5.1852512359619141e-01 -2.1846225857734680e-01</leafValues></_>
        <_>
          <internalNodes>
            0 -1 130 1.6148766735568643e-04</internalNodes>
          <leafValues>
            1.7110171914100647e-01 -5.9122639894485474e-01</leafValues></_></weakClassifiers></_></stages>
  <features>
    <_>
      <rects>
        <_>
          0 0 3 1 -1.</_>
        <_>
          1 0 1 1 3.</_></rects>
      <tilted>0</tilted></_>
    <_>
      <rects>
        <_>
          0 0 3 4 -1.</_>
        <_>
          1 0 1 4 3.</_></rects>
      <tilted>0</tilted></_>
    <_>
      <rects>
        <_>
          0 0 20 13 -1.</_>
        <_>
          10 0 10 13 2.</_></rects>
      <tilted>0</tilted></_>
    <_>
      <rects>
        <_>
          0 0 15 9 -1.</_>
        <_>
          0 3 15 3 3.</_></rects>
      <tilted>0</tilted></_>
    <_>
      <rects>
        <_>
          0 1 23 22 -1.</_>
        <_>
          0 12 23 11 2.</_></rects>
      <tilted>0</tilted></_>
    <_>
      <rects>
        <_>
          0 2 2 15 -1.</_>
        <_>
          0 7 2 5 3.</_></rects>
      <tilted>0</tilted></_>
    <_>
      <rects>
        <_>
          0 2 17 18 -1.</_>
        <_>
          0 8 17 6 3.</_></rects>
      <tilted>0</tilted></_>
    <_>
      <rects>
        <_>
          0 3 20 14 -1.</_>
        <_>
          0 3 10 7 2.</_>
        <_>
          10 10 10 7 2.</_></rects>
      <tilted>0</tilted></_>
    <_>
      <rects>
        <_>
          0 4 3 12 -1.</_>
        <_>
          0 8 3 4 3.</_></rects>
      <tilted>0</tilted></_>
    <_>
      <rects>
        <_>
          0 4 18 15 -1.</_>
        <_>
          0 9 18 5 3.</_></rects>
      <tilted>0</tilted></_>
    <_>
      <rects>
        <_>
          0 5 20 17 -1.</_>
        <_>
          10 5 10 17 2.</_></rects>
      <tilted>0</tilted></_>
    <_>
      <rects>
        <_>
          0 7 8 8 -1.</_>
        <_>
          0 7 4 4 2.</_>
        <_>
          4 11 4 4 2.</_></rects>
      <tilted>0</tilted></_>
    <_>
      <rects>
        <_>
          0 7 18 6 -1.</_>
        <_>
          9 7 9 6 2.</_></rects>
      <tilted>0</tilted></_>
    <_>
      <rects>
        <_>
          0 8 8 8 -1.</_>
        <_>
          0 8 4 4 2.</_>
        <_>
          4 12 4 4 2.</_></rects>
      <tilted>0</tilted></_>
    <_>
      <rects>
        <_>
          0 9 1 6 -1.</_>
        <_>
          0 12 1 3 2.</_></rects>
      <tilted>0</tilted></_>
    <_>
      <rects>
        <_>
          0 10 2 4 -1.</_>
        <_>
          0 12 2 2 2.</_></rects>
      <tilted>0</tilted></_>
    <_>
      <rects>
        <_>
          0 10 20 13 -1.</_>
        <_>
          10 10 10 13 2.</_></rects>
      <tilted>0</tilted></_>
    <_>
      <rects>
        <_>
          0 11 20 5 -1.</_>
        <_>
          10 11 10 5 2.</_></rects>
      <tilted>0</tilted></_>
    <_>
      <rects>
        <_>
          0 12 22 8 -1.</_>
        <_>
          0 16 22 4 2.</_></rects>
      <tilted>0</tilted></_>
    <_>
      <rects>
        <_>
          0 13 21 4 -1.</_>
        <_>
          0 15 21 2 2.</_></rects>
      <tilted>0</tilted></_>
    <_>
      <rects>
        <_>
          1 0 3 3 -1.</_>
        <_>
          2 0 1 3 3.</_></rects>
      <tilted>0</tilted></_>
    <_>
      <rects>
        <_>
          1 5 21 9 -1.</_>
        <_>
          8 5 7 9 3.</_></rects>
      <tilted>0</tilted></_>
    <_>
      <rects>
        <_>
          1 6 8 8 -1.</_>
        <_>
          1 6 4 4 2.</_>
        <_>
          5 10 4 4 2.</_></rects>
      <tilted>0</tilted></_>
    <_>
      <rects>
        <_>
          1 15 15 3 -1.</_>
        <_>
          6 15 5 3 3.</_></rects>
      <tilted>0</tilted></_>
    <_>
      <rects>
        <_>
          1 20 1 2 -1.</_>
        <_>
          1 21 1 1 2.</_></rects>
      <tilted>0</tilted></_>
    <_>
      <rects>
        <_>
          1 20 4 2 -1.</_>
        <_>
          1 21 4 1 2.</_></rects>
      <tilted>0</tilted></_>
    <_>
      <rects>
        <_>
          1 21 5 3 -1.</_>
        <_>
          1 22 5 1 3.</_></rects>
      <tilted>0</tilted></_>
    <_>
      <rects>
        <_>
          1 22 2 2 -1.</_>
        <_>
          1 23 2 1 2.</_></rects>
      <tilted>0</tilted></_>
    <_>
      <rects>
        <_>
          1 22 4 2 -1.</_>
        <_>
          1 22 2 1 2.</_>
        <_>
          3 23 2 1 2.</_></rects>
      <tilted>0</tilted></_>
    <_>
      <rects>
        <_>
          1 22 5 2 -1.</_>
        <_>
          1 23 5 1 2.</_></rects>
      <tilted>0</tilted></_>
    <_>
      <rects>
        <_>
          2 0 14 6 -1.</_>
        <_>
          2 3 14 3 2.</_></rects>
      <tilted>0</tilted></_>
    <_>
      <rects>
        <_>
          2 6 4 12 -1.</_>
        <_>
          2 12 4 6 2.</_></rects>
      <tilted>0</tilted></_>
    <_>
      <rects>
        <_>
          2 7 8 4 -1.</_>
        <_>
          2 7 4 2 2.</_>
        <_>
          6 9 4 2 2.</_></rects>
      <tilted>0</tilted></_>
    <_>
      <rects>
        <_>
          2 9 12 6 -1.</_>
        <_>
          6 9 4 6 3.</_></rects>
      <tilted>0</tilted></_>
    <_>
      <rects>
        <_>
          2 10 12 4 -1.</_>
        <_>
          6 10 4 4 3.</_></rects>
      <tilted>0</tilted></_>
    <_>
      <rects>
        <_>
          2 12 12 1 -1.</_>
        <_>
          6 12 4 1 3.</_></rects>
      <tilted>0</tilted></_>
    <_>
      <rects>
        <_>
          2 13 2 1 -1.</_>
        <_>
          3 13 1 1 2.</_></rects>
      <tilted>0</tilted></_>
    <_>
      <rects>
        <_>
          3 0 15 3 -1.</_>
        <_>
          8 0 5 3 3.</_></rects>
      <tilted>0</tilted></_>
    <_>
      <rects>
        <_>
          3 0 7 6 -1.</_>
        <_>
          3 2 7 2 3.</_></rects>
      <tilted>0</tilted></_>
    <_>
      <rects>
        <_>
          3 22 2 2 -1.</_>
        <_>
          3 23 2 1 2.</_></rects>
      <tilted>0</tilted></_>
    <_>
      <rects>
        <_>
          4 0 6 1 -1.</_>
        <_>
          6 0 2 1 3.</_></rects>
      <tilted>0</tilted></_>
    <_>
      <rects>
        <_>
          4 0 9 1 -1.</_>
        <_>
          7 0 3 1 3.</_></rects>
      <tilted>0</tilted></_>
    <_>
      <rects>
        <_>
          4 4 7 12 -1.</_>
        <_>
          4 10 7 6 2.</_></rects>
      <tilted>0</tilted></_>
    <_>
      <rects>
        <_>
          4 5 8 14 -1.</_>
        <_>
          4 5 4 7 2.</_>
        <_>
          8 12 4 7 2.</_></rects>
      <tilted>0</tilted></_>
    <_>
      <rects>
        <_>
          4 6 10 8 -1.</_>
        <_>
          9 6 5 8 2.</_></rects>
      <tilted>0</tilted></_>
    <_>
      <rects>
        <_>
          4 9 4 3 -1.</_>
        <_>
          4 10 4 1 3.</_></rects>
      <tilted>0</tilted></_>
    <_>
      <rects>
        <_>
          4 10 1 2 -1.</_>
        <_>
          4 11 1 1 2.</_></rects>
      <tilted>0</tilted></_>
    <_>
      <rects>
        <_>
          4 11 2 1 -1.</_>
        <_>
          5 11 1 1 2.</_></rects>
      <tilted>0</tilted></_>
    <_>
      <rects>
        <_>
          4 11 1 2 -1.</_>
        <_>
          4 12 1 1 2.</_></rects>
      <tilted>0</tilted></_>
    <_>
      <rects>
        <_>
          4 11 12 2 -1.</_>
        <_>
          10 11 6 2 2.</_></rects>
      <tilted>0</tilted></_>
    <_>
      <rects>
        <_>
          5 1 10 4 -1.</_>
        <_>
          5 3 10 2 2.</_></rects>
      <tilted>0</tilted></_>
    <_>
      <rects>
        <_>
          5 4 18 9 -1.</_>
        <_>
          11 4 6 9 3.</_></rects>
      <tilted>0</tilted></_>
    <_>
      <rects>
        <_>
          5 11 2 1 -1.</_>
        <_>
          6 11 1 1 2.</_></rects>
      <tilted>0</tilted></_>
    <_>
      <rects>
        <_>
          5 11 1 2 -1.</_>
        <_>
          5 12 1 1 2.</_></rects>
      <tilted>0</tilted></_>
    <_>
      <rects>
        <_>
          5 12 1 2 -1.</_>
        <_>
          5 13 1 1 2.</_></rects>
      <tilted>0</tilted></_>
    <_>
      <rects>
        <_>
          6 0 10 9 -1.</_>
        <_>
          6 3 10 3 3.</_></rects>
      <tilted>0</tilted></_>
    <_>
      <rects>
        <_>
          6 1 5 6 -1.</_>
        <_>
          6 3 5 2 3.</_></rects>
      <tilted>0</tilted></_>
    <_>
      <rects>
        <_>
          6 3 6 11 -1.</_>
        <_>
          8 3 2 11 3.</_></rects>
      <tilted>0</tilted></_>
    <_>
      <rects>
        <_>
          6 4 2 2 -1.</_>
        <_>
          6 5 2 1 2.</_></rects>
      <tilted>0</tilted></_>
    <_>
      <rects>
        <_>
          6 6 16 6 -1.</_>
        <_>
          6 9 16 3 2.</_></rects>
      <tilted>0</tilted></_>
    <_>
      <rects>
        <_>
          6 7 2 1 -1.</_>
        <_>
          7 7 1 1 2.</_></rects>
      <tilted>0</tilted></_>
    <_>
      <rects>
        <_>
          6 7 2 6 -1.</_>
        <_>
          6 7 1 3 2.</_>
        <_>
          7 10 1 3 2.</_></rects>
      <tilted>0</tilted></_>
    <_>
      <rects>
        <_>
          6 8 8 6 -1.</_>
        <_>
          10 8 4 6 2.</_></rects>
      <tilted>0</tilted></_>
    <_>
      <rects>
        <_>
          6 15 4 4 -1.</_>
        <_>
          6 15 2 2 2.</_>
        <_>
          8 17 2 2 2.</_></rects>
      <tilted>0</tilted></_>
    <_>
      <rects>
        <_>
          6 15 6 4 -1.</_>
        <_>
          6 15 3 2 2.</_>
        <_>
          9 17 3 2 2.</_></rects>
      <tilted>0</tilted></_>
    <_>
      <rects>
        <_>
          6 23 18 1 -1.</_>
        <_>
          12 23 6 1 3.</_></rects>
      <tilted>0</tilted></_>
    <_>
      <rects>
        <_>
          7 0 6 1 -1.</_>
        <_>
          9 0 2 1 3.</_></rects>
      <tilted>0</tilted></_>
    <_>
      <rects>
        <_>
          7 0 16 10 -1.</_>
        <_>
          7 0 8 5 2.</_>
        <_>
          15 5 8 5 2.</_></rects>
      <tilted>0</tilted></_>
    <_>
      <rects>
        <_>
          7 2 3 3 -1.</_>
        <_>
          8 2 1 3 3.</_></rects>
      <tilted>0</tilted></_>
    <_>
      <rects>
        <_>
          7 2 3 5 -1.</_>
        <_>
          8 2 1 5 3.</_></rects>
      <tilted>0</tilted></_>
    <_>
      <rects>
        <_>
          7 3 15 6 -1.</_>
        <_>
          7 5 15 2 3.</_></rects>
      <tilted>0</tilted></_>
    <_>
      <rects>
        <_>
          7 4 1 2 -1.</_>
        <_>
          7 5 1 1 2.</_></rects>
      <tilted>0</tilted></_>
    <_>
      <rects>
        <_>
          7 5 7 10 -1.</_>
        <_>
          7 10 7 5 2.</_></rects>
      <tilted>0</tilted></_>
    <_>
      <rects>
        <_>
          7 6 1 3 -1.</_>
        <_>
          7 7 1 1 3.</_></rects>
      <tilted>0</tilted></_>
    <_>
      <rects>
        <_>
          7 6 2 2 -1.</_>
        <_>
          8 6 1 2 2.</_></rects>
      <tilted>0</tilted></_>
    <_>
      <rects>
        <_>
          7 6 8 6 -1.</_>
        <_>
          7 6 4 3 2.</_>
        <_>
          11 9 4 3 2.</_></rects>
      <tilted>0</tilted></_>
    <_>
      <rects>
        <_>
          7 6 16 8 -1.</_>
        <_>
          15 6 8 8 2.</_></rects>
      <tilted>0</tilted></_>
    <_>
      <rects>
        <_>
          7 7 2 1 -1.</_>
        <_>
          8 7 1 1 2.</_></rects>
      <tilted>0</tilted></_>
    <_>
      <rects>
        <_>
          7 12 8 1 -1.</_>
        <_>
          11 12 4 1 2.</_></rects>
      <tilted>0</tilted></_>
    <_>
      <rects>
        <_>
          7 16 7 8 -1.</_>
        <_>
          7 20 7 4 2.</_></rects>
      <tilted>0</tilted></_>
    <_>
      <rects>
        <_>
          8 0 3 1 -1.</_>
        <_>
          9 0 1 1 3.</_></rects>
      <tilted>0</tilted></_>
    <_>
      <rects>
        <_>
          8 0 9 1 -1.</_>
        <_>
          11 0 3 1 3.</_></rects>
      <tilted>0</tilted></_>
    <_>
      <rects>
        <_>
          8 1 7 3 -1.</_>
        <_>
          8 2 7 1 3.</_></rects>
      <tilted>0</tilted></_>
    <_>
      <rects>
        <_>
          8 1 8 12 -1.</_>
        <_>
          8 7 8 6 2.</_></rects>
      <tilted>0</tilted></_>
    <_>
      <rects>
        <_>
          8 1 10 3 -1.</_>
        <_>
          8 2 10 1 3.</_></rects>
      <tilted>0</tilted></_>
    <_>
      <rects>
        <_>
          8 2 2 16 -1.</_>
        <_>
          8 10 2 8 2.</_></rects>
      <tilted>0</tilted></_>
    <_>
      <rects>
        <_>
          8 2 6 6 -1.</_>
        <_>
          8 5 6 3 2.</_></rects>
      <tilted>0</tilted></_>
    <_>
      <rects>
        <_>
          8 3 1 2 -1.</_>
        <_>
          8 4 1 1 2.</_></rects>
      <tilted>0</tilted></_>
    <_>
      <rects>
        <_>
          8 5 2 1 -1.</_>
        <_>
          9 5 1 1 2.</_></rects>
      <tilted>0</tilted></_>
    <_>
      <rects>
        <_>
          8 5 2 10 -1.</_>
        <_>
          8 10 2 5 2.</_></rects>
      <tilted>0</tilted></_>
    <_>
      <rects>
        <_>
          8 6 2 1 -1.</_>
        <_>
          9 6 1 1 2.</_></rects>
      <tilted>0</tilted></_>
    <_>
      <rects>
        <_>
          8 6 1 6 -1.</_>
        <_>
          8 9 1 3 2.</_></rects>
      <tilted>0</tilted></_>
    <_>
      <rects>
        <_>
          8 7 2 1 -1.</_>
        <_>
          9 7 1 1 2.</_></rects>
      <tilted>0</tilted></_>
    <_>
      <rects>
        <_>
          8 8 2 1 -1.</_>
        <_>
          9 8 1 1 2.</_></rects>
      <tilted>0</tilted></_>
    <_>
      <rects>
        <_>
          8 9 4 6 -1.</_>
        <_>
          8 12 4 3 2.</_></rects>
      <tilted>0</tilted></_>
    <_>
      <rects>
        <_>
          8 10 4 1 -1.</_>
        <_>
          10 10 2 1 2.</_></rects>
      <tilted>0</tilted></_>
    <_>
      <rects>
        <_>
          8 10 9 5 -1.</_>
        <_>
          11 10 3 5 3.</_></rects>
      <tilted>0</tilted></_>
    <_>
      <rects>
        <_>
          8 11 2 2 -1.</_>
        <_>
          8 11 1 1 2.</_>
        <_>
          9 12 1 1 2.</_></rects>
      <tilted>0</tilted></_>
    <_>
      <rects>
        <_>
          8 17 6 6 -1.</_>
        <_>
          8 17 3 3 2.</_>
        <_>
          11 20 3 3 2.</_></rects>
      <tilted>0</tilted></_>
    <_>
      <rects>
        <_>
          9 2 5 6 -1.</_>
        <_>
          9 5 5 3 2.</_></rects>
      <tilted>0</tilted></_>
    <_>
      <rects>
        <_>
          9 4 4 2 -1.</_>
        <_>
          9 5 4 1 2.</_></rects>
      <tilted>0</tilted></_>
    <_>
      <rects>
        <_>
          9 5 2 1 -1.</_>
        <_>
          10 5 1 1 2.</_></rects>
      <tilted>0</tilted></_>
    <_>
      <rects>
        <_>
          9 6 2 1 -1.</_>
        <_>
          10 6 1 1 2.</_></rects>
      <tilted>0</tilted></_>
    <_>
      <rects>
        <_>
          9 8 2 1 -1.</_>
        <_>
          10 8 1 1 2.</_></rects>
      <tilted>0</tilted></_>
    <_>
      <rects>
        <_>
          9 10 6 8 -1.</_>
        <_>
          9 10 3 4 2.</_>
        <_>
          12 14 3 4 2.</_></rects>
      <tilted>0</tilted></_>
    <_>
      <rects>
        <_>
          9 11 2 2 -1.</_>
        <_>
          9 11 1 1 2.</_>
        <_>
          10 12 1 1 2.</_></rects>
      <tilted>0</tilted></_>
    <_>
      <rects>
        <_>
          9 18 6 2 -1.</_>
        <_>
          11 18 2 2 3.</_></rects>
      <tilted>0</tilted></_>
    <_>
      <rects>
        <_>
          10 3 4 2 -1.</_>
        <_>
          10 4 4 1 2.</_></rects>
      <tilted>0</tilted></_>
    <_>
      <rects>
        <_>
          10 4 6 6 -1.</_>
        <_>
          10 7 6 3 2.</_></rects>
      <tilted>0</tilted></_>
    <_>
      <rects>
        <_>
          10 5 7 6 -1.</_>
        <_>
          10 8 7 3 2.</_></rects>
      <tilted>0</tilted></_>
    <_>
      <rects>
        <_>
          10 6 2 1 -1.</_>
        <_>
          11 6 1 1 2.</_></rects>
      <tilted>0</tilted></_>
    <_>
      <rects>
        <_>
          10 7 9 6 -1.</_>
        <_>
          10 10 9 3 2.</_></rects>
      <tilted>0</tilted></_>
    <_>
      <rects>
        <_>
          10 10 1 2 -1.</_>
        <_>
          10 11 1 1 2.</_></rects>
      <tilted>0</tilted></_>
    <_>
      <rects>
        <_>
          10 10 14 12 -1.</_>
        <_>
          10 10 7 6 2.</_>
        <_>
          17 16 7 6 2.</_></rects>
      <tilted>0</tilted></_>
    <_>
      <rects>
        <_>
          10 11 1 2 -1.</_>
        <_>
          10 12 1 1 2.</_></rects>
      <tilted>0</tilted></_>
    <_>
      <rects>
        <_>
          10 12 6 12 -1.</_>
        <_>
          10 16 6 4 3.</_></rects>
      <tilted>0</tilted></_>
    <_>
      <rects>
        <_>
          11 0 1 4 -1.</_>
        <_>
          11 2 1 2 2.</_></rects>
      <tilted>0</tilted></_>
    <_>
      <rects>
        <_>
          11 2 3 3 -1.</_>
        <_>
          11 3 3 1 3.</_></rects>
      <tilted>0</tilted></_>
    <_>
      <rects>
        <_>
          11 2 12 13 -1.</_>
        <_>
          17 2 6 13 2.</_></rects>
      <tilted>0</tilted></_>
    <_>
      <rects>
        <_>
          11 10 6 1 -1.</_>
        <_>
          13 10 2 1 3.</_></rects>
      <tilted>0</tilted></_>
    <_>
      <rects>
        <_>
          11 11 2 12 -1.</_>
        <_>
          11 15 2 4 3.</_></rects>
      <tilted>0</tilted></_>
    <_>
      <rects>
        <_>
          12 2 4 3 -1.</_>
        <_>
          12 3 4 1 3.</_></rects>
      <tilted>0</tilted></_>
    <_>
      <rects>
        <_>
          12 3 2 2 -1.</_>
        <_>
          12 4 2 1 2.</_></rects>
      <tilted>0</tilted></_>
    <_>
      <rects>
        <_>
          12 3 10 3 -1.</_>
        <_>
          17 3 5 3 2.</_></rects>
      <tilted>0</tilted></_>
    <_>
      <rects>
        <_>
          12 5 1 3 -1.</_>
        <_>
          12 6 1 1 3.</_></rects>
      <tilted>0</tilted></_>
    <_>
      <rects>
        <_>
          12 5 3 9 -1.</_>
        <_>
          12 8 3 3 3.</_></rects>
      <tilted>0</tilted></_>
    <_>
      <rects>
        <_>
          12 6 3 3 -1.</_>
        <_>
          12 7 3 1 3.</_></rects>
      <tilted>0</tilted></_>
    <_>
      <rects>
        <_>
          12 8 5 3 -1.</_>
        <_>
          12 9 5 1 3.</_></rects>
      <tilted>0</tilted></_>
    <_>
      <rects>
        <_>
          12 11 5 3 -1.</_>
        <_>
          12 12 5 1 3.</_></rects>
      <tilted>0</tilted></_>
    <_>
      <rects>
        <_>
          12 16 8 8 -1.</_>
        <_>
          12 20 8 4 2.</_></rects>
      <tilted>0</tilted></_>
    <_>
      <rects>
        <_>
          13 0 3 1 -1.</_>
        <_>
          14 0 1 1 3.</_></rects>
      <tilted>0</tilted></_>
    <_>
      <rects>
        <_>
          13 0 8 6 -1.</_>
        <_>
          13 0 4 3 2.</_>
        <_>
          17 3 4 3 2.</_></rects>
      <tilted>0</tilted></_>
    <_>
      <rects>
        <_>
          13 5 4 3 -1.</_>
        <_>
          13 6 4 1 3.</_></rects>
      <tilted>0</tilted></_>
    <_>
      <rects>
        <_>
          13 6 3 3 -1.</_>
        <_>
          13 7 3 1 3.</_></rects>
      <tilted>0</tilted></_>
    <_>
      <rects>
        <_>
          13 7 3 3 -1.</_>
        <_>
          13 8 3 1 3.</_></rects>
      <tilted>0</tilted></_>
    <_>
      <rects>
        <_>
          13 8 5 3 -1.</_>
        <_>
          13 9 5 1 3.</_></rects>
      <tilted>0</tilted></_>
    <_>
      <rects>
        <_>
          13 9 6 3 -1.</_>
        <_>
          13 10 6 1 3.</_></rects>
      <tilted>0</tilted></_>
    <_>
      <rects>
        <_>
          13 10 3 6 -1.</_>
        <_>
          13 12 3 2 3.</_></rects>
      <tilted>0</tilted></_>
    <_>
      <rects>
        <_>
          13 19 1 2 -1.</_>
        <_>
          13 20 1 1 2.</_></rects>
      <tilted>0</tilted></_>
    <_>
      <rects>
        <_>
          14 5 1 6 -1.</_>
        <_>
          14 8 1 3 2.</_></rects>
      <tilted>0</tilted></_>
    <_>
      <rects>
        <_>
          14 5 2 3 -1.</_>
        <_>
          14 6 2 1 3.</_></rects>
      <tilted>0</tilted></_>
    <_>
      <rects>
        <_>
          14 7 3 6 -1.</_>
        <_>
          14 10 3 3 2.</_></rects>
      <tilted>0</tilted></_>
    <_>
      <rects>
        <_>
          14 8 4 3 -1.</_>
        <_>
          14 9 4 1 3.</_></rects>
      <tilted>0</tilted></_>
    <_>
      <rects>
        <_>
          14 11 5 3 -1.</_>
        <_>
          14 12 5 1 3.</_></rects>
      <tilted>0</tilted></_>
    <_>
      <rects>
        <_>
          14 14 2 2 -1.</_>
        <_>
          14 15 2 1 2.</_></rects>
      <tilted>0</tilted></_>
    <_>
      <rects>
        <_>
          15 6 1 3 -1.</_>
        <_>
          15 7 1 1 3.</_></rects>
      <tilted>0</tilted></_>
    <_>
      <rects>
        <_>
          16 6 1 6 -1.</_>
        <_>
          16 9 1 3 2.</_></rects>
      <tilted>0</tilted></_>
    <_>
      <rects>
        <_>
          16 8 2 3 -1.</_>
        <_>
          16 9 2 1 3.</_></rects>
      <tilted>0</tilted></_>
    <_>
      <rects>
        <_>
          16 9 2 3 -1.</_>
        <_>
          16 10 2 1 3.</_></rects>
      <tilted>0</tilted></_>
    <_>
      <rects>
        <_>
          16 10 4 2 -1.</_>
        <_>
          18 10 2 2 2.</_></rects>
      <tilted>0</tilted></_>
    <_>
      <rects>
        <_>
          17 1 6 1 -1.</_>
        <_>
          19 1 2 1 3.</_></rects>
      <tilted>0</tilted></_>
    <_>
      <rects>
        <_>
          19 1 4 8 -1.</_>
        <_>
          19 5 4 4 2.</_></rects>
      <tilted>0</tilted></_>
    <_>
      <rects>
        <_>
          20 0 1 21 -1.</_>
        <_>
          20 7 1 7 3.</_></rects>
      <tilted>0</tilted></_>
    <_>
      <rects>
        <_>
          20 17 4 7 -1.</_>
        <_>
          22 17 2 7 2.</_></rects>
      <tilted>0</tilted></_>
    <_>
      <rects>
        <_>
          21 0 3 21 -1.</_>
        <_>
          21 7 3 7 3.</_></rects>
      <tilted>0</tilted></_>
    <_>
      <rects>
        <_>
          21 12 2 4 -1.</_>
        <_>
          21 14 2 2 2.</_></rects>
      <tilted>0</tilted></_>
    <_>
      <rects>
        <_>
          23 4 1 9 -1.</_>
        <_>
          23 7 1 3 3.</_></rects>
      <tilted>0</tilted></_>
    <_>
      <rects>
        <_>
          23 9 1 10 -1.</_>
        <_>
          23 14 1 5 2.</_></rects>
      <tilted>0</tilted></_></features></cascade>
</opencv_storage>
