<?xml version="1.0"?>
<opencv_storage>
<cascade>
  <stageType>BOOST</stageType>
  <featureType>HAAR</featureType>
  <height>24</height>
  <width>24</width>
  <stageParams>
    <boostType>GAB</boostType>
    <minHitRate>9.9500000476837158e-01</minHitRate>
    <maxFalseAlarm>5.0000000000000000e-01</maxFalseAlarm>
    <weightTrimRate>9.4999998807907104e-01</weightTrimRate>
    <maxDepth>1</maxDepth>
    <maxWeakCount>100</maxWeakCount></stageParams>
  <featureParams>
    <maxCatCount>0</maxCatCount>
    <featSize>1</featSize>
    <mode>BASIC</mode></featureParams>
  <stageNum>20</stageNum>
  <stages>
    <!-- stage 0 -->
    <_>
      <maxWeakCount>4</maxWeakCount>
      <stageThreshold>-5.0366300344467163e-01</stageThreshold>
      <weakClassifiers>
        <_>
          <internalNodes>
            0 -1 56 -6.9537803530693054e-02</internalNodes>
          <leafValues>
            8.4649121761322021e-01 -6.8706291913986206e-01</leafValues></_>
        <_>
          <internalNodes>
            0 -1 30 6.4558848738670349e-02</internalNodes>
          <leafValues>
            -6.0878622531890869e-01 7.6084429025650024e-01</leafValues></_>
        <_>
          <internalNodes>
            0 -1 35 -6.5199681557714939e-04</internalNodes>
          <leafValues>
            -8.6834830045700073e-01 3.6837130784988403e-01</leafValues></_>
        <_>
          <internalNodes>
            0 -1 35 7.6274573802947998e-04</internalNodes>
          <leafValues>
            4.2381483316421509e-01 -8.9421898126602173e-01</leafValues></_></weakClassifiers></_>
    <!-- stage 1 -->
    <_>
      <maxWeakCount>5</maxWeakCount>
      <stageThreshold>-7.9592734575271606e-01</stageThreshold>
      <weakClassifiers>
        <_>
          <internalNodes>
            0 -1 82 6.5706402063369751e-02</internalNodes>
          <leafValues>
            -6.5836912393569946e-01 8.4367817640304565e-01</leafValues></_>
        <_>
          <internalNodes>
            0 -1 57 -1.3817501068115234e-01</internalNodes>
          <leafValues>
            9.0540075302124023e-01 -3.7825351953506470e-01</leafValues></_>
        <_>
          <internalNodes>
            0 -1 48 8.3345979452133179e-02</internalNodes>
          <leafValues>
            -3.7236189842224121e-01 8.8300591707229614e-01</leafValues></_>
        <_>
          <internalNodes>
            0 -1 221 -1.5102925244718790e-03</internalNodes>
          <leafValues>
            -9.2442607879638672e-01 3.6059799790382385e-01</leafValues></_>
        <_>
          <internalNodes>
            0 -1 226 7.0376781513914466e-04</internalNodes>
          <leafValues>
            2.8211539983749390e-01 -8.2739615440368652e-01</leafValues></_></weakClassifiers></_>
    <!-- stage 2 -->
    <_>
      <maxWeakCount>3</maxWeakCount>
      <stageThreshold>-6.7424470186233521e-01</stageThreshold>
      <weakClassifiers>
        <_>
          <internalNodes>
            0 -1 110 -1.5631292626494542e-05</internalNodes>
          <leafValues>
            8.3364838361740112e-01 -7.8524744510650635e-01</leafValues></_>
        <_>
          <internalNodes>
            0 -1 174 1.6421767213614658e-05</internalNodes>
          <leafValues>
            -6.8238300085067749e-01 8.0950909852981567e-01</leafValues></_>
        <_>
          <internalNodes>
            0 -1 125 -2.6836061806534417e-05</internalNodes>
          <leafValues>
            7.9338574409484863e-01 -6.1910760402679443e-01</leafValues></_></weakClassifiers></_>
    <!-- stage 3 -->
    <_>
      <maxWeakCount>5</maxWeakCount>
      <stageThreshold>-1.4659909009933472e+00</stageThreshold>
      <weakClassifiers>
        <_>
          <internalNodes>
            0 -1 64 1.4450058188231196e-05</internalNodes>
          <leafValues>
            -6.9636362791061401e-01 7.3199999332427979e-01</leafValues></_>
        <_>
          <internalNodes>
            0 -1 94 -1.6301477444358170e-05</internalNodes>
          <leafValues>
            7.3268193006515503e-01 -6.0186606645584106e-01</leafValues></_>
        <_>
          <internalNodes>
            0 -1 99 1.3572153875429649e-05</internalNodes>
          <leafValues>
            -4.3159359693527222e-01 8.2190972566604614e-01</leafValues></_>
        <_>
          <internalNodes>
            0 -1 188 2.5152062997221947e-02</internalNodes>
          <leafValues>
            -4.4129502773284912e-01 7.4242085218429565e-01</leafValues></_>
        <_>
          <internalNodes>
            0 -1 142 -1.5100981727300677e-05</internalNodes>
          <leafValues>
            7.0512735843658447e-01 -4.3436110019683838e-01</leafValues></_></weakClassifiers></_>
    <!-- stage 4 -->
    <_>
      <maxWeakCount>6</maxWeakCount>
      <stageThreshold>-1.5037803649902344e+00</stageThreshold>
      <weakClassifiers>
        <_>
          <internalNodes>
            0 -1 126 4.8404812812805176e-02</internalNodes>
          <leafValues>
            -7.0119154453277588e-01 7.1709233522415161e-01</leafValues></_>
        <_>
          <internalNodes>
            0 -1 97 1.6235813382081687e-04</internalNodes>
          <leafValues>
            -4.7977438569068909e-01 4.0967553853988647e-01</leafValues></_>
        <_>
          <internalNodes>
            0 -1 161 -1.0846857726573944e-01</internalNodes>
          <leafValues>
            6.0049176216125488e-01 -3.4640499949455261e-01</leafValues></_>
        <_>
          <internalNodes>
            0 -1 91 1.8202381208539009e-02</internalNodes>
          <leafValues>
            -3.5363340377807617e-01 7.1628379821777344e-01</leafValues></_>
        <_>
          <internalNodes>
            0 -1 93 -6.7744142143055797e-05</internalNodes>
          <leafValues>
            5.7006418704986572e-01 -2.6528817415237427e-01</leafValues></_>
        <_>
          <internalNodes>
            0 -1 189 -1.6607202589511871e-02</internalNodes>
          <leafValues>
            7.0644664764404297e-01 -2.4693770706653595e-01</leafValues></_></weakClassifiers></_>
    <!-- stage 5 -->
    <_>
      <maxWeakCount>5</maxWeakCount>
      <stageThreshold>-1.0188795328140259e+00</stageThreshold>
      <weakClassifiers>
        <_>
          <internalNodes>
            0 -1 108 -2.5841571390628815e-02</internalNodes>
          <leafValues>
            5.8792185783386230e-01 -7.0491802692413330e-01</leafValues></_>
        <_>
          <internalNodes>
            0 -1 70 -1.2343063950538635e-01</internalNodes>
          <leafValues>
            7.9306912422180176e-01 -3.1385776400566101e-01</leafValues></_>
        <_>
          <internalNodes>
            0 -1 33 2.4911969900131226e-02</internalNodes>
          <leafValues>
            -3.7725442647933960e-01 6.3699871301651001e-01</leafValues></_>
        <_>
          <internalNodes>
            0 -1 112 -1.2041460722684860e-02</internalNodes>
          <leafValues>
            5.9304982423782349e-01 -3.0542027950286865e-01</leafValues></_>
        <_>
          <internalNodes>
            0 -1 192 1.4696669764816761e-02</internalNodes>
          <leafValues>
            -2.1589912474155426e-01 7.2331345081329346e-01</leafValues></_></weakClassifiers></_>
    <!-- stage 6 -->
    <_>
      <maxWeakCount>12</maxWeakCount>
      <stageThreshold>-1.6176849603652954e+00</stageThreshold>
      <weakClassifiers>
        <_>
          <internalNodes>
            0 -1 34 6.2835156917572021e-02</internalNodes>
          <leafValues>
            -5.3818184137344360e-01 3.8400000333786011e-01</leafValues></_>
        <_>
          <internalNodes>
            0 -1 1 -1.6277749091386795e-03</internalNodes>
          <leafValues>
            -6.6753977537155151e-01 2.1198865771293640e-01</leafValues></_>
        <_>
          <internalNodes>
            0 -1 146 1.4212451875209808e-01</internalNodes>
          <leafValues>
            1.3830536603927612e-01 -9.3120914697647095e-01</leafValues></_>
        <_>
          <internalNodes>
            0 -1 16 4.1312776505947113e-02</internalNodes>
          <leafValues>
            -2.6726227998733521e-01 5.1894116401672363e-01</leafValues></_>
        <_>
          <internalNodes>
            0 -1 104 -1.4938256144523621e-01</internalNodes>
          <leafValues>
            8.4243720769882202e-01 -1.7388443648815155e-01</leafValues></_>
        <_>
          <internalNodes>
            0 -1 71 -4.8918403685092926e-02</internalNodes>
          <leafValues>
            4.4169262051582336e-01 -3.3139088749885559e-01</leafValues></_>
        <_>
          <internalNodes>
            0 -1 191 -2.2010231390595436e-02</internalNodes>
          <leafValues>
            6.5699243545532227e-01 -1.7307586967945099e-01</leafValues></_>
        <_>
          <internalNodes>
            0 -1 206 2.1100337617099285e-03</internalNodes>
          <leafValues>
            -2.0101380348205566e-01 6.5774029493331909e-01</leafValues></_>
        <_>
          <internalNodes>
            0 -1 232 -3.8789949030615389e-04</internalNodes>
          <leafValues>
            -8.5778671503067017e-01 1.5878918766975403e-01</leafValues></_>
        <_>
          <internalNodes>
            0 -1 199 -4.6898308210074902e-03</internalNodes>
          <leafValues>
            7.2410100698471069e-01 -1.9744314253330231e-01</leafValues></_>
        <_>
          <internalNodes>
            0 -1 168 -2.9827009711880237e-05</internalNodes>
          <leafValues>
            3.3879715204238892e-01 -3.5483705997467041e-01</leafValues></_>
        <_>
          <internalNodes>
            0 -1 12 -4.7786236973479390e-04</internalNodes>
          <leafValues>
            -5.8384847640991211e-01 2.0364612340927124e-01</leafValues></_></weakClassifiers></_>
    <!-- stage 7 -->
    <_>
      <maxWeakCount>11</maxWeakCount>
      <stageThreshold>-1.1935234069824219e+00</stageThreshold>
      <weakClassifiers>
        <_>
          <internalNodes>
            0 -1 141 1.1839833110570908e-02</internalNodes>
          <leafValues>
            -5.3424656391143799e-01 3.6633664369583130e-01</leafValues></_>
        <_>
          <internalNodes>
            0 -1 122 -2.5934118777513504e-02</internalNodes>
          <leafValues>
            5.3030252456665039e-01 -2.8125810623168945e-01</leafValues></_>
        <_>
          <internalNodes>
            0 -1 138 3.3851057291030884e-02</internalNodes>
          <leafValues>
            -1.4798910915851593e-01 8.4528702497482300e-01</leafValues></_>
        <_>
          <internalNodes>
            0 -1 194 -1.3557957572629675e-05</internalNodes>
          <leafValues>
            3.5955107212066650e-01 -4.0718916058540344e-01</leafValues></_>
        <_>
          <internalNodes>
            0 -1 115 -9.4468845054507256e-04</internalNodes>
          <leafValues>
            -5.9419584274291992e-01 1.9707506895065308e-01</leafValues></_>
        <_>
          <internalNodes>
            0 -1 151 -3.9112111553549767e-03</internalNodes>
          <leafValues>
            5.2916526794433594e-01 -2.4812927842140198e-01</leafValues></_>
        <_>
          <internalNodes>
            0 -1 69 -3.1795501708984375e-02</internalNodes>
          <leafValues>
            7.0165824890136719e-01 -1.5499466657638550e-01</leafValues></_>
        <_>
          <internalNodes>
            0 -1 0 -6.9003028329461813e-04</internalNodes>
          <leafValues>
            -6.3847810029983521e-01 1.5584145486354828e-01</leafValues></_>
        <_>
          <internalNodes>
            0 -1 22 -5.8955283748218790e-05</internalNodes>
          <leafValues>
            3.6991828680038452e-01 -3.9047691226005554e-01</leafValues></_>
        <_>
          <internalNodes>
            0 -1 88 9.6951350569725037e-03</internalNodes>
          <leafValues>
            -2.5258463621139526e-01 5.2375781536102295e-01</leafValues></_>
        <_>
          <internalNodes>
            0 -1 3 -4.3272199109196663e-03</internalNodes>
          <leafValues>
            -6.6630917787551880e-01 1.9384357333183289e-01</leafValues></_></weakClassifiers></_>
    <!-- stage 8 -->
    <_>
      <maxWeakCount>12</maxWeakCount>
      <stageThreshold>-9.2796486616134644e-01</stageThreshold>
      <weakClassifiers>
        <_>
          <internalNodes>
            0 -1 79 -6.5739013254642487e-02</internalNodes>
          <leafValues>
            5.5763238668441772e-01 -4.5269742608070374e-01</leafValues></_>
        <_>
          <internalNodes>
            0 -1 39 -1.2330116704106331e-02</internalNodes>
          <leafValues>
            3.1426873803138733e-01 -3.9136692881584167e-01</leafValues></_>
        <_>
          <internalNodes>
            0 -1 147 2.3189396597445011e-03</internalNodes>
          <leafValues>
            -1.7944423854351044e-01 6.7466956377029419e-01</leafValues></_>
        <_>
          <internalNodes>
            0 -1 74 -9.2958169989287853e-04</internalNodes>
          <leafValues>
            -6.4643311500549316e-01 1.9438751041889191e-01</leafValues></_>
        <_>
          <internalNodes>
            0 -1 163 -1.9411337561905384e-03</internalNodes>
          <leafValues>
            5.2840369939804077e-01 -2.3707088828086853e-01</leafValues></_>
        <_>
          <internalNodes>
            0 -1 37 -2.1695937030017376e-03</internalNodes>
          <leafValues>
            -5.8023828268051147e-01 1.9720648229122162e-01</leafValues></_>
        <_>
          <internalNodes>
            0 -1 46 -3.3252050343435258e-05</internalNodes>
          <leafValues>
            3.1165996193885803e-01 -4.5216286182403564e-01</leafValues></_>
        <_>
          <internalNodes>
            0 -1 187 -2.6882204110734165e-05</internalNodes>
          <leafValues>
            2.8715100884437561e-01 -3.8604429364204407e-01</leafValues></_>
        <_>
          <internalNodes>
            0 -1 165 3.0913809314370155e-03</internalNodes>
          <leafValues>
            -1.7882300913333893e-01 5.7992500066757202e-01</leafValues></_>
        <_>
          <internalNodes>
            0 -1 36 -8.7661005090922117e-04</internalNodes>
          <leafValues>
            -5.4769736528396606e-01 2.0499493181705475e-01</leafValues></_>
        <_>
          <internalNodes>
            0 -1 105 7.2028697468340397e-03</internalNodes>
          <leafValues>
            -2.0081157982349396e-01 5.9968650341033936e-01</leafValues></_>
        <_>
          <internalNodes>
            0 -1 184 -2.8827871574321762e-05</internalNodes>
          <leafValues>
            3.5766986012458801e-01 -3.0935066938400269e-01</leafValues></_></weakClassifiers></_>
    <!-- stage 9 -->
    <_>
      <maxWeakCount>14</maxWeakCount>
      <stageThreshold>-1.4658271074295044e+00</stageThreshold>
      <weakClassifiers>
        <_>
          <internalNodes>
            0 -1 78 -2.4256845936179161e-03</internalNodes>
          <leafValues>
            5.0000000000000000e-01 -4.7087377309799194e-01</leafValues></_>
        <_>
          <internalNodes>
            0 -1 190 3.2926939427852631e-02</internalNodes>
          <leafValues>
            -3.8826218247413635e-01 3.8942337036132813e-01</leafValues></_>
        <_>
          <internalNodes>
            0 -1 172 -3.4626370761543512e-03</internalNodes>
          <leafValues>
            7.2990202903747559e-01 -1.7642390727996826e-01</leafValues></_>
        <_>
          <internalNodes>
            0 -1 136 -2.4095429107546806e-03</internalNodes>
          <leafValues>
            4.5684286952018738e-01 -2.7244368195533752e-01</leafValues></_>
        <_>
          <internalNodes>
            0 -1 224 -5.8615640737116337e-03</internalNodes>
          <leafValues>
            -4.9782550334930420e-01 2.5731089711189270e-01</leafValues></_>
        <_>
          <internalNodes>
            0 -1 123 -2.3761088028550148e-02</internalNodes>
          <leafValues>
            6.9889873266220093e-01 -1.3157095015048981e-01</leafValues></_>
        <_>
          <internalNodes>
            0 -1 135 4.5855771750211716e-03</internalNodes>
          <leafValues>
            -1.7887070775032043e-01 6.4133375883102417e-01</leafValues></_>
        <_>
          <internalNodes>
            0 -1 127 1.5246035763993859e-04</internalNodes>
          <leafValues>
            -2.8316038846969604e-01 3.5875624418258667e-01</leafValues></_>
        <_>
          <internalNodes>
            0 -1 50 1.1846575653180480e-03</internalNodes>
          <leafValues>
            -1.8737903237342834e-01 5.6254881620407104e-01</leafValues></_>
        <_>
          <internalNodes>
            0 -1 179 -1.3936737552285194e-02</internalNodes>
          <leafValues>
            4.4680649042129517e-01 -2.5341176986694336e-01</leafValues></_>
        <_>
          <internalNodes>
            0 -1 166 -3.8622124120593071e-03</internalNodes>
          <leafValues>
            2.7764141559600830e-01 -3.7560096383094788e-01</leafValues></_>
        <_>
          <internalNodes>
            0 -1 212 -1.6175555065274239e-02</internalNodes>
          <leafValues>
            6.7798435688018799e-01 -1.8421567976474762e-01</leafValues></_>
        <_>
          <internalNodes>
            0 -1 6 7.0356745272874832e-03</internalNodes>
          <leafValues>
            2.1408705413341522e-01 -5.9520643949508667e-01</leafValues></_>
        <_>
          <internalNodes>
            0 -1 157 -2.3504856973886490e-02</internalNodes>
          <leafValues>
            4.7912251949310303e-01 -2.4151591956615448e-01</leafValues></_></weakClassifiers></_>
    <!-- stage 10 -->
    <_>
      <maxWeakCount>11</maxWeakCount>
      <stageThreshold>-1.5878152847290039e+00</stageThreshold>
      <weakClassifiers>
        <_>
          <internalNodes>
            0 -1 61 6.6998921334743500e-02</internalNodes>
          <leafValues>
            -6.2271803617477417e-01 3.4853419661521912e-01</leafValues></_>
        <_>
          <internalNodes>
            0 -1 90 -4.4644732028245926e-02</internalNodes>
          <leafValues>
            4.3081378936767578e-01 -3.7091186642646790e-01</leafValues></_>
        <_>
          <internalNodes>
            0 -1 225 1.3179839588701725e-03</internalNodes>
          <leafValues>
            2.8256127238273621e-01 -5.4874575138092041e-01</leafValues></_>
        <_>
          <internalNodes>
            0 -1 52 -3.6995394621044397e-03</internalNodes>
          <leafValues>
            6.1102306842803955e-01 -2.0394197106361389e-01</leafValues></_>
        <_>
          <internalNodes>
            0 -1 231 6.6579401027411222e-04</internalNodes>
          <leafValues>
            3.0299684405326843e-01 -4.3594002723693848e-01</leafValues></_>
        <_>
          <internalNodes>
            0 -1 208 -1.7764840740710497e-03</internalNodes>
          <leafValues>
            5.6374186277389526e-01 -2.3861223459243774e-01</leafValues></_>
        <_>
          <internalNodes>
            0 -1 176 -4.6898974105715752e-03</internalNodes>
          <leafValues>
            5.9147912263870239e-01 -1.8498589098453522e-01</leafValues></_>
        <_>
          <internalNodes>
            0 -1 95 -9.5300786197185516e-03</internalNodes>
          <leafValues>
            4.2311617732048035e-01 -2.7095553278923035e-01</leafValues></_>
        <_>
          <internalNodes>
            0 -1 65 5.4215225391089916e-03</internalNodes>
          <leafValues>
            1.8962682783603668e-01 -5.7188636064529419e-01</leafValues></_>
        <_>
          <internalNodes>
            0 -1 143 -1.8148543313145638e-03</internalNodes>
          <leafValues>
            4.7186687588691711e-01 -2.4478335678577423e-01</leafValues></_>
        <_>
          <internalNodes>
            0 -1 94 -3.1895225401967764e-04</internalNodes>
          <leafValues>
            4.4671639800071716e-01 -2.3403806984424591e-01</leafValues></_></weakClassifiers></_>
    <!-- stage 11 -->
    <_>
      <maxWeakCount>15</maxWeakCount>
      <stageThreshold>-1.0748131275177002e+00</stageThreshold>
      <weakClassifiers>
        <_>
          <internalNodes>
            0 -1 62 5.6091150327119976e-05</internalNodes>
          <leafValues>
            -5.6339579820632935e-01 1.6017316281795502e-01</leafValues></_>
        <_>
          <internalNodes>
            0 -1 116 1.0056928731501102e-03</internalNodes>
          <leafValues>
            2.0910850167274475e-01 -6.2241935729980469e-01</leafValues></_>
        <_>
          <internalNodes>
            0 -1 66 3.9261290803551674e-03</internalNodes>
          <leafValues>
            -4.1491493582725525e-01 2.6628288626670837e-01</leafValues></_>
        <_>
          <internalNodes>
            0 -1 43 6.2835593707859516e-03</internalNodes>
          <leafValues>
            -5.3524374961853027e-01 2.3489397764205933e-01</leafValues></_>
        <_>
          <internalNodes>
            0 -1 148 3.3542565070092678e-03</internalNodes>
          <leafValues>
            -2.0364186167716980e-01 6.2917625904083252e-01</leafValues></_>
        <_>
          <internalNodes>
            0 -1 203 4.3704640120267868e-04</internalNodes>
          <leafValues>
            2.7214160561561584e-01 -4.5885699987411499e-01</leafValues></_>
        <_>
          <internalNodes>
            0 -1 81 -1.6307891928590834e-04</internalNodes>
          <leafValues>
            3.6664211750030518e-01 -3.1765076518058777e-01</leafValues></_>
        <_>
          <internalNodes>
            0 -1 103 1.6304463148117065e-02</internalNodes>
          <leafValues>
            -1.4896392822265625e-01 5.7681190967559814e-01</leafValues></_>
        <_>
          <internalNodes>
            0 -1 167 8.5516698658466339e-02</internalNodes>
          <leafValues>
            -2.2385433316230774e-01 5.4464668035507202e-01</leafValues></_>
        <_>
          <internalNodes>
            0 -1 106 1.0472958674654365e-03</internalNodes>
          <leafValues>
            -1.4741967618465424e-01 5.9199732542037964e-01</leafValues></_>
        <_>
          <internalNodes>
            0 -1 139 -3.8183432072401047e-02</internalNodes>
          <leafValues>
            8.1147104501724243e-01 -1.1665240675210953e-01</leafValues></_>
        <_>
          <internalNodes>
            0 -1 25 1.4020025264471769e-03</internalNodes>
          <leafValues>
            1.8198357522487640e-01 -5.9844189882278442e-01</leafValues></_>
        <_>
          <internalNodes>
            0 -1 2 -1.2283429969102144e-03</internalNodes>
          <leafValues>
            -5.8575165271759033e-01 1.6294685006141663e-01</leafValues></_>
        <_>
          <internalNodes>
            0 -1 92 1.0202042758464813e-03</internalNodes>
          <leafValues>
            -2.4595494568347931e-01 4.2765340209007263e-01</leafValues></_>
        <_>
          <internalNodes>
            0 -1 198 -1.1098743561888114e-04</internalNodes>
          <leafValues>
            4.4812485575675964e-01 -2.3324361443519592e-01</leafValues></_></weakClassifiers></_>
    <!-- stage 12 -->
    <_>
      <maxWeakCount>16</maxWeakCount>
      <stageThreshold>-1.3114944696426392e+00</stageThreshold>
      <weakClassifiers>
        <_>
          <internalNodes>
            0 -1 185 -5.5744342505931854e-02</internalNodes>
          <leafValues>
            8.0124223232269287e-01 -3.6761641502380371e-01</leafValues></_>
        <_>
          <internalNodes>
            0 -1 177 7.9109647776931524e-04</internalNodes>
          <leafValues>
            1.5023991465568542e-01 -6.1155706644058228e-01</leafValues></_>
        <_>
          <internalNodes>
            0 -1 42 2.3636434227228165e-02</internalNodes>
          <leafValues>
            -4.1212785243988037e-01 2.8050512075424194e-01</leafValues></_>
        <_>
          <internalNodes>
            0 -1 47 -1.6629232559353113e-03</internalNodes>
          <leafValues>
            4.1275140643119812e-01 -2.3814292252063751e-01</leafValues></_>
        <_>
          <internalNodes>
            0 -1 170 5.6019565090537071e-04</internalNodes>
          <leafValues>
            -3.0731707811355591e-01 3.5254836082458496e-01</leafValues></_>
        <_>
          <internalNodes>
            0 -1 233 -7.9637323506176472e-04</internalNodes>
          <leafValues>
            -5.5098545551300049e-01 1.8227609992027283e-01</leafValues></_>
        <_>
          <internalNodes>
            0 -1 230 9.4925391022115946e-04</internalNodes>
          <leafValues>
            1.1342967301607132e-01 -7.3671931028366089e-01</leafValues></_>
        <_>
          <internalNodes>
            0 -1 84 1.0239465627819300e-03</internalNodes>
          <leafValues>
            1.0465567559003830e-01 -6.8499076366424561e-01</leafValues></_>
        <_>
          <internalNodes>
            0 -1 149 -7.3713884921744466e-04</internalNodes>
          <leafValues>
            4.2535403370857239e-01 -2.2407267987728119e-01</leafValues></_>
        <_>
          <internalNodes>
            0 -1 27 -8.5339439101517200e-04</internalNodes>
          <leafValues>
            -5.7906937599182129e-01 1.8151460587978363e-01</leafValues></_>
        <_>
          <internalNodes>
            0 -1 7 4.1815515607595444e-02</internalNodes>
          <leafValues>
            -2.3377545177936554e-01 4.0750083327293396e-01</leafValues></_>
        <_>
          <internalNodes>
            0 -1 9 2.0526596345007420e-03</internalNodes>
          <leafValues>
            1.7733971774578094e-01 -5.7407361268997192e-01</leafValues></_>
        <_>
          <internalNodes>
            0 -1 210 9.7564182942733169e-04</internalNodes>
          <leafValues>
            9.9697887897491455e-02 -6.8882429599761963e-01</leafValues></_>
        <_>
          <internalNodes>
            0 -1 186 -5.8265723055228591e-04</internalNodes>
          <leafValues>
            4.8723915219306946e-01 -2.2991573810577393e-01</leafValues></_>
        <_>
          <internalNodes>
            0 -1 152 -2.3551478807348758e-04</internalNodes>
          <leafValues>
            3.1034046411514282e-01 -2.8121909499168396e-01</leafValues></_>
        <_>
          <internalNodes>
            0 -1 158 -1.0941964574158192e-03</internalNodes>
          <leafValues>
            3.5311505198478699e-01 -2.5301826000213623e-01</leafValues></_></weakClassifiers></_>
    <!-- stage 13 -->
    <_>
      <maxWeakCount>13</maxWeakCount>
      <stageThreshold>-1.2568504810333252e+00</stageThreshold>
      <weakClassifiers>
        <_>
          <internalNodes>
            0 -1 169 2.8104657307267189e-02</internalNodes>
          <leafValues>
            -3.8020086288452148e-01 6.3106793165206909e-01</leafValues></_>
        <_>
          <internalNodes>
            0 -1 4 -1.2043120805174112e-03</internalNodes>
          <leafValues>
            2.5816413760185242e-01 -4.6378818154335022e-01</leafValues></_>
        <_>
          <internalNodes>
            0 -1 197 3.9196610450744629e-02</internalNodes>
          <leafValues>
            -2.4667049944400787e-01 4.7176852822303772e-01</leafValues></_>
        <_>
          <internalNodes>
            0 -1 5 -8.4752701222896576e-03</internalNodes>
          <leafValues>
            -5.2280390262603760e-01 2.4287474155426025e-01</leafValues></_>
        <_>
          <internalNodes>
            0 -1 21 4.9543857574462891e-02</internalNodes>
          <leafValues>
            9.2696145176887512e-02 -9.5342302322387695e-01</leafValues></_>
        <_>
          <internalNodes>
            0 -1 14 4.8491246998310089e-02</internalNodes>
          <leafValues>
            1.1111784726381302e-01 -8.4671443700790405e-01</leafValues></_>
        <_>
          <internalNodes>
            0 -1 11 -6.3943904824554920e-03</internalNodes>
          <leafValues>
            2.9495787620544434e-01 -3.0332288146018982e-01</leafValues></_>
        <_>
          <internalNodes>
            0 -1 114 6.6391786094754934e-04</internalNodes>
          <leafValues>
            4.1598487645387650e-02 -9.2697316408157349e-01</leafValues></_>
        <_>
          <internalNodes>
            0 -1 209 -1.0662043932825327e-03</internalNodes>
          <leafValues>
            5.1934969425201416e-01 -1.8629282712936401e-01</leafValues></_>
        <_>
          <internalNodes>
            0 -1 217 1.7793348524719477e-03</internalNodes>
          <leafValues>
            1.6869196295738220e-01 -7.0662397146224976e-01</leafValues></_>
        <_>
          <internalNodes>
            0 -1 80 -1.7944241699296981e-04</internalNodes>
          <leafValues>
            3.2744860649108887e-01 -3.3264413475990295e-01</leafValues></_>
        <_>
          <internalNodes>
            0 -1 102 -1.3501623179763556e-03</internalNodes>
          <leafValues>
            4.4150272011756897e-01 -2.1654030680656433e-01</leafValues></_>
        <_>
          <internalNodes>
            0 -1 144 1.4782804995775223e-02</internalNodes>
          <leafValues>
            -1.3046094775199890e-01 6.6573864221572876e-01</leafValues></_></weakClassifiers></_>
    <!-- stage 14 -->
    <_>
      <maxWeakCount>20</maxWeakCount>
      <stageThreshold>-1.2976164817810059e+00</stageThreshold>
      <weakClassifiers>
        <_>
          <internalNodes>
            0 -1 87 1.5463988296687603e-02</internalNodes>
          <leafValues>
            -5.2604699134826660e-01 1.8518517911434174e-01</leafValues></_>
        <_>
          <internalNodes>
            0 -1 89 -3.3766672015190125e-02</internalNodes>
          <leafValues>
            2.5172650814056396e-01 -3.8757374882698059e-01</leafValues></_>
        <_>
          <internalNodes>
            0 -1 53 1.9952405244112015e-02</internalNodes>
          <leafValues>
            -4.0829747915267944e-01 2.7133035659790039e-01</leafValues></_>
        <_>
          <internalNodes>
            0 -1 222 -1.5014769815024920e-05</internalNodes>
          <leafValues>
            2.6228561997413635e-01 -3.9027550816535950e-01</leafValues></_>
        <_>
          <internalNodes>
            0 -1 218 -2.2200592793524265e-03</internalNodes>
          <leafValues>
            -5.5207890272140503e-01 1.9173437356948853e-01</leafValues></_>
        <_>
          <internalNodes>
            0 -1 132 5.3558591753244400e-03</internalNodes>
          <leafValues>
            -1.6273006796836853e-01 6.4691805839538574e-01</leafValues></_>
        <_>
          <internalNodes>
            0 -1 162 -2.9864162206649780e-03</internalNodes>
          <leafValues>
            4.2612293362617493e-01 -1.8921793997287750e-01</leafValues></_>
        <_>
          <internalNodes>
            0 -1 155 1.3701105490326881e-03</internalNodes>
          <leafValues>
            -2.4822162091732025e-01 3.7238374352455139e-01</leafValues></_>
        <_>
          <internalNodes>
            0 -1 183 3.1550761312246323e-02</internalNodes>
          <leafValues>
            -9.2558868229389191e-02 7.1798193454742432e-01</leafValues></_>
        <_>
          <internalNodes>
            0 -1 234 -7.4921088526025414e-04</internalNodes>
          <leafValues>
            -7.9924911260604858e-01 1.0334412753582001e-01</leafValues></_>
        <_>
          <internalNodes>
            0 -1 220 -3.2658996060490608e-03</internalNodes>
          <leafValues>
            5.3897053003311157e-01 -1.4795930683612823e-01</leafValues></_>
        <_>
          <internalNodes>
            0 -1 96 -1.9488478079438210e-02</internalNodes>
          <leafValues>
            3.5397699475288391e-01 -2.5172871351242065e-01</leafValues></_>
        <_>
          <internalNodes>
            0 -1 13 1.9108681008219719e-02</internalNodes>
          <leafValues>
            -2.7173849940299988e-01 2.8832137584686279e-01</leafValues></_>
        <_>
          <internalNodes>
            0 -1 41 1.0491174459457397e-01</internalNodes>
          <leafValues>
            -1.2250625342130661e-01 8.1737267971038818e-01</leafValues></_>
        <_>
          <internalNodes>
            0 -1 175 -3.0202396374079399e-05</internalNodes>
          <leafValues>
            3.8706010580062866e-01 -2.1754968166351318e-01</leafValues></_>
        <_>
          <internalNodes>
            0 -1 23 1.2867804616689682e-02</internalNodes>
          <leafValues>
            1.4254021644592285e-01 -5.9186983108520508e-01</leafValues></_>
        <_>
          <internalNodes>
            0 -1 121 3.6077173426747322e-03</internalNodes>
          <leafValues>
            -1.3417775928974152e-01 5.8034098148345947e-01</leafValues></_>
        <_>
          <internalNodes>
            0 -1 98 1.2138299643993378e-03</internalNodes>
          <leafValues>
            1.1408786475658417e-01 -7.5705045461654663e-01</leafValues></_>
        <_>
          <internalNodes>
            0 -1 109 -3.0021446946193464e-05</internalNodes>
          <leafValues>
            1.6673515737056732e-01 -4.2081558704376221e-01</leafValues></_>
        <_>
          <internalNodes>
            0 -1 76 6.6434955224394798e-03</internalNodes>
          <leafValues>
            -1.5830351412296295e-01 5.2916747331619263e-01</leafValues></_></weakClassifiers></_>
    <!-- stage 15 -->
    <_>
      <maxWeakCount>16</maxWeakCount>
      <stageThreshold>-1.1087079048156738e+00</stageThreshold>
      <weakClassifiers>
        <_>
          <internalNodes>
            0 -1 173 7.4433088302612305e-02</internalNodes>
          <leafValues>
            -4.9362477660179138e-01 2.8286853432655334e-01</leafValues></_>
        <_>
          <internalNodes>
            0 -1 223 4.9895257689058781e-04</internalNodes>
          <leafValues>
            1.8899098038673401e-01 -4.7222173213958740e-01</leafValues></_>
        <_>
          <internalNodes>
            0 -1 10 3.0258209444582462e-03</internalNodes>
          <leafValues>
            -2.6442795991897583e-01 3.2891252636909485e-01</leafValues></_>
        <_>
          <internalNodes>
            0 -1 40 4.5762425288558006e-03</internalNodes>
          <leafValues>
            1.1920642107725143e-01 -6.6527605056762695e-01</leafValues></_>
        <_>
          <internalNodes>
            0 -1 28 -8.1345788203179836e-04</internalNodes>
          <leafValues>
            -3.7693166732788086e-01 2.3982457816600800e-01</leafValues></_>
        <_>
          <internalNodes>
            0 -1 124 9.9166133441030979e-04</internalNodes>
          <leafValues>
            -1.5641929209232330e-01 5.1884758472442627e-01</leafValues></_>
        <_>
          <internalNodes>
            0 -1 171 3.0246551614254713e-04</internalNodes>
          <leafValues>
            -2.4832156300544739e-01 3.1463140249252319e-01</leafValues></_>
        <_>
          <internalNodes>
            0 -1 181 -4.0371887385845184e-02</internalNodes>
          <leafValues>
            6.0265469551086426e-01 -1.4075797796249390e-01</leafValues></_>
        <_>
          <internalNodes>
            0 -1 235 -8.4129988681524992e-04</internalNodes>
          <leafValues>
            -9.0095192193984985e-01 1.0778737813234329e-01</leafValues></_>
        <_>
          <internalNodes>
            0 -1 120 1.9971365109086037e-03</internalNodes>
          <leafValues>
            -2.2703139483928680e-01 3.8758397102355957e-01</leafValues></_>
        <_>
          <internalNodes>
            0 -1 133 -2.3124897852540016e-03</internalNodes>
          <leafValues>
            5.3006833791732788e-01 -1.4971068501472473e-01</leafValues></_>
        <_>
          <internalNodes>
            0 -1 201 -1.2969350209459662e-03</internalNodes>
          <leafValues>
            -8.3139532804489136e-01 1.1480250209569931e-01</leafValues></_>
        <_>
          <internalNodes>
            0 -1 204 -1.1921817436814308e-02</internalNodes>
          <leafValues>
            4.9649021029472351e-01 -1.8352346122264862e-01</leafValues></_>
        <_>
          <internalNodes>
            0 -1 205 -8.4217761468607932e-05</internalNodes>
          <leafValues>
            2.5643146038055420e-01 -3.1046792864799500e-01</leafValues></_>
        <_>
          <internalNodes>
            0 -1 215 -2.7710436843335629e-03</internalNodes>
          <leafValues>
            5.7832467555999756e-01 -1.6138991713523865e-01</leafValues></_>
        <_>
          <internalNodes>
            0 -1 75 2.4038907140493393e-03</internalNodes>
          <leafValues>
            1.0792398452758789e-01 -8.2451313734054565e-01</leafValues></_></weakClassifiers></_>
    <!-- stage 16 -->
    <_>
      <maxWeakCount>18</maxWeakCount>
      <stageThreshold>-1.3956973552703857e+00</stageThreshold>
      <weakClassifiers>
        <_>
          <internalNodes>
            0 -1 58 6.5765060484409332e-02</internalNodes>
          <leafValues>
            -4.1376644372940063e-01 4.3973940610885620e-01</leafValues></_>
        <_>
          <internalNodes>
            0 -1 237 -6.7629611294250935e-05</internalNodes>
          <leafValues>
            2.1770852804183960e-01 -3.8801375031471252e-01</leafValues></_>
        <_>
          <internalNodes>
            0 -1 236 -1.6386834904551506e-03</internalNodes>
          <leafValues>
            -5.5384129285812378e-01 1.5379975736141205e-01</leafValues></_>
        <_>
          <internalNodes>
            0 -1 68 -1.2396168895065784e-03</internalNodes>
          <leafValues>
            2.8322705626487732e-01 -2.9659554362297058e-01</leafValues></_>
        <_>
          <internalNodes>
            0 -1 49 9.1569330543279648e-03</internalNodes>
          <leafValues>
            -2.2202137112617493e-01 4.3590289354324341e-01</leafValues></_>
        <_>
          <internalNodes>
            0 -1 113 5.4309792176354676e-05</internalNodes>
          <leafValues>
            -2.6568958163261414e-01 3.0885910987854004e-01</leafValues></_>
        <_>
          <internalNodes>
            0 -1 207 1.4015384949743748e-02</internalNodes>
          <leafValues>
            -1.4767920970916748e-01 5.3039753437042236e-01</leafValues></_>
        <_>
          <internalNodes>
            0 -1 211 -4.5270812697708607e-03</internalNodes>
          <leafValues>
            4.6962806582450867e-01 -2.0097033679485321e-01</leafValues></_>
        <_>
          <internalNodes>
            0 -1 160 3.9582443423569202e-03</internalNodes>
          <leafValues>
            1.4704614877700806e-01 -5.9415102005004883e-01</leafValues></_>
        <_>
          <internalNodes>
            0 -1 118 -1.4839207287877798e-03</internalNodes>
          <leafValues>
            -3.5046538710594177e-01 2.3147851228713989e-01</leafValues></_>
        <_>
          <internalNodes>
            0 -1 83 4.3065039790235460e-04</internalNodes>
          <leafValues>
            -2.5278994441032410e-01 3.0490610003471375e-01</leafValues></_>
        <_>
          <internalNodes>
            0 -1 60 2.3471061140298843e-02</internalNodes>
          <leafValues>
            -2.0472046732902527e-01 3.9826533198356628e-01</leafValues></_>
        <_>
          <internalNodes>
            0 -1 128 -4.4802795164287090e-03</internalNodes>
          <leafValues>
            5.3820216655731201e-01 -1.5838934481143951e-01</leafValues></_>
        <_>
          <internalNodes>
            0 -1 216 -1.2827450409531593e-03</internalNodes>
          <leafValues>
            4.2804676294326782e-01 -1.9099007546901703e-01</leafValues></_>
        <_>
          <internalNodes>
            0 -1 159 -1.8658349290490150e-03</internalNodes>
          <leafValues>
            3.6029857397079468e-01 -2.1251554787158966e-01</leafValues></_>
        <_>
          <internalNodes>
            0 -1 134 1.6973854508250952e-03</internalNodes>
          <leafValues>
            -2.1223761141300201e-01 3.9747455716133118e-01</leafValues></_>
        <_>
          <internalNodes>
            0 -1 182 -1.2649787822738290e-04</internalNodes>
          <leafValues>
            1.5459674596786499e-01 -4.4459462165832520e-01</leafValues></_>
        <_>
          <internalNodes>
            0 -1 107 -2.1532259881496429e-02</internalNodes>
          <leafValues>
            6.0956865549087524e-01 -1.3086676597595215e-01</leafValues></_></weakClassifiers></_>
    <!-- stage 17 -->
    <_>
      <maxWeakCount>18</maxWeakCount>
      <stageThreshold>-1.2174419164657593e+00</stageThreshold>
      <weakClassifiers>
        <_>
          <internalNodes>
            0 -1 137 -4.7935084439814091e-03</internalNodes>
          <leafValues>
            1.1046511679887772e-01 -5.2192980051040649e-01</leafValues></_>
        <_>
          <internalNodes>
            0 -1 85 6.8203517002984881e-05</internalNodes>
          <leafValues>
            -3.8512405753135681e-01 2.2867640852928162e-01</leafValues></_>
        <_>
          <internalNodes>
            0 -1 19 5.3596803918480873e-03</internalNodes>
          <leafValues>
            -1.9306483864784241e-01 4.2944365739822388e-01</leafValues></_>
        <_>
          <internalNodes>
            0 -1 219 7.3912250809371471e-04</internalNodes>
          <leafValues>
            1.8441714346408844e-01 -4.0303823351860046e-01</leafValues></_>
        <_>
          <internalNodes>
            0 -1 20 8.4512121975421906e-03</internalNodes>
          <leafValues>
            -1.1672674119472504e-01 5.7030898332595825e-01</leafValues></_>
        <_>
          <internalNodes>
            0 -1 26 -1.2018170673400164e-03</internalNodes>
          <leafValues>
            -4.3286013603210449e-01 1.8237954378128052e-01</leafValues></_>
        <_>
          <internalNodes>
            0 -1 55 7.6571693643927574e-03</internalNodes>
          <leafValues>
            -1.7903432250022888e-01 3.7731170654296875e-01</leafValues></_>
        <_>
          <internalNodes>
            0 -1 31 -9.6377834677696228e-02</internalNodes>
          <leafValues>
            5.5303537845611572e-01 -1.4869855344295502e-01</leafValues></_>
        <_>
          <internalNodes>
            0 -1 54 1.3848560047335923e-04</internalNodes>
          <leafValues>
            -3.4547159075737000e-01 2.0271715521812439e-01</leafValues></_>
        <_>
          <internalNodes>
            0 -1 101 3.7029050290584564e-02</internalNodes>
          <leafValues>
            1.3225054740905762e-01 -7.7745640277862549e-01</leafValues></_>
        <_>
          <internalNodes>
            0 -1 130 1.6000459436327219e-03</internalNodes>
          <leafValues>
            -2.3500160872936249e-01 3.1479513645172119e-01</leafValues></_>
        <_>
          <internalNodes>
            0 -1 153 7.1172078605741262e-05</internalNodes>
          <leafValues>
            -2.4243222177028656e-01 2.9195958375930786e-01</leafValues></_>
        <_>
          <internalNodes>
            0 -1 214 -7.2868145070970058e-04</internalNodes>
          <leafValues>
            -4.3521285057067871e-01 1.6454201936721802e-01</leafValues></_>
        <_>
          <internalNodes>
            0 -1 150 2.0024632103741169e-03</internalNodes>
          <leafValues>
            -2.0102912187576294e-01 3.8951468467712402e-01</leafValues></_>
        <_>
          <internalNodes>
            0 -1 148 -1.8660174682736397e-03</internalNodes>
          <leafValues>
            3.9274719357490540e-01 -1.8905659019947052e-01</leafValues></_>
        <_>
          <internalNodes>
            0 -1 196 1.9679199904203415e-02</internalNodes>
          <leafValues>
            -1.2680275738239288e-01 5.7169932126998901e-01</leafValues></_>
        <_>
          <internalNodes>
            0 -1 117 3.4157964400947094e-03</internalNodes>
          <leafValues>
            1.5198242664337158e-01 -5.2779352664947510e-01</leafValues></_>
        <_>
          <internalNodes>
            0 -1 44 2.1549858502112329e-04</internalNodes>
          <leafValues>
            -3.0302745103836060e-01 2.4174049496650696e-01</leafValues></_></weakClassifiers></_>
    <!-- stage 18 -->
    <_>
      <maxWeakCount>18</maxWeakCount>
      <stageThreshold>-1.1577054262161255e+00</stageThreshold>
      <weakClassifiers>
        <_>
          <internalNodes>
            0 -1 77 -1.1748902499675751e-01</internalNodes>
          <leafValues>
            5.2419352531433105e-01 -3.9201182126998901e-01</leafValues></_>
        <_>
          <internalNodes>
            0 -1 29 -3.2292999094352126e-05</internalNodes>
          <leafValues>
            2.5132900476455688e-01 -3.5911658406257629e-01</leafValues></_>
        <_>
          <internalNodes>
            0 -1 8 9.6015445888042450e-04</internalNodes>
          <leafValues>
            1.4862766861915588e-01 -5.7530492544174194e-01</leafValues></_>
        <_>
          <internalNodes>
            0 -1 59 -2.6246558874845505e-02</internalNodes>
          <leafValues>
            3.1635627150535583e-01 -2.5623548030853271e-01</leafValues></_>
        <_>
          <internalNodes>
            0 -1 180 -1.8286945123691112e-04</internalNodes>
          <leafValues>
            3.6417329311370850e-01 -2.2365012764930725e-01</leafValues></_>
        <_>
          <internalNodes>
            0 -1 164 1.8692819867283106e-03</internalNodes>
          <leafValues>
            -1.1645165085792542e-01 5.2987354993820190e-01</leafValues></_>
        <_>
          <internalNodes>
            0 -1 229 -4.1563494596630335e-04</internalNodes>
          <leafValues>
            -3.9771780371665955e-01 1.8880067765712738e-01</leafValues></_>
        <_>
          <internalNodes>
            0 -1 213 1.2898147106170654e-02</internalNodes>
          <leafValues>
            -2.6990357041358948e-01 3.1502097845077515e-01</leafValues></_>
        <_>
          <internalNodes>
            0 -1 73 -2.1282276138663292e-03</internalNodes>
          <leafValues>
            -8.8400524854660034e-01 7.8345641493797302e-02</leafValues></_>
        <_>
          <internalNodes>
            0 -1 131 -2.6127584278583527e-03</internalNodes>
          <leafValues>
            6.2074816226959229e-01 -1.2285349518060684e-01</leafValues></_>
        <_>
          <internalNodes>
            0 -1 227 -4.0191930020228028e-04</internalNodes>
          <leafValues>
            -8.3054912090301514e-01 1.1257489025592804e-01</leafValues></_>
        <_>
          <internalNodes>
            0 -1 140 2.6074942070408724e-05</internalNodes>
          <leafValues>
            -2.7980312705039978e-01 2.2855193912982941e-01</leafValues></_>
        <_>
          <internalNodes>
            0 -1 67 -7.9940455034375191e-03</internalNodes>
          <leafValues>
            3.6973196268081665e-01 -1.9590975344181061e-01</leafValues></_>
        <_>
          <internalNodes>
            0 -1 51 1.7946660518646240e-03</internalNodes>
          <leafValues>
            -2.1962115168571472e-01 3.9980727434158325e-01</leafValues></_>
        <_>
          <internalNodes>
            0 -1 93 -4.2786513222381473e-04</internalNodes>
          <leafValues>
            3.8683041930198669e-01 -1.9112205505371094e-01</leafValues></_>
        <_>
          <internalNodes>
            0 -1 15 1.8921777606010437e-01</internalNodes>
          <leafValues>
            -1.6552324593067169e-01 4.2696902155876160e-01</leafValues></_>
        <_>
          <internalNodes>
            0 -1 193 -2.7813699096441269e-02</internalNodes>
          <leafValues>
            7.7880764007568359e-01 -7.6137982308864594e-02</leafValues></_>
        <_>
          <internalNodes>
            0 -1 45 6.6479151137173176e-03</internalNodes>
          <leafValues>
            1.0937303304672241e-01 -7.2098886966705322e-01</leafValues></_></weakClassifiers></_>
    <!-- stage 19 -->
    <_>
      <maxWeakCount>20</maxWeakCount>
      <stageThreshold>-1.3790494203567505e+00</stageThreshold>
      <weakClassifiers>
        <_>
          <internalNodes>
            0 -1 156 2.4176869541406631e-02</internalNodes>
          <leafValues>
            -3.6707055568695068e-01 5.8375632762908936e-01</leafValues></_>
        <_>
          <internalNodes>
            0 -1 111 -9.3429189291782677e-05</internalNodes>
          <leafValues>
            1.9420486688613892e-01 -4.1984218358993530e-01</leafValues></_>
        <_>
          <internalNodes>
            0 -1 228 -3.7406934425234795e-03</internalNodes>
          <leafValues>
            -4.5455300807952881e-01 1.6390475630760193e-01</leafValues></_>
        <_>
          <internalNodes>
            0 -1 24 9.0249583125114441e-02</internalNodes>
          <leafValues>
            1.2018389254808426e-01 -8.8282608985900879e-01</leafValues></_>
        <_>
          <internalNodes>
            0 -1 178 -8.9216366177424788e-04</internalNodes>
          <leafValues>
            2.6935440301895142e-01 -2.8681099414825439e-01</leafValues></_>
        <_>
          <internalNodes>
            0 -1 200 9.2135131126269698e-04</internalNodes>
          <leafValues>
            1.4248700439929962e-01 -5.8290702104568481e-01</leafValues></_>
        <_>
          <internalNodes>
            0 -1 17 2.2639389499090612e-04</internalNodes>
          <leafValues>
            1.4380775392055511e-01 -4.8932898044586182e-01</leafValues></_>
        <_>
          <internalNodes>
            0 -1 72 -1.8435105448588729e-04</internalNodes>
          <leafValues>
            2.7308249473571777e-01 -2.6350748538970947e-01</leafValues></_>
        <_>
          <internalNodes>
            0 -1 129 -6.0481429100036621e-03</internalNodes>
          <leafValues>
            5.5998367071151733e-01 -1.3790984451770782e-01</leafValues></_>
        <_>
          <internalNodes>
            0 -1 100 2.0222283899784088e-02</internalNodes>
          <leafValues>
            -1.5200540423393250e-01 4.6865996718406677e-01</leafValues></_>
        <_>
          <internalNodes>
            0 -1 195 -5.2517186850309372e-04</internalNodes>
          <leafValues>
            3.7224429845809937e-01 -1.9480445981025696e-01</leafValues></_>
        <_>
          <internalNodes>
            0 -1 32 2.4369759485125542e-02</internalNodes>
          <leafValues>
            1.0613864660263062e-01 -6.9613385200500488e-01</leafValues></_>
        <_>
          <internalNodes>
            0 -1 154 3.4562195651233196e-04</internalNodes>
          <leafValues>
            -2.4142864346504211e-01 3.1035161018371582e-01</leafValues></_>
        <_>
          <internalNodes>
            0 -1 202 -1.0516109177842736e-03</internalNodes>
          <leafValues>
            -4.7622388601303101e-01 1.5213190019130707e-01</leafValues></_>
        <_>
          <internalNodes>
            0 -1 63 3.3811687899287790e-05</internalNodes>
          <leafValues>
            -3.7107807397842407e-01 2.1003156900405884e-01</leafValues></_>
        <_>
          <internalNodes>
            0 -1 86 -5.8625719975680113e-04</internalNodes>
          <leafValues>
            -6.1483943462371826e-01 1.1786639690399170e-01</leafValues></_>
        <_>
          <internalNodes>
            0 -1 145 6.2093339860439301e-02</internalNodes>
          <leafValues>
            1.0631298273801804e-01 -6.3683402538299561e-01</leafValues></_>
        <_>
          <internalNodes>
            0 -1 38 -5.2323611453175545e-04</internalNodes>
          <leafValues>
            -5.4568469524383545e-01 1.1552060395479202e-01</leafValues></_>
        <_>
          <internalNodes>
            0 -1 119 -2.1151043474674225e-03</internalNodes>
          <leafValues>
            5.2000051736831665e-01 -1.5534955263137817e-01</leafValues></_>
        <_>
          <internalNodes>
            0 -1 18 -1.7085910076275468e-04</internalNodes>
          <leafValues>
            -4.9958655238151550e-01 1.4105893671512604e-01</leafValues></_></weakClassifiers></_></stages>
  <features>
    <_>
      <rects>
        <_>
          0 0 2 6 -1.</_>
        <_>
          0 2 2 2 3.</_></rects>
      <tilted>0</tilted></_>
    <_>
      <rects>
        <_>
          0 1 2 12 -1.</_>
        <_>
          0 5 2 4 3.</_></rects>
      <tilted>0</tilted></_>
    <_>
      <rects>
        <_>
          0 1 5 6 -1.</_>
        <_>
          0 3 5 2 3.</_></rects>
      <tilted>0</tilted></_>
    <_>
      <rects>
        <_>
          0 1 8 9 -1.</_>
        <_>
          0 4 8 3 3.</_></rects>
      <tilted>0</tilted></_>
    <_>
      <rects>
        <_>
          0 2 1 16 -1.</_>
        <_>
          0 10 1 8 2.</_></rects>
      <tilted>0</tilted></_>
    <_>
      <rects>
        <_>
          0 3 2 14 -1.</_>
        <_>
          0 10 2 7 2.</_></rects>
      <tilted>0</tilted></_>
    <_>
      <rects>
        <_>
          0 3 6 12 -1.</_>
        <_>
          0 7 6 4 3.</_></rects>
      <tilted>0</tilted></_>
    <_>
      <rects>
        <_>
          0 6 8 16 -1.</_>
        <_>
          0 6 4 8 2.</_>
        <_>
          4 14 4 8 2.</_></rects>
      <tilted>0</tilted></_>
    <_>
      <rects>
        <_>
          0 7 2 9 -1.</_>
        <_>
          0 10 2 3 3.</_></rects>
      <tilted>0</tilted></_>
    <_>
      <rects>
        <_>
          0 7 4 9 -1.</_>
        <_>
          0 10 4 3 3.</_></rects>
      <tilted>0</tilted></_>
    <_>
      <rects>
        <_>
          0 7 17 6 -1.</_>
        <_>
          0 9 17 2 3.</_></rects>
      <tilted>0</tilted></_>
    <_>
      <rects>
        <_>
          0 9 21 6 -1.</_>
        <_>
          0 11 21 2 3.</_></rects>
      <tilted>0</tilted></_>
    <_>
      <rects>
        <_>
          0 10 3 2 -1.</_>
        <_>
          0 11 3 1 2.</_></rects>
      <tilted>0</tilted></_>
    <_>
      <rects>
        <_>
          0 12 15 3 -1.</_>
        <_>
          5 12 5 3 3.</_></rects>
      <tilted>0</tilted></_>
    <_>
      <rects>
        <_>
          0 12 22 6 -1.</_>
        <_>
          0 15 22 3 2.</_></rects>
      <tilted>0</tilted></_>
    <_>
      <rects>
        <_>
          0 13 18 11 -1.</_>
        <_>
          6 13 6 11 3.</_></rects>
      <tilted>0</tilted></_>
    <_>
      <rects>
        <_>
          0 14 10 7 -1.</_>
        <_>
          5 14 5 7 2.</_></rects>
      <tilted>0</tilted></_>
    <_>
      <rects>
        <_>
          0 15 1 4 -1.</_>
        <_>
          0 17 1 2 2.</_></rects>
      <tilted>0</tilted></_>
    <_>
      <rects>
        <_>
          0 16 1 2 -1.</_>
        <_>
          0 17 1 1 2.</_></rects>
      <tilted>0</tilted></_>
    <_>
      <rects>
        <_>
          0 16 4 8 -1.</_>
        <_>
          0 16 2 4 2.</_>
        <_>
          2 20 2 4 2.</_></rects>
      <tilted>0</tilted></_>
    <_>
      <rects>
        <_>
          0 17 6 4 -1.</_>
        <_>
          2 17 2 4 3.</_></rects>
      <tilted>0</tilted></_>
    <_>
      <rects>
        <_>
          0 18 8 6 -1.</_>
        <_>
          0 21 8 3 2.</_></rects>
      <tilted>0</tilted></_>
    <_>
      <rects>
        <_>
          1 0 2 4 -1.</_>
        <_>
          1 2 2 2 2.</_></rects>
      <tilted>0</tilted></_>
    <_>
      <rects>
        <_>
          1 0 9 12 -1.</_>
        <_>
          1 6 9 6 2.</_></rects>
      <tilted>0</tilted></_>
    <_>
      <rects>
        <_>
          1 0 22 24 -1.</_>
        <_>
          1 8 22 8 3.</_></rects>
      <tilted>0</tilted></_>
    <_>
      <rects>
        <_>
          1 1 5 6 -1.</_>
        <_>
          1 3 5 2 3.</_></rects>
      <tilted>0</tilted></_>
    <_>
      <rects>
        <_>
          1 2 8 6 -1.</_>
        <_>
          1 2 4 3 2.</_>
        <_>
          5 5 4 3 2.</_></rects>
      <tilted>0</tilted></_>
    <_>
      <rects>
        <_>
          1 8 3 6 -1.</_>
        <_>
          1 10 3 2 3.</_></rects>
      <tilted>0</tilted></_>
    <_>
      <rects>
        <_>
          1 10 6 3 -1.</_>
        <_>
          4 10 3 3 2.</_></rects>
      <tilted>0</tilted></_>
    <_>
      <rects>
        <_>
          1 12 1 4 -1.</_>
        <_>
          1 14 1 2 2.</_></rects>
      <tilted>0</tilted></_>
    <_>
      <rects>
        <_>
          1 12 16 12 -1.</_>
        <_>
          1 18 16 6 2.</_></rects>
      <tilted>0</tilted></_>
    <_>
      <rects>
        <_>
          1 13 10 10 -1.</_>
        <_>
          6 13 5 10 2.</_></rects>
      <tilted>0</tilted></_>
    <_>
      <rects>
        <_>
          1 13 16 6 -1.</_>
        <_>
          1 15 16 2 3.</_></rects>
      <tilted>0</tilted></_>
    <_>
      <rects>
        <_>
          1 14 8 9 -1.</_>
        <_>
          5 14 4 9 2.</_></rects>
      <tilted>0</tilted></_>
    <_>
      <rects>
        <_>
          1 16 14 8 -1.</_>
        <_>
          1 16 7 4 2.</_>
        <_>
          8 20 7 4 2.</_></rects>
      <tilted>0</tilted></_>
    <_>
      <rects>
        <_>
          2 2 2 3 -1.</_>
        <_>
          2 3 2 1 3.</_></rects>
      <tilted>0</tilted></_>
    <_>
      <rects>
        <_>
          2 4 2 4 -1.</_>
        <_>
          2 6 2 2 2.</_></rects>
      <tilted>0</tilted></_>
    <_>
      <rects>
        <_>
          2 5 5 4 -1.</_>
        <_>
          2 7 5 2 2.</_></rects>
      <tilted>0</tilted></_>
    <_>
      <rects>
        <_>
          2 7 6 3 -1.</_>
        <_>
          2 8 6 1 3.</_></rects>
      <tilted>0</tilted></_>
    <_>
      <rects>
        <_>
          2 8 18 9 -1.</_>
        <_>
          2 11 18 3 3.</_></rects>
      <tilted>0</tilted></_>
    <_>
      <rects>
        <_>
          2 10 6 2 -1.</_>
        <_>
          5 10 3 2 2.</_></rects>
      <tilted>0</tilted></_>
    <_>
      <rects>
        <_>
          2 14 21 3 -1.</_>
        <_>
          9 14 7 3 3.</_></rects>
      <tilted>0</tilted></_>
    <_>
      <rects>
        <_>
          2 16 10 8 -1.</_>
        <_>
          2 20 10 4 2.</_></rects>
      <tilted>0</tilted></_>
    <_>
      <rects>
        <_>
          2 18 11 6 -1.</_>
        <_>
          2 21 11 3 2.</_></rects>
      <tilted>0</tilted></_>
    <_>
      <rects>
        <_>
          2 21 5 2 -1.</_>
        <_>
          2 22 5 1 2.</_></rects>
      <tilted>0</tilted></_>
    <_>
      <rects>
        <_>
          2 23 9 1 -1.</_>
        <_>
          5 23 3 1 3.</_></rects>
      <tilted>0</tilted></_>
    <_>
      <rects>
        <_>
          3 3 1 6 -1.</_>
        <_>
          3 6 1 3 2.</_></rects>
      <tilted>0</tilted></_>
    <_>
      <rects>
        <_>
          3 5 16 2 -1.</_>
        <_>
          3 5 8 1 2.</_>
        <_>
          11 6 8 1 2.</_></rects>
      <tilted>0</tilted></_>
    <_>
      <rects>
        <_>
          3 8 8 16 -1.</_>
        <_>
          3 16 8 8 2.</_></rects>
      <tilted>0</tilted></_>
    <_>
      <rects>
        <_>
          3 12 10 2 -1.</_>
        <_>
          8 12 5 2 2.</_></rects>
      <tilted>0</tilted></_>
    <_>
      <rects>
        <_>
          3 15 6 2 -1.</_>
        <_>
          3 15 3 1 2.</_>
        <_>
          6 16 3 1 2.</_></rects>
      <tilted>0</tilted></_>
    <_>
      <rects>
        <_>
          3 15 6 4 -1.</_>
        <_>
          3 15 3 2 2.</_>
        <_>
          6 17 3 2 2.</_></rects>
      <tilted>0</tilted></_>
    <_>
      <rects>
        <_>
          3 16 4 4 -1.</_>
        <_>
          3 16 2 2 2.</_>
        <_>
          5 18 2 2 2.</_></rects>
      <tilted>0</tilted></_>
    <_>
      <rects>
        <_>
          3 16 8 8 -1.</_>
        <_>
          3 20 8 4 2.</_></rects>
      <tilted>0</tilted></_>
    <_>
      <rects>
        <_>
          3 23 9 1 -1.</_>
        <_>
          6 23 3 1 3.</_></rects>
      <tilted>0</tilted></_>
    <_>
      <rects>
        <_>
          4 5 4 16 -1.</_>
        <_>
          4 5 2 8 2.</_>
        <_>
          6 13 2 8 2.</_></rects>
      <tilted>0</tilted></_>
    <_>
      <rects>
        <_>
          4 10 12 11 -1.</_>
        <_>
          10 10 6 11 2.</_></rects>
      <tilted>0</tilted></_>
    <_>
      <rects>
        <_>
          4 11 18 8 -1.</_>
        <_>
          10 11 6 8 3.</_></rects>
      <tilted>0</tilted></_>
    <_>
      <rects>
        <_>
          4 16 10 8 -1.</_>
        <_>
          4 16 5 4 2.</_>
        <_>
          9 20 5 4 2.</_></rects>
      <tilted>0</tilted></_>
    <_>
      <rects>
        <_>
          4 17 14 6 -1.</_>
        <_>
          4 19 14 2 3.</_></rects>
      <tilted>0</tilted></_>
    <_>
      <rects>
        <_>
          4 18 18 6 -1.</_>
        <_>
          4 18 9 3 2.</_>
        <_>
          13 21 9 3 2.</_></rects>
      <tilted>0</tilted></_>
    <_>
      <rects>
        <_>
          4 18 17 6 -1.</_>
        <_>
          4 21 17 3 2.</_></rects>
      <tilted>0</tilted></_>
    <_>
      <rects>
        <_>
          4 22 2 1 -1.</_>
        <_>
          5 22 1 1 2.</_></rects>
      <tilted>0</tilted></_>
    <_>
      <rects>
        <_>
          4 22 2 2 -1.</_>
        <_>
          5 22 1 2 2.</_></rects>
      <tilted>0</tilted></_>
    <_>
      <rects>
        <_>
          4 23 2 1 -1.</_>
        <_>
          5 23 1 1 2.</_></rects>
      <tilted>0</tilted></_>
    <_>
      <rects>
        <_>
          5 2 17 21 -1.</_>
        <_>
          5 9 17 7 3.</_></rects>
      <tilted>0</tilted></_>
    <_>
      <rects>
        <_>
          5 9 6 9 -1.</_>
        <_>
          7 9 2 9 3.</_></rects>
      <tilted>0</tilted></_>
    <_>
      <rects>
        <_>
          5 10 4 10 -1.</_>
        <_>
          5 10 2 5 2.</_>
        <_>
          7 15 2 5 2.</_></rects>
      <tilted>0</tilted></_>
    <_>
      <rects>
        <_>
          5 10 10 2 -1.</_>
        <_>
          5 11 10 1 2.</_></rects>
      <tilted>0</tilted></_>
    <_>
      <rects>
        <_>
          5 11 6 10 -1.</_>
        <_>
          5 11 3 5 2.</_>
        <_>
          8 16 3 5 2.</_></rects>
      <tilted>0</tilted></_>
    <_>
      <rects>
        <_>
          5 12 15 7 -1.</_>
        <_>
          10 12 5 7 3.</_></rects>
      <tilted>0</tilted></_>
    <_>
      <rects>
        <_>
          5 15 13 9 -1.</_>
        <_>
          5 18 13 3 3.</_></rects>
      <tilted>0</tilted></_>
    <_>
      <rects>
        <_>
          5 18 2 2 -1.</_>
        <_>
          6 18 1 2 2.</_></rects>
      <tilted>0</tilted></_>
    <_>
      <rects>
        <_>
          5 22 2 2 -1.</_>
        <_>
          5 23 2 1 2.</_></rects>
      <tilted>0</tilted></_>
    <_>
      <rects>
        <_>
          5 22 4 2 -1.</_>
        <_>
          7 22 2 2 2.</_></rects>
      <tilted>0</tilted></_>
    <_>
      <rects>
        <_>
          6 3 1 8 -1.</_>
        <_>
          6 7 1 4 2.</_></rects>
      <tilted>0</tilted></_>
    <_>
      <rects>
        <_>
          6 9 4 10 -1.</_>
        <_>
          6 9 2 5 2.</_>
        <_>
          8 14 2 5 2.</_></rects>
      <tilted>0</tilted></_>
    <_>
      <rects>
        <_>
          6 13 12 6 -1.</_>
        <_>
          10 13 4 6 3.</_></rects>
      <tilted>0</tilted></_>
    <_>
      <rects>
        <_>
          6 14 2 6 -1.</_>
        <_>
          6 14 1 3 2.</_>
        <_>
          7 17 1 3 2.</_></rects>
      <tilted>0</tilted></_>
    <_>
      <rects>
        <_>
          6 16 12 4 -1.</_>
        <_>
          10 16 4 4 3.</_></rects>
      <tilted>0</tilted></_>
    <_>
      <rects>
        <_>
          6 17 2 1 -1.</_>
        <_>
          7 17 1 1 2.</_></rects>
      <tilted>0</tilted></_>
    <_>
      <rects>
        <_>
          6 17 1 2 -1.</_>
        <_>
          6 18 1 1 2.</_></rects>
      <tilted>0</tilted></_>
    <_>
      <rects>
        <_>
          6 18 14 6 -1.</_>
        <_>
          6 21 14 3 2.</_></rects>
      <tilted>0</tilted></_>
    <_>
      <rects>
        <_>
          6 20 3 3 -1.</_>
        <_>
          6 21 3 1 3.</_></rects>
      <tilted>0</tilted></_>
    <_>
      <rects>
        <_>
          6 22 3 2 -1.</_>
        <_>
          7 22 1 2 3.</_></rects>
      <tilted>0</tilted></_>
    <_>
      <rects>
        <_>
          6 23 4 1 -1.</_>
        <_>
          8 23 2 1 2.</_></rects>
      <tilted>0</tilted></_>
    <_>
      <rects>
        <_>
          7 0 4 2 -1.</_>
        <_>
          7 1 4 1 2.</_></rects>
      <tilted>0</tilted></_>
    <_>
      <rects>
        <_>
          7 0 11 9 -1.</_>
        <_>
          7 3 11 3 3.</_></rects>
      <tilted>0</tilted></_>
    <_>
      <rects>
        <_>
          7 0 17 6 -1.</_>
        <_>
          7 2 17 2 3.</_></rects>
      <tilted>0</tilted></_>
    <_>
      <rects>
        <_>
          7 3 8 15 -1.</_>
        <_>
          11 3 4 15 2.</_></rects>
      <tilted>0</tilted></_>
    <_>
      <rects>
        <_>
          7 5 6 14 -1.</_>
        <_>
          10 5 3 14 2.</_></rects>
      <tilted>0</tilted></_>
    <_>
      <rects>
        <_>
          7 6 1 18 -1.</_>
        <_>
          7 15 1 9 2.</_></rects>
      <tilted>0</tilted></_>
    <_>
      <rects>
        <_>
          7 10 4 3 -1.</_>
        <_>
          9 10 2 3 2.</_></rects>
      <tilted>0</tilted></_>
    <_>
      <rects>
        <_>
          7 16 1 2 -1.</_>
        <_>
          7 17 1 1 2.</_></rects>
      <tilted>0</tilted></_>
    <_>
      <rects>
        <_>
          7 17 2 1 -1.</_>
        <_>
          8 17 1 1 2.</_></rects>
      <tilted>0</tilted></_>
    <_>
      <rects>
        <_>
          7 18 16 6 -1.</_>
        <_>
          7 20 16 2 3.</_></rects>
      <tilted>0</tilted></_>
    <_>
      <rects>
        <_>
          7 18 17 6 -1.</_>
        <_>
          7 20 17 2 3.</_></rects>
      <tilted>0</tilted></_>
    <_>
      <rects>
        <_>
          7 20 1 4 -1.</_>
        <_>
          7 22 1 2 2.</_></rects>
      <tilted>0</tilted></_>
    <_>
      <rects>
        <_>
          7 22 3 2 -1.</_>
        <_>
          8 22 1 2 3.</_></rects>
      <tilted>0</tilted></_>
    <_>
      <rects>
        <_>
          7 23 2 1 -1.</_>
        <_>
          8 23 1 1 2.</_></rects>
      <tilted>0</tilted></_>
    <_>
      <rects>
        <_>
          8 0 10 6 -1.</_>
        <_>
          8 2 10 2 3.</_></rects>
      <tilted>0</tilted></_>
    <_>
      <rects>
        <_>
          8 1 14 3 -1.</_>
        <_>
          15 1 7 3 2.</_></rects>
      <tilted>0</tilted></_>
    <_>
      <rects>
        <_>
          8 2 8 3 -1.</_>
        <_>
          8 3 8 1 3.</_></rects>
      <tilted>0</tilted></_>
    <_>
      <rects>
        <_>
          8 5 1 16 -1.</_>
        <_>
          8 13 1 8 2.</_></rects>
      <tilted>0</tilted></_>
    <_>
      <rects>
        <_>
          8 5 12 11 -1.</_>
        <_>
          12 5 4 11 3.</_></rects>
      <tilted>0</tilted></_>
    <_>
      <rects>
        <_>
          8 10 6 2 -1.</_>
        <_>
          10 10 2 2 3.</_></rects>
      <tilted>0</tilted></_>
    <_>
      <rects>
        <_>
          8 11 2 4 -1.</_>
        <_>
          8 11 1 2 2.</_>
        <_>
          9 13 1 2 2.</_></rects>
      <tilted>0</tilted></_>
    <_>
      <rects>
        <_>
          8 11 6 8 -1.</_>
        <_>
          8 11 3 4 2.</_>
        <_>
          11 15 3 4 2.</_></rects>
      <tilted>0</tilted></_>
    <_>
      <rects>
        <_>
          8 14 6 9 -1.</_>
        <_>
          8 17 6 3 3.</_></rects>
      <tilted>0</tilted></_>
    <_>
      <rects>
        <_>
          8 16 2 1 -1.</_>
        <_>
          9 16 1 1 2.</_></rects>
      <tilted>0</tilted></_>
    <_>
      <rects>
        <_>
          8 17 2 1 -1.</_>
        <_>
          9 17 1 1 2.</_></rects>
      <tilted>0</tilted></_>
    <_>
      <rects>
        <_>
          8 18 2 3 -1.</_>
        <_>
          9 18 1 3 2.</_></rects>
      <tilted>0</tilted></_>
    <_>
      <rects>
        <_>
          8 18 10 6 -1.</_>
        <_>
          8 20 10 2 3.</_></rects>
      <tilted>0</tilted></_>
    <_>
      <rects>
        <_>
          8 21 1 3 -1.</_>
        <_>
          8 22 1 1 3.</_></rects>
      <tilted>0</tilted></_>
    <_>
      <rects>
        <_>
          8 23 3 1 -1.</_>
        <_>
          9 23 1 1 3.</_></rects>
      <tilted>0</tilted></_>
    <_>
      <rects>
        <_>
          8 23 4 1 -1.</_>
        <_>
          10 23 2 1 2.</_></rects>
      <tilted>0</tilted></_>
    <_>
      <rects>
        <_>
          9 0 12 1 -1.</_>
        <_>
          13 0 4 1 3.</_></rects>
      <tilted>0</tilted></_>
    <_>
      <rects>
        <_>
          9 0 15 1 -1.</_>
        <_>
          14 0 5 1 3.</_></rects>
      <tilted>0</tilted></_>
    <_>
      <rects>
        <_>
          9 0 14 1 -1.</_>
        <_>
          16 0 7 1 2.</_></rects>
      <tilted>0</tilted></_>
    <_>
      <rects>
        <_>
          9 2 14 3 -1.</_>
        <_>
          9 3 14 1 3.</_></rects>
      <tilted>0</tilted></_>
    <_>
      <rects>
        <_>
          9 3 10 2 -1.</_>
        <_>
          9 3 5 1 2.</_>
        <_>
          14 4 5 1 2.</_></rects>
      <tilted>0</tilted></_>
    <_>
      <rects>
        <_>
          9 5 3 4 -1.</_>
        <_>
          10 5 1 4 3.</_></rects>
      <tilted>0</tilted></_>
    <_>
      <rects>
        <_>
          9 6 4 12 -1.</_>
        <_>
          11 6 2 12 2.</_></rects>
      <tilted>0</tilted></_>
    <_>
      <rects>
        <_>
          9 8 4 14 -1.</_>
        <_>
          9 8 2 7 2.</_>
        <_>
          11 15 2 7 2.</_></rects>
      <tilted>0</tilted></_>
    <_>
      <rects>
        <_>
          9 10 2 4 -1.</_>
        <_>
          9 10 1 2 2.</_>
        <_>
          10 12 1 2 2.</_></rects>
      <tilted>0</tilted></_>
    <_>
      <rects>
        <_>
          9 16 2 4 -1.</_>
        <_>
          10 16 1 4 2.</_></rects>
      <tilted>0</tilted></_>
    <_>
      <rects>
        <_>
          9 16 8 8 -1.</_>
        <_>
          9 20 8 4 2.</_></rects>
      <tilted>0</tilted></_>
    <_>
      <rects>
        <_>
          9 20 1 3 -1.</_>
        <_>
          9 21 1 1 3.</_></rects>
      <tilted>0</tilted></_>
    <_>
      <rects>
        <_>
          9 21 14 3 -1.</_>
        <_>
          9 22 14 1 3.</_></rects>
      <tilted>0</tilted></_>
    <_>
      <rects>
        <_>
          10 0 8 6 -1.</_>
        <_>
          10 2 8 2 3.</_></rects>
      <tilted>0</tilted></_>
    <_>
      <rects>
        <_>
          10 2 6 3 -1.</_>
        <_>
          13 2 3 3 2.</_></rects>
      <tilted>0</tilted></_>
    <_>
      <rects>
        <_>
          10 2 4 3 -1.</_>
        <_>
          10 3 4 1 3.</_></rects>
      <tilted>0</tilted></_>
    <_>
      <rects>
        <_>
          10 3 2 7 -1.</_>
        <_>
          11 3 1 7 2.</_></rects>
      <tilted>0</tilted></_>
    <_>
      <rects>
        <_>
          10 3 6 2 -1.</_>
        <_>
          10 3 3 1 2.</_>
        <_>
          13 4 3 1 2.</_></rects>
      <tilted>0</tilted></_>
    <_>
      <rects>
        <_>
          10 3 8 2 -1.</_>
        <_>
          10 3 4 1 2.</_>
        <_>
          14 4 4 1 2.</_></rects>
      <tilted>0</tilted></_>
    <_>
      <rects>
        <_>
          10 4 2 18 -1.</_>
        <_>
          10 4 1 9 2.</_>
        <_>
          11 13 1 9 2.</_></rects>
      <tilted>0</tilted></_>
    <_>
      <rects>
        <_>
          10 4 6 6 -1.</_>
        <_>
          10 6 6 2 3.</_></rects>
      <tilted>0</tilted></_>
    <_>
      <rects>
        <_>
          10 8 2 11 -1.</_>
        <_>
          11 8 1 11 2.</_></rects>
      <tilted>0</tilted></_>
    <_>
      <rects>
        <_>
          10 10 9 5 -1.</_>
        <_>
          13 10 3 5 3.</_></rects>
      <tilted>0</tilted></_>
    <_>
      <rects>
        <_>
          10 11 6 10 -1.</_>
        <_>
          10 11 3 5 2.</_>
        <_>
          13 16 3 5 2.</_></rects>
      <tilted>0</tilted></_>
    <_>
      <rects>
        <_>
          10 15 2 3 -1.</_>
        <_>
          10 16 2 1 3.</_></rects>
      <tilted>0</tilted></_>
    <_>
      <rects>
        <_>
          10 18 3 4 -1.</_>
        <_>
          10 20 3 2 2.</_></rects>
      <tilted>0</tilted></_>
    <_>
      <rects>
        <_>
          10 19 2 1 -1.</_>
        <_>
          11 19 1 1 2.</_></rects>
      <tilted>0</tilted></_>
    <_>
      <rects>
        <_>
          10 21 9 3 -1.</_>
        <_>
          10 22 9 1 3.</_></rects>
      <tilted>0</tilted></_>
    <_>
      <rects>
        <_>
          11 0 4 6 -1.</_>
        <_>
          11 2 4 2 3.</_></rects>
      <tilted>0</tilted></_>
    <_>
      <rects>
        <_>
          11 2 4 22 -1.</_>
        <_>
          11 13 4 11 2.</_></rects>
      <tilted>0</tilted></_>
    <_>
      <rects>
        <_>
          11 2 13 20 -1.</_>
        <_>
          11 12 13 10 2.</_></rects>
      <tilted>0</tilted></_>
    <_>
      <rects>
        <_>
          11 3 6 2 -1.</_>
        <_>
          11 3 3 1 2.</_>
        <_>
          14 4 3 1 2.</_></rects>
      <tilted>0</tilted></_>
    <_>
      <rects>
        <_>
          11 4 3 7 -1.</_>
        <_>
          12 4 1 7 3.</_></rects>
      <tilted>0</tilted></_>
    <_>
      <rects>
        <_>
          11 4 4 2 -1.</_>
        <_>
          11 4 2 1 2.</_>
        <_>
          13 5 2 1 2.</_></rects>
      <tilted>0</tilted></_>
    <_>
      <rects>
        <_>
          11 5 3 8 -1.</_>
        <_>
          12 5 1 8 3.</_></rects>
      <tilted>0</tilted></_>
    <_>
      <rects>
        <_>
          11 5 6 2 -1.</_>
        <_>
          13 5 2 2 3.</_></rects>
      <tilted>0</tilted></_>
    <_>
      <rects>
        <_>
          11 6 6 1 -1.</_>
        <_>
          13 6 2 1 3.</_></rects>
      <tilted>0</tilted></_>
    <_>
      <rects>
        <_>
          11 12 5 2 -1.</_>
        <_>
          11 13 5 1 2.</_></rects>
      <tilted>0</tilted></_>
    <_>
      <rects>
        <_>
          11 13 5 2 -1.</_>
        <_>
          11 14 5 1 2.</_></rects>
      <tilted>0</tilted></_>
    <_>
      <rects>
        <_>
          11 14 3 6 -1.</_>
        <_>
          11 16 3 2 3.</_></rects>
      <tilted>0</tilted></_>
    <_>
      <rects>
        <_>
          11 16 1 8 -1.</_>
        <_>
          11 20 1 4 2.</_></rects>
      <tilted>0</tilted></_>
    <_>
      <rects>
        <_>
          11 18 13 6 -1.</_>
        <_>
          11 20 13 2 3.</_></rects>
      <tilted>0</tilted></_>
    <_>
      <rects>
        <_>
          11 19 3 3 -1.</_>
        <_>
          11 20 3 1 3.</_></rects>
      <tilted>0</tilted></_>
    <_>
      <rects>
        <_>
          11 20 8 3 -1.</_>
        <_>
          11 21 8 1 3.</_></rects>
      <tilted>0</tilted></_>
    <_>
      <rects>
        <_>
          12 0 12 1 -1.</_>
        <_>
          18 0 6 1 2.</_></rects>
      <tilted>0</tilted></_>
    <_>
      <rects>
        <_>
          12 0 7 24 -1.</_>
        <_>
          12 8 7 8 3.</_></rects>
      <tilted>0</tilted></_>
    <_>
      <rects>
        <_>
          12 1 1 12 -1.</_>
        <_>
          12 5 1 4 3.</_></rects>
      <tilted>0</tilted></_>
    <_>
      <rects>
        <_>
          12 3 4 4 -1.</_>
        <_>
          12 3 2 2 2.</_>
        <_>
          14 5 2 2 2.</_></rects>
      <tilted>0</tilted></_>
    <_>
      <rects>
        <_>
          12 4 6 2 -1.</_>
        <_>
          12 4 3 1 2.</_>
        <_>
          15 5 3 1 2.</_></rects>
      <tilted>0</tilted></_>
    <_>
      <rects>
        <_>
          12 7 3 6 -1.</_>
        <_>
          13 7 1 6 3.</_></rects>
      <tilted>0</tilted></_>
    <_>
      <rects>
        <_>
          12 7 5 6 -1.</_>
        <_>
          12 10 5 3 2.</_></rects>
      <tilted>0</tilted></_>
    <_>
      <rects>
        <_>
          12 8 12 8 -1.</_>
        <_>
          18 8 6 8 2.</_></rects>
      <tilted>0</tilted></_>
    <_>
      <rects>
        <_>
          12 9 1 2 -1.</_>
        <_>
          12 10 1 1 2.</_></rects>
      <tilted>0</tilted></_>
    <_>
      <rects>
        <_>
          12 10 4 10 -1.</_>
        <_>
          12 10 2 5 2.</_>
        <_>
          14 15 2 5 2.</_></rects>
      <tilted>0</tilted></_>
    <_>
      <rects>
        <_>
          12 12 6 1 -1.</_>
        <_>
          14 12 2 1 3.</_></rects>
      <tilted>0</tilted></_>
    <_>
      <rects>
        <_>
          12 13 2 4 -1.</_>
        <_>
          12 15 2 2 2.</_></rects>
      <tilted>0</tilted></_>
    <_>
      <rects>
        <_>
          12 14 4 4 -1.</_>
        <_>
          12 14 2 2 2.</_>
        <_>
          14 16 2 2 2.</_></rects>
      <tilted>0</tilted></_>
    <_>
      <rects>
        <_>
          12 14 6 10 -1.</_>
        <_>
          12 19 6 5 2.</_></rects>
      <tilted>0</tilted></_>
    <_>
      <rects>
        <_>
          12 21 8 2 -1.</_>
        <_>
          12 22 8 1 2.</_></rects>
      <tilted>0</tilted></_>
    <_>
      <rects>
        <_>
          12 22 1 2 -1.</_>
        <_>
          12 23 1 1 2.</_></rects>
      <tilted>0</tilted></_>
    <_>
      <rects>
        <_>
          12 22 12 2 -1.</_>
        <_>
          12 23 12 1 2.</_></rects>
      <tilted>0</tilted></_>
    <_>
      <rects>
        <_>
          13 0 9 1 -1.</_>
        <_>
          16 0 3 1 3.</_></rects>
      <tilted>0</tilted></_>
    <_>
      <rects>
        <_>
          13 1 10 4 -1.</_>
        <_>
          13 1 5 2 2.</_>
        <_>
          18 3 5 2 2.</_></rects>
      <tilted>0</tilted></_>
    <_>
      <rects>
        <_>
          13 3 6 14 -1.</_>
        <_>
          15 3 2 14 3.</_></rects>
      <tilted>0</tilted></_>
    <_>
      <rects>
        <_>
          13 4 2 2 -1.</_>
        <_>
          13 4 1 1 2.</_>
        <_>
          14 5 1 1 2.</_></rects>
      <tilted>0</tilted></_>
    <_>
      <rects>
        <_>
          13 5 6 13 -1.</_>
        <_>
          15 5 2 13 3.</_></rects>
      <tilted>0</tilted></_>
    <_>
      <rects>
        <_>
          13 7 1 6 -1.</_>
        <_>
          13 10 1 3 2.</_></rects>
      <tilted>0</tilted></_>
    <_>
      <rects>
        <_>
          13 8 4 14 -1.</_>
        <_>
          13 8 2 7 2.</_>
        <_>
          15 15 2 7 2.</_></rects>
      <tilted>0</tilted></_>
    <_>
      <rects>
        <_>
          13 17 1 2 -1.</_>
        <_>
          13 18 1 1 2.</_></rects>
      <tilted>0</tilted></_>
    <_>
      <rects>
        <_>
          14 0 1 24 -1.</_>
        <_>
          14 8 1 8 3.</_></rects>
      <tilted>0</tilted></_>
    <_>
      <rects>
        <_>
          14 4 4 2 -1.</_>
        <_>
          14 4 2 1 2.</_>
        <_>
          16 5 2 1 2.</_></rects>
      <tilted>0</tilted></_>
    <_>
      <rects>
        <_>
          14 6 1 2 -1.</_>
        <_>
          14 7 1 1 2.</_></rects>
      <tilted>0</tilted></_>
    <_>
      <rects>
        <_>
          14 6 5 18 -1.</_>
        <_>
          14 15 5 9 2.</_></rects>
      <tilted>0</tilted></_>
    <_>
      <rects>
        <_>
          14 7 6 8 -1.</_>
        <_>
          16 7 2 8 3.</_></rects>
      <tilted>0</tilted></_>
    <_>
      <rects>
        <_>
          14 7 10 16 -1.</_>
        <_>
          14 15 10 8 2.</_></rects>
      <tilted>0</tilted></_>
    <_>
      <rects>
        <_>
          14 8 6 7 -1.</_>
        <_>
          16 8 2 7 3.</_></rects>
      <tilted>0</tilted></_>
    <_>
      <rects>
        <_>
          14 8 4 14 -1.</_>
        <_>
          14 8 2 7 2.</_>
        <_>
          16 15 2 7 2.</_></rects>
      <tilted>0</tilted></_>
    <_>
      <rects>
        <_>
          14 9 4 12 -1.</_>
        <_>
          14 9 2 6 2.</_>
        <_>
          16 15 2 6 2.</_></rects>
      <tilted>0</tilted></_>
    <_>
      <rects>
        <_>
          14 10 1 2 -1.</_>
        <_>
          14 11 1 1 2.</_></rects>
      <tilted>0</tilted></_>
    <_>
      <rects>
        <_>
          14 13 2 2 -1.</_>
        <_>
          15 13 1 2 2.</_></rects>
      <tilted>0</tilted></_>
    <_>
      <rects>
        <_>
          14 18 7 6 -1.</_>
        <_>
          14 20 7 2 3.</_></rects>
      <tilted>0</tilted></_>
    <_>
      <rects>
        <_>
          14 20 10 4 -1.</_>
        <_>
          14 22 10 2 2.</_></rects>
      <tilted>0</tilted></_>
    <_>
      <rects>
        <_>
          14 22 1 2 -1.</_>
        <_>
          14 23 1 1 2.</_></rects>
      <tilted>0</tilted></_>
    <_>
      <rects>
        <_>
          14 22 8 2 -1.</_>
        <_>
          14 23 8 1 2.</_></rects>
      <tilted>0</tilted></_>
    <_>
      <rects>
        <_>
          15 0 6 1 -1.</_>
        <_>
          18 0 3 1 2.</_></rects>
      <tilted>0</tilted></_>
    <_>
      <rects>
        <_>
          15 0 3 2 -1.</_>
        <_>
          15 1 3 1 2.</_></rects>
      <tilted>0</tilted></_>
    <_>
      <rects>
        <_>
          15 0 9 1 -1.</_>
        <_>
          18 0 3 1 3.</_></rects>
      <tilted>0</tilted></_>
    <_>
      <rects>
        <_>
          15 1 8 2 -1.</_>
        <_>
          19 1 4 2 2.</_></rects>
      <tilted>0</tilted></_>
    <_>
      <rects>
        <_>
          15 6 4 5 -1.</_>
        <_>
          17 6 2 5 2.</_></rects>
      <tilted>0</tilted></_>
    <_>
      <rects>
        <_>
          15 7 3 2 -1.</_>
        <_>
          15 8 3 1 2.</_></rects>
      <tilted>0</tilted></_>
    <_>
      <rects>
        <_>
          15 8 3 4 -1.</_>
        <_>
          16 8 1 4 3.</_></rects>
      <tilted>0</tilted></_>
    <_>
      <rects>
        <_>
          15 8 6 6 -1.</_>
        <_>
          17 8 2 6 3.</_></rects>
      <tilted>0</tilted></_>
    <_>
      <rects>
        <_>
          15 11 4 1 -1.</_>
        <_>
          17 11 2 1 2.</_></rects>
      <tilted>0</tilted></_>
    <_>
      <rects>
        <_>
          15 13 2 2 -1.</_>
        <_>
          16 13 1 2 2.</_></rects>
      <tilted>0</tilted></_>
    <_>
      <rects>
        <_>
          16 0 4 2 -1.</_>
        <_>
          16 1 4 1 2.</_></rects>
      <tilted>0</tilted></_>
    <_>
      <rects>
        <_>
          16 5 3 10 -1.</_>
        <_>
          17 5 1 10 3.</_></rects>
      <tilted>0</tilted></_>
    <_>
      <rects>
        <_>
          16 7 6 9 -1.</_>
        <_>
          18 7 2 9 3.</_></rects>
      <tilted>0</tilted></_>
    <_>
      <rects>
        <_>
          16 10 8 12 -1.</_>
        <_>
          16 16 8 6 2.</_></rects>
      <tilted>0</tilted></_>
    <_>
      <rects>
        <_>
          17 18 6 1 -1.</_>
        <_>
          20 18 3 1 2.</_></rects>
      <tilted>0</tilted></_>
    <_>
      <rects>
        <_>
          17 21 3 3 -1.</_>
        <_>
          17 22 3 1 3.</_></rects>
      <tilted>0</tilted></_>
    <_>
      <rects>
        <_>
          17 22 7 2 -1.</_>
        <_>
          17 23 7 1 2.</_></rects>
      <tilted>0</tilted></_>
    <_>
      <rects>
        <_>
          18 0 6 1 -1.</_>
        <_>
          21 0 3 1 2.</_></rects>
      <tilted>0</tilted></_>
    <_>
      <rects>
        <_>
          18 1 5 4 -1.</_>
        <_>
          18 3 5 2 2.</_></rects>
      <tilted>0</tilted></_>
    <_>
      <rects>
        <_>
          18 17 6 2 -1.</_>
        <_>
          21 17 3 2 2.</_></rects>
      <tilted>0</tilted></_>
    <_>
      <rects>
        <_>
          18 22 5 2 -1.</_>
        <_>
          18 23 5 1 2.</_></rects>
      <tilted>0</tilted></_>
    <_>
      <rects>
        <_>
          19 1 4 3 -1.</_>
        <_>
          19 2 4 1 3.</_></rects>
      <tilted>0</tilted></_>
    <_>
      <rects>
        <_>
          19 1 4 4 -1.</_>
        <_>
          19 3 4 2 2.</_></rects>
      <tilted>0</tilted></_>
    <_>
      <rects>
        <_>
          19 2 2 14 -1.</_>
        <_>
          19 2 1 7 2.</_>
        <_>
          20 9 1 7 2.</_></rects>
      <tilted>0</tilted></_>
    <_>
      <rects>
        <_>
          20 0 1 16 -1.</_>
        <_>
          20 8 1 8 2.</_></rects>
      <tilted>0</tilted></_>
    <_>
      <rects>
        <_>
          20 1 2 19 -1.</_>
        <_>
          21 1 1 19 2.</_></rects>
      <tilted>0</tilted></_>
    <_>
      <rects>
        <_>
          20 1 2 3 -1.</_>
        <_>
          20 2 2 1 3.</_></rects>
      <tilted>0</tilted></_>
    <_>
      <rects>
        <_>
          20 2 1 3 -1.</_>
        <_>
          20 3 1 1 3.</_></rects>
      <tilted>0</tilted></_>
    <_>
      <rects>
        <_>
          20 2 4 15 -1.</_>
        <_>
          20 7 4 5 3.</_></rects>
      <tilted>0</tilted></_>
    <_>
      <rects>
        <_>
          20 5 3 9 -1.</_>
        <_>
          20 8 3 3 3.</_></rects>
      <tilted>0</tilted></_>
    <_>
      <rects>
        <_>
          21 9 3 2 -1.</_>
        <_>
          21 10 3 1 2.</_></rects>
      <tilted>0</tilted></_>
    <_>
      <rects>
        <_>
          21 11 2 8 -1.</_>
        <_>
          21 15 2 4 2.</_></rects>
      <tilted>0</tilted></_>
    <_>
      <rects>
        <_>
          22 0 1 3 -1.</_>
        <_>
          22 1 1 1 3.</_></rects>
      <tilted>0</tilted></_>
    <_>
      <rects>
        <_>
          22 8 1 9 -1.</_>
        <_>
          22 11 1 3 3.</_></rects>
      <tilted>0</tilted></_>
    <_>
      <rects>
        <_>
          22 9 2 3 -1.</_>
        <_>
          22 10 2 1 3.</_></rects>
      <tilted>0</tilted></_>
    <_>
      <rects>
        <_>
          22 10 2 3 -1.</_>
        <_>
          22 11 2 1 3.</_></rects>
      <tilted>0</tilted></_>
    <_>
      <rects>
        <_>
          23 9 1 8 -1.</_>
        <_>
          23 13 1 4 2.</_></rects>
      <tilted>0</tilted></_>
    <_>
      <rects>
        <_>
          23 12 1 6 -1.</_>
        <_>
          23 15 1 3 2.</_></rects>
      <tilted>0</tilted></_></features></cascade>
</opencv_storage>
