<?xml version="1.0"?>
<opencv_storage>
<cascade>
  <stageType>BOOST</stageType>
  <featureType>HAAR</featureType>
  <height>24</height>
  <width>24</width>
  <stageParams>
    <boostType>GAB</boostType>
    <minHitRate>9.9500000476837158e-01</minHitRate>
    <maxFalseAlarm>5.0000000000000000e-01</maxFalseAlarm>
    <weightTrimRate>9.4999998807907104e-01</weightTrimRate>
    <maxDepth>1</maxDepth>
    <maxWeakCount>100</maxWeakCount></stageParams>
  <featureParams>
    <maxCatCount>0</maxCatCount>
    <featSize>1</featSize>
    <mode>BASIC</mode></featureParams>
  <stageNum>25</stageNum>
  <stages>
    <!-- stage 0 -->
    <_>
      <maxWeakCount>5</maxWeakCount>
      <stageThreshold>-1.3088537454605103e+00</stageThreshold>
      <weakClassifiers>
        <_>
          <internalNodes>
            0 -1 136 2.5522602722048759e-02</internalNodes>
          <leafValues>
            -6.4507043361663818e-01 6.6258502006530762e-01</leafValues></_>
        <_>
          <internalNodes>
            0 -1 12 3.1246599974110723e-04</internalNodes>
          <leafValues>
            2.7373880147933960e-01 -9.0383380651473999e-01</leafValues></_>
        <_>
          <internalNodes>
            0 -1 12 -3.1013047555461526e-04</internalNodes>
          <leafValues>
            -9.1010624170303345e-01 3.4715420007705688e-01</leafValues></_>
        <_>
          <internalNodes>
            0 -1 131 -2.8728567063808441e-02</internalNodes>
          <leafValues>
            6.5371322631835938e-01 -4.2537340521812439e-01</leafValues></_>
        <_>
          <internalNodes>
            0 -1 236 -3.3412699121981859e-04</internalNodes>
          <leafValues>
            -8.5100334882736206e-01 3.1826967000961304e-01</leafValues></_></weakClassifiers></_>
    <!-- stage 1 -->
    <_>
      <maxWeakCount>4</maxWeakCount>
      <stageThreshold>-8.5180705785751343e-01</stageThreshold>
      <weakClassifiers>
        <_>
          <internalNodes>
            0 -1 166 2.9747679829597473e-02</internalNodes>
          <leafValues>
            -5.1879698038101196e-01 6.9817578792572021e-01</leafValues></_>
        <_>
          <internalNodes>
            0 -1 12 3.1348643824458122e-04</internalNodes>
          <leafValues>
            3.7329062819480896e-01 -9.2579126358032227e-01</leafValues></_>
        <_>
          <internalNodes>
            0 -1 223 -2.7077062986791134e-04</internalNodes>
          <leafValues>
            -9.1264235973358154e-01 2.2455991804599762e-01</leafValues></_>
        <_>
          <internalNodes>
            0 -1 223 2.7118044090457261e-04</internalNodes>
          <leafValues>
            3.6822128295898438e-01 -9.1829323768615723e-01</leafValues></_></weakClassifiers></_>
    <!-- stage 2 -->
    <_>
      <maxWeakCount>6</maxWeakCount>
      <stageThreshold>-1.0549949407577515e+00</stageThreshold>
      <weakClassifiers>
        <_>
          <internalNodes>
            0 -1 71 -4.0575645864009857e-02</internalNodes>
          <leafValues>
            6.5957444906234741e-01 -5.0714886188507080e-01</leafValues></_>
        <_>
          <internalNodes>
            0 -1 231 2.8794215177185833e-04</internalNodes>
          <leafValues>
            2.8883817791938782e-01 -8.7948489189147949e-01</leafValues></_>
        <_>
          <internalNodes>
            0 -1 231 -2.3507424339186400e-04</internalNodes>
          <leafValues>
            -8.4761917591094971e-01 2.7078920602798462e-01</leafValues></_>
        <_>
          <internalNodes>
            0 -1 226 2.8491124976426363e-04</internalNodes>
          <leafValues>
            1.9678814709186554e-01 -8.8419735431671143e-01</leafValues></_>
        <_>
          <internalNodes>
            0 -1 226 -3.0606985092163086e-04</internalNodes>
          <leafValues>
            -7.8634625673294067e-01 3.2794937491416931e-01</leafValues></_>
        <_>
          <internalNodes>
            0 -1 122 1.9091155380010605e-02</internalNodes>
          <leafValues>
            -4.6388792991638184e-01 6.2984657287597656e-01</leafValues></_></weakClassifiers></_>
    <!-- stage 3 -->
    <_>
      <maxWeakCount>7</maxWeakCount>
      <stageThreshold>-1.0437519550323486e+00</stageThreshold>
      <weakClassifiers>
        <_>
          <internalNodes>
            0 -1 167 5.4118551313877106e-02</internalNodes>
          <leafValues>
            -4.4495412707328796e-01 7.7642273902893066e-01</leafValues></_>
        <_>
          <internalNodes>
            0 -1 10 2.1556331194005907e-04</internalNodes>
          <leafValues>
            2.9517418146133423e-01 -8.7429714202880859e-01</leafValues></_>
        <_>
          <internalNodes>
            0 -1 14 4.1657313704490662e-04</internalNodes>
          <leafValues>
            2.6122519373893738e-01 -8.5432767868041992e-01</leafValues></_>
        <_>
          <internalNodes>
            0 -1 14 -3.3935310784727335e-04</internalNodes>
          <leafValues>
            -7.7201116085052490e-01 2.5074023008346558e-01</leafValues></_>
        <_>
          <internalNodes>
            0 -1 238 1.8859645933844149e-04</internalNodes>
          <leafValues>
            2.3576253652572632e-01 -7.9600453376770020e-01</leafValues></_>
        <_>
          <internalNodes>
            0 -1 238 -2.1785138233099133e-04</internalNodes>
          <leafValues>
            -7.6232439279556274e-01 2.7592533826828003e-01</leafValues></_>
        <_>
          <internalNodes>
            0 -1 11 -2.1543064212892205e-04</internalNodes>
          <leafValues>
            -7.0542693138122559e-01 2.9009574651718140e-01</leafValues></_></weakClassifiers></_>
    <!-- stage 4 -->
    <_>
      <maxWeakCount>7</maxWeakCount>
      <stageThreshold>-1.1292532682418823e+00</stageThreshold>
      <weakClassifiers>
        <_>
          <internalNodes>
            0 -1 102 -4.9826152622699738e-02</internalNodes>
          <leafValues>
            5.5656111240386963e-01 -5.0043976306915283e-01</leafValues></_>
        <_>
          <internalNodes>
            0 -1 23 1.0141190432477742e-04</internalNodes>
          <leafValues>
            2.8332364559173584e-01 -7.7164918184280396e-01</leafValues></_>
        <_>
          <internalNodes>
            0 -1 23 -1.9327606423757970e-04</internalNodes>
          <leafValues>
            -8.3617877960205078e-01 2.7683264017105103e-01</leafValues></_>
        <_>
          <internalNodes>
            0 -1 43 -3.0238658655434847e-04</internalNodes>
          <leafValues>
            -7.5392657518386841e-01 2.0823334157466888e-01</leafValues></_>
        <_>
          <internalNodes>
            0 -1 55 4.1710189543664455e-04</internalNodes>
          <leafValues>
            2.8684914112091064e-01 -6.6683268547058105e-01</leafValues></_>
        <_>
          <internalNodes>
            0 -1 169 -5.0050596473738551e-04</internalNodes>
          <leafValues>
            -9.0774685144424438e-01 1.9098284840583801e-01</leafValues></_>
        <_>
          <internalNodes>
            0 -1 214 -2.8452684637159109e-04</internalNodes>
          <leafValues>
            -8.0205559730529785e-01 2.0013609528541565e-01</leafValues></_></weakClassifiers></_>
    <!-- stage 5 -->
    <_>
      <maxWeakCount>7</maxWeakCount>
      <stageThreshold>-1.1248348951339722e+00</stageThreshold>
      <weakClassifiers>
        <_>
          <internalNodes>
            0 -1 149 2.6736212894320488e-02</internalNodes>
          <leafValues>
            -5.8237147331237793e-01 4.1912633180618286e-01</leafValues></_>
        <_>
          <internalNodes>
            0 -1 227 4.5142980525270104e-04</internalNodes>
          <leafValues>
            2.8030323982238770e-01 -7.2861534357070923e-01</leafValues></_>
        <_>
          <internalNodes>
            0 -1 169 4.7746713971719146e-04</internalNodes>
          <leafValues>
            2.5247585773468018e-01 -7.6360309123992920e-01</leafValues></_>
        <_>
          <internalNodes>
            0 -1 46 4.0312373312190175e-04</internalNodes>
          <leafValues>
            2.6938587427139282e-01 -7.2152876853942871e-01</leafValues></_>
        <_>
          <internalNodes>
            0 -1 47 -4.8142712330445647e-04</internalNodes>
          <leafValues>
            -7.6104879379272461e-01 2.6379874348640442e-01</leafValues></_>
        <_>
          <internalNodes>
            0 -1 42 -5.3760860115289688e-02</internalNodes>
          <leafValues>
            5.2977395057678223e-01 -3.5267105698585510e-01</leafValues></_>
        <_>
          <internalNodes>
            0 -1 22 5.4256469011306763e-02</internalNodes>
          <leafValues>
            -2.2348771989345551e-01 9.2474031448364258e-01</leafValues></_></weakClassifiers></_>
    <!-- stage 6 -->
    <_>
      <maxWeakCount>8</maxWeakCount>
      <stageThreshold>-1.3231577873229980e+00</stageThreshold>
      <weakClassifiers>
        <_>
          <internalNodes>
            0 -1 60 6.1814419925212860e-02</internalNodes>
          <leafValues>
            -4.6872460842132568e-01 6.6256588697433472e-01</leafValues></_>
        <_>
          <internalNodes>
            0 -1 40 4.0168993291445076e-04</internalNodes>
          <leafValues>
            3.1210023164749146e-01 -8.2940155267715454e-01</leafValues></_>
        <_>
          <internalNodes>
            0 -1 117 -4.5573782175779343e-02</internalNodes>
          <leafValues>
            7.5647538900375366e-01 -2.9350304603576660e-01</leafValues></_>
        <_>
          <internalNodes>
            0 -1 62 -1.6488981246948242e-01</internalNodes>
          <leafValues>
            9.6397173404693604e-01 -2.2695843875408173e-01</leafValues></_>
        <_>
          <internalNodes>
            0 -1 232 4.3929909588769078e-04</internalNodes>
          <leafValues>
            3.4269785881042480e-01 -7.0033514499664307e-01</leafValues></_>
        <_>
          <internalNodes>
            0 -1 232 -3.7558964686468244e-04</internalNodes>
          <leafValues>
            -7.2863537073135376e-01 3.1901863217353821e-01</leafValues></_>
        <_>
          <internalNodes>
            0 -1 107 6.5444931387901306e-02</internalNodes>
          <leafValues>
            -4.2070156335830688e-01 5.1145869493484497e-01</leafValues></_>
        <_>
          <internalNodes>
            0 -1 156 1.8553122878074646e-01</internalNodes>
          <leafValues>
            2.3863781988620758e-01 -8.8708686828613281e-01</leafValues></_></weakClassifiers></_>
    <!-- stage 7 -->
    <_>
      <maxWeakCount>6</maxWeakCount>
      <stageThreshold>-1.5262125730514526e+00</stageThreshold>
      <weakClassifiers>
        <_>
          <internalNodes>
            0 -1 53 4.3656855821609497e-02</internalNodes>
          <leafValues>
            -6.0418647527694702e-01 5.8077436685562134e-01</leafValues></_>
        <_>
          <internalNodes>
            0 -1 57 -4.3272845447063446e-02</internalNodes>
          <leafValues>
            5.5776166915893555e-01 -4.5133867859840393e-01</leafValues></_>
        <_>
          <internalNodes>
            0 -1 5 -1.5160950133576989e-03</internalNodes>
          <leafValues>
            -8.2165360450744629e-01 2.8227734565734863e-01</leafValues></_>
        <_>
          <internalNodes>
            0 -1 24 -4.8330525169149041e-04</internalNodes>
          <leafValues>
            -6.6148704290390015e-01 3.1456115841865540e-01</leafValues></_>
        <_>
          <internalNodes>
            0 -1 26 -3.2934223418124020e-04</internalNodes>
          <leafValues>
            -7.6736730337142944e-01 2.2051250934600830e-01</leafValues></_>
        <_>
          <internalNodes>
            0 -1 31 1.2271174229681492e-02</internalNodes>
          <leafValues>
            -4.1424068808555603e-01 4.9549937248229980e-01</leafValues></_></weakClassifiers></_>
    <!-- stage 8 -->
    <_>
      <maxWeakCount>4</maxWeakCount>
      <stageThreshold>-8.4329611063003540e-01</stageThreshold>
      <weakClassifiers>
        <_>
          <internalNodes>
            0 -1 130 -2.7270384132862091e-02</internalNodes>
          <leafValues>
            6.9207316637039185e-01 -5.7167834043502808e-01</leafValues></_>
        <_>
          <internalNodes>
            0 -1 18 -9.0703186288010329e-05</internalNodes>
          <leafValues>
            4.9537810683250427e-01 -5.8632737398147583e-01</leafValues></_>
        <_>
          <internalNodes>
            0 -1 63 -3.3513799309730530e-02</internalNodes>
          <leafValues>
            7.3238462209701538e-01 -3.0414339900016785e-01</leafValues></_>
        <_>
          <internalNodes>
            0 -1 1 -1.9124660640954971e-02</internalNodes>
          <leafValues>
            6.1885303258895874e-01 -3.4815004467964172e-01</leafValues></_></weakClassifiers></_>
    <!-- stage 9 -->
    <_>
      <maxWeakCount>7</maxWeakCount>
      <stageThreshold>-1.3332062959671021e+00</stageThreshold>
      <weakClassifiers>
        <_>
          <internalNodes>
            0 -1 54 8.4164515137672424e-02</internalNodes>
          <leafValues>
            -5.0528883934020996e-01 7.3730295896530151e-01</leafValues></_>
        <_>
          <internalNodes>
            0 -1 15 -2.3117125965654850e-04</internalNodes>
          <leafValues>
            -7.6608365774154663e-01 2.8641134500503540e-01</leafValues></_>
        <_>
          <internalNodes>
            0 -1 16 2.0872394088655710e-04</internalNodes>
          <leafValues>
            2.2892428934574127e-01 -7.7418243885040283e-01</leafValues></_>
        <_>
          <internalNodes>
            0 -1 216 -2.9884034302085638e-04</internalNodes>
          <leafValues>
            -8.2970058917999268e-01 1.8135440349578857e-01</leafValues></_>
        <_>
          <internalNodes>
            0 -1 216 2.4404055147897452e-04</internalNodes>
          <leafValues>
            2.8108048439025879e-01 -7.4077844619750977e-01</leafValues></_>
        <_>
          <internalNodes>
            0 -1 94 -2.7358839288353920e-03</internalNodes>
          <leafValues>
            -5.8513736724853516e-01 2.4823892116546631e-01</leafValues></_>
        <_>
          <internalNodes>
            0 -1 186 -1.3471266254782677e-02</internalNodes>
          <leafValues>
            6.7502152919769287e-01 -2.0949555933475494e-01</leafValues></_></weakClassifiers></_>
    <!-- stage 10 -->
    <_>
      <maxWeakCount>9</maxWeakCount>
      <stageThreshold>-1.1042540073394775e+00</stageThreshold>
      <weakClassifiers>
        <_>
          <internalNodes>
            0 -1 108 9.9875077605247498e-02</internalNodes>
          <leafValues>
            -4.4436147809028625e-01 8.5683298110961914e-01</leafValues></_>
        <_>
          <internalNodes>
            0 -1 220 -5.8686826378107071e-03</internalNodes>
          <leafValues>
            -7.7259016036987305e-01 3.5613644123077393e-01</leafValues></_>
        <_>
          <internalNodes>
            0 -1 45 1.1438615620136261e-03</internalNodes>
          <leafValues>
            1.9885367155075073e-01 -8.3787250518798828e-01</leafValues></_>
        <_>
          <internalNodes>
            0 -1 61 -3.0038223485462368e-04</internalNodes>
          <leafValues>
            -7.0939218997955322e-01 2.6272854208946228e-01</leafValues></_>
        <_>
          <internalNodes>
            0 -1 192 -3.8836230523884296e-03</internalNodes>
          <leafValues>
            -7.4673628807067871e-01 2.3540616035461426e-01</leafValues></_>
        <_>
          <internalNodes>
            0 -1 213 2.2338907001540065e-04</internalNodes>
          <leafValues>
            2.3990125954151154e-01 -8.1372851133346558e-01</leafValues></_>
        <_>
          <internalNodes>
            0 -1 44 -5.2649760618805885e-04</internalNodes>
          <leafValues>
            -7.5747108459472656e-01 1.8966335058212280e-01</leafValues></_>
        <_>
          <internalNodes>
            0 -1 66 6.2948405742645264e-02</internalNodes>
          <leafValues>
            -2.4288621544837952e-01 8.7770676612854004e-01</leafValues></_>
        <_>
          <internalNodes>
            0 -1 212 2.9110733885318041e-04</internalNodes>
          <leafValues>
            2.8266060352325439e-01 -6.9743037223815918e-01</leafValues></_></weakClassifiers></_>
    <!-- stage 11 -->
    <_>
      <maxWeakCount>5</maxWeakCount>
      <stageThreshold>-8.4275823831558228e-01</stageThreshold>
      <weakClassifiers>
        <_>
          <internalNodes>
            0 -1 133 -1.3475622836267576e-05</internalNodes>
          <leafValues>
            7.8497791290283203e-01 -6.5388047695159912e-01</leafValues></_>
        <_>
          <internalNodes>
            0 -1 145 -1.5008100867271423e-01</internalNodes>
          <leafValues>
            -8.5864299535751343e-01 4.8935970664024353e-01</leafValues></_>
        <_>
          <internalNodes>
            0 -1 9 -1.5436904504895210e-05</internalNodes>
          <leafValues>
            5.5989414453506470e-01 -6.4268815517425537e-01</leafValues></_>
        <_>
          <internalNodes>
            0 -1 189 -1.5066032574395649e-05</internalNodes>
          <leafValues>
            5.7402265071868896e-01 -5.9076976776123047e-01</leafValues></_>
        <_>
          <internalNodes>
            0 -1 109 1.4635230400017463e-05</internalNodes>
          <leafValues>
            -4.4898897409439087e-01 7.3843073844909668e-01</leafValues></_></weakClassifiers></_>
    <!-- stage 12 -->
    <_>
      <maxWeakCount>5</maxWeakCount>
      <stageThreshold>-1.1983875036239624e+00</stageThreshold>
      <weakClassifiers>
        <_>
          <internalNodes>
            0 -1 121 -1.4774180272070225e-05</internalNodes>
          <leafValues>
            7.9969185590744019e-01 -6.2467420101165771e-01</leafValues></_>
        <_>
          <internalNodes>
            0 -1 153 1.3572153875429649e-05</internalNodes>
          <leafValues>
            -4.4338339567184448e-01 8.3796727657318115e-01</leafValues></_>
        <_>
          <internalNodes>
            0 -1 33 1.5586017980240285e-05</internalNodes>
          <leafValues>
            -3.9369145035743713e-01 8.4942263364791870e-01</leafValues></_>
        <_>
          <internalNodes>
            0 -1 194 -1.4928219570720103e-05</internalNodes>
          <leafValues>
            6.9154018163681030e-01 -4.8827648162841797e-01</leafValues></_>
        <_>
          <internalNodes>
            0 -1 105 1.4948002899473067e-05</internalNodes>
          <leafValues>
            -4.2817857861518860e-01 8.6703515052795410e-01</leafValues></_></weakClassifiers></_>
    <!-- stage 13 -->
    <_>
      <maxWeakCount>6</maxWeakCount>
      <stageThreshold>-5.4655838012695313e-01</stageThreshold>
      <weakClassifiers>
        <_>
          <internalNodes>
            0 -1 135 1.6812674701213837e-02</internalNodes>
          <leafValues>
            -7.1948999166488647e-01 8.4045583009719849e-01</leafValues></_>
        <_>
          <internalNodes>
            0 -1 195 1.4131896197795868e-02</internalNodes>
          <leafValues>
            -3.1334939599037170e-01 8.7611043453216553e-01</leafValues></_>
        <_>
          <internalNodes>
            0 -1 190 -1.1423660442233086e-02</internalNodes>
          <leafValues>
            7.3054027557373047e-01 -3.9723899960517883e-01</leafValues></_>
        <_>
          <internalNodes>
            0 -1 191 1.7550990451127291e-03</internalNodes>
          <leafValues>
            -2.1298551559448242e-01 8.6323797702789307e-01</leafValues></_>
        <_>
          <internalNodes>
            0 -1 208 -1.6943824291229248e-01</internalNodes>
          <leafValues>
            -8.5150051116943359e-01 2.5875049829483032e-01</leafValues></_>
        <_>
          <internalNodes>
            0 -1 163 -4.2373891919851303e-03</internalNodes>
          <leafValues>
            8.5487467050552368e-01 -2.3846846818923950e-01</leafValues></_></weakClassifiers></_>
    <!-- stage 14 -->
    <_>
      <maxWeakCount>10</maxWeakCount>
      <stageThreshold>-1.3509107828140259e+00</stageThreshold>
      <weakClassifiers>
        <_>
          <internalNodes>
            0 -1 8 9.1715781309176236e-05</internalNodes>
          <leafValues>
            -6.1297541856765747e-01 3.8410595059394836e-01</leafValues></_>
        <_>
          <internalNodes>
            0 -1 126 -8.5796765983104706e-02</internalNodes>
          <leafValues>
            5.9617370367050171e-01 -3.4782797098159790e-01</leafValues></_>
        <_>
          <internalNodes>
            0 -1 161 1.7255176790058613e-03</internalNodes>
          <leafValues>
            -2.2521071135997772e-01 6.3497990369796753e-01</leafValues></_>
        <_>
          <internalNodes>
            0 -1 178 3.5683012101799250e-03</internalNodes>
          <leafValues>
            -2.0802345871925354e-01 6.5318864583969116e-01</leafValues></_>
        <_>
          <internalNodes>
            0 -1 160 -1.1579878628253937e-03</internalNodes>
          <leafValues>
            5.9780669212341309e-01 -2.2699844837188721e-01</leafValues></_>
        <_>
          <internalNodes>
            0 -1 201 6.5193547925446182e-05</internalNodes>
          <leafValues>
            -2.4249516427516937e-01 5.0632530450820923e-01</leafValues></_>
        <_>
          <internalNodes>
            0 -1 162 1.4410877600312233e-02</internalNodes>
          <leafValues>
            -1.8237937986850739e-01 6.1053162813186646e-01</leafValues></_>
        <_>
          <internalNodes>
            0 -1 82 -5.5260475724935532e-02</internalNodes>
          <leafValues>
            4.2651367187500000e-01 -2.8293058276176453e-01</leafValues></_>
        <_>
          <internalNodes>
            0 -1 38 -1.9921008497476578e-03</internalNodes>
          <leafValues>
            -7.0678442716598511e-01 2.2349800169467926e-01</leafValues></_>
        <_>
          <internalNodes>
            0 -1 151 -2.4319402873516083e-03</internalNodes>
          <leafValues>
            6.3744115829467773e-01 -2.4264903366565704e-01</leafValues></_></weakClassifiers></_>
    <!-- stage 15 -->
    <_>
      <maxWeakCount>11</maxWeakCount>
      <stageThreshold>-1.4325402975082397e+00</stageThreshold>
      <weakClassifiers>
        <_>
          <internalNodes>
            0 -1 51 1.4289915561676025e-02</internalNodes>
          <leafValues>
            -3.3811917901039124e-01 6.6584765911102295e-01</leafValues></_>
        <_>
          <internalNodes>
            0 -1 72 8.4190703928470612e-03</internalNodes>
          <leafValues>
            -3.0368015170097351e-01 4.6000918745994568e-01</leafValues></_>
        <_>
          <internalNodes>
            0 -1 103 1.1731868144124746e-03</internalNodes>
          <leafValues>
            -2.6379257440567017e-01 6.2679195404052734e-01</leafValues></_>
        <_>
          <internalNodes>
            0 -1 187 -3.5919915884733200e-02</internalNodes>
          <leafValues>
            6.0975992679595947e-01 -2.0862801373004913e-01</leafValues></_>
        <_>
          <internalNodes>
            0 -1 84 5.8031245134770870e-04</internalNodes>
          <leafValues>
            -4.2825260758399963e-01 3.2510581612586975e-01</leafValues></_>
        <_>
          <internalNodes>
            0 -1 59 -6.1601196648553014e-05</internalNodes>
          <leafValues>
            3.2164898514747620e-01 -3.7367844581604004e-01</leafValues></_>
        <_>
          <internalNodes>
            0 -1 157 4.3443972244858742e-03</internalNodes>
          <leafValues>
            -2.3685540258884430e-01 4.7590667009353638e-01</leafValues></_>
        <_>
          <internalNodes>
            0 -1 87 1.9961453974246979e-02</internalNodes>
          <leafValues>
            -2.7391621470451355e-01 4.4695588946342468e-01</leafValues></_>
        <_>
          <internalNodes>
            0 -1 118 4.9427989870309830e-02</internalNodes>
          <leafValues>
            -1.5602251887321472e-01 7.4095594882965088e-01</leafValues></_>
        <_>
          <internalNodes>
            0 -1 25 -8.9267931878566742e-02</internalNodes>
          <leafValues>
            -8.7160664796829224e-01 1.4194437861442566e-01</leafValues></_>
        <_>
          <internalNodes>
            0 -1 237 4.5670652762055397e-03</internalNodes>
          <leafValues>
            1.1787587404251099e-01 -7.8579908609390259e-01</leafValues></_></weakClassifiers></_>
    <!-- stage 16 -->
    <_>
      <maxWeakCount>12</maxWeakCount>
      <stageThreshold>-1.2355595827102661e+00</stageThreshold>
      <weakClassifiers>
        <_>
          <internalNodes>
            0 -1 168 1.8803149461746216e-02</internalNodes>
          <leafValues>
            -4.2784380912780762e-01 4.8874598741531372e-01</leafValues></_>
        <_>
          <internalNodes>
            0 -1 183 4.7047953121364117e-03</internalNodes>
          <leafValues>
            2.3037578165531158e-01 -6.7134344577789307e-01</leafValues></_>
        <_>
          <internalNodes>
            0 -1 21 -4.3179327622056007e-03</internalNodes>
          <leafValues>
            -7.4820363521575928e-01 1.7100358009338379e-01</leafValues></_>
        <_>
          <internalNodes>
            0 -1 193 -2.1300662308931351e-02</internalNodes>
          <leafValues>
            6.7961215972900391e-01 -1.9565165042877197e-01</leafValues></_>
        <_>
          <internalNodes>
            0 -1 127 2.3846558760851622e-03</internalNodes>
          <leafValues>
            -1.9664019346237183e-01 6.5862989425659180e-01</leafValues></_>
        <_>
          <internalNodes>
            0 -1 140 -1.0713974013924599e-02</internalNodes>
          <leafValues>
            7.2485423088073730e-01 -1.6346475481987000e-01</leafValues></_>
        <_>
          <internalNodes>
            0 -1 154 7.9293787712231278e-04</internalNodes>
          <leafValues>
            2.9574525356292725e-01 -5.0696480274200439e-01</leafValues></_>
        <_>
          <internalNodes>
            0 -1 35 9.2414830578491092e-04</internalNodes>
          <leafValues>
            1.9570660591125488e-01 -4.8983660340309143e-01</leafValues></_>
        <_>
          <internalNodes>
            0 -1 97 -6.2019281089305878e-02</internalNodes>
          <leafValues>
            4.5907753705978394e-01 -2.7966287732124329e-01</leafValues></_>
        <_>
          <internalNodes>
            0 -1 129 1.1002452671527863e-01</internalNodes>
          <leafValues>
            -1.6965502500534058e-01 7.8407019376754761e-01</leafValues></_>
        <_>
          <internalNodes>
            0 -1 28 2.0866107195615768e-02</internalNodes>
          <leafValues>
            -1.9793340563774109e-01 4.9391835927963257e-01</leafValues></_>
        <_>
          <internalNodes>
            0 -1 83 -2.7768211439251900e-03</internalNodes>
          <leafValues>
            4.2807030677795410e-01 -2.8767165541648865e-01</leafValues></_></weakClassifiers></_>
    <!-- stage 17 -->
    <_>
      <maxWeakCount>14</maxWeakCount>
      <stageThreshold>-1.1476606130599976e+00</stageThreshold>
      <weakClassifiers>
        <_>
          <internalNodes>
            0 -1 49 -6.3630010117776692e-05</internalNodes>
          <leafValues>
            1.8240146338939667e-01 -5.6276446580886841e-01</leafValues></_>
        <_>
          <internalNodes>
            0 -1 196 5.3856927901506424e-02</internalNodes>
          <leafValues>
            -2.1072463691234589e-01 6.3344329595565796e-01</leafValues></_>
        <_>
          <internalNodes>
            0 -1 142 -2.0821820944547653e-02</internalNodes>
          <leafValues>
            4.1879051923751831e-01 -2.8225696086883545e-01</leafValues></_>
        <_>
          <internalNodes>
            0 -1 180 3.6530867218971252e-02</internalNodes>
          <leafValues>
            -2.2135449945926666e-01 6.5205866098403931e-01</leafValues></_>
        <_>
          <internalNodes>
            0 -1 155 6.5711103379726410e-02</internalNodes>
          <leafValues>
            2.3113918304443359e-01 -5.9849923849105835e-01</leafValues></_>
        <_>
          <internalNodes>
            0 -1 234 -6.6356908064335585e-04</internalNodes>
          <leafValues>
            -7.3138940334320068e-01 1.3853088021278381e-01</leafValues></_>
        <_>
          <internalNodes>
            0 -1 20 -5.7275844737887383e-03</internalNodes>
          <leafValues>
            3.0559989809989929e-01 -3.9698329567909241e-01</leafValues></_>
        <_>
          <internalNodes>
            0 -1 22 -6.2851391732692719e-02</internalNodes>
          <leafValues>
            6.6901296377182007e-01 -1.7840327322483063e-01</leafValues></_>
        <_>
          <internalNodes>
            0 -1 37 1.8529976659920067e-04</internalNodes>
          <leafValues>
            2.2746023535728455e-01 -6.7852509021759033e-01</leafValues></_>
        <_>
          <internalNodes>
            0 -1 68 6.8786954507231712e-03</internalNodes>
          <leafValues>
            7.3565155267715454e-02 -7.2987389564514160e-01</leafValues></_>
        <_>
          <internalNodes>
            0 -1 143 8.5801720619201660e-02</internalNodes>
          <leafValues>
            -1.4934964478015900e-01 7.2377878427505493e-01</leafValues></_>
        <_>
          <internalNodes>
            0 -1 90 -1.5947038307785988e-02</internalNodes>
          <leafValues>
            6.0080939531326294e-01 -1.7474095523357391e-01</leafValues></_>
        <_>
          <internalNodes>
            0 -1 123 1.2330024037510157e-03</internalNodes>
          <leafValues>
            1.8827487528324127e-01 -6.7817729711532593e-01</leafValues></_>
        <_>
          <internalNodes>
            0 -1 173 -3.9074239321053028e-03</internalNodes>
          <leafValues>
            3.9709267020225525e-01 -2.6457664370536804e-01</leafValues></_></weakClassifiers></_>
    <!-- stage 18 -->
    <_>
      <maxWeakCount>17</maxWeakCount>
      <stageThreshold>-1.3414061069488525e+00</stageThreshold>
      <weakClassifiers>
        <_>
          <internalNodes>
            0 -1 73 5.5228471755981445e-02</internalNodes>
          <leafValues>
            -4.6475994586944580e-01 3.1059682369232178e-01</leafValues></_>
        <_>
          <internalNodes>
            0 -1 2 -1.5153915155678988e-03</internalNodes>
          <leafValues>
            -4.8817828297615051e-01 2.8313413262367249e-01</leafValues></_>
        <_>
          <internalNodes>
            0 -1 89 -5.8006192557513714e-04</internalNodes>
          <leafValues>
            4.1965708136558533e-01 -2.4806942045688629e-01</leafValues></_>
        <_>
          <internalNodes>
            0 -1 78 3.1686760485172272e-02</internalNodes>
          <leafValues>
            -2.8645274043083191e-01 3.7147638201713562e-01</leafValues></_>
        <_>
          <internalNodes>
            0 -1 132 -1.2623469228856266e-04</internalNodes>
          <leafValues>
            3.9117386937141418e-01 -2.6876714825630188e-01</leafValues></_>
        <_>
          <internalNodes>
            0 -1 207 -3.5427836701273918e-04</internalNodes>
          <leafValues>
            5.1020079851150513e-01 -1.7043863236904144e-01</leafValues></_>
        <_>
          <internalNodes>
            0 -1 179 3.1693838536739349e-05</internalNodes>
          <leafValues>
            -2.6774194836616516e-01 3.4663745760917664e-01</leafValues></_>
        <_>
          <internalNodes>
            0 -1 222 1.2068741489201784e-03</internalNodes>
          <leafValues>
            2.0708025991916656e-01 -5.2961695194244385e-01</leafValues></_>
        <_>
          <internalNodes>
            0 -1 176 -1.4490710782411043e-05</internalNodes>
          <leafValues>
            2.0592218637466431e-01 -3.6899712681770325e-01</leafValues></_>
        <_>
          <internalNodes>
            0 -1 77 2.5122921913862228e-02</internalNodes>
          <leafValues>
            1.2964436411857605e-01 -8.7815654277801514e-01</leafValues></_>
        <_>
          <internalNodes>
            0 -1 64 -1.1807131581008434e-02</internalNodes>
          <leafValues>
            5.5302566289901733e-01 -1.7456710338592529e-01</leafValues></_>
        <_>
          <internalNodes>
            0 -1 76 2.0645331591367722e-02</internalNodes>
          <leafValues>
            -1.6000209748744965e-01 5.8029729127883911e-01</leafValues></_>
        <_>
          <internalNodes>
            0 -1 141 4.1447021067142487e-03</internalNodes>
          <leafValues>
            1.7895106971263885e-01 -6.4124345779418945e-01</leafValues></_>
        <_>
          <internalNodes>
            0 -1 70 -1.8516473937779665e-03</internalNodes>
          <leafValues>
            3.6767539381980896e-01 -2.8348678350448608e-01</leafValues></_>
        <_>
          <internalNodes>
            0 -1 177 -7.2065973654389381e-05</internalNodes>
          <leafValues>
            2.1228976547718048e-01 -4.1999244689941406e-01</leafValues></_>
        <_>
          <internalNodes>
            0 -1 225 -1.1319195851683617e-02</internalNodes>
          <leafValues>
            -5.1623147726058960e-01 1.7000928521156311e-01</leafValues></_>
        <_>
          <internalNodes>
            0 -1 175 -1.5380157157778740e-02</internalNodes>
          <leafValues>
            6.4442360401153564e-01 -1.6308772563934326e-01</leafValues></_></weakClassifiers></_>
    <!-- stage 19 -->
    <_>
      <maxWeakCount>16</maxWeakCount>
      <stageThreshold>-9.9092847108840942e-01</stageThreshold>
      <weakClassifiers>
        <_>
          <internalNodes>
            0 -1 36 2.0618769340217113e-03</internalNodes>
          <leafValues>
            1.2238325178623199e-01 -6.3082438707351685e-01</leafValues></_>
        <_>
          <internalNodes>
            0 -1 56 -3.7906580837443471e-04</internalNodes>
          <leafValues>
            -4.8772251605987549e-01 1.8365924060344696e-01</leafValues></_>
        <_>
          <internalNodes>
            0 -1 96 1.9267873838543892e-02</internalNodes>
          <leafValues>
            -2.4294236302375793e-01 4.3573692440986633e-01</leafValues></_>
        <_>
          <internalNodes>
            0 -1 205 1.3210612814873457e-03</internalNodes>
          <leafValues>
            1.4932198822498322e-01 -5.5850559473037720e-01</leafValues></_>
        <_>
          <internalNodes>
            0 -1 34 6.6983057186007500e-03</internalNodes>
          <leafValues>
            1.0976766049861908e-01 -9.4764125347137451e-01</leafValues></_>
        <_>
          <internalNodes>
            0 -1 202 -4.6409040689468384e-02</internalNodes>
          <leafValues>
            6.7877084016799927e-01 -1.7852690815925598e-01</leafValues></_>
        <_>
          <internalNodes>
            0 -1 230 -1.1633813846856356e-03</internalNodes>
          <leafValues>
            5.1582711935043335e-01 -1.9066166877746582e-01</leafValues></_>
        <_>
          <internalNodes>
            0 -1 32 2.6102380361407995e-03</internalNodes>
          <leafValues>
            -1.7600187659263611e-01 4.9563401937484741e-01</leafValues></_>
        <_>
          <internalNodes>
            0 -1 174 -6.0122534632682800e-02</internalNodes>
          <leafValues>
            5.4390513896942139e-01 -1.2813091278076172e-01</leafValues></_>
        <_>
          <internalNodes>
            0 -1 85 -6.2561738304793835e-03</internalNodes>
          <leafValues>
            4.7752115130424500e-01 -1.8556907773017883e-01</leafValues></_>
        <_>
          <internalNodes>
            0 -1 65 2.2830605506896973e-02</internalNodes>
          <leafValues>
            -3.5352355241775513e-01 2.5779420137405396e-01</leafValues></_>
        <_>
          <internalNodes>
            0 -1 13 9.9657173268496990e-04</internalNodes>
          <leafValues>
            1.2160085886716843e-01 -6.5754139423370361e-01</leafValues></_>
        <_>
          <internalNodes>
            0 -1 17 3.3390540629625320e-02</internalNodes>
          <leafValues>
            -1.7583478987216949e-01 5.2235478162765503e-01</leafValues></_>
        <_>
          <internalNodes>
            0 -1 100 -6.8261199630796909e-03</internalNodes>
          <leafValues>
            4.7436895966529846e-01 -2.0226494967937469e-01</leafValues></_>
        <_>
          <internalNodes>
            0 -1 200 -1.2023993767797947e-02</internalNodes>
          <leafValues>
            6.2701034545898438e-01 -1.0401839017868042e-01</leafValues></_>
        <_>
          <internalNodes>
            0 -1 199 5.3531148296315223e-05</internalNodes>
          <leafValues>
            -2.6914960145950317e-01 3.4098464250564575e-01</leafValues></_></weakClassifiers></_>
    <!-- stage 20 -->
    <_>
      <maxWeakCount>18</maxWeakCount>
      <stageThreshold>-1.2806788682937622e+00</stageThreshold>
      <weakClassifiers>
        <_>
          <internalNodes>
            0 -1 215 6.6247454378753901e-04</internalNodes>
          <leafValues>
            9.7580015659332275e-02 -6.2620425224304199e-01</leafValues></_>
        <_>
          <internalNodes>
            0 -1 98 -7.9437032341957092e-02</internalNodes>
          <leafValues>
            3.8377207517623901e-01 -2.9583874344825745e-01</leafValues></_>
        <_>
          <internalNodes>
            0 -1 0 -1.0627438314259052e-03</internalNodes>
          <leafValues>
            2.3316578567028046e-01 -4.2726671695709229e-01</leafValues></_>
        <_>
          <internalNodes>
            0 -1 3 -3.3673704601824284e-03</internalNodes>
          <leafValues>
            -5.4950553178787231e-01 1.9750444591045380e-01</leafValues></_>
        <_>
          <internalNodes>
            0 -1 137 2.2984318435192108e-02</internalNodes>
          <leafValues>
            -3.0164465308189392e-01 3.4528690576553345e-01</leafValues></_>
        <_>
          <internalNodes>
            0 -1 128 2.4648527614772320e-03</internalNodes>
          <leafValues>
            -2.3946408927440643e-01 4.6077778935432434e-01</leafValues></_>
        <_>
          <internalNodes>
            0 -1 170 -3.4237732179462910e-03</internalNodes>
          <leafValues>
            5.1109248399734497e-01 -1.9078063964843750e-01</leafValues></_>
        <_>
          <internalNodes>
            0 -1 147 -2.8587233828147873e-05</internalNodes>
          <leafValues>
            2.5752615928649902e-01 -3.4742718935012817e-01</leafValues></_>
        <_>
          <internalNodes>
            0 -1 211 -1.1589459609240294e-03</internalNodes>
          <leafValues>
            -7.5599163770675659e-01 1.4523667097091675e-01</leafValues></_>
        <_>
          <internalNodes>
            0 -1 218 2.6726834475994110e-03</internalNodes>
          <leafValues>
            1.2516425549983978e-01 -5.8883106708526611e-01</leafValues></_>
        <_>
          <internalNodes>
            0 -1 146 -4.6843510121107101e-02</internalNodes>
          <leafValues>
            4.4279861450195313e-01 -2.0551615953445435e-01</leafValues></_>
        <_>
          <internalNodes>
            0 -1 203 -1.4899006113409996e-02</internalNodes>
          <leafValues>
            6.4691889286041260e-01 -1.5393182635307312e-01</leafValues></_>
        <_>
          <internalNodes>
            0 -1 138 1.2035970576107502e-03</internalNodes>
          <leafValues>
            1.4021836221218109e-01 -8.2282555103302002e-01</leafValues></_>
        <_>
          <internalNodes>
            0 -1 158 -3.1502192723564804e-04</internalNodes>
          <leafValues>
            4.1390985250473022e-01 -2.0366333425045013e-01</leafValues></_>
        <_>
          <internalNodes>
            0 -1 228 -2.3383540974464267e-04</internalNodes>
          <leafValues>
            2.6729094982147217e-01 -3.3171701431274414e-01</leafValues></_>
        <_>
          <internalNodes>
            0 -1 7 -1.3079505413770676e-02</internalNodes>
          <leafValues>
            1.5574240684509277e-01 -4.5172163844108582e-01</leafValues></_>
        <_>
          <internalNodes>
            0 -1 101 -1.1387916281819344e-02</internalNodes>
          <leafValues>
            4.1302007436752319e-01 -1.9836911559104919e-01</leafValues></_>
        <_>
          <internalNodes>
            0 -1 119 5.5717434734106064e-03</internalNodes>
          <leafValues>
            -1.5495836734771729e-01 5.0550031661987305e-01</leafValues></_></weakClassifiers></_>
    <!-- stage 21 -->
    <_>
      <maxWeakCount>15</maxWeakCount>
      <stageThreshold>-1.1260843276977539e+00</stageThreshold>
      <weakClassifiers>
        <_>
          <internalNodes>
            0 -1 221 -3.1081541237654164e-05</internalNodes>
          <leafValues>
            1.4437554776668549e-01 -5.4098361730575562e-01</leafValues></_>
        <_>
          <internalNodes>
            0 -1 221 -1.3652214547619224e-03</internalNodes>
          <leafValues>
            -7.5487685203552246e-01 1.4522890746593475e-01</leafValues></_>
        <_>
          <internalNodes>
            0 -1 106 -1.5666585415601730e-02</internalNodes>
          <leafValues>
            3.8063469529151917e-01 -2.6272648572921753e-01</leafValues></_>
        <_>
          <internalNodes>
            0 -1 198 3.1419368460774422e-03</internalNodes>
          <leafValues>
            2.0607239007949829e-01 -6.1674582958221436e-01</leafValues></_>
        <_>
          <internalNodes>
            0 -1 182 -3.8803047500550747e-03</internalNodes>
          <leafValues>
            4.5267364382743835e-01 -2.3286956548690796e-01</leafValues></_>
        <_>
          <internalNodes>
            0 -1 111 7.2075333446264267e-04</internalNodes>
          <leafValues>
            1.0244855284690857e-01 -8.0944859981536865e-01</leafValues></_>
        <_>
          <internalNodes>
            0 -1 112 -5.3920440375804901e-02</internalNodes>
          <leafValues>
            3.6526551842689514e-01 -2.3836714029312134e-01</leafValues></_>
        <_>
          <internalNodes>
            0 -1 159 2.8082574717700481e-03</internalNodes>
          <leafValues>
            -1.8300619721412659e-01 5.2131122350692749e-01</leafValues></_>
        <_>
          <internalNodes>
            0 -1 210 -4.5646377839148045e-03</internalNodes>
          <leafValues>
            6.0576719045639038e-01 -1.5062426030635834e-01</leafValues></_>
        <_>
          <internalNodes>
            0 -1 110 6.2362581957131624e-05</internalNodes>
          <leafValues>
            -3.2392975687980652e-01 2.6251792907714844e-01</leafValues></_>
        <_>
          <internalNodes>
            0 -1 58 8.6172425653785467e-04</internalNodes>
          <leafValues>
            1.6448244452476501e-01 -5.9649121761322021e-01</leafValues></_>
        <_>
          <internalNodes>
            0 -1 209 -2.8579290956258774e-03</internalNodes>
          <leafValues>
            -8.0460840463638306e-01 8.7516076862812042e-02</leafValues></_>
        <_>
          <internalNodes>
            0 -1 185 3.1673412304371595e-03</internalNodes>
          <leafValues>
            -1.9977828860282898e-01 4.2755129933357239e-01</leafValues></_>
        <_>
          <internalNodes>
            0 -1 171 4.8627369105815887e-03</internalNodes>
          <leafValues>
            -1.9595849514007568e-01 4.4720131158828735e-01</leafValues></_>
        <_>
          <internalNodes>
            0 -1 206 2.2909600287675858e-02</internalNodes>
          <leafValues>
            -2.5998038053512573e-01 3.1474882364273071e-01</leafValues></_></weakClassifiers></_>
    <!-- stage 22 -->
    <_>
      <maxWeakCount>18</maxWeakCount>
      <stageThreshold>-1.1261518001556396e+00</stageThreshold>
      <weakClassifiers>
        <_>
          <internalNodes>
            0 -1 95 1.6318118199706078e-02</internalNodes>
          <leafValues>
            -3.9456421136856079e-01 3.0150067806243896e-01</leafValues></_>
        <_>
          <internalNodes>
            0 -1 217 -7.4853502155747265e-05</internalNodes>
          <leafValues>
            2.3197506368160248e-01 -3.7006866931915283e-01</leafValues></_>
        <_>
          <internalNodes>
            0 -1 99 2.2347974590957165e-03</internalNodes>
          <leafValues>
            -3.1833830475807190e-01 2.7878251671791077e-01</leafValues></_>
        <_>
          <internalNodes>
            0 -1 148 -2.9015362088102847e-05</internalNodes>
          <leafValues>
            2.2340445220470428e-01 -3.6203095316886902e-01</leafValues></_>
        <_>
          <internalNodes>
            0 -1 235 -3.8055973127484322e-03</internalNodes>
          <leafValues>
            -6.1777716875076294e-01 1.5548750758171082e-01</leafValues></_>
        <_>
          <internalNodes>
            0 -1 233 -5.8890960644930601e-04</internalNodes>
          <leafValues>
            -5.0802713632583618e-01 1.7285420000553131e-01</leafValues></_>
        <_>
          <internalNodes>
            0 -1 114 -3.4413486719131470e-03</internalNodes>
          <leafValues>
            3.1618291139602661e-01 -2.8582027554512024e-01</leafValues></_>
        <_>
          <internalNodes>
            0 -1 39 6.9746330380439758e-02</internalNodes>
          <leafValues>
            1.5608170628547668e-01 -7.7861779928207397e-01</leafValues></_>
        <_>
          <internalNodes>
            0 -1 75 -1.3500626664608717e-03</internalNodes>
          <leafValues>
            -4.1483333706855774e-01 1.7455360293388367e-01</leafValues></_>
        <_>
          <internalNodes>
            0 -1 52 8.2220984622836113e-03</internalNodes>
          <leafValues>
            -3.3697134256362915e-01 2.1850565075874329e-01</leafValues></_>
        <_>
          <internalNodes>
            0 -1 197 9.4121061265468597e-03</internalNodes>
          <leafValues>
            -1.9267594814300537e-01 5.2508980035781860e-01</leafValues></_>
        <_>
          <internalNodes>
            0 -1 91 -7.4914577417075634e-03</internalNodes>
          <leafValues>
            3.4421521425247192e-01 -3.5378301143646240e-01</leafValues></_>
        <_>
          <internalNodes>
            0 -1 6 -2.7286324184387922e-03</internalNodes>
          <leafValues>
            -5.5343449115753174e-01 1.3493680953979492e-01</leafValues></_>
        <_>
          <internalNodes>
            0 -1 139 -5.3502037189900875e-04</internalNodes>
          <leafValues>
            -6.8818199634552002e-01 1.2667262554168701e-01</leafValues></_>
        <_>
          <internalNodes>
            0 -1 88 -2.3206081241369247e-02</internalNodes>
          <leafValues>
            8.5601127147674561e-01 -1.0503347218036652e-01</leafValues></_>
        <_>
          <internalNodes>
            0 -1 19 9.5153711736202240e-03</internalNodes>
          <leafValues>
            -3.9407041668891907e-01 2.0666094124317169e-01</leafValues></_>
        <_>
          <internalNodes>
            0 -1 4 -6.7155058786738664e-05</internalNodes>
          <leafValues>
            2.3995842039585114e-01 -3.1827455759048462e-01</leafValues></_>
        <_>
          <internalNodes>
            0 -1 144 2.1082416176795959e-02</internalNodes>
          <leafValues>
            -1.5832747519016266e-01 5.5162405967712402e-01</leafValues></_></weakClassifiers></_>
    <!-- stage 23 -->
    <_>
      <maxWeakCount>16</maxWeakCount>
      <stageThreshold>-1.1103578805923462e+00</stageThreshold>
      <weakClassifiers>
        <_>
          <internalNodes>
            0 -1 69 1.3178240507841110e-02</internalNodes>
          <leafValues>
            -3.2362458109855652e-01 3.5460993647575378e-01</leafValues></_>
        <_>
          <internalNodes>
            0 -1 204 -8.7796442676335573e-04</internalNodes>
          <leafValues>
            -5.8700639009475708e-01 1.4588053524494171e-01</leafValues></_>
        <_>
          <internalNodes>
            0 -1 125 -7.2014814941212535e-04</internalNodes>
          <leafValues>
            -4.8886090517044067e-01 1.5694394707679749e-01</leafValues></_>
        <_>
          <internalNodes>
            0 -1 165 -5.4819229990243912e-04</internalNodes>
          <leafValues>
            2.9491457343101501e-01 -2.7287980914115906e-01</leafValues></_>
        <_>
          <internalNodes>
            0 -1 104 -1.2353444471955299e-03</internalNodes>
          <leafValues>
            4.2678406834602356e-01 -1.9322161376476288e-01</leafValues></_>
        <_>
          <internalNodes>
            0 -1 80 -2.6979621499776840e-02</internalNodes>
          <leafValues>
            5.8882492780685425e-01 -1.7550106346607208e-01</leafValues></_>
        <_>
          <internalNodes>
            0 -1 74 7.0110778324306011e-04</internalNodes>
          <leafValues>
            -3.4009891748428345e-01 2.9521900415420532e-01</leafValues></_>
        <_>
          <internalNodes>
            0 -1 81 -1.2258242350071669e-03</internalNodes>
          <leafValues>
            4.5599463582038879e-01 -1.7182721197605133e-01</leafValues></_>
        <_>
          <internalNodes>
            0 -1 120 1.4021361130289733e-04</internalNodes>
          <leafValues>
            -2.8391221165657043e-01 2.9929599165916443e-01</leafValues></_>
        <_>
          <internalNodes>
            0 -1 141 5.7020680978894234e-03</internalNodes>
          <leafValues>
            1.6048510372638702e-01 -6.7925351858139038e-01</leafValues></_>
        <_>
          <internalNodes>
            0 -1 172 2.1466296166181564e-03</internalNodes>
          <leafValues>
            -2.1456940472126007e-01 4.2968785762786865e-01</leafValues></_>
        <_>
          <internalNodes>
            0 -1 86 1.9622560590505600e-02</internalNodes>
          <leafValues>
            -3.0601593852043152e-01 2.7494987845420837e-01</leafValues></_>
        <_>
          <internalNodes>
            0 -1 93 1.8348796584177762e-04</internalNodes>
          <leafValues>
            -3.5763171315193176e-01 2.3657435178756714e-01</leafValues></_>
        <_>
          <internalNodes>
            0 -1 188 1.2811442837119102e-02</internalNodes>
          <leafValues>
            -1.6887968778610229e-01 5.0962740182876587e-01</leafValues></_>
        <_>
          <internalNodes>
            0 -1 41 -2.2855158895254135e-03</internalNodes>
          <leafValues>
            -6.3472598791122437e-01 1.3039538264274597e-01</leafValues></_>
        <_>
          <internalNodes>
            0 -1 134 5.6776357814669609e-04</internalNodes>
          <leafValues>
            -3.7445253133773804e-01 2.0117196440696716e-01</leafValues></_></weakClassifiers></_>
    <!-- stage 24 -->
    <_>
      <maxWeakCount>22</maxWeakCount>
      <stageThreshold>-1.2441105842590332e+00</stageThreshold>
      <weakClassifiers>
        <_>
          <internalNodes>
            0 -1 67 1.7816273029893637e-03</internalNodes>
          <leafValues>
            6.7068576812744141e-02 -6.1099368333816528e-01</leafValues></_>
        <_>
          <internalNodes>
            0 -1 79 3.1207688152790070e-03</internalNodes>
          <leafValues>
            -2.8520539402961731e-01 3.1688320636749268e-01</leafValues></_>
        <_>
          <internalNodes>
            0 -1 41 9.2912872787564993e-04</internalNodes>
          <leafValues>
            1.1618296056985855e-01 -7.1660190820693970e-01</leafValues></_>
        <_>
          <internalNodes>
            0 -1 27 6.6548595204949379e-03</internalNodes>
          <leafValues>
            -2.4082534015178680e-01 3.2305669784545898e-01</leafValues></_>
        <_>
          <internalNodes>
            0 -1 30 5.2841030061244965e-02</internalNodes>
          <leafValues>
            7.6113857328891754e-02 -8.4439599514007568e-01</leafValues></_>
        <_>
          <internalNodes>
            0 -1 29 -1.4746673405170441e-02</internalNodes>
          <leafValues>
            -7.7184861898422241e-01 9.5522820949554443e-02</leafValues></_>
        <_>
          <internalNodes>
            0 -1 124 4.1353991255164146e-03</internalNodes>
          <leafValues>
            7.8068122267723083e-02 -7.8457987308502197e-01</leafValues></_>
        <_>
          <internalNodes>
            0 -1 113 1.0819440707564354e-02</internalNodes>
          <leafValues>
            -2.3755648732185364e-01 3.4733903408050537e-01</leafValues></_>
        <_>
          <internalNodes>
            0 -1 140 -1.6417089849710464e-02</internalNodes>
          <leafValues>
            5.5787682533264160e-01 -1.4102639257907867e-01</leafValues></_>
        <_>
          <internalNodes>
            0 -1 224 5.7250296231359243e-04</internalNodes>
          <leafValues>
            1.2027402967214584e-01 -6.8127876520156860e-01</leafValues></_>
        <_>
          <internalNodes>
            0 -1 116 5.0808522850275040e-02</internalNodes>
          <leafValues>
            5.7293720543384552e-02 -9.3151104450225830e-01</leafValues></_>
        <_>
          <internalNodes>
            0 -1 115 3.4558312036097050e-03</internalNodes>
          <leafValues>
            -1.7600201070308685e-01 4.2447939515113831e-01</leafValues></_>
        <_>
          <internalNodes>
            0 -1 184 -7.0325576234608889e-04</internalNodes>
          <leafValues>
            4.1178655624389648e-01 -1.5732103586196899e-01</leafValues></_>
        <_>
          <internalNodes>
            0 -1 219 3.1001170282252133e-04</internalNodes>
          <leafValues>
            8.7876282632350922e-02 -7.0522046089172363e-01</leafValues></_>
        <_>
          <internalNodes>
            0 -1 92 -2.0804719533771276e-03</internalNodes>
          <leafValues>
            -8.7158232927322388e-01 5.7211995124816895e-02</leafValues></_>
        <_>
          <internalNodes>
            0 -1 48 -1.1072428897023201e-02</internalNodes>
          <leafValues>
            2.7120596170425415e-01 -2.3776111006736755e-01</leafValues></_>
        <_>
          <internalNodes>
            0 -1 50 -1.3874884461984038e-04</internalNodes>
          <leafValues>
            2.2024650871753693e-01 -3.7150856852531433e-01</leafValues></_>
        <_>
          <internalNodes>
            0 -1 181 -2.7905569877475500e-03</internalNodes>
          <leafValues>
            5.6067782640457153e-01 -1.3077867031097412e-01</leafValues></_>
        <_>
          <internalNodes>
            0 -1 150 1.5343226492404938e-02</internalNodes>
          <leafValues>
            -3.9196276664733887e-01 2.7433389425277710e-01</leafValues></_>
        <_>
          <internalNodes>
            0 -1 152 -9.8336243536323309e-04</internalNodes>
          <leafValues>
            3.7439370155334473e-01 -2.0753587782382965e-01</leafValues></_>
        <_>
          <internalNodes>
            0 -1 229 -2.8774715028703213e-03</internalNodes>
          <leafValues>
            5.9722411632537842e-01 -9.7302451729774475e-02</leafValues></_>
        <_>
          <internalNodes>
            0 -1 164 -3.7038318812847137e-02</internalNodes>
          <leafValues>
            4.2325472831726074e-01 -1.6748963296413422e-01</leafValues></_></weakClassifiers></_></stages>
  <features>
    <_>
      <rects>
        <_>
          0 0 3 10 -1.</_>
        <_>
          0 5 3 5 2.</_></rects>
      <tilted>0</tilted></_>
    <_>
      <rects>
        <_>
          0 0 12 16 -1.</_>
        <_>
          0 0 6 8 2.</_>
        <_>
          6 8 6 8 2.</_></rects>
      <tilted>0</tilted></_>
    <_>
      <rects>
        <_>
          0 0 20 1 -1.</_>
        <_>
          10 0 10 1 2.</_></rects>
      <tilted>0</tilted></_>
    <_>
      <rects>
        <_>
          0 1 1 18 -1.</_>
        <_>
          0 7 1 6 3.</_></rects>
      <tilted>0</tilted></_>
    <_>
      <rects>
        <_>
          0 1 12 2 -1.</_>
        <_>
          0 2 12 1 2.</_></rects>
      <tilted>0</tilted></_>
    <_>
      <rects>
        <_>
          0 2 3 6 -1.</_>
        <_>
          0 4 3 2 3.</_></rects>
      <tilted>0</tilted></_>
    <_>
      <rects>
        <_>
          0 3 8 9 -1.</_>
        <_>
          0 6 8 3 3.</_></rects>
      <tilted>0</tilted></_>
    <_>
      <rects>
        <_>
          0 3 23 18 -1.</_>
        <_>
          0 9 23 6 3.</_></rects>
      <tilted>0</tilted></_>
    <_>
      <rects>
        <_>
          0 4 4 18 -1.</_>
        <_>
          2 4 2 18 2.</_></rects>
      <tilted>0</tilted></_>
    <_>
      <rects>
        <_>
          0 5 2 4 -1.</_>
        <_>
          0 7 2 2 2.</_></rects>
      <tilted>0</tilted></_>
    <_>
      <rects>
        <_>
          0 6 1 2 -1.</_>
        <_>
          0 7 1 1 2.</_></rects>
      <tilted>0</tilted></_>
    <_>
      <rects>
        <_>
          0 6 1 3 -1.</_>
        <_>
          0 7 1 1 3.</_></rects>
      <tilted>0</tilted></_>
    <_>
      <rects>
        <_>
          0 6 2 2 -1.</_>
        <_>
          0 6 1 1 2.</_>
        <_>
          1 7 1 1 2.</_></rects>
      <tilted>0</tilted></_>
    <_>
      <rects>
        <_>
          0 6 1 9 -1.</_>
        <_>
          0 9 1 3 3.</_></rects>
      <tilted>0</tilted></_>
    <_>
      <rects>
        <_>
          0 6 4 2 -1.</_>
        <_>
          0 6 2 1 2.</_>
        <_>
          2 7 2 1 2.</_></rects>
      <tilted>0</tilted></_>
    <_>
      <rects>
        <_>
          0 7 1 2 -1.</_>
        <_>
          0 8 1 1 2.</_></rects>
      <tilted>0</tilted></_>
    <_>
      <rects>
        <_>
          0 7 2 2 -1.</_>
        <_>
          0 8 2 1 2.</_></rects>
      <tilted>0</tilted></_>
    <_>
      <rects>
        <_>
          0 7 8 14 -1.</_>
        <_>
          0 7 4 7 2.</_>
        <_>
          4 14 4 7 2.</_></rects>
      <tilted>0</tilted></_>
    <_>
      <rects>
        <_>
          0 8 2 6 -1.</_>
        <_>
          0 11 2 3 2.</_></rects>
      <tilted>0</tilted></_>
    <_>
      <rects>
        <_>
          0 8 12 16 -1.</_>
        <_>
          4 8 4 16 3.</_></rects>
      <tilted>0</tilted></_>
    <_>
      <rects>
        <_>
          0 8 24 9 -1.</_>
        <_>
          0 11 24 3 3.</_></rects>
      <tilted>0</tilted></_>
    <_>
      <rects>
        <_>
          0 9 2 8 -1.</_>
        <_>
          0 13 2 4 2.</_></rects>
      <tilted>0</tilted></_>
    <_>
      <rects>
        <_>
          0 9 10 12 -1.</_>
        <_>
          0 9 5 6 2.</_>
        <_>
          5 15 5 6 2.</_></rects>
      <tilted>0</tilted></_>
    <_>
      <rects>
        <_>
          0 10 1 2 -1.</_>
        <_>
          0 11 1 1 2.</_></rects>
      <tilted>0</tilted></_>
    <_>
      <rects>
        <_>
          0 11 1 6 -1.</_>
        <_>
          0 13 1 2 3.</_></rects>
      <tilted>0</tilted></_>
    <_>
      <rects>
        <_>
          0 11 18 10 -1.</_>
        <_>
          0 16 18 5 2.</_></rects>
      <tilted>0</tilted></_>
    <_>
      <rects>
        <_>
          0 12 4 2 -1.</_>
        <_>
          0 12 2 1 2.</_>
        <_>
          2 13 2 1 2.</_></rects>
      <tilted>0</tilted></_>
    <_>
      <rects>
        <_>
          0 12 4 12 -1.</_>
        <_>
          2 12 2 12 2.</_></rects>
      <tilted>0</tilted></_>
    <_>
      <rects>
        <_>
          0 12 10 7 -1.</_>
        <_>
          5 12 5 7 2.</_></rects>
      <tilted>0</tilted></_>
    <_>
      <rects>
        <_>
          0 13 19 4 -1.</_>
        <_>
          0 15 19 2 2.</_></rects>
      <tilted>0</tilted></_>
    <_>
      <rects>
        <_>
          0 13 22 6 -1.</_>
        <_>
          0 16 22 3 2.</_></rects>
      <tilted>0</tilted></_>
    <_>
      <rects>
        <_>
          0 16 11 6 -1.</_>
        <_>
          0 19 11 3 2.</_></rects>
      <tilted>0</tilted></_>
    <_>
      <rects>
        <_>
          0 19 6 1 -1.</_>
        <_>
          2 19 2 1 3.</_></rects>
      <tilted>0</tilted></_>
    <_>
      <rects>
        <_>
          0 22 2 1 -1.</_>
        <_>
          1 22 1 1 2.</_></rects>
      <tilted>0</tilted></_>
    <_>
      <rects>
        <_>
          0 22 7 2 -1.</_>
        <_>
          0 23 7 1 2.</_></rects>
      <tilted>0</tilted></_>
    <_>
      <rects>
        <_>
          1 0 15 1 -1.</_>
        <_>
          6 0 5 1 3.</_></rects>
      <tilted>0</tilted></_>
    <_>
      <rects>
        <_>
          1 0 18 1 -1.</_>
        <_>
          7 0 6 1 3.</_></rects>
      <tilted>0</tilted></_>
    <_>
      <rects>
        <_>
          1 1 2 1 -1.</_>
        <_>
          2 1 1 1 2.</_></rects>
      <tilted>0</tilted></_>
    <_>
      <rects>
        <_>
          1 1 1 8 -1.</_>
        <_>
          1 5 1 4 2.</_></rects>
      <tilted>0</tilted></_>
    <_>
      <rects>
        <_>
          1 1 20 21 -1.</_>
        <_>
          1 8 20 7 3.</_></rects>
      <tilted>0</tilted></_>
    <_>
      <rects>
        <_>
          1 2 1 4 -1.</_>
        <_>
          1 4 1 2 2.</_></rects>
      <tilted>0</tilted></_>
    <_>
      <rects>
        <_>
          1 2 2 6 -1.</_>
        <_>
          1 5 2 3 2.</_></rects>
      <tilted>0</tilted></_>
    <_>
      <rects>
        <_>
          1 2 14 18 -1.</_>
        <_>
          1 2 7 9 2.</_>
        <_>
          8 11 7 9 2.</_></rects>
      <tilted>0</tilted></_>
    <_>
      <rects>
        <_>
          1 3 2 4 -1.</_>
        <_>
          1 3 1 2 2.</_>
        <_>
          2 5 1 2 2.</_></rects>
      <tilted>0</tilted></_>
    <_>
      <rects>
        <_>
          1 4 3 2 -1.</_>
        <_>
          1 5 3 1 2.</_></rects>
      <tilted>0</tilted></_>
    <_>
      <rects>
        <_>
          1 5 4 4 -1.</_>
        <_>
          1 5 2 2 2.</_>
        <_>
          3 7 2 2 2.</_></rects>
      <tilted>0</tilted></_>
    <_>
      <rects>
        <_>
          1 7 1 6 -1.</_>
        <_>
          1 10 1 3 2.</_></rects>
      <tilted>0</tilted></_>
    <_>
      <rects>
        <_>
          1 8 1 6 -1.</_>
        <_>
          1 10 1 2 3.</_></rects>
      <tilted>0</tilted></_>
    <_>
      <rects>
        <_>
          1 9 16 6 -1.</_>
        <_>
          1 9 8 3 2.</_>
        <_>
          9 12 8 3 2.</_></rects>
      <tilted>0</tilted></_>
    <_>
      <rects>
        <_>
          1 10 1 6 -1.</_>
        <_>
          1 13 1 3 2.</_></rects>
      <tilted>0</tilted></_>
    <_>
      <rects>
        <_>
          1 10 3 4 -1.</_>
        <_>
          1 12 3 2 2.</_></rects>
      <tilted>0</tilted></_>
    <_>
      <rects>
        <_>
          1 16 12 1 -1.</_>
        <_>
          5 16 4 1 3.</_></rects>
      <tilted>0</tilted></_>
    <_>
      <rects>
        <_>
          1 17 9 6 -1.</_>
        <_>
          1 20 9 3 2.</_></rects>
      <tilted>0</tilted></_>
    <_>
      <rects>
        <_>
          1 18 20 6 -1.</_>
        <_>
          1 21 20 3 2.</_></rects>
      <tilted>0</tilted></_>
    <_>
      <rects>
        <_>
          1 18 23 6 -1.</_>
        <_>
          1 21 23 3 2.</_></rects>
      <tilted>0</tilted></_>
    <_>
      <rects>
        <_>
          2 0 1 10 -1.</_>
        <_>
          2 5 1 5 2.</_></rects>
      <tilted>0</tilted></_>
    <_>
      <rects>
        <_>
          2 0 8 1 -1.</_>
        <_>
          6 0 4 1 2.</_></rects>
      <tilted>0</tilted></_>
    <_>
      <rects>
        <_>
          2 0 17 12 -1.</_>
        <_>
          2 6 17 6 2.</_></rects>
      <tilted>0</tilted></_>
    <_>
      <rects>
        <_>
          2 3 2 8 -1.</_>
        <_>
          3 3 1 8 2.</_></rects>
      <tilted>0</tilted></_>
    <_>
      <rects>
        <_>
          2 4 1 4 -1.</_>
        <_>
          2 6 1 2 2.</_></rects>
      <tilted>0</tilted></_>
    <_>
      <rects>
        <_>
          2 7 12 11 -1.</_>
        <_>
          6 7 4 11 3.</_></rects>
      <tilted>0</tilted></_>
    <_>
      <rects>
        <_>
          2 9 2 3 -1.</_>
        <_>
          3 9 1 3 2.</_></rects>
      <tilted>0</tilted></_>
    <_>
      <rects>
        <_>
          2 9 18 10 -1.</_>
        <_>
          8 9 6 10 3.</_></rects>
      <tilted>0</tilted></_>
    <_>
      <rects>
        <_>
          2 9 14 12 -1.</_>
        <_>
          2 9 7 6 2.</_>
        <_>
          9 15 7 6 2.</_></rects>
      <tilted>0</tilted></_>
    <_>
      <rects>
        <_>
          2 15 6 6 -1.</_>
        <_>
          2 15 3 3 2.</_>
        <_>
          5 18 3 3 2.</_></rects>
      <tilted>0</tilted></_>
    <_>
      <rects>
        <_>
          2 16 10 8 -1.</_>
        <_>
          2 20 10 4 2.</_></rects>
      <tilted>0</tilted></_>
    <_>
      <rects>
        <_>
          2 20 22 4 -1.</_>
        <_>
          2 22 22 2 2.</_></rects>
      <tilted>0</tilted></_>
    <_>
      <rects>
        <_>
          3 0 15 1 -1.</_>
        <_>
          8 0 5 1 3.</_></rects>
      <tilted>0</tilted></_>
    <_>
      <rects>
        <_>
          3 0 14 1 -1.</_>
        <_>
          10 0 7 1 2.</_></rects>
      <tilted>0</tilted></_>
    <_>
      <rects>
        <_>
          3 1 14 6 -1.</_>
        <_>
          3 3 14 2 3.</_></rects>
      <tilted>0</tilted></_>
    <_>
      <rects>
        <_>
          3 4 16 2 -1.</_>
        <_>
          3 4 8 1 2.</_>
        <_>
          11 5 8 1 2.</_></rects>
      <tilted>0</tilted></_>
    <_>
      <rects>
        <_>
          3 15 12 5 -1.</_>
        <_>
          9 15 6 5 2.</_></rects>
      <tilted>0</tilted></_>
    <_>
      <rects>
        <_>
          3 16 6 8 -1.</_>
        <_>
          3 16 3 4 2.</_>
        <_>
          6 20 3 4 2.</_></rects>
      <tilted>0</tilted></_>
    <_>
      <rects>
        <_>
          3 18 14 6 -1.</_>
        <_>
          3 21 14 3 2.</_></rects>
      <tilted>0</tilted></_>
    <_>
      <rects>
        <_>
          3 21 4 3 -1.</_>
        <_>
          5 21 2 3 2.</_></rects>
      <tilted>0</tilted></_>
    <_>
      <rects>
        <_>
          3 23 16 1 -1.</_>
        <_>
          11 23 8 1 2.</_></rects>
      <tilted>0</tilted></_>
    <_>
      <rects>
        <_>
          4 0 4 24 -1.</_>
        <_>
          4 0 2 12 2.</_>
        <_>
          6 12 2 12 2.</_></rects>
      <tilted>0</tilted></_>
    <_>
      <rects>
        <_>
          4 2 7 10 -1.</_>
        <_>
          4 7 7 5 2.</_></rects>
      <tilted>0</tilted></_>
    <_>
      <rects>
        <_>
          4 3 9 15 -1.</_>
        <_>
          7 3 3 15 3.</_></rects>
      <tilted>0</tilted></_>
    <_>
      <rects>
        <_>
          4 7 13 6 -1.</_>
        <_>
          4 9 13 2 3.</_></rects>
      <tilted>0</tilted></_>
    <_>
      <rects>
        <_>
          4 11 6 10 -1.</_>
        <_>
          4 11 3 5 2.</_>
        <_>
          7 16 3 5 2.</_></rects>
      <tilted>0</tilted></_>
    <_>
      <rects>
        <_>
          4 14 6 1 -1.</_>
        <_>
          6 14 2 1 3.</_></rects>
      <tilted>0</tilted></_>
    <_>
      <rects>
        <_>
          4 15 17 9 -1.</_>
        <_>
          4 18 17 3 3.</_></rects>
      <tilted>0</tilted></_>
    <_>
      <rects>
        <_>
          4 16 6 1 -1.</_>
        <_>
          7 16 3 1 2.</_></rects>
      <tilted>0</tilted></_>
    <_>
      <rects>
        <_>
          4 22 12 2 -1.</_>
        <_>
          10 22 6 2 2.</_></rects>
      <tilted>0</tilted></_>
    <_>
      <rects>
        <_>
          5 1 9 6 -1.</_>
        <_>
          5 3 9 2 3.</_></rects>
      <tilted>0</tilted></_>
    <_>
      <rects>
        <_>
          5 2 9 15 -1.</_>
        <_>
          8 2 3 15 3.</_></rects>
      <tilted>0</tilted></_>
    <_>
      <rects>
        <_>
          5 4 9 11 -1.</_>
        <_>
          8 4 3 11 3.</_></rects>
      <tilted>0</tilted></_>
    <_>
      <rects>
        <_>
          5 5 6 5 -1.</_>
        <_>
          7 5 2 5 3.</_></rects>
      <tilted>0</tilted></_>
    <_>
      <rects>
        <_>
          5 13 6 1 -1.</_>
        <_>
          7 13 2 1 3.</_></rects>
      <tilted>0</tilted></_>
    <_>
      <rects>
        <_>
          5 13 6 6 -1.</_>
        <_>
          5 13 3 3 2.</_>
        <_>
          8 16 3 3 2.</_></rects>
      <tilted>0</tilted></_>
    <_>
      <rects>
        <_>
          5 13 12 2 -1.</_>
        <_>
          11 13 6 2 2.</_></rects>
      <tilted>0</tilted></_>
    <_>
      <rects>
        <_>
          5 22 2 2 -1.</_>
        <_>
          5 23 2 1 2.</_></rects>
      <tilted>0</tilted></_>
    <_>
      <rects>
        <_>
          5 22 10 2 -1.</_>
        <_>
          10 22 5 2 2.</_></rects>
      <tilted>0</tilted></_>
    <_>
      <rects>
        <_>
          5 23 12 1 -1.</_>
        <_>
          11 23 6 1 2.</_></rects>
      <tilted>0</tilted></_>
    <_>
      <rects>
        <_>
          6 0 12 9 -1.</_>
        <_>
          6 3 12 3 3.</_></rects>
      <tilted>0</tilted></_>
    <_>
      <rects>
        <_>
          6 0 13 9 -1.</_>
        <_>
          6 3 13 3 3.</_></rects>
      <tilted>0</tilted></_>
    <_>
      <rects>
        <_>
          6 6 8 13 -1.</_>
        <_>
          10 6 4 13 2.</_></rects>
      <tilted>0</tilted></_>
    <_>
      <rects>
        <_>
          6 6 8 15 -1.</_>
        <_>
          10 6 4 15 2.</_></rects>
      <tilted>0</tilted></_>
    <_>
      <rects>
        <_>
          6 6 10 6 -1.</_>
        <_>
          6 8 10 2 3.</_></rects>
      <tilted>0</tilted></_>
    <_>
      <rects>
        <_>
          6 9 1 12 -1.</_>
        <_>
          6 15 1 6 2.</_></rects>
      <tilted>0</tilted></_>
    <_>
      <rects>
        <_>
          6 10 4 10 -1.</_>
        <_>
          6 10 2 5 2.</_>
        <_>
          8 15 2 5 2.</_></rects>
      <tilted>0</tilted></_>
    <_>
      <rects>
        <_>
          6 10 10 8 -1.</_>
        <_>
          11 10 5 8 2.</_></rects>
      <tilted>0</tilted></_>
    <_>
      <rects>
        <_>
          6 11 2 6 -1.</_>
        <_>
          6 11 1 3 2.</_>
        <_>
          7 14 1 3 2.</_></rects>
      <tilted>0</tilted></_>
    <_>
      <rects>
        <_>
          6 13 6 1 -1.</_>
        <_>
          8 13 2 1 3.</_></rects>
      <tilted>0</tilted></_>
    <_>
      <rects>
        <_>
          6 17 2 2 -1.</_>
        <_>
          6 17 1 1 2.</_>
        <_>
          7 18 1 1 2.</_></rects>
      <tilted>0</tilted></_>
    <_>
      <rects>
        <_>
          6 18 13 6 -1.</_>
        <_>
          6 20 13 2 3.</_></rects>
      <tilted>0</tilted></_>
    <_>
      <rects>
        <_>
          6 18 15 6 -1.</_>
        <_>
          6 21 15 3 2.</_></rects>
      <tilted>0</tilted></_>
    <_>
      <rects>
        <_>
          6 18 17 6 -1.</_>
        <_>
          6 21 17 3 2.</_></rects>
      <tilted>0</tilted></_>
    <_>
      <rects>
        <_>
          6 21 2 2 -1.</_>
        <_>
          7 21 1 2 2.</_></rects>
      <tilted>0</tilted></_>
    <_>
      <rects>
        <_>
          6 22 2 2 -1.</_>
        <_>
          7 22 1 2 2.</_></rects>
      <tilted>0</tilted></_>
    <_>
      <rects>
        <_>
          6 23 3 1 -1.</_>
        <_>
          7 23 1 1 3.</_></rects>
      <tilted>0</tilted></_>
    <_>
      <rects>
        <_>
          7 1 6 19 -1.</_>
        <_>
          10 1 3 19 2.</_></rects>
      <tilted>0</tilted></_>
    <_>
      <rects>
        <_>
          7 2 15 3 -1.</_>
        <_>
          12 2 5 3 3.</_></rects>
      <tilted>0</tilted></_>
    <_>
      <rects>
        <_>
          7 2 11 6 -1.</_>
        <_>
          7 4 11 2 3.</_></rects>
      <tilted>0</tilted></_>
    <_>
      <rects>
        <_>
          7 3 14 2 -1.</_>
        <_>
          7 3 7 1 2.</_>
        <_>
          14 4 7 1 2.</_></rects>
      <tilted>0</tilted></_>
    <_>
      <rects>
        <_>
          7 5 14 9 -1.</_>
        <_>
          7 8 14 3 3.</_></rects>
      <tilted>0</tilted></_>
    <_>
      <rects>
        <_>
          7 6 8 16 -1.</_>
        <_>
          7 6 4 8 2.</_>
        <_>
          11 14 4 8 2.</_></rects>
      <tilted>0</tilted></_>
    <_>
      <rects>
        <_>
          7 7 15 5 -1.</_>
        <_>
          12 7 5 5 3.</_></rects>
      <tilted>0</tilted></_>
    <_>
      <rects>
        <_>
          7 10 4 8 -1.</_>
        <_>
          7 10 2 4 2.</_>
        <_>
          9 14 2 4 2.</_></rects>
      <tilted>0</tilted></_>
    <_>
      <rects>
        <_>
          7 14 4 2 -1.</_>
        <_>
          7 14 2 1 2.</_>
        <_>
          9 15 2 1 2.</_></rects>
      <tilted>0</tilted></_>
    <_>
      <rects>
        <_>
          7 18 2 1 -1.</_>
        <_>
          8 18 1 1 2.</_></rects>
      <tilted>0</tilted></_>
    <_>
      <rects>
        <_>
          7 20 10 4 -1.</_>
        <_>
          7 22 10 2 2.</_></rects>
      <tilted>0</tilted></_>
    <_>
      <rects>
        <_>
          7 21 3 3 -1.</_>
        <_>
          8 21 1 3 3.</_></rects>
      <tilted>0</tilted></_>
    <_>
      <rects>
        <_>
          8 0 8 1 -1.</_>
        <_>
          12 0 4 1 2.</_></rects>
      <tilted>0</tilted></_>
    <_>
      <rects>
        <_>
          8 0 12 1 -1.</_>
        <_>
          12 0 4 1 3.</_></rects>
      <tilted>0</tilted></_>
    <_>
      <rects>
        <_>
          8 1 12 19 -1.</_>
        <_>
          12 1 4 19 3.</_></rects>
      <tilted>0</tilted></_>
    <_>
      <rects>
        <_>
          8 2 8 2 -1.</_>
        <_>
          8 2 4 1 2.</_>
        <_>
          12 3 4 1 2.</_></rects>
      <tilted>0</tilted></_>
    <_>
      <rects>
        <_>
          8 2 8 4 -1.</_>
        <_>
          8 2 4 2 2.</_>
        <_>
          12 4 4 2 2.</_></rects>
      <tilted>0</tilted></_>
    <_>
      <rects>
        <_>
          8 4 12 12 -1.</_>
        <_>
          12 4 4 12 3.</_></rects>
      <tilted>0</tilted></_>
    <_>
      <rects>
        <_>
          8 6 6 13 -1.</_>
        <_>
          11 6 3 13 2.</_></rects>
      <tilted>0</tilted></_>
    <_>
      <rects>
        <_>
          8 7 6 12 -1.</_>
        <_>
          11 7 3 12 2.</_></rects>
      <tilted>0</tilted></_>
    <_>
      <rects>
        <_>
          8 14 3 1 -1.</_>
        <_>
          9 14 1 1 3.</_></rects>
      <tilted>0</tilted></_>
    <_>
      <rects>
        <_>
          8 18 2 1 -1.</_>
        <_>
          9 18 1 1 2.</_></rects>
      <tilted>0</tilted></_>
    <_>
      <rects>
        <_>
          8 18 1 6 -1.</_>
        <_>
          8 21 1 3 2.</_></rects>
      <tilted>0</tilted></_>
    <_>
      <rects>
        <_>
          8 18 9 6 -1.</_>
        <_>
          8 21 9 3 2.</_></rects>
      <tilted>0</tilted></_>
    <_>
      <rects>
        <_>
          8 18 10 6 -1.</_>
        <_>
          8 21 10 3 2.</_></rects>
      <tilted>0</tilted></_>
    <_>
      <rects>
        <_>
          8 19 8 4 -1.</_>
        <_>
          8 21 8 2 2.</_></rects>
      <tilted>0</tilted></_>
    <_>
      <rects>
        <_>
          8 22 3 2 -1.</_>
        <_>
          9 22 1 2 3.</_></rects>
      <tilted>0</tilted></_>
    <_>
      <rects>
        <_>
          8 23 3 1 -1.</_>
        <_>
          9 23 1 1 3.</_></rects>
      <tilted>0</tilted></_>
    <_>
      <rects>
        <_>
          9 0 6 6 -1.</_>
        <_>
          9 0 3 3 2.</_>
        <_>
          12 3 3 3 2.</_></rects>
      <tilted>0</tilted></_>
    <_>
      <rects>
        <_>
          9 0 15 1 -1.</_>
        <_>
          14 0 5 1 3.</_></rects>
      <tilted>0</tilted></_>
    <_>
      <rects>
        <_>
          9 2 4 16 -1.</_>
        <_>
          11 2 2 16 2.</_></rects>
      <tilted>0</tilted></_>
    <_>
      <rects>
        <_>
          9 2 9 16 -1.</_>
        <_>
          12 2 3 16 3.</_></rects>
      <tilted>0</tilted></_>
    <_>
      <rects>
        <_>
          9 4 6 15 -1.</_>
        <_>
          11 4 2 15 3.</_></rects>
      <tilted>0</tilted></_>
    <_>
      <rects>
        <_>
          9 4 13 20 -1.</_>
        <_>
          9 14 13 10 2.</_></rects>
      <tilted>0</tilted></_>
    <_>
      <rects>
        <_>
          9 10 12 6 -1.</_>
        <_>
          15 10 6 6 2.</_></rects>
      <tilted>0</tilted></_>
    <_>
      <rects>
        <_>
          9 15 3 1 -1.</_>
        <_>
          10 15 1 1 3.</_></rects>
      <tilted>0</tilted></_>
    <_>
      <rects>
        <_>
          9 18 2 2 -1.</_>
        <_>
          10 18 1 2 2.</_></rects>
      <tilted>0</tilted></_>
    <_>
      <rects>
        <_>
          9 18 8 6 -1.</_>
        <_>
          9 21 8 3 2.</_></rects>
      <tilted>0</tilted></_>
    <_>
      <rects>
        <_>
          9 20 15 4 -1.</_>
        <_>
          9 22 15 2 2.</_></rects>
      <tilted>0</tilted></_>
    <_>
      <rects>
        <_>
          9 21 8 2 -1.</_>
        <_>
          9 22 8 1 2.</_></rects>
      <tilted>0</tilted></_>
    <_>
      <rects>
        <_>
          9 22 7 2 -1.</_>
        <_>
          9 23 7 1 2.</_></rects>
      <tilted>0</tilted></_>
    <_>
      <rects>
        <_>
          9 23 2 1 -1.</_>
        <_>
          10 23 1 1 2.</_></rects>
      <tilted>0</tilted></_>
    <_>
      <rects>
        <_>
          10 0 9 1 -1.</_>
        <_>
          13 0 3 1 3.</_></rects>
      <tilted>0</tilted></_>
    <_>
      <rects>
        <_>
          10 1 7 22 -1.</_>
        <_>
          10 12 7 11 2.</_></rects>
      <tilted>0</tilted></_>
    <_>
      <rects>
        <_>
          10 1 14 22 -1.</_>
        <_>
          10 12 14 11 2.</_></rects>
      <tilted>0</tilted></_>
    <_>
      <rects>
        <_>
          10 2 8 4 -1.</_>
        <_>
          10 2 4 2 2.</_>
        <_>
          14 4 4 2 2.</_></rects>
      <tilted>0</tilted></_>
    <_>
      <rects>
        <_>
          10 3 2 2 -1.</_>
        <_>
          10 3 1 1 2.</_>
        <_>
          11 4 1 1 2.</_></rects>
      <tilted>0</tilted></_>
    <_>
      <rects>
        <_>
          10 3 3 6 -1.</_>
        <_>
          11 3 1 6 3.</_></rects>
      <tilted>0</tilted></_>
    <_>
      <rects>
        <_>
          10 3 6 2 -1.</_>
        <_>
          10 3 3 1 2.</_>
        <_>
          13 4 3 1 2.</_></rects>
      <tilted>0</tilted></_>
    <_>
      <rects>
        <_>
          10 3 8 2 -1.</_>
        <_>
          10 3 4 1 2.</_>
        <_>
          14 4 4 1 2.</_></rects>
      <tilted>0</tilted></_>
    <_>
      <rects>
        <_>
          10 4 6 9 -1.</_>
        <_>
          12 4 2 9 3.</_></rects>
      <tilted>0</tilted></_>
    <_>
      <rects>
        <_>
          10 4 6 4 -1.</_>
        <_>
          10 4 3 2 2.</_>
        <_>
          13 6 3 2 2.</_></rects>
      <tilted>0</tilted></_>
    <_>
      <rects>
        <_>
          10 10 10 8 -1.</_>
        <_>
          15 10 5 8 2.</_></rects>
      <tilted>0</tilted></_>
    <_>
      <rects>
        <_>
          10 13 3 5 -1.</_>
        <_>
          11 13 1 5 3.</_></rects>
      <tilted>0</tilted></_>
    <_>
      <rects>
        <_>
          10 18 5 6 -1.</_>
        <_>
          10 21 5 3 2.</_></rects>
      <tilted>0</tilted></_>
    <_>
      <rects>
        <_>
          10 18 7 6 -1.</_>
        <_>
          10 21 7 3 2.</_></rects>
      <tilted>0</tilted></_>
    <_>
      <rects>
        <_>
          10 19 5 4 -1.</_>
        <_>
          10 21 5 2 2.</_></rects>
      <tilted>0</tilted></_>
    <_>
      <rects>
        <_>
          10 23 3 1 -1.</_>
        <_>
          11 23 1 1 3.</_></rects>
      <tilted>0</tilted></_>
    <_>
      <rects>
        <_>
          11 2 4 4 -1.</_>
        <_>
          11 2 2 2 2.</_>
        <_>
          13 4 2 2 2.</_></rects>
      <tilted>0</tilted></_>
    <_>
      <rects>
        <_>
          11 2 6 4 -1.</_>
        <_>
          11 2 3 2 2.</_>
        <_>
          14 4 3 2 2.</_></rects>
      <tilted>0</tilted></_>
    <_>
      <rects>
        <_>
          11 4 3 8 -1.</_>
        <_>
          12 4 1 8 3.</_></rects>
      <tilted>0</tilted></_>
    <_>
      <rects>
        <_>
          11 5 6 2 -1.</_>
        <_>
          13 5 2 2 3.</_></rects>
      <tilted>0</tilted></_>
    <_>
      <rects>
        <_>
          11 6 9 10 -1.</_>
        <_>
          14 6 3 10 3.</_></rects>
      <tilted>0</tilted></_>
    <_>
      <rects>
        <_>
          11 7 4 12 -1.</_>
        <_>
          11 7 2 6 2.</_>
        <_>
          13 13 2 6 2.</_></rects>
      <tilted>0</tilted></_>
    <_>
      <rects>
        <_>
          11 7 8 2 -1.</_>
        <_>
          11 7 4 1 2.</_>
        <_>
          15 8 4 1 2.</_></rects>
      <tilted>0</tilted></_>
    <_>
      <rects>
        <_>
          11 9 3 2 -1.</_>
        <_>
          11 10 3 1 2.</_></rects>
      <tilted>0</tilted></_>
    <_>
      <rects>
        <_>
          11 10 6 2 -1.</_>
        <_>
          13 10 2 2 3.</_></rects>
      <tilted>0</tilted></_>
    <_>
      <rects>
        <_>
          11 13 5 2 -1.</_>
        <_>
          11 14 5 1 2.</_></rects>
      <tilted>0</tilted></_>
    <_>
      <rects>
        <_>
          11 18 11 6 -1.</_>
        <_>
          11 20 11 2 3.</_></rects>
      <tilted>0</tilted></_>
    <_>
      <rects>
        <_>
          11 21 7 2 -1.</_>
        <_>
          11 22 7 1 2.</_></rects>
      <tilted>0</tilted></_>
    <_>
      <rects>
        <_>
          11 22 13 2 -1.</_>
        <_>
          11 23 13 1 2.</_></rects>
      <tilted>0</tilted></_>
    <_>
      <rects>
        <_>
          12 0 12 2 -1.</_>
        <_>
          18 0 6 2 2.</_></rects>
      <tilted>0</tilted></_>
    <_>
      <rects>
        <_>
          12 4 4 2 -1.</_>
        <_>
          12 4 2 1 2.</_>
        <_>
          14 5 2 1 2.</_></rects>
      <tilted>0</tilted></_>
    <_>
      <rects>
        <_>
          12 5 3 8 -1.</_>
        <_>
          13 5 1 8 3.</_></rects>
      <tilted>0</tilted></_>
    <_>
      <rects>
        <_>
          12 5 4 6 -1.</_>
        <_>
          14 5 2 6 2.</_></rects>
      <tilted>0</tilted></_>
    <_>
      <rects>
        <_>
          12 6 9 9 -1.</_>
        <_>
          15 6 3 9 3.</_></rects>
      <tilted>0</tilted></_>
    <_>
      <rects>
        <_>
          12 7 6 7 -1.</_>
        <_>
          14 7 2 7 3.</_></rects>
      <tilted>0</tilted></_>
    <_>
      <rects>
        <_>
          12 9 3 2 -1.</_>
        <_>
          12 10 3 1 2.</_></rects>
      <tilted>0</tilted></_>
    <_>
      <rects>
        <_>
          12 15 5 9 -1.</_>
        <_>
          12 18 5 3 3.</_></rects>
      <tilted>0</tilted></_>
    <_>
      <rects>
        <_>
          12 17 1 6 -1.</_>
        <_>
          12 19 1 2 3.</_></rects>
      <tilted>0</tilted></_>
    <_>
      <rects>
        <_>
          13 0 10 1 -1.</_>
        <_>
          18 0 5 1 2.</_></rects>
      <tilted>0</tilted></_>
    <_>
      <rects>
        <_>
          13 8 6 8 -1.</_>
        <_>
          15 8 2 8 3.</_></rects>
      <tilted>0</tilted></_>
    <_>
      <rects>
        <_>
          13 10 2 2 -1.</_>
        <_>
          13 11 2 1 2.</_></rects>
      <tilted>0</tilted></_>
    <_>
      <rects>
        <_>
          13 15 5 9 -1.</_>
        <_>
          13 18 5 3 3.</_></rects>
      <tilted>0</tilted></_>
    <_>
      <rects>
        <_>
          13 20 10 4 -1.</_>
        <_>
          13 22 10 2 2.</_></rects>
      <tilted>0</tilted></_>
    <_>
      <rects>
        <_>
          14 0 1 24 -1.</_>
        <_>
          14 8 1 8 3.</_></rects>
      <tilted>0</tilted></_>
    <_>
      <rects>
        <_>
          14 0 10 2 -1.</_>
        <_>
          19 0 5 2 2.</_></rects>
      <tilted>0</tilted></_>
    <_>
      <rects>
        <_>
          14 5 2 1 -1.</_>
        <_>
          15 5 1 1 2.</_></rects>
      <tilted>0</tilted></_>
    <_>
      <rects>
        <_>
          14 9 4 5 -1.</_>
        <_>
          16 9 2 5 2.</_></rects>
      <tilted>0</tilted></_>
    <_>
      <rects>
        <_>
          14 10 2 1 -1.</_>
        <_>
          15 10 1 1 2.</_></rects>
      <tilted>0</tilted></_>
    <_>
      <rects>
        <_>
          14 18 9 6 -1.</_>
        <_>
          14 20 9 2 3.</_></rects>
      <tilted>0</tilted></_>
    <_>
      <rects>
        <_>
          14 20 6 4 -1.</_>
        <_>
          14 22 6 2 2.</_></rects>
      <tilted>0</tilted></_>
    <_>
      <rects>
        <_>
          15 0 9 1 -1.</_>
        <_>
          18 0 3 1 3.</_></rects>
      <tilted>0</tilted></_>
    <_>
      <rects>
        <_>
          15 1 9 1 -1.</_>
        <_>
          18 1 3 1 3.</_></rects>
      <tilted>0</tilted></_>
    <_>
      <rects>
        <_>
          15 10 3 14 -1.</_>
        <_>
          15 17 3 7 2.</_></rects>
      <tilted>0</tilted></_>
    <_>
      <rects>
        <_>
          15 12 2 1 -1.</_>
        <_>
          16 12 1 1 2.</_></rects>
      <tilted>0</tilted></_>
    <_>
      <rects>
        <_>
          16 0 8 24 -1.</_>
        <_>
          16 12 8 12 2.</_></rects>
      <tilted>0</tilted></_>
    <_>
      <rects>
        <_>
          16 19 2 5 -1.</_>
        <_>
          17 19 1 5 2.</_></rects>
      <tilted>0</tilted></_>
    <_>
      <rects>
        <_>
          16 21 5 3 -1.</_>
        <_>
          16 22 5 1 3.</_></rects>
      <tilted>0</tilted></_>
    <_>
      <rects>
        <_>
          17 0 3 2 -1.</_>
        <_>
          17 1 3 1 2.</_></rects>
      <tilted>0</tilted></_>
    <_>
      <rects>
        <_>
          17 1 4 2 -1.</_>
        <_>
          17 1 2 1 2.</_>
        <_>
          19 2 2 1 2.</_></rects>
      <tilted>0</tilted></_>
    <_>
      <rects>
        <_>
          18 0 2 1 -1.</_>
        <_>
          19 0 1 1 2.</_></rects>
      <tilted>0</tilted></_>
    <_>
      <rects>
        <_>
          19 0 3 1 -1.</_>
        <_>
          20 0 1 1 3.</_></rects>
      <tilted>0</tilted></_>
    <_>
      <rects>
        <_>
          19 2 2 14 -1.</_>
        <_>
          19 2 1 7 2.</_>
        <_>
          20 9 1 7 2.</_></rects>
      <tilted>0</tilted></_>
    <_>
      <rects>
        <_>
          19 4 3 1 -1.</_>
        <_>
          20 4 1 1 3.</_></rects>
      <tilted>0</tilted></_>
    <_>
      <rects>
        <_>
          19 12 1 6 -1.</_>
        <_>
          19 15 1 3 2.</_></rects>
      <tilted>0</tilted></_>
    <_>
      <rects>
        <_>
          20 0 2 12 -1.</_>
        <_>
          20 4 2 4 3.</_></rects>
      <tilted>0</tilted></_>
    <_>
      <rects>
        <_>
          20 4 1 3 -1.</_>
        <_>
          20 5 1 1 3.</_></rects>
      <tilted>0</tilted></_>
    <_>
      <rects>
        <_>
          20 9 2 10 -1.</_>
        <_>
          20 14 2 5 2.</_></rects>
      <tilted>0</tilted></_>
    <_>
      <rects>
        <_>
          20 10 1 6 -1.</_>
        <_>
          20 13 1 3 2.</_></rects>
      <tilted>0</tilted></_>
    <_>
      <rects>
        <_>
          20 10 2 10 -1.</_>
        <_>
          21 10 1 10 2.</_></rects>
      <tilted>0</tilted></_>
    <_>
      <rects>
        <_>
          21 0 2 2 -1.</_>
        <_>
          21 0 1 1 2.</_>
        <_>
          22 1 1 1 2.</_></rects>
      <tilted>0</tilted></_>
    <_>
      <rects>
        <_>
          21 0 2 5 -1.</_>
        <_>
          22 0 1 5 2.</_></rects>
      <tilted>0</tilted></_>
    <_>
      <rects>
        <_>
          21 1 3 14 -1.</_>
        <_>
          21 8 3 7 2.</_></rects>
      <tilted>0</tilted></_>
    <_>
      <rects>
        <_>
          21 4 1 3 -1.</_>
        <_>
          21 5 1 1 3.</_></rects>
      <tilted>0</tilted></_>
    <_>
      <rects>
        <_>
          21 10 1 6 -1.</_>
        <_>
          21 13 1 3 2.</_></rects>
      <tilted>0</tilted></_>
    <_>
      <rects>
        <_>
          21 12 3 6 -1.</_>
        <_>
          21 15 3 3 2.</_></rects>
      <tilted>0</tilted></_>
    <_>
      <rects>
        <_>
          21 21 3 3 -1.</_>
        <_>
          21 22 3 1 3.</_></rects>
      <tilted>0</tilted></_>
    <_>
      <rects>
        <_>
          21 22 3 2 -1.</_>
        <_>
          21 23 3 1 2.</_></rects>
      <tilted>0</tilted></_>
    <_>
      <rects>
        <_>
          22 0 2 2 -1.</_>
        <_>
          22 0 1 1 2.</_>
        <_>
          23 1 1 1 2.</_></rects>
      <tilted>0</tilted></_>
    <_>
      <rects>
        <_>
          22 5 2 3 -1.</_>
        <_>
          22 6 2 1 3.</_></rects>
      <tilted>0</tilted></_>
    <_>
      <rects>
        <_>
          22 6 2 9 -1.</_>
        <_>
          22 9 2 3 3.</_></rects>
      <tilted>0</tilted></_>
    <_>
      <rects>
        <_>
          22 8 1 4 -1.</_>
        <_>
          22 10 1 2 2.</_></rects>
      <tilted>0</tilted></_>
    <_>
      <rects>
        <_>
          22 9 2 8 -1.</_>
        <_>
          22 13 2 4 2.</_></rects>
      <tilted>0</tilted></_>
    <_>
      <rects>
        <_>
          23 0 1 3 -1.</_>
        <_>
          23 1 1 1 3.</_></rects>
      <tilted>0</tilted></_>
    <_>
      <rects>
        <_>
          23 6 1 14 -1.</_>
        <_>
          23 13 1 7 2.</_></rects>
      <tilted>0</tilted></_>
    <_>
      <rects>
        <_>
          23 13 1 2 -1.</_>
        <_>
          23 14 1 1 2.</_></rects>
      <tilted>0</tilted></_></features></cascade>
</opencv_storage>
