<?xml version="1.0"?>
<opencv_storage>
<cascade>
  <stageType>BOOST</stageType>
  <featureType>HAAR</featureType>
  <height>24</height>
  <width>24</width>
  <stageParams>
    <boostType>GAB</boostType>
    <minHitRate>9.9500000476837158e-01</minHitRate>
    <maxFalseAlarm>5.0000000000000000e-01</maxFalseAlarm>
    <weightTrimRate>9.4999998807907104e-01</weightTrimRate>
    <maxDepth>1</maxDepth>
    <maxWeakCount>100</maxWeakCount></stageParams>
  <featureParams>
    <maxCatCount>0</maxCatCount>
    <featSize>1</featSize>
    <mode>BASIC</mode></featureParams>
  <stageNum>20</stageNum>
  <stages>
    <!-- stage 0 -->
    <_>
      <maxWeakCount>5</maxWeakCount>
      <stageThreshold>-1.0442142486572266e+00</stageThreshold>
      <weakClassifiers>
        <_>
          <internalNodes>
            0 -1 101 2.9716286808252335e-02</internalNodes>
          <leafValues>
            -7.6452690362930298e-01 7.6157408952713013e-01</leafValues></_>
        <_>
          <internalNodes>
            0 -1 24 5.8940015733242035e-02</internalNodes>
          <leafValues>
            -4.5583102107048035e-01 6.5347713232040405e-01</leafValues></_>
        <_>
          <internalNodes>
            0 -1 157 7.1811243891716003e-02</internalNodes>
          <leafValues>
            -3.2522934675216675e-01 8.6420440673828125e-01</leafValues></_>
        <_>
          <internalNodes>
            0 -1 6 6.5047651529312134e-02</internalNodes>
          <leafValues>
            3.0971023440361023e-01 -8.6269938945770264e-01</leafValues></_>
        <_>
          <internalNodes>
            0 -1 199 -1.4283019304275513e-01</internalNodes>
          <leafValues>
            -8.7425148487091064e-01 2.5476431846618652e-01</leafValues></_></weakClassifiers></_>
    <!-- stage 1 -->
    <_>
      <maxWeakCount>9</maxWeakCount>
      <stageThreshold>-1.9023443460464478e+00</stageThreshold>
      <weakClassifiers>
        <_>
          <internalNodes>
            0 -1 255 3.6353919655084610e-02</internalNodes>
          <leafValues>
            -7.6241481304168701e-01 4.6168223023414612e-01</leafValues></_>
        <_>
          <internalNodes>
            0 -1 283 -1.3572153875429649e-05</internalNodes>
          <leafValues>
            3.3027437329292297e-01 -5.5269443988800049e-01</leafValues></_>
        <_>
          <internalNodes>
            0 -1 203 -2.9693055897951126e-02</internalNodes>
          <leafValues>
            7.2149628400802612e-01 -2.2320778667926788e-01</leafValues></_>
        <_>
          <internalNodes>
            0 -1 157 1.1047773063182831e-01</internalNodes>
          <leafValues>
            -2.2057946026325226e-01 8.4286749362945557e-01</leafValues></_>
        <_>
          <internalNodes>
            0 -1 176 -1.4786736755922902e-05</internalNodes>
          <leafValues>
            4.4736605882644653e-01 -3.4133845567703247e-01</leafValues></_>
        <_>
          <internalNodes>
            0 -1 172 1.4582323274225928e-05</internalNodes>
          <leafValues>
            -3.1586769223213196e-01 5.0405365228652954e-01</leafValues></_>
        <_>
          <internalNodes>
            0 -1 340 -1.3016466982662678e-03</internalNodes>
          <leafValues>
            -6.1772549152374268e-01 2.9109415411949158e-01</leafValues></_>
        <_>
          <internalNodes>
            0 -1 336 4.8472266644239426e-03</internalNodes>
          <leafValues>
            2.0478470623493195e-01 -6.6966813802719116e-01</leafValues></_>
        <_>
          <internalNodes>
            0 -1 31 1.5081864595413208e-01</internalNodes>
          <leafValues>
            -2.4286639690399170e-01 7.5983572006225586e-01</leafValues></_></weakClassifiers></_>
    <!-- stage 2 -->
    <_>
      <maxWeakCount>10</maxWeakCount>
      <stageThreshold>-1.7794492244720459e+00</stageThreshold>
      <weakClassifiers>
        <_>
          <internalNodes>
            0 -1 179 5.3522989153862000e-02</internalNodes>
          <leafValues>
            -7.4214285612106323e-01 1.6506291925907135e-01</leafValues></_>
        <_>
          <internalNodes>
            0 -1 127 -4.5039720833301544e-02</internalNodes>
          <leafValues>
            5.0662779808044434e-01 -4.2464053630828857e-01</leafValues></_>
        <_>
          <internalNodes>
            0 -1 221 1.0994648560881615e-02</internalNodes>
          <leafValues>
            -2.1345978975296021e-01 6.9741535186767578e-01</leafValues></_>
        <_>
          <internalNodes>
            0 -1 19 -7.3184992652386427e-04</internalNodes>
          <leafValues>
            -7.4866837263107300e-01 2.2347930073738098e-01</leafValues></_>
        <_>
          <internalNodes>
            0 -1 20 1.0034758597612381e-03</internalNodes>
          <leafValues>
            2.3642545938491821e-01 -7.1434092521667480e-01</leafValues></_>
        <_>
          <internalNodes>
            0 -1 37 8.5120117291808128e-03</internalNodes>
          <leafValues>
            -2.9423406720161438e-01 5.1036167144775391e-01</leafValues></_>
        <_>
          <internalNodes>
            0 -1 53 -2.1472933888435364e-01</internalNodes>
          <leafValues>
            7.6033371686935425e-01 -1.9277028739452362e-01</leafValues></_>
        <_>
          <internalNodes>
            0 -1 143 2.8454791754484177e-02</internalNodes>
          <leafValues>
            -2.4007864296436310e-01 6.0625922679901123e-01</leafValues></_>
        <_>
          <internalNodes>
            0 -1 175 1.3572153875429649e-05</internalNodes>
          <leafValues>
            -2.8873488306999207e-01 4.6019682288169861e-01</leafValues></_>
        <_>
          <internalNodes>
            0 -1 184 6.7612912971526384e-04</internalNodes>
          <leafValues>
            1.5670700371265411e-01 -9.2152440547943115e-01</leafValues></_></weakClassifiers></_>
    <!-- stage 3 -->
    <_>
      <maxWeakCount>10</maxWeakCount>
      <stageThreshold>-1.5106164216995239e+00</stageThreshold>
      <weakClassifiers>
        <_>
          <internalNodes>
            0 -1 101 3.3730223774909973e-02</internalNodes>
          <leafValues>
            -7.1075230836868286e-01 1.7258064448833466e-01</leafValues></_>
        <_>
          <internalNodes>
            0 -1 105 2.4767164140939713e-02</internalNodes>
          <leafValues>
            -4.0553945302963257e-01 3.5500434041023254e-01</leafValues></_>
        <_>
          <internalNodes>
            0 -1 17 -9.4739830819889903e-04</internalNodes>
          <leafValues>
            -6.7273610830307007e-01 2.1497330069541931e-01</leafValues></_>
        <_>
          <internalNodes>
            0 -1 17 8.0557120963931084e-04</internalNodes>
          <leafValues>
            3.2590132951736450e-01 -6.3561004400253296e-01</leafValues></_>
        <_>
          <internalNodes>
            0 -1 332 -8.2870543701574206e-04</internalNodes>
          <leafValues>
            -5.9397083520889282e-01 1.4343830943107605e-01</leafValues></_>
        <_>
          <internalNodes>
            0 -1 40 2.5230150669813156e-02</internalNodes>
          <leafValues>
            -3.6621609330177307e-01 3.3781135082244873e-01</leafValues></_>
        <_>
          <internalNodes>
            0 -1 184 -6.0930917970836163e-04</internalNodes>
          <leafValues>
            -8.3206379413604736e-01 1.5114873647689819e-01</leafValues></_>
        <_>
          <internalNodes>
            0 -1 171 -7.1184923872351646e-03</internalNodes>
          <leafValues>
            4.0621158480644226e-01 -2.8508198261260986e-01</leafValues></_>
        <_>
          <internalNodes>
            0 -1 195 6.8163841962814331e-02</internalNodes>
          <leafValues>
            -2.9305273294448853e-01 6.8344473838806152e-01</leafValues></_>
        <_>
          <internalNodes>
            0 -1 326 -1.5912880189716816e-03</internalNodes>
          <leafValues>
            -7.1924519538879395e-01 2.1691720187664032e-01</leafValues></_></weakClassifiers></_>
    <!-- stage 4 -->
    <_>
      <maxWeakCount>9</maxWeakCount>
      <stageThreshold>-1.5127170085906982e+00</stageThreshold>
      <weakClassifiers>
        <_>
          <internalNodes>
            0 -1 214 2.8223671019077301e-02</internalNodes>
          <leafValues>
            -8.0425530672073364e-01 1.4303958415985107e-01</leafValues></_>
        <_>
          <internalNodes>
            0 -1 62 -8.8109329342842102e-02</internalNodes>
          <leafValues>
            4.2724004387855530e-01 -4.5066457986831665e-01</leafValues></_>
        <_>
          <internalNodes>
            0 -1 5 -1.1631604284048080e-02</internalNodes>
          <leafValues>
            2.6595258712768555e-01 -5.6894260644912720e-01</leafValues></_>
        <_>
          <internalNodes>
            0 -1 190 7.7676931396126747e-03</internalNodes>
          <leafValues>
            -2.3097018897533417e-01 5.6539869308471680e-01</leafValues></_>
        <_>
          <internalNodes>
            0 -1 50 -8.6663471302017570e-04</internalNodes>
          <leafValues>
            -6.7772024869918823e-01 1.9596886634826660e-01</leafValues></_>
        <_>
          <internalNodes>
            0 -1 218 -1.2145450338721275e-02</internalNodes>
          <leafValues>
            7.0422822237014771e-01 -1.7143446207046509e-01</leafValues></_>
        <_>
          <internalNodes>
            0 -1 327 2.1863798610866070e-03</internalNodes>
          <leafValues>
            1.8772017955780029e-01 -6.9552254676818848e-01</leafValues></_>
        <_>
          <internalNodes>
            0 -1 15 4.9328736960887909e-02</internalNodes>
          <leafValues>
            -1.8023230135440826e-01 6.4283084869384766e-01</leafValues></_>
        <_>
          <internalNodes>
            0 -1 27 -1.6434539109468460e-02</internalNodes>
          <leafValues>
            5.3000187873840332e-01 -2.3564951121807098e-01</leafValues></_></weakClassifiers></_>
    <!-- stage 5 -->
    <_>
      <maxWeakCount>16</maxWeakCount>
      <stageThreshold>-1.8096004724502563e+00</stageThreshold>
      <weakClassifiers>
        <_>
          <internalNodes>
            0 -1 291 3.8564324378967285e-02</internalNodes>
          <leafValues>
            -6.1813426017761230e-01 3.8309860229492188e-01</leafValues></_>
        <_>
          <internalNodes>
            0 -1 186 1.9830713048577309e-02</internalNodes>
          <leafValues>
            -3.9193376898765564e-01 3.6333966255187988e-01</leafValues></_>
        <_>
          <internalNodes>
            0 -1 13 -1.5526716597378254e-03</internalNodes>
          <leafValues>
            -6.3825893402099609e-01 1.7808772623538971e-01</leafValues></_>
        <_>
          <internalNodes>
            0 -1 12 7.7644770499318838e-04</internalNodes>
          <leafValues>
            2.3316337168216705e-01 -6.2224543094635010e-01</leafValues></_>
        <_>
          <internalNodes>
            0 -1 39 1.0711606591939926e-02</internalNodes>
          <leafValues>
            -3.0144810676574707e-01 4.3291771411895752e-01</leafValues></_>
        <_>
          <internalNodes>
            0 -1 275 2.8562789782881737e-02</internalNodes>
          <leafValues>
            -1.5208217501640320e-01 6.0680860280990601e-01</leafValues></_>
        <_>
          <internalNodes>
            0 -1 230 -4.6939007937908173e-02</internalNodes>
          <leafValues>
            5.3497469425201416e-01 -1.7022570967674255e-01</leafValues></_>
        <_>
          <internalNodes>
            0 -1 202 7.2060436010360718e-02</internalNodes>
          <leafValues>
            -1.4927631616592407e-01 7.6768106222152710e-01</leafValues></_>
        <_>
          <internalNodes>
            0 -1 180 1.7372118309140205e-02</internalNodes>
          <leafValues>
            -2.4917437136173248e-01 4.0203872323036194e-01</leafValues></_>
        <_>
          <internalNodes>
            0 -1 342 -3.3605927601456642e-03</internalNodes>
          <leafValues>
            -7.4946641921997070e-01 1.2381801009178162e-01</leafValues></_>
        <_>
          <internalNodes>
            0 -1 335 -6.0838664649054408e-04</internalNodes>
          <leafValues>
            -7.1752738952636719e-01 9.7961433231830597e-02</leafValues></_>
        <_>
          <internalNodes>
            0 -1 198 -1.9347753841429949e-03</internalNodes>
          <leafValues>
            5.0306850671768188e-01 -1.8497081100940704e-01</leafValues></_>
        <_>
          <internalNodes>
            0 -1 142 4.8144808970391750e-03</internalNodes>
          <leafValues>
            -2.2463439404964447e-01 4.0515184402465820e-01</leafValues></_>
        <_>
          <internalNodes>
            0 -1 311 -6.2496587634086609e-04</internalNodes>
          <leafValues>
            -5.8647245168685913e-01 1.5019685029983521e-01</leafValues></_>
        <_>
          <internalNodes>
            0 -1 269 -2.4356858339160681e-03</internalNodes>
          <leafValues>
            3.7539628148078918e-01 -2.5109750032424927e-01</leafValues></_>
        <_>
          <internalNodes>
            0 -1 309 9.9213735666126013e-04</internalNodes>
          <leafValues>
            1.5760546922683716e-01 -5.8439040184020996e-01</leafValues></_></weakClassifiers></_>
    <!-- stage 6 -->
    <_>
      <maxWeakCount>15</maxWeakCount>
      <stageThreshold>-1.5622999668121338e+00</stageThreshold>
      <weakClassifiers>
        <_>
          <internalNodes>
            0 -1 43 4.7979988157749176e-02</internalNodes>
          <leafValues>
            -6.7239010334014893e-01 8.3131559193134308e-02</leafValues></_>
        <_>
          <internalNodes>
            0 -1 163 -1.9634980708360672e-03</internalNodes>
          <leafValues>
            2.7544817328453064e-01 -4.1389852762222290e-01</leafValues></_>
        <_>
          <internalNodes>
            0 -1 51 -8.7035894393920898e-02</internalNodes>
          <leafValues>
            3.0053147673606873e-01 -4.3759262561798096e-01</leafValues></_>
        <_>
          <internalNodes>
            0 -1 42 2.8307503089308739e-03</internalNodes>
          <leafValues>
            -2.3281633853912354e-01 4.8806899785995483e-01</leafValues></_>
        <_>
          <internalNodes>
            0 -1 169 -6.1538290232419968e-02</internalNodes>
          <leafValues>
            7.0221108198165894e-01 -1.6007950901985168e-01</leafValues></_>
        <_>
          <internalNodes>
            0 -1 194 3.7589121609926224e-02</internalNodes>
          <leafValues>
            -1.2531861662864685e-01 5.6178623437881470e-01</leafValues></_>
        <_>
          <internalNodes>
            0 -1 200 -1.1016942560672760e-02</internalNodes>
          <leafValues>
            3.1231045722961426e-01 -3.1733450293540955e-01</leafValues></_>
        <_>
          <internalNodes>
            0 -1 104 3.3224229700863361e-03</internalNodes>
          <leafValues>
            1.7020975053310394e-01 -5.3130400180816650e-01</leafValues></_>
        <_>
          <internalNodes>
            0 -1 185 -6.5188523149117827e-04</internalNodes>
          <leafValues>
            -5.1592117547988892e-01 1.8632552027702332e-01</leafValues></_>
        <_>
          <internalNodes>
            0 -1 188 -1.6496631503105164e-01</internalNodes>
          <leafValues>
            4.8786902427673340e-01 -1.8720524013042450e-01</leafValues></_>
        <_>
          <internalNodes>
            0 -1 284 -9.4919912517070770e-03</internalNodes>
          <leafValues>
            6.0710614919662476e-01 -1.6516311466693878e-01</leafValues></_>
        <_>
          <internalNodes>
            0 -1 312 -5.1246367394924164e-02</internalNodes>
          <leafValues>
            -5.5454331636428833e-01 1.6146160662174225e-01</leafValues></_>
        <_>
          <internalNodes>
            0 -1 302 -2.8373327950248495e-05</internalNodes>
          <leafValues>
            2.9980179667472839e-01 -3.5359594225883484e-01</leafValues></_>
        <_>
          <internalNodes>
            0 -1 110 -5.8744503185153008e-03</internalNodes>
          <leafValues>
            6.0264724493026733e-01 -1.3069614768028259e-01</leafValues></_>
        <_>
          <internalNodes>
            0 -1 98 7.7682058326900005e-03</internalNodes>
          <leafValues>
            -1.6956859827041626e-01 5.3499788045883179e-01</leafValues></_></weakClassifiers></_>
    <!-- stage 7 -->
    <_>
      <maxWeakCount>16</maxWeakCount>
      <stageThreshold>-1.6537081003189087e+00</stageThreshold>
      <weakClassifiers>
        <_>
          <internalNodes>
            0 -1 108 -1.7722180485725403e-01</internalNodes>
          <leafValues>
            3.6029410362243652e-01 -5.6861656904220581e-01</leafValues></_>
        <_>
          <internalNodes>
            0 -1 209 2.6981897462974302e-05</internalNodes>
          <leafValues>
            -3.7571346759796143e-01 3.0661725997924805e-01</leafValues></_>
        <_>
          <internalNodes>
            0 -1 279 1.2224069796502590e-03</internalNodes>
          <leafValues>
            2.0990177989006042e-01 -5.4152131080627441e-01</leafValues></_>
        <_>
          <internalNodes>
            0 -1 30 5.5861301720142365e-02</internalNodes>
          <leafValues>
            -2.3712062835693359e-01 4.5532628893852234e-01</leafValues></_>
        <_>
          <internalNodes>
            0 -1 322 -1.0609360178932548e-03</internalNodes>
          <leafValues>
            -6.3337719440460205e-01 2.0148490369319916e-01</leafValues></_>
        <_>
          <internalNodes>
            0 -1 324 1.0203637648373842e-03</internalNodes>
          <leafValues>
            1.4828126132488251e-01 -6.5953892469406128e-01</leafValues></_>
        <_>
          <internalNodes>
            0 -1 211 -1.4832598935754504e-05</internalNodes>
          <leafValues>
            2.8663510084152222e-01 -3.6081603169441223e-01</leafValues></_>
        <_>
          <internalNodes>
            0 -1 206 1.9667085143737495e-04</internalNodes>
          <leafValues>
            -1.9880302250385284e-01 4.8062515258789063e-01</leafValues></_>
        <_>
          <internalNodes>
            0 -1 147 1.4270360581576824e-02</internalNodes>
          <leafValues>
            -1.9139200448989868e-01 4.8664280772209167e-01</leafValues></_>
        <_>
          <internalNodes>
            0 -1 280 6.9336500018835068e-05</internalNodes>
          <leafValues>
            -2.4887876212596893e-01 3.9683890342712402e-01</leafValues></_>
        <_>
          <internalNodes>
            0 -1 14 -6.8238331004977226e-04</internalNodes>
          <leafValues>
            -7.3921775817871094e-01 1.2828125059604645e-01</leafValues></_>
        <_>
          <internalNodes>
            0 -1 237 -3.3335316402371973e-05</internalNodes>
          <leafValues>
            2.7276238799095154e-01 -3.5203021764755249e-01</leafValues></_>
        <_>
          <internalNodes>
            0 -1 267 -1.8927014898508787e-03</internalNodes>
          <leafValues>
            4.5433977246284485e-01 -2.1114759147167206e-01</leafValues></_>
        <_>
          <internalNodes>
            0 -1 223 5.5478955619037151e-03</internalNodes>
          <leafValues>
            -2.2798182070255280e-01 4.2360553145408630e-01</leafValues></_>
        <_>
          <internalNodes>
            0 -1 286 2.2147746756672859e-02</internalNodes>
          <leafValues>
            -3.4661346673965454e-01 2.9723149538040161e-01</leafValues></_>
        <_>
          <internalNodes>
            0 -1 36 3.0661595519632101e-03</internalNodes>
          <leafValues>
            -2.4458771944046021e-01 3.7464359402656555e-01</leafValues></_></weakClassifiers></_>
    <!-- stage 8 -->
    <_>
      <maxWeakCount>13</maxWeakCount>
      <stageThreshold>-1.3315446376800537e+00</stageThreshold>
      <weakClassifiers>
        <_>
          <internalNodes>
            0 -1 131 -5.9999551624059677e-02</internalNodes>
          <leafValues>
            1.4238135516643524e-01 -6.8677967786788940e-01</leafValues></_>
        <_>
          <internalNodes>
            0 -1 86 1.7097368836402893e-02</internalNodes>
          <leafValues>
            -4.2506623268127441e-01 2.9163736104965210e-01</leafValues></_>
        <_>
          <internalNodes>
            0 -1 132 3.5812489688396454e-02</internalNodes>
          <leafValues>
            -2.2362826764583588e-01 5.6707215309143066e-01</leafValues></_>
        <_>
          <internalNodes>
            0 -1 325 1.2163997162133455e-03</internalNodes>
          <leafValues>
            2.0029516518115997e-01 -4.9642089009284973e-01</leafValues></_>
        <_>
          <internalNodes>
            0 -1 16 6.5529061248525977e-04</internalNodes>
          <leafValues>
            1.4521257579326630e-01 -6.2901252508163452e-01</leafValues></_>
        <_>
          <internalNodes>
            0 -1 276 -1.6525238752365112e-02</internalNodes>
          <leafValues>
            4.4378185272216797e-01 -1.9343660771846771e-01</leafValues></_>
        <_>
          <internalNodes>
            0 -1 235 2.0659934729337692e-02</internalNodes>
          <leafValues>
            -2.4126519262790680e-01 3.8198900222778320e-01</leafValues></_>
        <_>
          <internalNodes>
            0 -1 244 3.8168192841112614e-03</internalNodes>
          <leafValues>
            -1.8976987898349762e-01 4.5108312368392944e-01</leafValues></_>
        <_>
          <internalNodes>
            0 -1 252 -6.5847612859215587e-05</internalNodes>
          <leafValues>
            2.9235789179801941e-01 -2.8308802843093872e-01</leafValues></_>
        <_>
          <internalNodes>
            0 -1 274 -3.2888306304812431e-03</internalNodes>
          <leafValues>
            4.6490994095802307e-01 -1.7737986147403717e-01</leafValues></_>
        <_>
          <internalNodes>
            0 -1 148 -6.1784958234056830e-05</internalNodes>
          <leafValues>
            2.6328381896018982e-01 -3.5242712497711182e-01</leafValues></_>
        <_>
          <internalNodes>
            0 -1 140 -6.3782115466892719e-03</internalNodes>
          <leafValues>
            5.2921050786972046e-01 -1.7248167097568512e-01</leafValues></_>
        <_>
          <internalNodes>
            0 -1 313 -3.7493411218747497e-04</internalNodes>
          <leafValues>
            -6.4659607410430908e-01 1.4897623658180237e-01</leafValues></_></weakClassifiers></_>
    <!-- stage 9 -->
    <_>
      <maxWeakCount>17</maxWeakCount>
      <stageThreshold>-1.6440112590789795e+00</stageThreshold>
      <weakClassifiers>
        <_>
          <internalNodes>
            0 -1 109 -1.8793880939483643e-02</internalNodes>
          <leafValues>
            8.9502759277820587e-02 -5.9642636775970459e-01</leafValues></_>
        <_>
          <internalNodes>
            0 -1 151 3.0668605177197605e-05</internalNodes>
          <leafValues>
            -4.6031674742698669e-01 1.9717043638229370e-01</leafValues></_>
        <_>
          <internalNodes>
            0 -1 10 2.2589420899748802e-02</internalNodes>
          <leafValues>
            -3.8030770421028137e-01 2.1203100681304932e-01</leafValues></_>
        <_>
          <internalNodes>
            0 -1 112 5.6073948508128524e-04</internalNodes>
          <leafValues>
            -1.6523092985153198e-01 4.6290713548660278e-01</leafValues></_>
        <_>
          <internalNodes>
            0 -1 2 -3.8191676139831543e-03</internalNodes>
          <leafValues>
            -6.2789899110794067e-01 1.2875069677829742e-01</leafValues></_>
        <_>
          <internalNodes>
            0 -1 3 4.5738546177744865e-03</internalNodes>
          <leafValues>
            1.3369029760360718e-01 -5.6443899869918823e-01</leafValues></_>
        <_>
          <internalNodes>
            0 -1 246 7.1670943871140480e-03</internalNodes>
          <leafValues>
            -1.7947819828987122e-01 5.7809501886367798e-01</leafValues></_>
        <_>
          <internalNodes>
            0 -1 249 -7.0813603699207306e-02</internalNodes>
          <leafValues>
            6.6274201869964600e-01 -1.2457230687141418e-01</leafValues></_>
        <_>
          <internalNodes>
            0 -1 71 2.1528221666812897e-02</internalNodes>
          <leafValues>
            -2.8439933061599731e-01 2.8085863590240479e-01</leafValues></_>
        <_>
          <internalNodes>
            0 -1 277 -2.4929823121055961e-04</internalNodes>
          <leafValues>
            4.8102790117263794e-01 -1.9193002581596375e-01</leafValues></_>
        <_>
          <internalNodes>
            0 -1 225 3.1433738768100739e-03</internalNodes>
          <leafValues>
            -1.3168241083621979e-01 5.1874887943267822e-01</leafValues></_>
        <_>
          <internalNodes>
            0 -1 68 -1.3475622836267576e-05</internalNodes>
          <leafValues>
            2.9065996408462524e-01 -2.6801025867462158e-01</leafValues></_>
        <_>
          <internalNodes>
            0 -1 288 -6.5456624724902213e-05</internalNodes>
          <leafValues>
            1.9347709417343140e-01 -3.5760989785194397e-01</leafValues></_>
        <_>
          <internalNodes>
            0 -1 341 -7.0840684929862618e-04</internalNodes>
          <leafValues>
            -5.0035995244979858e-01 1.3767360150814056e-01</leafValues></_>
        <_>
          <internalNodes>
            0 -1 100 3.4901835024356842e-03</internalNodes>
          <leafValues>
            -2.4453303217887878e-01 2.7844747900962830e-01</leafValues></_>
        <_>
          <internalNodes>
            0 -1 90 2.8332218527793884e-02</internalNodes>
          <leafValues>
            -2.2916004061698914e-01 3.2620257139205933e-01</leafValues></_>
        <_>
          <internalNodes>
            0 -1 159 1.2571151554584503e-01</internalNodes>
          <leafValues>
            -1.7715254426002502e-01 6.6373646259307861e-01</leafValues></_></weakClassifiers></_>
    <!-- stage 10 -->
    <_>
      <maxWeakCount>17</maxWeakCount>
      <stageThreshold>-1.6699389219284058e+00</stageThreshold>
      <weakClassifiers>
        <_>
          <internalNodes>
            0 -1 58 7.1756765246391296e-02</internalNodes>
          <leafValues>
            -7.6721626520156860e-01 -1.3068453967571259e-01</leafValues></_>
        <_>
          <internalNodes>
            0 -1 66 -1.0767258703708649e-02</internalNodes>
          <leafValues>
            2.2329409420490265e-01 -4.3898975849151611e-01</leafValues></_>
        <_>
          <internalNodes>
            0 -1 232 -5.7286880910396576e-03</internalNodes>
          <leafValues>
            2.8936943411827087e-01 -3.3052614331245422e-01</leafValues></_>
        <_>
          <internalNodes>
            0 -1 153 1.8667648546397686e-03</internalNodes>
          <leafValues>
            1.9201819598674774e-01 -6.0178357362747192e-01</leafValues></_>
        <_>
          <internalNodes>
            0 -1 153 -5.7386572007089853e-04</internalNodes>
          <leafValues>
            -5.2541887760162354e-01 2.0796826481819153e-01</leafValues></_>
        <_>
          <internalNodes>
            0 -1 222 1.8370784819126129e-03</internalNodes>
          <leafValues>
            -2.1108548343181610e-01 4.5398318767547607e-01</leafValues></_>
        <_>
          <internalNodes>
            0 -1 222 -1.2664863606914878e-03</internalNodes>
          <leafValues>
            5.3325670957565308e-01 -1.6831147670745850e-01</leafValues></_>
        <_>
          <internalNodes>
            0 -1 164 4.5136176049709320e-02</internalNodes>
          <leafValues>
            1.1131368577480316e-01 -8.6674749851226807e-01</leafValues></_>
        <_>
          <internalNodes>
            0 -1 316 -2.6984442956745625e-03</internalNodes>
          <leafValues>
            -8.0532181262969971e-01 6.1659421771764755e-02</leafValues></_>
        <_>
          <internalNodes>
            0 -1 178 -1.8808752298355103e-02</internalNodes>
          <leafValues>
            4.2763721942901611e-01 -1.8518063426017761e-01</leafValues></_>
        <_>
          <internalNodes>
            0 -1 120 4.5859385281801224e-03</internalNodes>
          <leafValues>
            -2.2072289884090424e-01 3.6334273219108582e-01</leafValues></_>
        <_>
          <internalNodes>
            0 -1 23 -1.1370081920176744e-03</internalNodes>
          <leafValues>
            -6.1393243074417114e-01 1.3111281394958496e-01</leafValues></_>
        <_>
          <internalNodes>
            0 -1 297 -3.9062825962901115e-03</internalNodes>
          <leafValues>
            4.7750562429428101e-01 -1.7650350928306580e-01</leafValues></_>
        <_>
          <internalNodes>
            0 -1 56 -5.8272718451917171e-03</internalNodes>
          <leafValues>
            4.5203593373298645e-01 -1.7633303999900818e-01</leafValues></_>
        <_>
          <internalNodes>
            0 -1 236 -1.1674448614940047e-05</internalNodes>
          <leafValues>
            2.6179966330528259e-01 -3.0018565058708191e-01</leafValues></_>
        <_>
          <internalNodes>
            0 -1 32 1.8613165616989136e-01</internalNodes>
          <leafValues>
            -1.5285977721214294e-01 5.0684672594070435e-01</leafValues></_>
        <_>
          <internalNodes>
            0 -1 308 2.3112599737942219e-03</internalNodes>
          <leafValues>
            1.2553443014621735e-01 -7.0217102766036987e-01</leafValues></_></weakClassifiers></_>
    <!-- stage 11 -->
    <_>
      <maxWeakCount>14</maxWeakCount>
      <stageThreshold>-1.4196870326995850e+00</stageThreshold>
      <weakClassifiers>
        <_>
          <internalNodes>
            0 -1 189 4.9862330779433250e-03</internalNodes>
          <leafValues>
            -6.5749019384384155e-01 -1.1816838756203651e-02</leafValues></_>
        <_>
          <internalNodes>
            0 -1 234 2.8379599825711921e-05</internalNodes>
          <leafValues>
            -3.8283771276473999e-01 3.0706876516342163e-01</leafValues></_>
        <_>
          <internalNodes>
            0 -1 183 2.6570623958832584e-05</internalNodes>
          <leafValues>
            -3.4490954875946045e-01 2.8675803542137146e-01</leafValues></_>
        <_>
          <internalNodes>
            0 -1 118 -1.2897951528429985e-03</internalNodes>
          <leafValues>
            -4.3518027663230896e-01 2.0091089606285095e-01</leafValues></_>
        <_>
          <internalNodes>
            0 -1 197 2.4386812001466751e-03</internalNodes>
          <leafValues>
            -1.4989000558853149e-01 4.8892959952354431e-01</leafValues></_>
        <_>
          <internalNodes>
            0 -1 177 -2.5212948457919993e-05</internalNodes>
          <leafValues>
            2.1572744846343994e-01 -3.9858213067054749e-01</leafValues></_>
        <_>
          <internalNodes>
            0 -1 263 5.2316482178866863e-03</internalNodes>
          <leafValues>
            1.1938187479972839e-01 -6.5893614292144775e-01</leafValues></_>
        <_>
          <internalNodes>
            0 -1 126 9.3584228307008743e-04</internalNodes>
          <leafValues>
            -2.2107866406440735e-01 3.8814556598663330e-01</leafValues></_>
        <_>
          <internalNodes>
            0 -1 245 -2.6408201083540916e-03</internalNodes>
          <leafValues>
            5.6235897541046143e-01 -1.1791414767503738e-01</leafValues></_>
        <_>
          <internalNodes>
            0 -1 184 6.0790439601987600e-04</internalNodes>
          <leafValues>
            9.0528808534145355e-02 -8.7569683790206909e-01</leafValues></_>
        <_>
          <internalNodes>
            0 -1 8 4.8574231564998627e-02</internalNodes>
          <leafValues>
            6.4607791602611542e-02 -7.6736533641815186e-01</leafValues></_>
        <_>
          <internalNodes>
            0 -1 229 -4.2499033734202385e-03</internalNodes>
          <leafValues>
            3.7711751461029053e-01 -1.9188027083873749e-01</leafValues></_>
        <_>
          <internalNodes>
            0 -1 93 -1.2334132567048073e-02</internalNodes>
          <leafValues>
            3.2932522892951965e-01 -2.2158215939998627e-01</leafValues></_>
        <_>
          <internalNodes>
            0 -1 285 6.2366605561692268e-05</internalNodes>
          <leafValues>
            -2.4055892229080200e-01 3.3494758605957031e-01</leafValues></_></weakClassifiers></_>
    <!-- stage 12 -->
    <_>
      <maxWeakCount>23</maxWeakCount>
      <stageThreshold>-1.5614794492721558e+00</stageThreshold>
      <weakClassifiers>
        <_>
          <internalNodes>
            0 -1 44 8.1633567810058594e-02</internalNodes>
          <leafValues>
            -6.6611015796661377e-01 -1.4757834374904633e-01</leafValues></_>
        <_>
          <internalNodes>
            0 -1 107 -1.3347241329029202e-03</internalNodes>
          <leafValues>
            1.7490151524543762e-01 -3.9936396479606628e-01</leafValues></_>
        <_>
          <internalNodes>
            0 -1 165 -3.6984831094741821e-02</internalNodes>
          <leafValues>
            2.7392119169235229e-01 -2.4827438592910767e-01</leafValues></_>
        <_>
          <internalNodes>
            0 -1 144 4.9178726971149445e-02</internalNodes>
          <leafValues>
            -1.2478087842464447e-01 4.5829284191131592e-01</leafValues></_>
        <_>
          <internalNodes>
            0 -1 271 -2.4884659796953201e-02</internalNodes>
          <leafValues>
            4.4899436831474304e-01 -1.8565542995929718e-01</leafValues></_>
        <_>
          <internalNodes>
            0 -1 318 8.2420278340578079e-04</internalNodes>
          <leafValues>
            1.6048604249954224e-01 -4.5518842339515686e-01</leafValues></_>
        <_>
          <internalNodes>
            0 -1 122 -1.4991804491728544e-03</internalNodes>
          <leafValues>
            -3.6268469691276550e-01 2.1253463625907898e-01</leafValues></_>
        <_>
          <internalNodes>
            0 -1 124 -3.0131422681733966e-04</internalNodes>
          <leafValues>
            2.3452764749526978e-01 -2.9986843466758728e-01</leafValues></_>
        <_>
          <internalNodes>
            0 -1 113 2.4824682623147964e-03</internalNodes>
          <leafValues>
            -2.6612648367881775e-01 2.5561237335205078e-01</leafValues></_>
        <_>
          <internalNodes>
            0 -1 60 9.4081205315887928e-04</internalNodes>
          <leafValues>
            1.1953551322221756e-01 -5.5647510290145874e-01</leafValues></_>
        <_>
          <internalNodes>
            0 -1 61 -9.8045170307159424e-04</internalNodes>
          <leafValues>
            -5.1899093389511108e-01 1.3360053300857544e-01</leafValues></_>
        <_>
          <internalNodes>
            0 -1 128 7.3420291300863028e-04</internalNodes>
          <leafValues>
            -1.7703421413898468e-01 4.3702369928359985e-01</leafValues></_>
        <_>
          <internalNodes>
            0 -1 330 -4.6612536534667015e-03</internalNodes>
          <leafValues>
            -5.1216220855712891e-01 1.2327250093221664e-01</leafValues></_>
        <_>
          <internalNodes>
            0 -1 64 3.3030780032277107e-03</internalNodes>
          <leafValues>
            -1.8194244801998138e-01 3.7852582335472107e-01</leafValues></_>
        <_>
          <internalNodes>
            0 -1 287 5.9557449276326224e-05</internalNodes>
          <leafValues>
            -2.3818869888782501e-01 2.7827101945877075e-01</leafValues></_>
        <_>
          <internalNodes>
            0 -1 41 3.0890696216374636e-03</internalNodes>
          <leafValues>
            8.0456681549549103e-02 -7.0229786634445190e-01</leafValues></_>
        <_>
          <internalNodes>
            0 -1 103 2.1483618766069412e-03</internalNodes>
          <leafValues>
            -2.6015076041221619e-01 2.2770893573760986e-01</leafValues></_>
        <_>
          <internalNodes>
            0 -1 233 -2.4627676233649254e-02</internalNodes>
          <leafValues>
            3.6424005031585693e-01 -1.6341634094715118e-01</leafValues></_>
        <_>
          <internalNodes>
            0 -1 215 -4.1545345447957516e-03</internalNodes>
          <leafValues>
            4.2863345146179199e-01 -1.5165220201015472e-01</leafValues></_>
        <_>
          <internalNodes>
            0 -1 240 -2.7722413651645184e-03</internalNodes>
          <leafValues>
            3.9876574277877808e-01 -1.8779784440994263e-01</leafValues></_>
        <_>
          <internalNodes>
            0 -1 134 2.3336496204137802e-02</internalNodes>
          <leafValues>
            -2.3975056409835815e-01 2.5196275115013123e-01</leafValues></_>
        <_>
          <internalNodes>
            0 -1 238 2.6443541049957275e-02</internalNodes>
          <leafValues>
            -1.0854457318782806e-01 5.9744268655776978e-01</leafValues></_>
        <_>
          <internalNodes>
            0 -1 46 6.6984649747610092e-03</internalNodes>
          <leafValues>
            8.0511182546615601e-02 -9.3139791488647461e-01</leafValues></_></weakClassifiers></_>
    <!-- stage 13 -->
    <_>
      <maxWeakCount>24</maxWeakCount>
      <stageThreshold>-1.7097454071044922e+00</stageThreshold>
      <weakClassifiers>
        <_>
          <internalNodes>
            0 -1 84 8.1013739109039307e-02</internalNodes>
          <leafValues>
            -6.7930561304092407e-01 -1.8756371736526489e-01</leafValues></_>
        <_>
          <internalNodes>
            0 -1 106 1.9056394696235657e-02</internalNodes>
          <leafValues>
            -2.6425093412399292e-01 3.0769643187522888e-01</leafValues></_>
        <_>
          <internalNodes>
            0 -1 337 2.0546317100524902e-03</internalNodes>
          <leafValues>
            1.0136567801237106e-01 -6.8303221464157104e-01</leafValues></_>
        <_>
          <internalNodes>
            0 -1 333 -4.8368133138865232e-04</internalNodes>
          <leafValues>
            -4.0139317512512207e-01 2.0065216720104218e-01</leafValues></_>
        <_>
          <internalNodes>
            0 -1 272 6.1699491925537586e-04</internalNodes>
          <leafValues>
            -3.8672313094139099e-01 1.6873329877853394e-01</leafValues></_>
        <_>
          <internalNodes>
            0 -1 315 -2.9483828693628311e-03</internalNodes>
          <leafValues>
            4.9494418501853943e-01 -1.3372094929218292e-01</leafValues></_>
        <_>
          <internalNodes>
            0 -1 224 -1.0229505132883787e-03</internalNodes>
          <leafValues>
            4.2984628677368164e-01 -1.5718378126621246e-01</leafValues></_>
        <_>
          <internalNodes>
            0 -1 315 1.8517042044550180e-03</internalNodes>
          <leafValues>
            -2.1073277294635773e-01 3.2229909300804138e-01</leafValues></_>
        <_>
          <internalNodes>
            0 -1 22 -7.0950249210000038e-04</internalNodes>
          <leafValues>
            -7.2089356184005737e-01 1.2469252943992615e-01</leafValues></_>
        <_>
          <internalNodes>
            0 -1 70 -3.2769581303000450e-03</internalNodes>
          <leafValues>
            3.4664434194564819e-01 -2.0876787602901459e-01</leafValues></_>
        <_>
          <internalNodes>
            0 -1 83 2.4523783940821886e-03</internalNodes>
          <leafValues>
            -1.5585790574550629e-01 4.3085548281669617e-01</leafValues></_>
        <_>
          <internalNodes>
            0 -1 187 -2.4306908249855042e-02</internalNodes>
          <leafValues>
            3.2750296592712402e-01 -1.8871036171913147e-01</leafValues></_>
        <_>
          <internalNodes>
            0 -1 158 7.0552125573158264e-02</internalNodes>
          <leafValues>
            -1.7673526704311371e-01 4.4419121742248535e-01</leafValues></_>
        <_>
          <internalNodes>
            0 -1 242 2.9647569172084332e-03</internalNodes>
          <leafValues>
            1.0759016126394272e-01 -6.1276632547378540e-01</leafValues></_>
        <_>
          <internalNodes>
            0 -1 115 1.0473803849890828e-03</internalNodes>
          <leafValues>
            1.2709242105484009e-01 -4.8606801033020020e-01</leafValues></_>
        <_>
          <internalNodes>
            0 -1 250 -1.4666233910247684e-03</internalNodes>
          <leafValues>
            3.3503809571266174e-01 -2.1243548393249512e-01</leafValues></_>
        <_>
          <internalNodes>
            0 -1 261 -6.8623619154095650e-04</internalNodes>
          <leafValues>
            -8.2184088230133057e-01 6.4795054495334625e-02</leafValues></_>
        <_>
          <internalNodes>
            0 -1 192 -1.9718771800398827e-03</internalNodes>
          <leafValues>
            3.9385136961936951e-01 -1.6444556415081024e-01</leafValues></_>
        <_>
          <internalNodes>
            0 -1 75 -1.6943227965384722e-03</internalNodes>
          <leafValues>
            2.9332229495048523e-01 -1.9185639917850494e-01</leafValues></_>
        <_>
          <internalNodes>
            0 -1 251 -3.9570396766066551e-03</internalNodes>
          <leafValues>
            3.9086693525314331e-01 -1.7782022058963776e-01</leafValues></_>
        <_>
          <internalNodes>
            0 -1 167 -5.2615195512771606e-02</internalNodes>
          <leafValues>
            -7.9189991950988770e-01 8.8629260659217834e-02</leafValues></_>
        <_>
          <internalNodes>
            0 -1 25 7.5767323374748230e-02</internalNodes>
          <leafValues>
            3.8445375859737396e-02 -9.9398249387741089e-01</leafValues></_>
        <_>
          <internalNodes>
            0 -1 168 -2.6350847911089659e-03</internalNodes>
          <leafValues>
            3.2928663492202759e-01 -1.9668143987655640e-01</leafValues></_>
        <_>
          <internalNodes>
            0 -1 129 -6.2885903753340244e-04</internalNodes>
          <leafValues>
            3.0894020199775696e-01 -2.0080503821372986e-01</leafValues></_></weakClassifiers></_>
    <!-- stage 14 -->
    <_>
      <maxWeakCount>24</maxWeakCount>
      <stageThreshold>-1.5779211521148682e+00</stageThreshold>
      <weakClassifiers>
        <_>
          <internalNodes>
            0 -1 295 3.5220272839069366e-02</internalNodes>
          <leafValues>
            -5.4814815521240234e-01 1.0764430463314056e-01</leafValues></_>
        <_>
          <internalNodes>
            0 -1 262 -1.8485203385353088e-01</internalNodes>
          <leafValues>
            5.8403867483139038e-01 -1.6695378720760345e-01</leafValues></_>
        <_>
          <internalNodes>
            0 -1 217 2.0186118781566620e-03</internalNodes>
          <leafValues>
            1.2278982251882553e-01 -5.9935879707336426e-01</leafValues></_>
        <_>
          <internalNodes>
            0 -1 18 9.8701389506459236e-03</internalNodes>
          <leafValues>
            -2.7780145406723022e-01 2.4394391477108002e-01</leafValues></_>
        <_>
          <internalNodes>
            0 -1 138 4.5444555580615997e-03</internalNodes>
          <leafValues>
            1.2474118173122406e-01 -6.6604286432266235e-01</leafValues></_>
        <_>
          <internalNodes>
            0 -1 135 -3.4240647219121456e-03</internalNodes>
          <leafValues>
            4.0770351886749268e-01 -1.6432292759418488e-01</leafValues></_>
        <_>
          <internalNodes>
            0 -1 48 1.0950204450637102e-03</internalNodes>
          <leafValues>
            1.8152578175067902e-01 -3.9112523198127747e-01</leafValues></_>
        <_>
          <internalNodes>
            0 -1 210 -5.3123494581086561e-05</internalNodes>
          <leafValues>
            1.9105857610702515e-01 -3.2542827725410461e-01</leafValues></_>
        <_>
          <internalNodes>
            0 -1 28 -5.6541584432125092e-02</internalNodes>
          <leafValues>
            -7.3374682664871216e-01 8.0992616713047028e-02</leafValues></_>
        <_>
          <internalNodes>
            0 -1 29 -3.0151300132274628e-02</internalNodes>
          <leafValues>
            -8.2906675338745117e-01 5.9687897562980652e-02</leafValues></_>
        <_>
          <internalNodes>
            0 -1 133 6.2994542531669140e-05</internalNodes>
          <leafValues>
            -2.8332266211509705e-01 2.0282998681068420e-01</leafValues></_>
        <_>
          <internalNodes>
            0 -1 241 -5.0052901497110724e-04</internalNodes>
          <leafValues>
            -7.0343035459518433e-01 8.7457537651062012e-02</leafValues></_>
        <_>
          <internalNodes>
            0 -1 170 5.0291040679439902e-04</internalNodes>
          <leafValues>
            -1.6963744163513184e-01 3.9372763037681580e-01</leafValues></_>
        <_>
          <internalNodes>
            0 -1 146 1.7909992020577192e-03</internalNodes>
          <leafValues>
            -2.5269228219985962e-01 2.3633225262165070e-01</leafValues></_>
        <_>
          <internalNodes>
            0 -1 154 3.3674242440611124e-03</internalNodes>
          <leafValues>
            -1.3058146834373474e-01 4.4985446333885193e-01</leafValues></_>
        <_>
          <internalNodes>
            0 -1 7 1.9221929833292961e-02</internalNodes>
          <leafValues>
            8.4756150841712952e-02 -7.3668307065963745e-01</leafValues></_>
        <_>
          <internalNodes>
            0 -1 266 -7.2096893563866615e-04</internalNodes>
          <leafValues>
            3.6213386058807373e-01 -1.7768327891826630e-01</leafValues></_>
        <_>
          <internalNodes>
            0 -1 307 -4.6195407048799098e-04</internalNodes>
          <leafValues>
            -5.6480449438095093e-01 1.1099256575107574e-01</leafValues></_>
        <_>
          <internalNodes>
            0 -1 268 7.9117901623249054e-03</internalNodes>
          <leafValues>
            -1.6898785531520844e-01 3.5802456736564636e-01</leafValues></_>
        <_>
          <internalNodes>
            0 -1 323 -4.4127367436885834e-03</internalNodes>
          <leafValues>
            -5.2610278129577637e-01 1.0782171040773392e-01</leafValues></_>
        <_>
          <internalNodes>
            0 -1 174 -2.9568262107204646e-05</internalNodes>
          <leafValues>
            2.2592203319072723e-01 -2.4214732646942139e-01</leafValues></_>
        <_>
          <internalNodes>
            0 -1 213 -3.2197167456615716e-05</internalNodes>
          <leafValues>
            1.5457506477832794e-01 -3.6910462379455566e-01</leafValues></_>
        <_>
          <internalNodes>
            0 -1 270 -1.2037712440360337e-04</internalNodes>
          <leafValues>
            2.3207907378673553e-01 -2.1205341815948486e-01</leafValues></_>
        <_>
          <internalNodes>
            0 -1 264 -1.1154040694236755e-03</internalNodes>
          <leafValues>
            3.0961707234382629e-01 -1.8048186600208282e-01</leafValues></_></weakClassifiers></_>
    <!-- stage 15 -->
    <_>
      <maxWeakCount>26</maxWeakCount>
      <stageThreshold>-1.6179714202880859e+00</stageThreshold>
      <weakClassifiers>
        <_>
          <internalNodes>
            0 -1 278 -1.7197057604789734e-01</internalNodes>
          <leafValues>
            4.3382352590560913e-01 -5.0863623619079590e-01</leafValues></_>
        <_>
          <internalNodes>
            0 -1 38 1.1340229772031307e-02</internalNodes>
          <leafValues>
            -2.6141315698623657e-01 2.9966047406196594e-01</leafValues></_>
        <_>
          <internalNodes>
            0 -1 130 -2.8324009850621223e-02</internalNodes>
          <leafValues>
            2.3266229033470154e-01 -2.9212686419487000e-01</leafValues></_>
        <_>
          <internalNodes>
            0 -1 26 -1.8809536704793572e-03</internalNodes>
          <leafValues>
            -6.9126981496810913e-01 9.2645004391670227e-02</leafValues></_>
        <_>
          <internalNodes>
            0 -1 121 1.4937289059162140e-02</internalNodes>
          <leafValues>
            -1.7433814704418182e-01 3.2815665006637573e-01</leafValues></_>
        <_>
          <internalNodes>
            0 -1 328 8.5577985737472773e-04</internalNodes>
          <leafValues>
            9.7325794398784637e-02 -5.6261444091796875e-01</leafValues></_>
        <_>
          <internalNodes>
            0 -1 99 2.1203728392720222e-03</internalNodes>
          <leafValues>
            -1.5735706686973572e-01 3.6722576618194580e-01</leafValues></_>
        <_>
          <internalNodes>
            0 -1 173 2.8113223379477859e-04</internalNodes>
          <leafValues>
            -1.9776180386543274e-01 3.0149331688880920e-01</leafValues></_>
        <_>
          <internalNodes>
            0 -1 63 4.7707289922982454e-04</internalNodes>
          <leafValues>
            9.4237037003040314e-02 -5.4614716768264771e-01</leafValues></_>
        <_>
          <internalNodes>
            0 -1 96 1.0109167778864503e-03</internalNodes>
          <leafValues>
            -1.4444720745086670e-01 3.5926532745361328e-01</leafValues></_>
        <_>
          <internalNodes>
            0 -1 65 4.0710911154747009e-02</internalNodes>
          <leafValues>
            -2.9543867707252502e-01 2.2642539441585541e-01</leafValues></_>
        <_>
          <internalNodes>
            0 -1 243 6.4550012350082397e-02</internalNodes>
          <leafValues>
            1.1053474992513657e-01 -5.0629681348800659e-01</leafValues></_>
        <_>
          <internalNodes>
            0 -1 136 3.5285243939142674e-05</internalNodes>
          <leafValues>
            -2.6733592152595520e-01 2.1996010839939117e-01</leafValues></_>
        <_>
          <internalNodes>
            0 -1 212 3.7250858731567860e-03</internalNodes>
          <leafValues>
            -1.7087484896183014e-01 3.6115428805351257e-01</leafValues></_>
        <_>
          <internalNodes>
            0 -1 149 1.3227951712906361e-03</internalNodes>
          <leafValues>
            1.1051665246486664e-01 -6.8237441778182983e-01</leafValues></_>
        <_>
          <internalNodes>
            0 -1 9 4.8966088797897100e-04</internalNodes>
          <leafValues>
            6.0709618031978607e-02 -7.2128134965896606e-01</leafValues></_>
        <_>
          <internalNodes>
            0 -1 72 -1.0734707117080688e-02</internalNodes>
          <leafValues>
            -7.0740348100662231e-01 5.9124764055013657e-02</leafValues></_>
        <_>
          <internalNodes>
            0 -1 301 6.9078843807801604e-05</internalNodes>
          <leafValues>
            -2.2298549115657806e-01 2.4650031328201294e-01</leafValues></_>
        <_>
          <internalNodes>
            0 -1 73 3.7228696048259735e-02</internalNodes>
          <leafValues>
            -1.5359336137771606e-01 4.1922631859779358e-01</leafValues></_>
        <_>
          <internalNodes>
            0 -1 137 -6.3286563381552696e-03</internalNodes>
          <leafValues>
            4.3376347422599792e-01 -1.2344352900981903e-01</leafValues></_>
        <_>
          <internalNodes>
            0 -1 329 -2.7295951731503010e-03</internalNodes>
          <leafValues>
            -7.5179326534271240e-01 7.9323954880237579e-02</leafValues></_>
        <_>
          <internalNodes>
            0 -1 97 -5.5216699838638306e-03</internalNodes>
          <leafValues>
            3.0980250239372253e-01 -1.8718741834163666e-01</leafValues></_>
        <_>
          <internalNodes>
            0 -1 77 3.8389511406421661e-02</internalNodes>
          <leafValues>
            -1.3091139495372772e-01 4.9851533770561218e-01</leafValues></_>
        <_>
          <internalNodes>
            0 -1 150 -8.1527821021154523e-04</internalNodes>
          <leafValues>
            -6.2510246038436890e-01 9.2358469963073730e-02</leafValues></_>
        <_>
          <internalNodes>
            0 -1 282 -1.7088839085772634e-03</internalNodes>
          <leafValues>
            2.0697848498821259e-01 -2.5382739305496216e-01</leafValues></_>
        <_>
          <internalNodes>
            0 -1 160 -1.4289334416389465e-01</internalNodes>
          <leafValues>
            -8.8892835378646851e-01 6.2247686088085175e-02</leafValues></_></weakClassifiers></_>
    <!-- stage 16 -->
    <_>
      <maxWeakCount>23</maxWeakCount>
      <stageThreshold>-1.4539474248886108e+00</stageThreshold>
      <weakClassifiers>
        <_>
          <internalNodes>
            0 -1 87 1.5872355550527573e-02</internalNodes>
          <leafValues>
            -6.7764472961425781e-01 -2.3148579895496368e-01</leafValues></_>
        <_>
          <internalNodes>
            0 -1 310 1.0500410571694374e-03</internalNodes>
          <leafValues>
            4.4053953140974045e-02 -6.0880142450332642e-01</leafValues></_>
        <_>
          <internalNodes>
            0 -1 294 -3.9201753679662943e-04</internalNodes>
          <leafValues>
            -4.0642392635345459e-01 1.6954217851161957e-01</leafValues></_>
        <_>
          <internalNodes>
            0 -1 11 -8.5597150027751923e-02</internalNodes>
          <leafValues>
            1.6286455094814301e-01 -3.6674919724464417e-01</leafValues></_>
        <_>
          <internalNodes>
            0 -1 305 -1.5457535628229380e-03</internalNodes>
          <leafValues>
            4.0166980028152466e-01 -1.3803644478321075e-01</leafValues></_>
        <_>
          <internalNodes>
            0 -1 260 -3.4163997042924166e-04</internalNodes>
          <leafValues>
            2.9486569762229919e-01 -2.0979489386081696e-01</leafValues></_>
        <_>
          <internalNodes>
            0 -1 1 -8.2817580550909042e-03</internalNodes>
          <leafValues>
            -4.9798747897148132e-01 1.0269603133201599e-01</leafValues></_>
        <_>
          <internalNodes>
            0 -1 193 2.1294136531651020e-03</internalNodes>
          <leafValues>
            -1.5628027915954590e-01 3.9530456066131592e-01</leafValues></_>
        <_>
          <internalNodes>
            0 -1 156 -2.3084788117557764e-03</internalNodes>
          <leafValues>
            5.2416121959686279e-01 -1.3976822793483734e-01</leafValues></_>
        <_>
          <internalNodes>
            0 -1 0 -1.1520360596477985e-02</internalNodes>
          <leafValues>
            -4.7760623693466187e-01 1.2353774905204773e-01</leafValues></_>
        <_>
          <internalNodes>
            0 -1 116 4.3081361800432205e-03</internalNodes>
          <leafValues>
            9.2557854950428009e-02 -5.7464230060577393e-01</leafValues></_>
        <_>
          <internalNodes>
            0 -1 38 8.4365932270884514e-03</internalNodes>
          <leafValues>
            -2.0504927635192871e-01 2.4518533051013947e-01</leafValues></_>
        <_>
          <internalNodes>
            0 -1 54 -8.4358640015125275e-04</internalNodes>
          <leafValues>
            -4.8209470510482788e-01 1.1211469024419785e-01</leafValues></_>
        <_>
          <internalNodes>
            0 -1 281 -6.5224572608713061e-05</internalNodes>
          <leafValues>
            1.1955799907445908e-01 -4.3785318732261658e-01</leafValues></_>
        <_>
          <internalNodes>
            0 -1 248 -4.1764550842344761e-03</internalNodes>
          <leafValues>
            3.7240263819694519e-01 -1.6801275312900543e-01</leafValues></_>
        <_>
          <internalNodes>
            0 -1 219 1.9724212586879730e-02</internalNodes>
          <leafValues>
            -1.7720173299312592e-01 3.4397527575492859e-01</leafValues></_>
        <_>
          <internalNodes>
            0 -1 226 -1.1545436084270477e-01</internalNodes>
          <leafValues>
            -6.6749060153961182e-01 8.4032684564590454e-02</leafValues></_>
        <_>
          <internalNodes>
            0 -1 201 -2.1153900772333145e-02</internalNodes>
          <leafValues>
            2.1229156851768494e-01 -2.3762157559394836e-01</leafValues></_>
        <_>
          <internalNodes>
            0 -1 125 -2.5187216233462095e-03</internalNodes>
          <leafValues>
            3.7181192636489868e-01 -1.4425687491893768e-01</leafValues></_>
        <_>
          <internalNodes>
            0 -1 152 1.5323492698371410e-04</internalNodes>
          <leafValues>
            -2.9316648840904236e-01 1.8458291888237000e-01</leafValues></_>
        <_>
          <internalNodes>
            0 -1 141 -5.2386213093996048e-02</internalNodes>
          <leafValues>
            3.6292672157287598e-01 -1.4374145865440369e-01</leafValues></_>
        <_>
          <internalNodes>
            0 -1 59 -1.8549582455307245e-03</internalNodes>
          <leafValues>
            2.9344677925109863e-01 -1.8456201255321503e-01</leafValues></_>
        <_>
          <internalNodes>
            0 -1 74 -3.8888350129127502e-02</internalNodes>
          <leafValues>
            -7.3526257276535034e-01 7.2651974856853485e-02</leafValues></_></weakClassifiers></_>
    <!-- stage 17 -->
    <_>
      <maxWeakCount>29</maxWeakCount>
      <stageThreshold>-1.5753773450851440e+00</stageThreshold>
      <weakClassifiers>
        <_>
          <internalNodes>
            0 -1 259 -2.8687710873782635e-03</internalNodes>
          <leafValues>
            -9.5145627856254578e-02 -5.6296056509017944e-01</leafValues></_>
        <_>
          <internalNodes>
            0 -1 76 -1.6467101886519231e-05</internalNodes>
          <leafValues>
            1.1457227915525436e-01 -3.7444940209388733e-01</leafValues></_>
        <_>
          <internalNodes>
            0 -1 92 -1.1616880074143410e-02</internalNodes>
          <leafValues>
            1.9785435497760773e-01 -2.7162447571754456e-01</leafValues></_>
        <_>
          <internalNodes>
            0 -1 55 -3.9047692553140223e-04</internalNodes>
          <leafValues>
            -5.2618366479873657e-01 1.4518870413303375e-01</leafValues></_>
        <_>
          <internalNodes>
            0 -1 207 2.4940436560427770e-05</internalNodes>
          <leafValues>
            -2.4072265625000000e-01 2.1589809656143188e-01</leafValues></_>
        <_>
          <internalNodes>
            0 -1 85 3.7682101130485535e-02</internalNodes>
          <leafValues>
            -1.5220353007316589e-01 3.2521572709083557e-01</leafValues></_>
        <_>
          <internalNodes>
            0 -1 236 -4.1549923480488360e-05</internalNodes>
          <leafValues>
            1.8298712372779846e-01 -3.0398502945899963e-01</leafValues></_>
        <_>
          <internalNodes>
            0 -1 161 7.3267943225800991e-03</internalNodes>
          <leafValues>
            -1.9358855485916138e-01 3.2304790616035461e-01</leafValues></_>
        <_>
          <internalNodes>
            0 -1 256 7.6797641813755035e-03</internalNodes>
          <leafValues>
            -1.2822329998016357e-01 4.3788427114486694e-01</leafValues></_>
        <_>
          <internalNodes>
            0 -1 67 -2.9917428037151694e-05</internalNodes>
          <leafValues>
            2.0832134783267975e-01 -2.6284500956535339e-01</leafValues></_>
        <_>
          <internalNodes>
            0 -1 21 -4.7940091462805867e-04</internalNodes>
          <leafValues>
            -5.0795698165893555e-01 1.0182502865791321e-01</leafValues></_>
        <_>
          <internalNodes>
            0 -1 196 -1.1559247504919767e-03</internalNodes>
          <leafValues>
            3.5396510362625122e-01 -1.4580611884593964e-01</leafValues></_>
        <_>
          <internalNodes>
            0 -1 123 1.5541681088507175e-02</internalNodes>
          <leafValues>
            -1.7901189625263214e-01 2.9081544280052185e-01</leafValues></_>
        <_>
          <internalNodes>
            0 -1 334 4.2262871284037828e-04</internalNodes>
          <leafValues>
            9.9321305751800537e-02 -5.5090337991714478e-01</leafValues></_>
        <_>
          <internalNodes>
            0 -1 208 -2.9670398362213746e-05</internalNodes>
          <leafValues>
            1.7441485822200775e-01 -2.7407181262969971e-01</leafValues></_>
        <_>
          <internalNodes>
            0 -1 95 1.3237565290182829e-03</internalNodes>
          <leafValues>
            -1.4055541157722473e-01 3.7510591745376587e-01</leafValues></_>
        <_>
          <internalNodes>
            0 -1 258 2.0909767597913742e-02</internalNodes>
          <leafValues>
            -3.2711002230644226e-01 1.6574148833751678e-01</leafValues></_>
        <_>
          <internalNodes>
            0 -1 306 -1.9300121348351240e-03</internalNodes>
          <leafValues>
            3.4904548525810242e-01 -1.5355376899242401e-01</leafValues></_>
        <_>
          <internalNodes>
            0 -1 91 3.3183783292770386e-02</internalNodes>
          <leafValues>
            7.2892419993877411e-02 -6.8668317794799805e-01</leafValues></_>
        <_>
          <internalNodes>
            0 -1 319 -4.8133323434740305e-04</internalNodes>
          <leafValues>
            -5.9849053621292114e-01 7.0143498480319977e-02</leafValues></_>
        <_>
          <internalNodes>
            0 -1 265 -4.2434148490428925e-03</internalNodes>
          <leafValues>
            3.6485645174980164e-01 -1.5129753947257996e-01</leafValues></_>
        <_>
          <internalNodes>
            0 -1 292 1.9806465134024620e-03</internalNodes>
          <leafValues>
            -1.5917238593101501e-01 4.0531712770462036e-01</leafValues></_>
        <_>
          <internalNodes>
            0 -1 145 -4.7593250870704651e-02</internalNodes>
          <leafValues>
            -7.7336728572845459e-01 6.3786543905735016e-02</leafValues></_>
        <_>
          <internalNodes>
            0 -1 273 -4.7563281841576099e-03</internalNodes>
          <leafValues>
            3.9006230235099792e-01 -1.4209704101085663e-01</leafValues></_>
        <_>
          <internalNodes>
            0 -1 231 -6.3934750854969025e-02</internalNodes>
          <leafValues>
            3.7189432978630066e-01 -1.4471031725406647e-01</leafValues></_>
        <_>
          <internalNodes>
            0 -1 52 7.1865499019622803e-02</internalNodes>
          <leafValues>
            -8.7609812617301941e-02 5.4641997814178467e-01</leafValues></_>
        <_>
          <internalNodes>
            0 -1 69 -1.0705674067139626e-02</internalNodes>
          <leafValues>
            4.7234559059143066e-01 -1.3048654794692993e-01</leafValues></_>
        <_>
          <internalNodes>
            0 -1 79 -1.6133818030357361e-01</internalNodes>
          <leafValues>
            4.2895010113716125e-01 -1.1111615598201752e-01</leafValues></_>
        <_>
          <internalNodes>
            0 -1 304 4.3687187135219574e-02</internalNodes>
          <leafValues>
            -1.1366755515336990e-01 4.7892153263092041e-01</leafValues></_></weakClassifiers></_>
    <!-- stage 18 -->
    <_>
      <maxWeakCount>30</maxWeakCount>
      <stageThreshold>-1.3854939937591553e+00</stageThreshold>
      <weakClassifiers>
        <_>
          <internalNodes>
            0 -1 247 4.7329682856798172e-03</internalNodes>
          <leafValues>
            -5.2071487903594971e-01 1.4847160875797272e-01</leafValues></_>
        <_>
          <internalNodes>
            0 -1 78 2.7267023921012878e-02</internalNodes>
          <leafValues>
            -3.1785464286804199e-01 1.7732711136341095e-01</leafValues></_>
        <_>
          <internalNodes>
            0 -1 303 7.6879514381289482e-04</internalNodes>
          <leafValues>
            1.2017885595560074e-01 -4.5702514052391052e-01</leafValues></_>
        <_>
          <internalNodes>
            0 -1 102 7.5582817196846008e-02</internalNodes>
          <leafValues>
            -7.0378974080085754e-02 5.7985359430313110e-01</leafValues></_>
        <_>
          <internalNodes>
            0 -1 33 2.1013498306274414e-02</internalNodes>
          <leafValues>
            -2.3756103217601776e-01 2.3920433223247528e-01</leafValues></_>
        <_>
          <internalNodes>
            0 -1 289 2.2675571381114423e-04</internalNodes>
          <leafValues>
            -2.6415652036666870e-01 1.9180294871330261e-01</leafValues></_>
        <_>
          <internalNodes>
            0 -1 227 -6.9943301379680634e-02</internalNodes>
          <leafValues>
            4.2202568054199219e-01 -1.1905451864004135e-01</leafValues></_>
        <_>
          <internalNodes>
            0 -1 89 1.2249104678630829e-02</internalNodes>
          <leafValues>
            9.5195844769477844e-02 -5.5170738697052002e-01</leafValues></_>
        <_>
          <internalNodes>
            0 -1 339 -5.8624500525183976e-05</internalNodes>
          <leafValues>
            1.6724298894405365e-01 -2.9215735197067261e-01</leafValues></_>
        <_>
          <internalNodes>
            0 -1 338 -3.8037532940506935e-03</internalNodes>
          <leafValues>
            -5.4277074337005615e-01 1.0579863190650940e-01</leafValues></_>
        <_>
          <internalNodes>
            0 -1 290 -2.3840526118874550e-03</internalNodes>
          <leafValues>
            4.5381072163581848e-01 -1.2144558876752853e-01</leafValues></_>
        <_>
          <internalNodes>
            0 -1 162 -1.5363073907792568e-03</internalNodes>
          <leafValues>
            3.3742538094520569e-01 -1.5903834998607635e-01</leafValues></_>
        <_>
          <internalNodes>
            0 -1 191 -4.6419342979788780e-03</internalNodes>
          <leafValues>
            5.5453032255172729e-01 -9.5336683094501495e-02</leafValues></_>
        <_>
          <internalNodes>
            0 -1 49 -2.1342542022466660e-03</internalNodes>
          <leafValues>
            -5.3106588125228882e-01 1.0096684843301773e-01</leafValues></_>
        <_>
          <internalNodes>
            0 -1 182 6.1114711570553482e-05</internalNodes>
          <leafValues>
            -2.4233275651931763e-01 2.0592811703681946e-01</leafValues></_>
        <_>
          <internalNodes>
            0 -1 257 -1.9646491273306310e-04</internalNodes>
          <leafValues>
            3.6117735505104065e-01 -1.4286257326602936e-01</leafValues></_>
        <_>
          <internalNodes>
            0 -1 253 -1.9944108498748392e-04</internalNodes>
          <leafValues>
            2.0924402773380280e-01 -2.4601250886917114e-01</leafValues></_>
        <_>
          <internalNodes>
            0 -1 331 6.3186389161273837e-04</internalNodes>
          <leafValues>
            8.1078290939331055e-02 -5.3467100858688354e-01</leafValues></_>
        <_>
          <internalNodes>
            0 -1 35 4.2449319735169411e-03</internalNodes>
          <leafValues>
            -1.3494278490543365e-01 3.7428775429725647e-01</leafValues></_>
        <_>
          <internalNodes>
            0 -1 57 3.7213187664747238e-02</internalNodes>
          <leafValues>
            7.1422919631004333e-02 -7.1484118700027466e-01</leafValues></_>
        <_>
          <internalNodes>
            0 -1 80 -9.4921060372143984e-04</internalNodes>
          <leafValues>
            -4.9434873461723328e-01 7.8105486929416656e-02</leafValues></_>
        <_>
          <internalNodes>
            0 -1 181 -1.2921569868922234e-03</internalNodes>
          <leafValues>
            -6.0790568590164185e-01 6.9805465638637543e-02</leafValues></_>
        <_>
          <internalNodes>
            0 -1 314 -1.4637559652328491e-03</internalNodes>
          <leafValues>
            3.1095784902572632e-01 -1.4316070079803467e-01</leafValues></_>
        <_>
          <internalNodes>
            0 -1 296 5.4800435900688171e-03</internalNodes>
          <leafValues>
            -1.6165597736835480e-01 3.4656524658203125e-01</leafValues></_>
        <_>
          <internalNodes>
            0 -1 205 -1.1064894497394562e-03</internalNodes>
          <leafValues>
            2.5112989544868469e-01 -2.1691881120204926e-01</leafValues></_>
        <_>
          <internalNodes>
            0 -1 94 4.1697351261973381e-03</internalNodes>
          <leafValues>
            -1.4957219362258911e-01 3.5037928819656372e-01</leafValues></_>
        <_>
          <internalNodes>
            0 -1 34 -3.6595180630683899e-02</internalNodes>
          <leafValues>
            -8.1678628921508789e-01 5.5853113532066345e-02</leafValues></_>
        <_>
          <internalNodes>
            0 -1 298 3.7314882501959801e-04</internalNodes>
          <leafValues>
            6.6880486905574799e-02 -6.0276037454605103e-01</leafValues></_>
        <_>
          <internalNodes>
            0 -1 228 4.8252239823341370e-02</internalNodes>
          <leafValues>
            3.9969496428966522e-02 -9.3153917789459229e-01</leafValues></_>
        <_>
          <internalNodes>
            0 -1 293 -1.7720184987410903e-03</internalNodes>
          <leafValues>
            2.1990889310836792e-01 -2.2111526131629944e-01</leafValues></_></weakClassifiers></_>
    <!-- stage 19 -->
    <_>
      <maxWeakCount>26</maxWeakCount>
      <stageThreshold>-1.4437586069107056e+00</stageThreshold>
      <weakClassifiers>
        <_>
          <internalNodes>
            0 -1 47 -4.4488903949968517e-04</internalNodes>
          <leafValues>
            -2.2866520285606384e-01 -6.1859661340713501e-01</leafValues></_>
        <_>
          <internalNodes>
            0 -1 4 -7.3808476328849792e-02</internalNodes>
          <leafValues>
            1.8865247070789337e-01 -3.0395987629890442e-01</leafValues></_>
        <_>
          <internalNodes>
            0 -1 320 -8.7326811626553535e-04</internalNodes>
          <leafValues>
            -3.9221227169036865e-01 1.6052904725074768e-01</leafValues></_>
        <_>
          <internalNodes>
            0 -1 82 -5.1519204862415791e-03</internalNodes>
          <leafValues>
            2.4745668470859528e-01 -2.2743229568004608e-01</leafValues></_>
        <_>
          <internalNodes>
            0 -1 166 -1.0282320901751518e-02</internalNodes>
          <leafValues>
            -4.4798010587692261e-01 1.3187730312347412e-01</leafValues></_>
        <_>
          <internalNodes>
            0 -1 22 3.8548198062926531e-04</internalNodes>
          <leafValues>
            9.7333416342735291e-02 -4.4227600097656250e-01</leafValues></_>
        <_>
          <internalNodes>
            0 -1 119 1.5196833759546280e-02</internalNodes>
          <leafValues>
            -2.5744572281837463e-01 1.8244640529155731e-01</leafValues></_>
        <_>
          <internalNodes>
            0 -1 114 2.7693522861227393e-04</internalNodes>
          <leafValues>
            -1.9249838590621948e-01 2.4491584300994873e-01</leafValues></_>
        <_>
          <internalNodes>
            0 -1 45 3.3007081598043442e-02</internalNodes>
          <leafValues>
            -2.1339827775955200e-01 2.4195094406604767e-01</leafValues></_>
        <_>
          <internalNodes>
            0 -1 155 -3.0442965216934681e-03</internalNodes>
          <leafValues>
            4.6625068783760071e-01 -1.1895939707756042e-01</leafValues></_>
        <_>
          <internalNodes>
            0 -1 242 -6.9494533818215132e-04</internalNodes>
          <leafValues>
            -3.8213899731636047e-01 1.3819077610969543e-01</leafValues></_>
        <_>
          <internalNodes>
            0 -1 81 2.6639467105269432e-03</internalNodes>
          <leafValues>
            -1.6172581911087036e-01 3.1401064991950989e-01</leafValues></_>
        <_>
          <internalNodes>
            0 -1 111 6.6765367984771729e-02</internalNodes>
          <leafValues>
            9.3137502670288086e-02 -5.1709496974945068e-01</leafValues></_>
        <_>
          <internalNodes>
            0 -1 117 1.7990350723266602e-02</internalNodes>
          <leafValues>
            7.8017853200435638e-02 -6.1503905057907104e-01</leafValues></_>
        <_>
          <internalNodes>
            0 -1 239 -2.6418713969178498e-04</internalNodes>
          <leafValues>
            2.4234652519226074e-01 -2.0373672246932983e-01</leafValues></_>
        <_>
          <internalNodes>
            0 -1 300 -1.5501367161050439e-03</internalNodes>
          <leafValues>
            -8.4148126840591431e-01 5.1693625748157501e-02</leafValues></_>
        <_>
          <internalNodes>
            0 -1 88 -5.4503226419910789e-04</internalNodes>
          <leafValues>
            -4.2030981183052063e-01 1.0423360019922256e-01</leafValues></_>
        <_>
          <internalNodes>
            0 -1 220 -9.7135547548532486e-03</internalNodes>
          <leafValues>
            5.0037914514541626e-01 -1.0515602678060532e-01</leafValues></_>
        <_>
          <internalNodes>
            0 -1 245 1.6924547962844372e-03</internalNodes>
          <leafValues>
            -1.4743769168853760e-01 3.3093327283859253e-01</leafValues></_>
        <_>
          <internalNodes>
            0 -1 139 -8.3634614944458008e-02</internalNodes>
          <leafValues>
            -5.9689450263977051e-01 8.9435897767543793e-02</leafValues></_>
        <_>
          <internalNodes>
            0 -1 216 -5.1140936557203531e-04</internalNodes>
          <leafValues>
            -7.5499331951141357e-01 5.3268659859895706e-02</leafValues></_>
        <_>
          <internalNodes>
            0 -1 299 3.0954403337091208e-04</internalNodes>
          <leafValues>
            -1.6123126447200775e-01 3.0251282453536987e-01</leafValues></_>
        <_>
          <internalNodes>
            0 -1 321 -6.1675603501498699e-04</internalNodes>
          <leafValues>
            -4.6167311072349548e-01 1.0127823054790497e-01</leafValues></_>
        <_>
          <internalNodes>
            0 -1 204 6.3371367286890745e-04</internalNodes>
          <leafValues>
            -9.8627626895904541e-02 5.0037908554077148e-01</leafValues></_>
        <_>
          <internalNodes>
            0 -1 254 3.0074450187385082e-03</internalNodes>
          <leafValues>
            6.9762736558914185e-02 -7.0974570512771606e-01</leafValues></_>
        <_>
          <internalNodes>
            0 -1 317 -1.3070802669972181e-03</internalNodes>
          <leafValues>
            1.8753457069396973e-01 -2.3417702317237854e-01</leafValues></_></weakClassifiers></_></stages>
  <features>
    <_>
      <rects>
        <_>
          0 0 21 2 -1.</_>
        <_>
          7 0 7 2 3.</_></rects>
      <tilted>0</tilted></_>
    <_>
      <rects>
        <_>
          0 2 8 10 -1.</_>
        <_>
          0 2 4 5 2.</_>
        <_>
          4 7 4 5 2.</_></rects>
      <tilted>0</tilted></_>
    <_>
      <rects>
        <_>
          0 3 2 12 -1.</_>
        <_>
          0 7 2 4 3.</_></rects>
      <tilted>0</tilted></_>
    <_>
      <rects>
        <_>
          0 3 3 12 -1.</_>
        <_>
          0 7 3 4 3.</_></rects>
      <tilted>0</tilted></_>
    <_>
      <rects>
        <_>
          0 3 16 16 -1.</_>
        <_>
          0 3 8 8 2.</_>
        <_>
          8 11 8 8 2.</_></rects>
      <tilted>0</tilted></_>
    <_>
      <rects>
        <_>
          0 3 23 18 -1.</_>
        <_>
          0 9 23 6 3.</_></rects>
      <tilted>0</tilted></_>
    <_>
      <rects>
        <_>
          0 3 24 12 -1.</_>
        <_>
          0 9 24 6 2.</_></rects>
      <tilted>0</tilted></_>
    <_>
      <rects>
        <_>
          0 4 10 8 -1.</_>
        <_>
          0 4 5 4 2.</_>
        <_>
          5 8 5 4 2.</_></rects>
      <tilted>0</tilted></_>
    <_>
      <rects>
        <_>
          0 5 22 15 -1.</_>
        <_>
          0 10 22 5 3.</_></rects>
      <tilted>0</tilted></_>
    <_>
      <rects>
        <_>
          0 6 4 2 -1.</_>
        <_>
          0 6 2 1 2.</_>
        <_>
          2 7 2 1 2.</_></rects>
      <tilted>0</tilted></_>
    <_>
      <rects>
        <_>
          0 6 12 18 -1.</_>
        <_>
          4 6 4 18 3.</_></rects>
      <tilted>0</tilted></_>
    <_>
      <rects>
        <_>
          0 6 18 18 -1.</_>
        <_>
          0 12 18 6 3.</_></rects>
      <tilted>0</tilted></_>
    <_>
      <rects>
        <_>
          0 7 1 9 -1.</_>
        <_>
          0 10 1 3 3.</_></rects>
      <tilted>0</tilted></_>
    <_>
      <rects>
        <_>
          0 7 2 9 -1.</_>
        <_>
          0 10 2 3 3.</_></rects>
      <tilted>0</tilted></_>
    <_>
      <rects>
        <_>
          0 7 3 2 -1.</_>
        <_>
          0 8 3 1 2.</_></rects>
      <tilted>0</tilted></_>
    <_>
      <rects>
        <_>
          0 7 8 16 -1.</_>
        <_>
          0 7 4 8 2.</_>
        <_>
          4 15 4 8 2.</_></rects>
      <tilted>0</tilted></_>
    <_>
      <rects>
        <_>
          0 8 4 4 -1.</_>
        <_>
          0 8 2 2 2.</_>
        <_>
          2 10 2 2 2.</_></rects>
      <tilted>0</tilted></_>
    <_>
      <rects>
        <_>
          0 8 3 6 -1.</_>
        <_>
          0 10 3 2 3.</_></rects>
      <tilted>0</tilted></_>
    <_>
      <rects>
        <_>
          0 8 6 14 -1.</_>
        <_>
          3 8 3 14 2.</_></rects>
      <tilted>0</tilted></_>
    <_>
      <rects>
        <_>
          0 9 1 6 -1.</_>
        <_>
          0 11 1 2 3.</_></rects>
      <tilted>0</tilted></_>
    <_>
      <rects>
        <_>
          0 9 2 6 -1.</_>
        <_>
          0 11 2 2 3.</_></rects>
      <tilted>0</tilted></_>
    <_>
      <rects>
        <_>
          0 10 1 4 -1.</_>
        <_>
          0 12 1 2 2.</_></rects>
      <tilted>0</tilted></_>
    <_>
      <rects>
        <_>
          0 11 2 6 -1.</_>
        <_>
          0 11 1 3 2.</_>
        <_>
          1 14 1 3 2.</_></rects>
      <tilted>0</tilted></_>
    <_>
      <rects>
        <_>
          0 11 2 4 -1.</_>
        <_>
          0 13 2 2 2.</_></rects>
      <tilted>0</tilted></_>
    <_>
      <rects>
        <_>
          0 11 15 11 -1.</_>
        <_>
          5 11 5 11 3.</_></rects>
      <tilted>0</tilted></_>
    <_>
      <rects>
        <_>
          0 11 9 12 -1.</_>
        <_>
          0 15 9 4 3.</_></rects>
      <tilted>0</tilted></_>
    <_>
      <rects>
        <_>
          0 12 1 6 -1.</_>
        <_>
          0 15 1 3 2.</_></rects>
      <tilted>0</tilted></_>
    <_>
      <rects>
        <_>
          0 12 8 10 -1.</_>
        <_>
          0 12 4 5 2.</_>
        <_>
          4 17 4 5 2.</_></rects>
      <tilted>0</tilted></_>
    <_>
      <rects>
        <_>
          0 12 8 12 -1.</_>
        <_>
          0 16 8 4 3.</_></rects>
      <tilted>0</tilted></_>
    <_>
      <rects>
        <_>
          0 12 23 6 -1.</_>
        <_>
          0 14 23 2 3.</_></rects>
      <tilted>0</tilted></_>
    <_>
      <rects>
        <_>
          0 13 10 9 -1.</_>
        <_>
          5 13 5 9 2.</_></rects>
      <tilted>0</tilted></_>
    <_>
      <rects>
        <_>
          0 13 18 9 -1.</_>
        <_>
          6 13 6 9 3.</_></rects>
      <tilted>0</tilted></_>
    <_>
      <rects>
        <_>
          0 13 18 10 -1.</_>
        <_>
          6 13 6 10 3.</_></rects>
      <tilted>0</tilted></_>
    <_>
      <rects>
        <_>
          0 13 9 8 -1.</_>
        <_>
          0 17 9 4 2.</_></rects>
      <tilted>0</tilted></_>
    <_>
      <rects>
        <_>
          0 15 6 9 -1.</_>
        <_>
          0 18 6 3 3.</_></rects>
      <tilted>0</tilted></_>
    <_>
      <rects>
        <_>
          0 16 2 7 -1.</_>
        <_>
          1 16 1 7 2.</_></rects>
      <tilted>0</tilted></_>
    <_>
      <rects>
        <_>
          0 16 2 8 -1.</_>
        <_>
          1 16 1 8 2.</_></rects>
      <tilted>0</tilted></_>
    <_>
      <rects>
        <_>
          0 16 4 7 -1.</_>
        <_>
          2 16 2 7 2.</_></rects>
      <tilted>0</tilted></_>
    <_>
      <rects>
        <_>
          0 16 4 8 -1.</_>
        <_>
          2 16 2 8 2.</_></rects>
      <tilted>0</tilted></_>
    <_>
      <rects>
        <_>
          0 16 12 1 -1.</_>
        <_>
          4 16 4 1 3.</_></rects>
      <tilted>0</tilted></_>
    <_>
      <rects>
        <_>
          0 16 12 8 -1.</_>
        <_>
          0 20 12 4 2.</_></rects>
      <tilted>0</tilted></_>
    <_>
      <rects>
        <_>
          0 17 6 3 -1.</_>
        <_>
          0 18 6 1 3.</_></rects>
      <tilted>0</tilted></_>
    <_>
      <rects>
        <_>
          0 18 2 6 -1.</_>
        <_>
          1 18 1 6 2.</_></rects>
      <tilted>0</tilted></_>
    <_>
      <rects>
        <_>
          0 18 18 6 -1.</_>
        <_>
          0 18 9 3 2.</_>
        <_>
          9 21 9 3 2.</_></rects>
      <tilted>0</tilted></_>
    <_>
      <rects>
        <_>
          0 18 24 6 -1.</_>
        <_>
          0 21 24 3 2.</_></rects>
      <tilted>0</tilted></_>
    <_>
      <rects>
        <_>
          0 20 22 4 -1.</_>
        <_>
          0 22 22 2 2.</_></rects>
      <tilted>0</tilted></_>
    <_>
      <rects>
        <_>
          0 22 7 2 -1.</_>
        <_>
          0 23 7 1 2.</_></rects>
      <tilted>0</tilted></_>
    <_>
      <rects>
        <_>
          1 0 1 10 -1.</_>
        <_>
          1 5 1 5 2.</_></rects>
      <tilted>0</tilted></_>
    <_>
      <rects>
        <_>
          1 0 15 1 -1.</_>
        <_>
          6 0 5 1 3.</_></rects>
      <tilted>0</tilted></_>
    <_>
      <rects>
        <_>
          1 2 2 6 -1.</_>
        <_>
          1 5 2 3 2.</_></rects>
      <tilted>0</tilted></_>
    <_>
      <rects>
        <_>
          1 3 2 6 -1.</_>
        <_>
          1 5 2 2 3.</_></rects>
      <tilted>0</tilted></_>
    <_>
      <rects>
        <_>
          1 6 18 18 -1.</_>
        <_>
          1 12 18 6 3.</_></rects>
      <tilted>0</tilted></_>
    <_>
      <rects>
        <_>
          1 7 8 16 -1.</_>
        <_>
          1 7 4 8 2.</_>
        <_>
          5 15 4 8 2.</_></rects>
      <tilted>0</tilted></_>
    <_>
      <rects>
        <_>
          1 7 21 11 -1.</_>
        <_>
          8 7 7 11 3.</_></rects>
      <tilted>0</tilted></_>
    <_>
      <rects>
        <_>
          1 8 3 6 -1.</_>
        <_>
          1 10 3 2 3.</_></rects>
      <tilted>0</tilted></_>
    <_>
      <rects>
        <_>
          1 9 2 6 -1.</_>
        <_>
          1 9 1 3 2.</_>
        <_>
          2 12 1 3 2.</_></rects>
      <tilted>0</tilted></_>
    <_>
      <rects>
        <_>
          1 15 4 8 -1.</_>
        <_>
          1 15 2 4 2.</_>
        <_>
          3 19 2 4 2.</_></rects>
      <tilted>0</tilted></_>
    <_>
      <rects>
        <_>
          1 15 6 9 -1.</_>
        <_>
          1 18 6 3 3.</_></rects>
      <tilted>0</tilted></_>
    <_>
      <rects>
        <_>
          1 16 22 8 -1.</_>
        <_>
          1 20 22 4 2.</_></rects>
      <tilted>0</tilted></_>
    <_>
      <rects>
        <_>
          1 17 8 1 -1.</_>
        <_>
          5 17 4 1 2.</_></rects>
      <tilted>0</tilted></_>
    <_>
      <rects>
        <_>
          2 0 3 10 -1.</_>
        <_>
          3 0 1 10 3.</_></rects>
      <tilted>0</tilted></_>
    <_>
      <rects>
        <_>
          2 0 3 11 -1.</_>
        <_>
          3 0 1 11 3.</_></rects>
      <tilted>0</tilted></_>
    <_>
      <rects>
        <_>
          2 0 14 20 -1.</_>
        <_>
          2 0 7 10 2.</_>
        <_>
          9 10 7 10 2.</_></rects>
      <tilted>0</tilted></_>
    <_>
      <rects>
        <_>
          2 4 2 3 -1.</_>
        <_>
          3 4 1 3 2.</_></rects>
      <tilted>0</tilted></_>
    <_>
      <rects>
        <_>
          2 5 2 18 -1.</_>
        <_>
          2 5 1 9 2.</_>
        <_>
          3 14 1 9 2.</_></rects>
      <tilted>0</tilted></_>
    <_>
      <rects>
        <_>
          2 5 12 14 -1.</_>
        <_>
          6 5 4 14 3.</_></rects>
      <tilted>0</tilted></_>
    <_>
      <rects>
        <_>
          2 8 17 9 -1.</_>
        <_>
          2 11 17 3 3.</_></rects>
      <tilted>0</tilted></_>
    <_>
      <rects>
        <_>
          2 9 1 6 -1.</_>
        <_>
          2 12 1 3 2.</_></rects>
      <tilted>0</tilted></_>
    <_>
      <rects>
        <_>
          2 11 1 4 -1.</_>
        <_>
          2 13 1 2 2.</_></rects>
      <tilted>0</tilted></_>
    <_>
      <rects>
        <_>
          2 12 4 10 -1.</_>
        <_>
          2 12 2 5 2.</_>
        <_>
          4 17 2 5 2.</_></rects>
      <tilted>0</tilted></_>
    <_>
      <rects>
        <_>
          2 15 6 4 -1.</_>
        <_>
          2 15 3 2 2.</_>
        <_>
          5 17 3 2 2.</_></rects>
      <tilted>0</tilted></_>
    <_>
      <rects>
        <_>
          2 16 9 8 -1.</_>
        <_>
          2 20 9 4 2.</_></rects>
      <tilted>0</tilted></_>
    <_>
      <rects>
        <_>
          2 20 4 4 -1.</_>
        <_>
          2 22 4 2 2.</_></rects>
      <tilted>0</tilted></_>
    <_>
      <rects>
        <_>
          2 20 22 4 -1.</_>
        <_>
          2 20 11 2 2.</_>
        <_>
          13 22 11 2 2.</_></rects>
      <tilted>0</tilted></_>
    <_>
      <rects>
        <_>
          3 1 8 12 -1.</_>
        <_>
          3 1 4 6 2.</_>
        <_>
          7 7 4 6 2.</_></rects>
      <tilted>0</tilted></_>
    <_>
      <rects>
        <_>
          3 4 14 2 -1.</_>
        <_>
          3 4 7 1 2.</_>
        <_>
          10 5 7 1 2.</_></rects>
      <tilted>0</tilted></_>
    <_>
      <rects>
        <_>
          3 4 12 6 -1.</_>
        <_>
          3 6 12 2 3.</_></rects>
      <tilted>0</tilted></_>
    <_>
      <rects>
        <_>
          3 5 6 18 -1.</_>
        <_>
          3 5 3 9 2.</_>
        <_>
          6 14 3 9 2.</_></rects>
      <tilted>0</tilted></_>
    <_>
      <rects>
        <_>
          3 5 9 18 -1.</_>
        <_>
          6 5 3 18 3.</_></rects>
      <tilted>0</tilted></_>
    <_>
      <rects>
        <_>
          3 5 15 18 -1.</_>
        <_>
          8 5 5 18 3.</_></rects>
      <tilted>0</tilted></_>
    <_>
      <rects>
        <_>
          3 6 3 7 -1.</_>
        <_>
          4 6 1 7 3.</_></rects>
      <tilted>0</tilted></_>
    <_>
      <rects>
        <_>
          3 7 2 16 -1.</_>
        <_>
          3 7 1 8 2.</_>
        <_>
          4 15 1 8 2.</_></rects>
      <tilted>0</tilted></_>
    <_>
      <rects>
        <_>
          3 9 18 6 -1.</_>
        <_>
          3 11 18 2 3.</_></rects>
      <tilted>0</tilted></_>
    <_>
      <rects>
        <_>
          3 15 4 4 -1.</_>
        <_>
          3 15 2 2 2.</_>
        <_>
          5 17 2 2 2.</_></rects>
      <tilted>0</tilted></_>
    <_>
      <rects>
        <_>
          3 16 14 8 -1.</_>
        <_>
          3 20 14 4 2.</_></rects>
      <tilted>0</tilted></_>
    <_>
      <rects>
        <_>
          3 20 16 4 -1.</_>
        <_>
          3 22 16 2 2.</_></rects>
      <tilted>0</tilted></_>
    <_>
      <rects>
        <_>
          4 0 14 9 -1.</_>
        <_>
          4 3 14 3 3.</_></rects>
      <tilted>0</tilted></_>
    <_>
      <rects>
        <_>
          4 0 20 9 -1.</_>
        <_>
          4 3 20 3 3.</_></rects>
      <tilted>0</tilted></_>
    <_>
      <rects>
        <_>
          4 2 3 10 -1.</_>
        <_>
          5 2 1 10 3.</_></rects>
      <tilted>0</tilted></_>
    <_>
      <rects>
        <_>
          4 3 10 8 -1.</_>
        <_>
          4 7 10 4 2.</_></rects>
      <tilted>0</tilted></_>
    <_>
      <rects>
        <_>
          4 6 9 15 -1.</_>
        <_>
          7 6 3 15 3.</_></rects>
      <tilted>0</tilted></_>
    <_>
      <rects>
        <_>
          4 6 14 9 -1.</_>
        <_>
          4 9 14 3 3.</_></rects>
      <tilted>0</tilted></_>
    <_>
      <rects>
        <_>
          4 8 20 9 -1.</_>
        <_>
          4 11 20 3 3.</_></rects>
      <tilted>0</tilted></_>
    <_>
      <rects>
        <_>
          4 10 6 10 -1.</_>
        <_>
          4 10 3 5 2.</_>
        <_>
          7 15 3 5 2.</_></rects>
      <tilted>0</tilted></_>
    <_>
      <rects>
        <_>
          4 11 6 6 -1.</_>
        <_>
          4 11 3 3 2.</_>
        <_>
          7 14 3 3 2.</_></rects>
      <tilted>0</tilted></_>
    <_>
      <rects>
        <_>
          4 11 8 2 -1.</_>
        <_>
          4 11 4 1 2.</_>
        <_>
          8 12 4 1 2.</_></rects>
      <tilted>0</tilted></_>
    <_>
      <rects>
        <_>
          4 12 8 2 -1.</_>
        <_>
          4 12 4 1 2.</_>
        <_>
          8 13 4 1 2.</_></rects>
      <tilted>0</tilted></_>
    <_>
      <rects>
        <_>
          4 13 4 8 -1.</_>
        <_>
          4 13 2 4 2.</_>
        <_>
          6 17 2 4 2.</_></rects>
      <tilted>0</tilted></_>
    <_>
      <rects>
        <_>
          4 13 6 6 -1.</_>
        <_>
          4 13 3 3 2.</_>
        <_>
          7 16 3 3 2.</_></rects>
      <tilted>0</tilted></_>
    <_>
      <rects>
        <_>
          4 15 4 4 -1.</_>
        <_>
          4 15 2 2 2.</_>
        <_>
          6 17 2 2 2.</_></rects>
      <tilted>0</tilted></_>
    <_>
      <rects>
        <_>
          4 16 4 8 -1.</_>
        <_>
          4 16 2 4 2.</_>
        <_>
          6 20 2 4 2.</_></rects>
      <tilted>0</tilted></_>
    <_>
      <rects>
        <_>
          4 16 10 8 -1.</_>
        <_>
          4 16 5 4 2.</_>
        <_>
          9 20 5 4 2.</_></rects>
      <tilted>0</tilted></_>
    <_>
      <rects>
        <_>
          4 18 20 3 -1.</_>
        <_>
          14 18 10 3 2.</_></rects>
      <tilted>0</tilted></_>
    <_>
      <rects>
        <_>
          4 23 16 1 -1.</_>
        <_>
          12 23 8 1 2.</_></rects>
      <tilted>0</tilted></_>
    <_>
      <rects>
        <_>
          5 0 15 1 -1.</_>
        <_>
          10 0 5 1 3.</_></rects>
      <tilted>0</tilted></_>
    <_>
      <rects>
        <_>
          5 0 13 9 -1.</_>
        <_>
          5 3 13 3 3.</_></rects>
      <tilted>0</tilted></_>
    <_>
      <rects>
        <_>
          5 1 14 6 -1.</_>
        <_>
          5 3 14 2 3.</_></rects>
      <tilted>0</tilted></_>
    <_>
      <rects>
        <_>
          5 4 11 6 -1.</_>
        <_>
          5 6 11 2 3.</_></rects>
      <tilted>0</tilted></_>
    <_>
      <rects>
        <_>
          5 11 15 9 -1.</_>
        <_>
          10 11 5 9 3.</_></rects>
      <tilted>0</tilted></_>
    <_>
      <rects>
        <_>
          5 12 6 8 -1.</_>
        <_>
          5 12 3 4 2.</_>
        <_>
          8 16 3 4 2.</_></rects>
      <tilted>0</tilted></_>
    <_>
      <rects>
        <_>
          5 14 4 4 -1.</_>
        <_>
          5 14 2 2 2.</_>
        <_>
          7 16 2 2 2.</_></rects>
      <tilted>0</tilted></_>
    <_>
      <rects>
        <_>
          5 14 5 10 -1.</_>
        <_>
          5 19 5 5 2.</_></rects>
      <tilted>0</tilted></_>
    <_>
      <rects>
        <_>
          5 15 4 2 -1.</_>
        <_>
          5 15 2 1 2.</_>
        <_>
          7 16 2 1 2.</_></rects>
      <tilted>0</tilted></_>
    <_>
      <rects>
        <_>
          5 16 4 6 -1.</_>
        <_>
          5 16 2 3 2.</_>
        <_>
          7 19 2 3 2.</_></rects>
      <tilted>0</tilted></_>
    <_>
      <rects>
        <_>
          5 17 2 4 -1.</_>
        <_>
          5 17 1 2 2.</_>
        <_>
          6 19 1 2 2.</_></rects>
      <tilted>0</tilted></_>
    <_>
      <rects>
        <_>
          6 0 9 1 -1.</_>
        <_>
          9 0 3 1 3.</_></rects>
      <tilted>0</tilted></_>
    <_>
      <rects>
        <_>
          6 0 12 1 -1.</_>
        <_>
          10 0 4 1 3.</_></rects>
      <tilted>0</tilted></_>
    <_>
      <rects>
        <_>
          6 0 18 2 -1.</_>
        <_>
          12 0 6 2 3.</_></rects>
      <tilted>0</tilted></_>
    <_>
      <rects>
        <_>
          6 0 16 1 -1.</_>
        <_>
          14 0 8 1 2.</_></rects>
      <tilted>0</tilted></_>
    <_>
      <rects>
        <_>
          6 0 12 9 -1.</_>
        <_>
          6 3 12 3 3.</_></rects>
      <tilted>0</tilted></_>
    <_>
      <rects>
        <_>
          6 1 12 4 -1.</_>
        <_>
          6 1 6 2 2.</_>
        <_>
          12 3 6 2 2.</_></rects>
      <tilted>0</tilted></_>
    <_>
      <rects>
        <_>
          6 1 11 6 -1.</_>
        <_>
          6 3 11 2 3.</_></rects>
      <tilted>0</tilted></_>
    <_>
      <rects>
        <_>
          6 2 3 9 -1.</_>
        <_>
          6 5 3 3 3.</_></rects>
      <tilted>0</tilted></_>
    <_>
      <rects>
        <_>
          6 2 12 6 -1.</_>
        <_>
          6 4 12 2 3.</_></rects>
      <tilted>0</tilted></_>
    <_>
      <rects>
        <_>
          6 7 14 2 -1.</_>
        <_>
          6 7 7 1 2.</_>
        <_>
          13 8 7 1 2.</_></rects>
      <tilted>0</tilted></_>
    <_>
      <rects>
        <_>
          6 11 6 2 -1.</_>
        <_>
          8 11 2 2 3.</_></rects>
      <tilted>0</tilted></_>
    <_>
      <rects>
        <_>
          6 12 4 4 -1.</_>
        <_>
          6 12 2 2 2.</_>
        <_>
          8 14 2 2 2.</_></rects>
      <tilted>0</tilted></_>
    <_>
      <rects>
        <_>
          6 12 8 8 -1.</_>
        <_>
          10 12 4 8 2.</_></rects>
      <tilted>0</tilted></_>
    <_>
      <rects>
        <_>
          6 13 2 4 -1.</_>
        <_>
          6 13 1 2 2.</_>
        <_>
          7 15 1 2 2.</_></rects>
      <tilted>0</tilted></_>
    <_>
      <rects>
        <_>
          6 14 6 1 -1.</_>
        <_>
          8 14 2 1 3.</_></rects>
      <tilted>0</tilted></_>
    <_>
      <rects>
        <_>
          6 14 9 9 -1.</_>
        <_>
          6 17 9 3 3.</_></rects>
      <tilted>0</tilted></_>
    <_>
      <rects>
        <_>
          6 15 18 9 -1.</_>
        <_>
          6 18 18 3 3.</_></rects>
      <tilted>0</tilted></_>
    <_>
      <rects>
        <_>
          6 18 15 6 -1.</_>
        <_>
          6 20 15 2 3.</_></rects>
      <tilted>0</tilted></_>
    <_>
      <rects>
        <_>
          6 20 2 3 -1.</_>
        <_>
          6 21 2 1 3.</_></rects>
      <tilted>0</tilted></_>
    <_>
      <rects>
        <_>
          6 20 18 4 -1.</_>
        <_>
          6 22 18 2 2.</_></rects>
      <tilted>0</tilted></_>
    <_>
      <rects>
        <_>
          6 21 16 2 -1.</_>
        <_>
          6 21 8 1 2.</_>
        <_>
          14 22 8 1 2.</_></rects>
      <tilted>0</tilted></_>
    <_>
      <rects>
        <_>
          6 22 2 1 -1.</_>
        <_>
          7 22 1 1 2.</_></rects>
      <tilted>0</tilted></_>
    <_>
      <rects>
        <_>
          6 22 18 2 -1.</_>
        <_>
          6 22 9 1 2.</_>
        <_>
          15 23 9 1 2.</_></rects>
      <tilted>0</tilted></_>
    <_>
      <rects>
        <_>
          7 0 10 1 -1.</_>
        <_>
          12 0 5 1 2.</_></rects>
      <tilted>0</tilted></_>
    <_>
      <rects>
        <_>
          7 0 17 15 -1.</_>
        <_>
          7 5 17 5 3.</_></rects>
      <tilted>0</tilted></_>
    <_>
      <rects>
        <_>
          7 1 10 6 -1.</_>
        <_>
          7 3 10 2 3.</_></rects>
      <tilted>0</tilted></_>
    <_>
      <rects>
        <_>
          7 2 6 22 -1.</_>
        <_>
          7 2 3 11 2.</_>
        <_>
          10 13 3 11 2.</_></rects>
      <tilted>0</tilted></_>
    <_>
      <rects>
        <_>
          7 2 10 4 -1.</_>
        <_>
          7 2 5 2 2.</_>
        <_>
          12 4 5 2 2.</_></rects>
      <tilted>0</tilted></_>
    <_>
      <rects>
        <_>
          7 4 9 12 -1.</_>
        <_>
          10 4 3 12 3.</_></rects>
      <tilted>0</tilted></_>
    <_>
      <rects>
        <_>
          7 4 15 10 -1.</_>
        <_>
          12 4 5 10 3.</_></rects>
      <tilted>0</tilted></_>
    <_>
      <rects>
        <_>
          7 7 10 9 -1.</_>
        <_>
          7 10 10 3 3.</_></rects>
      <tilted>0</tilted></_>
    <_>
      <rects>
        <_>
          7 9 6 8 -1.</_>
        <_>
          9 9 2 8 3.</_></rects>
      <tilted>0</tilted></_>
    <_>
      <rects>
        <_>
          7 10 9 4 -1.</_>
        <_>
          10 10 3 4 3.</_></rects>
      <tilted>0</tilted></_>
    <_>
      <rects>
        <_>
          7 17 2 1 -1.</_>
        <_>
          8 17 1 1 2.</_></rects>
      <tilted>0</tilted></_>
    <_>
      <rects>
        <_>
          7 21 3 3 -1.</_>
        <_>
          8 21 1 3 3.</_></rects>
      <tilted>0</tilted></_>
    <_>
      <rects>
        <_>
          7 22 3 2 -1.</_>
        <_>
          8 22 1 2 3.</_></rects>
      <tilted>0</tilted></_>
    <_>
      <rects>
        <_>
          7 22 6 1 -1.</_>
        <_>
          10 22 3 1 2.</_></rects>
      <tilted>0</tilted></_>
    <_>
      <rects>
        <_>
          7 23 6 1 -1.</_>
        <_>
          10 23 3 1 2.</_></rects>
      <tilted>0</tilted></_>
    <_>
      <rects>
        <_>
          8 0 9 1 -1.</_>
        <_>
          11 0 3 1 3.</_></rects>
      <tilted>0</tilted></_>
    <_>
      <rects>
        <_>
          8 2 8 2 -1.</_>
        <_>
          8 2 4 1 2.</_>
        <_>
          12 3 4 1 2.</_></rects>
      <tilted>0</tilted></_>
    <_>
      <rects>
        <_>
          8 2 9 2 -1.</_>
        <_>
          8 3 9 1 2.</_></rects>
      <tilted>0</tilted></_>
    <_>
      <rects>
        <_>
          8 3 6 2 -1.</_>
        <_>
          8 3 3 1 2.</_>
        <_>
          11 4 3 1 2.</_></rects>
      <tilted>0</tilted></_>
    <_>
      <rects>
        <_>
          8 3 12 13 -1.</_>
        <_>
          12 3 4 13 3.</_></rects>
      <tilted>0</tilted></_>
    <_>
      <rects>
        <_>
          8 3 12 14 -1.</_>
        <_>
          12 3 4 14 3.</_></rects>
      <tilted>0</tilted></_>
    <_>
      <rects>
        <_>
          8 3 12 17 -1.</_>
        <_>
          12 3 4 17 3.</_></rects>
      <tilted>0</tilted></_>
    <_>
      <rects>
        <_>
          8 3 15 15 -1.</_>
        <_>
          8 8 15 5 3.</_></rects>
      <tilted>0</tilted></_>
    <_>
      <rects>
        <_>
          8 4 6 13 -1.</_>
        <_>
          10 4 2 13 3.</_></rects>
      <tilted>0</tilted></_>
    <_>
      <rects>
        <_>
          8 4 7 3 -1.</_>
        <_>
          8 5 7 1 3.</_></rects>
      <tilted>0</tilted></_>
    <_>
      <rects>
        <_>
          8 4 8 6 -1.</_>
        <_>
          8 6 8 2 3.</_></rects>
      <tilted>0</tilted></_>
    <_>
      <rects>
        <_>
          8 5 13 9 -1.</_>
        <_>
          8 8 13 3 3.</_></rects>
      <tilted>0</tilted></_>
    <_>
      <rects>
        <_>
          8 6 6 13 -1.</_>
        <_>
          11 6 3 13 2.</_></rects>
      <tilted>0</tilted></_>
    <_>
      <rects>
        <_>
          8 7 7 4 -1.</_>
        <_>
          8 9 7 2 2.</_></rects>
      <tilted>0</tilted></_>
    <_>
      <rects>
        <_>
          8 8 13 9 -1.</_>
        <_>
          8 11 13 3 3.</_></rects>
      <tilted>0</tilted></_>
    <_>
      <rects>
        <_>
          8 10 2 8 -1.</_>
        <_>
          8 10 1 4 2.</_>
        <_>
          9 14 1 4 2.</_></rects>
      <tilted>0</tilted></_>
    <_>
      <rects>
        <_>
          8 10 12 4 -1.</_>
        <_>
          12 10 4 4 3.</_></rects>
      <tilted>0</tilted></_>
    <_>
      <rects>
        <_>
          8 12 2 4 -1.</_>
        <_>
          8 12 1 2 2.</_>
        <_>
          9 14 1 2 2.</_></rects>
      <tilted>0</tilted></_>
    <_>
      <rects>
        <_>
          8 12 6 3 -1.</_>
        <_>
          11 12 3 3 2.</_></rects>
      <tilted>0</tilted></_>
    <_>
      <rects>
        <_>
          8 14 2 2 -1.</_>
        <_>
          8 14 1 1 2.</_>
        <_>
          9 15 1 1 2.</_></rects>
      <tilted>0</tilted></_>
    <_>
      <rects>
        <_>
          8 14 2 4 -1.</_>
        <_>
          8 14 1 2 2.</_>
        <_>
          9 16 1 2 2.</_></rects>
      <tilted>0</tilted></_>
    <_>
      <rects>
        <_>
